3000 100
<pad> -0.210495 -0.261123 0.020269 -0.179886 0.430397 -0.131924 0.118659 0.041014 -0.021089 -0.258364 0.195630 -0.250693 0.117027 -0.231311 0.199385 0.586719 0.019016 -0.085670 -1.031881 0.393423 -0.018981 0.245063 -0.202773 0.132793 -0.011957 0.250479 0.022243 0.448390 -0.254630 -0.072378 -0.331055 -0.192675 0.141398 0.132332 0.098636 0.107922 -0.087905 0.128121 -0.122275 0.174158 0.054349 0.445947 -0.001399 0.024021 -0.152174 0.271098 0.081437 -0.132328 -0.264938 0.057196 0.305802 0.244272 0.110136 0.254220 -0.557074 -0.363770 0.201364 -0.494441 -0.001761 -0.173800 -0.087706 -0.136378 -0.171279 0.167782 -0.067852 0.139413 -0.200170 -0.502042 -0.475131 -0.260735 -0.003044 0.019826 0.147531 0.368148 0.494189 0.430224 0.494790 0.147374 -0.095313 -0.007090 -0.081150 0.020109 -0.239399 0.131677 0.005517 0.207263 0.025634 0.717895 -0.242358 0.025808 0.034533 0.037498 0.244403 -0.202064 -0.168028 0.251241 0.182810 -0.598074 -0.144143 0.362772
<start> 0.539911 0.423158 -0.362918 0.210873 -0.105233 -0.180298 0.477637 -0.064600 0.103482 0.086884 -0.308124 0.187836 -0.109048 0.182483 0.195235 -0.442158 0.009616 0.051828 -0.209411 -0.526381 -0.135819 0.129239 -0.273088 -0.363421 -0.017890 0.225970 -0.120716 0.188380 0.087977 -0.136665 -0.070358 -0.087106 0.106762 -0.064922 0.278718 -0.447294 0.215278 -0.209897 -0.283187 -0.329005 0.080549 0.068969 -0.011765 -0.396787 0.147160 -0.253956 -0.133913 0.283158 0.143112 0.023061 0.328786 0.025996 0.240619 0.012651 0.053624 0.232200 -0.079857 -0.057874 0.038883 0.215471 0.088797 -0.065857 -0.053642 0.155640 -0.260690 -0.022677 0.014830 -0.053002 -0.173976 0.001398 0.310355 -0.289303 -0.333239 -0.097867 -0.082058 0.262596 0.200104 0.239159 -0.181432 0.032793 0.027113 0.292112 -0.134342 -0.016921 -0.137590 0.247553 0.364788 0.502274 0.025188 0.320502 0.223776 -0.406082 -0.132151 -0.341242 0.118077 -0.171451 0.206848 -0.248797 -0.168822 -0.007148
<end> 0.382268 0.358387 0.232143 -0.040080 -0.172924 0.059215 0.007967 -0.143176 0.174687 0.719690 -0.250554 0.230781 0.519577 0.923762 -0.674690 -0.122028 0.004123 0.387821 0.136216 -0.441521 0.588127 -0.337923 0.483913 -0.773607 0.147584 -0.498003 -0.111447 -0.136964 0.184122 -0.234716 0.844204 0.042880 0.486739 -0.560745 0.248865 -0.950857 0.168651 -0.271321 0.275309 -0.035928 -0.017626 -0.397076 -0.033039 0.237919 0.082454 -0.139864 -0.447324 -0.317849 0.485184 0.249001 -0.493552 -0.593218 0.082159 -0.521644 0.971947 0.864534 -0.224363 -0.094734 -0.035726 0.283458 0.572385 0.010932 0.419008 -0.737621 0.103039 -0.244678 0.556813 0.890719 0.363121 0.527106 0.211580 0.455231 -0.370370 -0.568061 -0.540429 -0.503614 -0.663979 -0.209827 0.002574 -0.000568 0.102289 0.044243 -0.153792 -0.514926 0.387312 0.206474 0.125853 0.279214 0.150975 0.000182 0.030054 -0.088868 -0.911900 0.365880 0.551947 -0.321251 -0.565336 0.591599 -0.329671 -0.372523
<unk> -0.002273 0.171309 -0.130034 0.019371 -0.017729 -0.030971 -0.042664 0.035949 0.008027 0.040468 0.086146 0.083787 -0.253483 -0.468982 0.146160 0.044580 0.016732 -0.085462 0.238108 0.568111 -0.023830 0.011946 -0.009063 -0.022386 0.056624 -0.052070 -0.008317 -0.060468 0.092952 -0.032562 0.056136 0.282136 -0.567147 0.187042 -0.044429 -0.132645 0.079932 -0.215273 0.004914 0.035034 0.151664 -0.054405 0.283241 -0.151339 -0.105853 0.034824 -0.064245 0.229112 -0.041520 -0.136776 0.008826 -0.137096 0.037369 -0.059032 0.055244 0.050903 0.024321 -0.130479 0.328384 0.061276 -0.090044 0.146385 -0.027371 0.004975 -0.052594 -0.091341 -0.165061 0.069108 -0.242479 0.124658 0.089115 -0.041953 0.072061 0.038873 0.013430 -0.224330 -0.132128 0.046643 0.053619 -0.077568 0.067948 -0.150842 0.094623 -0.091634 -0.260714 -0.030276 -0.045919 -0.408700 -0.085748 -0.247901 -0.119563 -0.058110 -0.075362 0.017048 -0.144184 0.019332 0.004848 0.431075 0.196867 -0.034553
the -0.231616 0.083492 -0.061852 0.232648 -0.536756 0.018171 0.397306 -0.057156 0.003739 0.020250 -0.141481 -0.128775 0.692117 0.749889 -0.448125 2.975501 -0.171680 0.022395 -0.826707 -0.906257 -0.202910 0.277750 0.255404 -0.223994 0.131165 -0.289105 0.311630 0.082769 0.383506 -0.142755 -0.480121 -0.738189 0.437939 -0.060752 -0.587952 0.290609 0.034919 0.388575 0.037937 -0.125676 -0.056551 0.139773 -1.088328 0.056540 0.182784 -0.239975 0.289583 -0.581091 0.333167 -0.173830 -0.121898 -0.183260 0.415019 0.211030 0.206328 0.178375 0.124713 -0.175628 -0.261846 0.183434 0.663796 -0.168063 0.035679 -0.363020 -0.082453 -0.262733 -0.121893 -0.149137 0.882046 -0.752908 -0.125591 -0.113438 0.485815 0.086321 -0.065161 0.759292 -0.009239 -0.251107 0.152516 -0.096222 -0.306191 -0.306674 -0.094597 -0.195890 0.300085 0.684746 -0.039369 0.014508 0.025941 0.381807 0.276416 0.463418 -0.181616 -0.037302 0.113014 -0.051951 -0.294689 -0.222097 -0.547590 0.286555
and 0.404067 0.050111 0.219718 0.163396 -0.139692 -0.055880 0.161462 -0.489970 -0.213090 0.182100 -0.053775 -0.311710 0.282370 0.710739 0.062497 1.327938 -0.053791 0.089722 -0.260333 -0.436559 -0.111916 0.759875 -0.269507 -0.063039 -0.038465 -0.117516 -0.326952 0.380263 0.186027 0.112907 0.033245 -0.281079 1.052128 -0.212607 0.215783 -0.215689 0.189134 0.150026 0.369469 -0.115016 -0.135187 -0.011354 -0.253189 -0.457848 -0.186435 -0.109853 -0.402329 0.284028 -0.093135 0.028521 0.368714 -0.241895 0.196003 0.131689 -0.007648 0.419268 0.009299 -0.566163 -0.068268 0.204681 0.693717 -0.167811 -0.157382 0.136985 0.036483 0.271474 -0.057848 -0.159346 -0.069023 0.152156 -0.103719 0.121094 -0.434055 0.354084 -0.256689 0.138152 0.143850 -0.019566 -0.301424 0.171606 -0.426639 0.293895 -0.196750 -0.092051 -0.030432 0.068832 0.119041 1.050646 0.192543 0.445408 0.420610 -0.000608 0.117406 0.226344 0.019541 -0.513737 -0.151511 -0.920986 -0.147829 0.222415
of 0.067510 -0.832416 0.347635 0.178100 0.116860 -0.410428 -0.297949 -0.306871 -0.486708 -0.319860 -0.236926 -0.242088 -0.027312 0.565717 0.376012 0.771958 -0.307605 -0.133531 -0.266098 -0.477054 0.747741 0.093389 -0.087892 0.036830 0.201345 0.110441 -0.563547 0.164278 0.246421 -0.140135 0.602661 -0.115894 0.818448 0.213501 0.061010 -0.536264 -0.449568 -0.475802 -0.156006 0.004887 0.298623 0.047050 -0.287299 0.275597 -0.158469 -0.146714 -0.073444 0.075823 -0.006911 1.313545 0.546135 -0.126785 -0.340673 -0.145362 -0.080910 0.148228 -0.366227 -0.778549 0.230913 0.023637 -0.118073 0.031004 0.079908 0.114810 0.087908 0.589660 -0.101213 -0.466675 -0.319586 -0.113527 0.005866 0.084406 -0.043193 -0.175176 0.028966 0.056363 -0.281186 -0.209270 -0.077624 0.227609 -0.429152 0.009428 -0.349497 0.573534 -0.182470 -3.005550 0.397016 0.706227 0.158183 0.174345 -0.162335 -0.539709 -0.059739 -0.510384 0.781618 0.397014 0.295953 -0.371364 -0.215588 0.186713
to 0.191040 -0.539444 0.493364 0.301861 -0.017157 -0.368412 0.320611 -0.307284 -0.266263 0.034492 0.185743 0.510087 0.170465 0.262915 0.340776 0.186972 -0.164589 -0.120828 -0.667963 -2.811361 0.805956 0.354831 0.109506 -0.067323 -0.186040 -0.091349 0.003062 1.047102 0.222717 0.228521 0.660116 -0.264904 0.644308 0.059475 -0.057796 -0.400116 -0.301317 0.120857 0.092500 -0.150281 0.307364 -0.401783 -0.830215 -0.437020 -0.283932 0.419137 -0.429750 -1.022799 -0.153873 -0.140155 -0.428929 0.068704 0.164117 0.425257 -0.362577 -0.002287 0.024280 -0.359434 0.034726 -0.664429 0.049147 -0.289548 0.172148 -0.331067 0.161636 -0.997122 0.101153 0.434150 -0.402012 0.110172 0.150103 0.330884 0.180975 -0.025321 -0.174314 -0.202567 -0.370966 -0.336409 -0.425411 -0.330978 -0.065390 0.546948 -0.346735 0.377552 -0.287278 -0.690338 0.173745 0.779246 -0.194358 0.553592 0.707319 -0.226469 0.187775 -0.381255 -0.385146 -1.092909 0.213539 -1.113469 0.015125 0.376803
a -0.565106 0.463576 0.046604 -0.166962 1.012807 -0.294331 -0.080462 -0.539846 -0.265788 0.105259 -0.097139 0.144345 1.191177 0.596352 -0.188598 2.299333 -0.081133 -0.215336 -0.245699 -0.238164 0.024197 0.466338 0.179553 -0.206036 0.512320 -0.566556 -0.991711 0.918233 0.724468 -0.485113 -0.094862 -0.684038 0.791230 -0.326874 -0.186406 0.525077 -0.452048 0.804294 -0.286699 -0.518001 -0.174542 0.223019 -0.867546 0.142943 -0.063959 -0.357222 -0.026101 -0.268234 0.565222 -0.045175 0.236479 -0.295715 0.043857 0.438663 0.607846 0.024482 -0.141717 -0.017981 -0.609677 -0.052409 0.971002 -0.559227 0.158013 -0.378142 -0.422670 -0.652659 0.001178 -0.383240 0.788532 -0.346063 -0.019476 0.050077 0.401867 0.275110 -0.193368 0.776512 0.089171 0.136776 0.289881 -0.556775 0.206880 -0.696711 0.288522 -0.181820 0.538620 -0.088498 -0.134009 -0.029770 0.166991 0.227198 0.500667 1.156541 0.201898 0.105673 0.267611 -0.550120 0.081820 -0.197274 -0.958491 0.498634
in 0.040195 -0.456231 0.599416 0.143551 -0.117750 0.157032 0.864097 0.065781 0.008234 -0.331120 -0.065641 0.085071 -0.193118 0.653674 0.567520 1.389700 -0.247662 -0.421307 0.203341 -0.280250 0.673478 -0.024553 0.093036 0.441184 0.162506 -0.130271 -0.505245 0.650478 -0.225462 -0.051184 0.186258 -0.340980 0.711146 -0.077967 -0.247367 -0.114128 0.060682 0.186333 -0.234108 0.295402 -0.170759 0.356134 0.466589 -0.046416 0.370882 0.036034 0.086874 -0.352393 -0.024644 0.552670 -0.336010 -0.495202 -0.080368 -0.388489 -0.215002 0.048969 -0.411791 -0.908284 0.133951 0.083162 -0.659408 0.157678 -0.021786 -0.539942 -0.159229 0.228842 -0.529093 -0.340908 -0.024192 -0.113367 -0.261258 0.718717 0.166980 0.014485 -0.146607 -0.289872 -0.329443 -0.103246 -0.236161 1.027354 1.007648 -0.104013 -0.913322 -0.036773 -0.732692 -1.030845 -0.074102 1.217699 0.014564 0.551542 0.482895 -0.249359 0.536045 -0.184257 0.182548 -0.373765 -0.128788 -0.878642 -0.471647 0.486937
i -0.083215 -0.303958 -0.327248 -0.086880 -0.402896 -0.281369 -0.461707 -0.309151 -0.174206 -0.138364 -0.114123 -0.207087 0.081197 -0.148781 -0.715824 -1.125559 -0.074381 -0.267389 0.189887 -1.605770 -0.153199 0.691891 -0.030956 0.448983 0.397676 -0.126459 0.060094 -0.107938 -0.098541 -0.539849 -0.048269 -0.204442 0.115122 -0.032318 0.180096 -0.094983 -0.378541 0.386764 0.212658 -0.095220 -0.433850 0.414168 -0.726188 0.595456 0.200181 0.140504 0.167033 -0.865715 0.012309 -0.395923 -0.144745 -0.029723 0.756339 -0.477036 -0.043332 0.196636 -0.517043 -0.008979 -1.248370 0.033809 0.608394 -0.073487 -0.414452 -0.168537 -0.043923 0.293910 0.001796 0.432678 -0.255320 0.248827 -0.274467 0.591397 -0.379255 0.327730 -0.100900 0.157061 0.203249 -0.196100 -0.061739 -0.115228 0.098529 -0.565533 -0.154600 -0.020116 -0.408594 0.509805 -0.309133 0.419488 0.181088 0.138374 -0.567425 0.281218 0.283631 -0.404043 0.663627 -0.775281 0.490940 0.351693 0.474305 -0.116431
he -0.153250 0.075579 -0.347085 0.688852 -0.668999 0.006963 -0.789718 -0.101206 0.087464 -0.028491 -0.014465 -0.216538 0.025304 0.119686 -0.026779 0.054345 -0.484621 0.107205 0.091945 -0.670642 0.039107 0.075383 -0.102782 0.504871 0.363019 -0.274696 -0.087921 -0.460010 -0.014925 -0.061514 -0.091848 0.011160 0.085584 0.090028 0.395467 -0.717474 -0.662884 0.299665 0.174863 -0.123325 -0.041944 -0.104148 -0.395653 -0.014185 -0.026418 0.124345 -0.155263 -0.297591 0.096366 -0.820869 -0.284119 -0.145148 0.545129 -0.097069 -0.219096 0.038943 0.090169 -0.141789 -1.716152 0.072107 0.316130 -0.348431 -0.368846 -0.040666 0.171869 -0.021517 -0.067250 0.144772 0.187808 0.452912 0.097824 0.316955 -0.287446 -0.145992 -0.122333 0.518115 0.339974 0.217075 0.383045 0.311508 0.028080 -0.263905 0.540500 -0.390682 -0.379935 0.441327 -0.299978 0.789114 -0.327955 0.426249 -0.519756 0.440942 0.686258 0.165557 1.090924 -0.473660 -0.004304 0.474997 0.079926 -0.606982
that 0.366771 0.451047 -0.381573 0.172064 -0.136830 -0.147224 -0.523672 -0.100174 -0.221470 0.064489 -0.356213 0.184527 0.092419 0.672680 -0.379364 -0.014866 0.223425 0.003406 -0.530772 0.084100 0.391546 0.679969 -0.041687 0.488989 0.145298 -0.275606 0.103024 0.218962 -0.125419 0.074490 -0.022378 -0.062750 0.504308 -0.858634 -0.287874 -0.144413 0.165833 0.361513 -0.173893 -0.214721 0.231817 0.037508 -0.478683 -0.245201 -0.104700 0.338014 0.428449 -0.674762 0.756284 -0.095831 0.558994 0.139574 -0.076387 0.379157 -0.077886 0.056435 -0.095009 0.290468 -0.375591 0.215103 0.523847 -0.128584 0.130966 -0.052485 -0.538805 0.302588 -0.249660 -0.254403 0.530366 -0.522802 0.168991 0.168742 0.164173 -0.045672 -0.366227 0.457273 -0.218478 -0.055541 -0.380085 0.012107 0.100136 0.724532 -0.460044 -0.196852 0.110016 -0.704236 0.399864 0.868949 0.192690 0.151799 0.675132 -0.338433 -0.059030 -0.230088 -0.204097 -0.592026 -0.035304 0.133307 -0.095999 0.085804
his -0.165288 -0.601383 0.156248 0.395197 0.649830 0.086112 0.015139 0.131974 -0.064220 0.426757 -0.737626 0.539403 2.256945 0.340477 -0.715544 2.265352 -0.171071 0.298975 0.131859 -0.296598 -0.383707 0.615874 0.210169 0.476217 0.254789 0.372027 0.313782 0.394861 0.432419 -0.447858 -0.485102 -0.470231 0.143656 0.226097 0.117157 0.264344 0.173667 -0.072923 0.415143 -0.229868 0.060763 -0.254610 -0.581593 -0.165559 -0.085060 0.287871 0.324448 -0.495181 0.486489 0.375840 -0.162436 0.267046 0.310256 0.488423 0.289659 0.013946 0.011885 -0.200678 -0.977139 -0.286780 0.265151 -0.525587 0.607784 0.029407 0.003616 -0.205593 -0.468279 -0.289986 0.783417 -0.520197 -0.348537 -0.014382 -0.337253 0.307003 -0.092564 0.709321 -0.520903 -0.051468 0.229665 0.375595 -1.218636 -0.413024 0.404903 -0.123499 0.347368 0.358281 0.308004 1.304969 0.167200 0.526079 0.419250 0.223344 0.358189 -0.198096 0.181125 0.459792 0.042588 0.483402 -0.078132 0.375491
was -0.652582 -0.175202 -0.164097 0.130495 0.696237 -0.195528 0.339591 0.089462 0.048377 -0.038604 -0.565757 0.224001 -0.614918 0.183242 0.452621 0.133234 0.305992 0.228451 0.425807 -0.616686 -0.229895 -0.604794 -0.084401 -0.508384 -0.526384 0.239699 -0.916933 -0.390113 0.208014 -0.072398 -0.320871 -0.445297 -0.056166 0.049604 -0.518259 -0.517602 0.405851 0.260415 0.204200 -0.323764 -0.396175 -0.058117 -0.014994 -0.311711 -0.544994 0.733881 0.121041 0.198012 -0.886015 0.310127 -0.260120 -0.403161 -0.635425 -0.695228 0.208722 -0.870359 -0.307827 -0.343520 0.200602 0.256966 0.504599 -0.127248 0.383664 -0.121615 0.272601 1.134510 0.266744 -0.071338 -0.332791 -0.361113 -0.232623 -0.030342 0.204761 0.232806 1.311180 -0.157291 -0.212742 -0.339146 0.480500 -0.070212 -0.389933 -0.808920 0.262649 -0.154981 1.047471 0.232919 0.201688 -0.381513 0.364386 0.450942 -0.067489 -0.037261 -0.165701 -0.059271 -0.044608 0.560807 -0.041226 -0.724356 -0.223163 0.676243
it -0.122699 0.191800 0.275831 0.564380 -0.266426 -0.444060 -0.595019 0.266157 0.225940 0.299339 -0.615956 0.275617 0.277605 0.358388 0.117494 -0.612273 0.142429 0.171798 0.304640 -0.273072 0.058419 0.595971 0.239166 0.687115 0.257761 0.206280 -0.060734 -0.280573 -0.254652 -0.050082 -0.493887 0.051720 0.301331 0.319835 0.092460 0.047808 -0.610559 -0.416771 -0.537657 0.042711 -0.389516 -0.115222 -0.452598 -0.215929 0.221093 -0.134516 -0.576109 -0.134994 0.286601 -0.668870 -0.131131 0.118934 0.393365 -0.038390 0.010392 0.062136 0.190820 0.734362 -0.573590 -0.428161 0.209539 -0.261109 -0.483671 0.053205 0.087262 -0.593966 0.184349 -0.034596 -0.263941 -0.456095 0.098131 0.037007 0.036919 -0.262573 -0.381422 0.627512 -0.080816 0.071688 -0.067833 -0.179691 0.326623 -0.178333 0.216073 -0.515416 -0.140053 0.510949 -0.148222 -0.120564 -0.156077 -0.238721 -0.240857 0.331280 -0.261913 0.345603 0.174744 -0.029390 -0.387496 0.431794 -0.018124 -0.436241
you -0.174061 -0.802563 -0.427169 -0.373442 -0.095774 -0.121424 -0.146573 -0.668871 0.455421 0.472046 0.213821 -0.459119 0.316392 0.484495 0.250424 -1.639653 -0.133042 0.478039 -0.519850 -1.625751 -0.468855 -0.318952 -0.270755 0.113340 0.720928 -0.048500 -0.139881 0.193329 -0.010027 -0.152372 0.001276 -0.638127 -0.087595 0.196268 -0.010906 -0.018179 0.004685 -0.418087 0.145589 -0.215801 0.231744 0.179821 -0.648607 0.316227 -0.336515 0.007121 0.118830 -0.343584 0.072754 -0.650702 0.208428 -0.208172 0.221460 -0.210763 0.017272 0.358864 -0.299558 0.595522 -1.431243 -0.240961 0.452847 -0.536277 -0.384104 -0.328511 0.470523 0.051378 -0.145737 0.235681 -0.149302 -0.345935 -0.621759 0.475760 -0.259439 0.285723 -0.267896 -0.281271 0.172136 0.361881 0.201021 0.045288 0.188409 -0.418162 0.096696 0.053314 -0.089630 0.254898 -0.313494 -0.271225 0.446980 0.029929 0.067488 0.339725 0.398058 -0.199805 -0.325496 -0.103277 0.141936 0.717114 0.202764 0.136907
with -0.002592 -0.520792 0.425152 0.024741 0.495817 -0.155213 0.080061 -0.157445 -0.935556 -0.229268 -0.258536 -0.026998 -0.215485 0.694275 0.096980 1.266727 -0.284525 -0.414590 -0.656465 -0.079875 1.442749 0.085161 -0.207681 -0.653052 -0.532140 0.316163 -1.160348 0.554282 0.077757 0.546201 0.605591 -0.155897 0.832256 -0.123500 0.363177 -0.043538 0.517433 -0.334017 0.263506 -0.112788 -0.299533 -0.599350 0.186524 -0.371176 -0.510572 -0.506795 0.920517 -0.484849 -0.426808 0.008981 -0.477420 0.162459 0.427739 -0.287629 0.178116 0.179399 -0.410652 -0.621034 0.265093 0.226819 0.082241 0.141482 0.209189 -0.050813 0.274409 0.087594 0.130843 -0.094866 -0.134314 -0.200326 -0.409294 -0.648008 -0.084934 -0.130694 0.151547 0.394743 -0.097231 -0.208079 -0.318999 0.705213 0.012714 -0.070451 -0.991211 -0.446164 -0.270201 0.202322 -0.077055 1.119478 -0.108320 0.126462 0.006967 -0.764589 0.357276 0.261803 -0.069026 0.405520 0.362372 -0.749228 0.638193 0.186270
is -0.632527 -0.113920 0.178277 -0.188736 0.498663 0.248346 0.102759 0.232300 -0.164379 -0.132728 -0.334463 0.448602 -0.673135 0.349641 0.263624 -1.021922 0.272993 -0.201141 -0.295681 -0.784386 -0.487862 -0.369255 -0.210664 -0.270154 -0.787172 0.270690 -0.577841 0.052056 0.384796 0.028905 -0.598674 -0.692819 0.103308 0.391127 -0.033510 -0.391233 0.262727 0.340689 0.078407 -0.228129 0.052077 0.136868 0.090158 -0.372930 -0.484468 0.438375 0.623976 0.221190 -1.027659 1.086261 0.136245 -0.682041 -0.060066 -0.936224 0.330450 -0.496008 -0.694001 -0.873206 1.038681 0.152186 0.188275 -0.267217 0.442876 -0.078729 0.751007 0.887522 -0.088718 0.009596 -0.235047 -0.056541 -0.551940 -0.249253 0.781564 0.076465 0.730415 -0.360552 -0.066928 -0.431382 0.225734 -0.121599 -0.121997 -0.655464 0.245025 -0.485220 1.042889 -1.082125 -0.006647 -0.375377 -0.018903 0.340668 0.109245 -0.091360 0.425098 0.140782 -0.170087 0.050903 0.006131 0.014045 -0.446584 0.586455
as 0.670742 0.256014 0.908723 -0.365713 0.323362 -0.151331 -0.066438 0.064786 -0.198702 -0.498472 -0.387650 -0.081983 -0.452762 0.745884 -0.313462 0.109186 -0.171700 -0.069912 -0.018387 0.314790 0.082997 0.311127 -0.464788 0.219057 0.320915 -0.291673 0.115381 0.802741 0.173531 0.159233 0.025400 0.094881 -0.093184 -0.243232 0.013710 -0.307230 0.588144 -0.170245 -0.233095 -0.289635 -0.051311 -0.425423 0.019099 0.158904 -0.060445 0.023067 -0.105122 -0.170912 0.249817 -0.187642 -0.115149 0.354610 -0.356309 -0.264701 -0.241925 0.309701 0.323429 0.130172 0.732736 -0.337949 0.191651 0.426729 -0.217337 0.297725 0.134436 0.620984 0.276726 -0.232064 0.132047 -0.270026 -0.473612 -0.423032 -0.076581 -0.369900 -0.144310 0.630429 -0.094014 0.229752 -0.138957 -0.299979 -0.097098 0.118910 -0.250257 -0.093507 -0.440532 0.028407 -0.188223 0.935192 0.046414 0.226695 0.442698 0.205725 0.081311 -0.214340 -0.212204 -0.250262 -0.200468 0.128215 -0.724592 0.001150
not 0.133601 0.506655 0.113599 0.224349 -0.397422 -0.629965 -0.184634 -0.210555 0.209122 0.140584 -0.129444 -0.583501 0.466472 0.409842 0.651099 -1.080620 -0.040539 -0.642317 0.184332 -0.236784 0.060042 0.305271 0.622013 0.011686 0.294673 0.336768 0.057785 -0.036044 -0.508113 0.366456 0.276054 -0.558148 0.197430 -0.100416 -0.146063 -0.145613 0.089640 -0.016745 0.615147 -0.292939 0.170094 0.118744 -1.208448 0.720512 -0.245324 -0.244836 0.309169 -0.323445 0.183000 -0.602197 -0.508393 0.401204 -0.510429 0.739044 0.548328 0.104290 0.078310 -0.324240 0.276790 -0.065157 -0.479782 0.308686 -0.279802 -0.084903 0.250812 -0.253458 0.142348 0.448710 0.150839 0.040113 -0.042172 -0.223076 0.422818 0.981681 0.647985 -0.034158 -0.089360 0.229598 -0.444530 0.093648 -0.403812 0.016471 -0.699262 0.129482 -0.716833 -0.661300 0.668279 0.892737 0.177535 -0.065154 0.301884 0.663488 0.480490 -0.150571 -0.270912 0.093030 0.060590 0.715936 -0.275859 -0.596228
for 0.592080 -0.407158 0.729111 -0.332249 0.320014 0.430215 0.445440 -0.712323 -0.107362 -0.630467 -0.102255 -0.231319 -0.088517 0.662293 0.090036 -0.521958 -0.538271 0.562293 -0.062319 -0.571382 0.336171 0.283515 0.170758 -0.904228 -0.569024 0.287764 -0.240419 -0.586266 -0.458419 -0.479925 0.327614 0.258487 0.534950 -0.261730 0.048272 -0.265902 -0.160561 0.515524 -0.196146 -0.128608 -0.198961 0.197744 -0.762833 -0.996312 -0.321310 0.325646 0.027038 -0.237515 -0.440146 0.088564 0.052216 0.604111 -0.085100 0.157715 -0.040455 0.337292 -0.194208 -0.449478 0.189350 0.170468 -0.033291 0.226357 0.340849 -0.192036 -0.209853 -0.336112 0.114567 -0.599300 -0.302934 -0.364871 0.054220 0.016727 -0.464167 0.126998 -0.160260 -0.053477 -0.265904 -0.355796 -0.361986 0.118983 0.459246 0.339900 -0.656060 0.260591 -0.440860 -0.644760 -0.233370 0.529776 -0.190373 0.746088 0.501180 -0.460082 0.156495 -0.392858 0.367108 0.558465 0.130287 -0.275004 -0.305759 0.572826
had 0.195309 -0.536013 0.230778 0.025743 0.444239 0.818619 0.508670 0.478897 -0.334398 0.149464 -0.192255 0.022481 0.454027 -0.362714 0.066350 0.038132 0.221926 0.474138 0.430173 -0.711688 -0.200143 0.124663 -0.204272 0.093790 -0.636120 0.732827 -0.050751 -0.313424 0.432560 0.734806 0.250165 -0.820629 0.623073 0.937489 -0.093837 -0.693705 0.218087 0.445830 -0.219308 -0.604376 -0.496694 -0.080345 1.195127 -0.190043 -0.099904 0.145193 -0.736944 -0.140242 0.366454 0.155800 -0.293974 -0.668390 -0.006084 -0.580509 0.555116 -0.300455 -0.182569 -0.015385 0.549335 0.245860 0.885654 0.733238 0.630227 0.303511 0.022759 0.865442 0.435034 -0.693502 -0.213042 -0.985706 -0.085707 0.427941 0.738984 -0.318016 1.092406 -0.128182 -0.481923 0.161237 0.408003 -0.208014 0.182394 -0.464745 -0.929635 -0.632097 0.776655 -0.192262 -0.373254 -0.000099 -0.135695 1.079630 0.116838 -0.216823 -0.288611 -0.637889 -0.756266 0.496479 0.568801 -0.970824 -0.067989 -0.120042
but 0.302990 -0.004532 -0.190875 -0.063320 0.223630 -0.251024 0.199465 0.112933 -0.415870 0.119884 0.002549 -0.546665 -0.245325 0.902966 -0.208194 -0.303802 0.496274 0.303028 -0.364526 -0.497019 -0.100027 0.449069 -0.698735 -0.355711 -0.285970 0.194584 -0.117581 0.012591 0.488257 0.004676 0.015615 -0.069377 0.709799 -0.504499 0.127313 -0.225695 0.106798 0.077368 0.101612 0.040156 0.077210 0.133538 0.157604 -0.691743 0.207621 -0.213099 -0.595094 -0.104027 0.292286 0.063000 0.316469 -0.139486 0.276335 0.018283 -0.412265 0.088584 -0.115179 -0.670587 -0.206209 0.525653 0.073184 0.104086 -0.166117 -0.015353 -0.405174 -0.036109 0.054394 -0.060585 0.260222 -0.013558 0.061578 -0.013126 -0.438745 -0.103655 -0.361484 0.332724 0.102093 -0.148421 -0.387507 -0.143345 0.001992 0.391689 -0.061956 -0.313683 -0.043425 -0.079680 0.476935 0.594081 -0.145486 0.137870 0.677880 -0.250597 -0.118296 -0.151024 0.252996 -0.101310 0.040560 -0.324902 -0.205981 0.479010
at -0.757423 0.193114 1.074189 -0.710400 -0.181541 0.399469 -0.023993 -0.445330 -0.684390 0.066745 -1.014409 0.312407 -0.355003 0.126150 0.309245 0.980943 -0.575730 -0.005494 0.334818 -0.695464 0.909279 0.407384 -0.180932 -1.002856 0.245386 0.179867 0.148338 -0.109246 0.204304 -0.115171 0.641076 -0.129621 0.134746 -0.157649 1.037784 -0.184383 -0.195105 -0.157873 0.471722 0.126649 -0.042716 0.366362 -0.884660 0.002835 0.035606 0.824920 0.075184 -0.402694 0.155565 0.185481 -0.208393 0.066737 0.106471 -0.719012 0.085273 0.241957 0.482411 0.584241 -0.670776 0.238245 -0.091859 -0.128614 -0.590900 -0.258527 -0.445568 0.443626 0.236994 -0.270557 -0.525287 -0.522874 -0.405673 0.017680 0.591194 -0.080801 0.176582 0.067359 0.101377 0.156705 0.469577 0.251534 1.048670 1.124008 -0.272349 0.453231 -0.646841 0.115839 0.823144 0.344418 0.188983 -0.084554 0.586809 -1.196110 0.584030 -0.313501 0.152579 0.549629 0.148288 -1.745654 -0.376879 0.191189
be -0.080245 1.119634 -0.117179 -0.101245 -0.312215 0.461435 -0.415486 0.733429 0.390628 -0.488030 0.306613 0.085485 -0.622081 1.280631 -0.190662 -1.115461 0.291497 0.104178 0.425207 0.749529 -1.279288 0.637094 0.365210 0.504406 0.097178 -0.274861 -0.913620 -1.593127 0.159561 0.441664 -1.015087 0.058698 -1.090403 0.493833 -0.085132 -0.147023 -0.231519 -0.600562 0.137038 -0.107994 -0.064745 0.091063 0.705158 -0.445333 -0.191426 0.214593 0.882919 -1.010986 -0.168214 -0.261206 0.129983 -0.175185 -0.598917 -0.151768 0.386067 0.705747 -0.613241 -0.956737 -0.593785 1.363119 1.130568 -0.470473 -0.110752 0.260555 -0.570519 0.952005 0.176005 -0.201701 0.117440 -0.172421 -0.752992 0.098521 -0.206681 -0.327826 0.756373 0.364638 -0.251994 0.612256 0.609046 0.250707 -0.904522 -0.547603 0.315541 -0.409497 0.282452 -0.075321 -0.113759 -0.406148 0.756357 0.551905 -0.265979 0.525012 0.490599 0.418744 0.678317 0.993628 -0.291459 -0.095344 -0.484067 -0.071084
on 0.153498 0.100742 -0.037499 0.167736 0.269504 0.899727 0.075701 -0.299167 -0.396413 -0.310024 0.475035 -0.093965 0.731398 0.933355 0.750724 2.169054 0.839508 0.010398 0.667048 -0.889263 0.931561 0.049689 -0.484747 -0.054149 -0.911584 -0.444238 -0.473919 0.259747 -0.781560 0.051516 0.850760 -0.161223 0.444432 0.226687 0.749828 -0.174408 -0.217327 -0.450064 -0.453298 -0.027865 0.461103 0.551499 0.091093 0.061015 0.117225 1.104106 -0.021049 -0.365301 0.019650 -0.167788 -1.068251 -0.071775 -0.095838 -0.392052 0.018192 0.418513 -0.293463 -0.381989 0.421873 -0.576707 -0.379634 0.036537 -0.030827 0.403999 -0.486820 0.773229 0.201952 0.041080 -0.704769 -0.707634 -0.239564 -0.347936 0.184374 0.718674 -0.558678 -0.056966 0.197756 -0.556830 -0.215672 0.475688 0.063832 0.226561 0.057505 0.453276 0.037230 -0.474152 -0.217054 0.373266 0.100365 -0.010177 0.379138 -0.730020 0.594786 0.025610 0.398596 -0.586662 0.094821 -0.792052 0.249574 -0.147941
her -0.087783 -0.511227 0.095156 -0.196084 0.634982 -0.864545 -0.065052 0.021526 -0.166780 0.309490 -0.322712 0.214752 1.900521 0.612742 -0.329857 1.079804 0.229800 0.532280 0.381036 -0.357975 -0.450177 0.564344 0.194388 0.608115 0.663071 -0.058447 0.430985 0.039449 -0.233415 -0.284638 -0.567209 -0.405821 -0.000252 -0.142408 -0.014795 0.377198 0.155197 -0.325339 0.279927 -0.050095 -0.411649 0.001369 -0.540029 0.004529 -0.321471 -0.299557 -0.261290 0.248601 0.675268 0.244356 -0.386849 0.138698 0.209117 0.035252 0.159127 0.099063 0.035267 0.230685 -1.201826 0.325296 0.206592 -0.312595 0.554406 0.019370 0.442795 -0.054203 0.089530 -0.550922 0.821286 -0.555205 -0.316810 0.429608 0.149294 0.160242 0.046460 0.167523 -0.407595 -0.256209 -0.040739 0.357679 -1.199587 -0.706292 0.415107 -0.255269 -0.155088 0.890144 0.355749 0.447893 0.455108 0.784969 0.143846 -0.090044 -0.129358 0.157500 0.283337 -0.111227 0.090305 0.414654 0.099216 0.398057
my -0.556009 -0.751996 0.127149 0.224769 0.691757 -0.468327 0.052514 -0.212521 -0.196614 -0.007846 -0.195645 0.446084 2.686510 0.982538 -0.600512 0.859867 -0.298188 0.172662 -0.348718 -0.628609 0.332214 0.542958 0.054346 0.271817 0.255668 -0.164071 0.674311 0.547400 0.265737 0.054019 -0.816903 -0.714006 -0.052849 0.195341 0.063547 0.503532 -0.457963 -0.010941 0.504385 -0.290805 -0.086913 0.054091 -0.283323 0.149838 0.357205 -0.184196 0.271002 -0.267160 0.470949 0.555536 0.390963 0.113628 0.209508 -0.045052 -0.315656 0.708924 0.153905 0.041699 -1.031240 -0.495956 0.041666 -0.198560 0.497851 0.139321 0.105557 -0.003666 -0.607463 -0.692954 1.131629 -0.467435 -0.315726 -0.171057 -0.650645 0.795892 -0.195907 0.312720 -0.744853 -0.242298 0.150908 0.271509 -0.863344 0.080459 0.214279 -0.257558 0.243944 0.273313 0.466898 0.581255 0.513096 1.036695 0.188578 0.432325 -0.211890 0.311788 0.111025 0.564990 0.173694 0.347894 -0.202904 0.364960
him 0.170529 -0.148349 -0.274061 0.295739 -0.288821 -0.016801 0.110367 -0.112572 0.401346 0.525858 0.221219 0.136283 0.132166 0.153529 0.044892 -0.288183 0.233831 0.446954 0.341215 -0.010976 -0.793388 0.232666 0.050533 0.255169 0.378982 -0.072088 0.336022 -0.348875 -0.213474 -0.115425 -0.588036 0.475423 -0.117292 -0.241119 -0.299247 -0.208140 -0.098811 -0.551900 0.189670 0.399595 -0.513226 0.047832 -0.204535 0.512096 -0.055553 -0.219227 -0.510506 0.049059 0.423860 -0.475314 -0.499001 -0.346230 -0.122763 0.391796 0.501557 -0.247467 -0.028485 0.729645 -1.335894 -0.215451 0.396147 0.071829 0.363906 -0.118165 0.040624 0.147748 0.032877 -0.143360 0.349679 -0.177814 -0.026688 0.389933 0.324638 -0.266425 0.149573 0.713126 -0.162875 -0.026370 0.543860 0.454076 -0.304065 -0.909097 0.960366 -0.144442 0.083406 0.277927 -0.512021 0.105682 0.537704 0.159371 -0.059599 0.293095 0.178367 0.177926 -0.378233 -0.101652 0.068968 0.377420 0.036297 0.252365
have 0.174044 0.463313 0.044161 0.472703 0.259258 1.112753 0.474533 0.392372 -0.797404 -0.227027 0.123162 0.131372 0.055519 0.444756 -0.331537 -0.850584 -0.074120 0.160179 -0.017451 0.289873 0.184644 0.566164 0.175901 0.412691 -0.429160 0.288136 -0.035989 -1.321492 0.310059 1.093514 -0.793643 0.115345 0.124808 0.646449 -0.375748 -0.295916 -0.568343 -0.142844 0.019529 -0.500347 -0.321214 -0.018804 2.020995 -0.063416 0.196053 0.162815 0.075519 -0.380973 0.647785 0.044781 0.421237 0.132518 0.132760 -0.382852 0.489601 0.614379 -0.090316 0.111585 0.446662 0.895718 1.132027 0.604661 0.434489 0.310498 -0.175829 0.784434 0.417223 -0.926430 -0.086831 -0.431706 -0.034560 0.288286 0.165591 -0.143838 1.234766 0.108865 -0.330705 0.153690 0.640087 0.334000 -0.410854 -0.478582 -0.864370 -0.818309 0.044301 -0.585360 -0.664647 0.091156 -0.255457 0.926512 0.064927 -0.097949 -0.140973 0.271319 -0.257496 0.956409 -0.050115 -0.704620 -0.900908 -0.393314
by 0.294827 -0.043338 0.247153 1.035964 -0.015632 0.003285 0.423681 -0.540688 -0.973869 -0.419781 -0.345619 -0.327864 0.257043 0.410173 -0.131057 1.096744 0.130789 0.048761 -0.159080 -0.449074 1.129056 -0.332957 -0.370557 0.252710 0.082984 -0.313858 -0.079829 -0.017605 0.071762 0.879915 0.387741 -0.591820 0.625491 0.130093 0.599681 0.024344 0.307377 -0.205948 -0.250784 0.268593 -0.796555 -0.407622 -0.355704 -0.551415 -0.451294 0.257670 -0.275785 -0.789693 0.199038 0.342752 -0.571065 -0.030918 0.056724 0.169007 -0.025995 0.634139 -0.288555 -0.636301 0.314899 0.317326 0.158420 -0.276745 0.203364 0.269359 -0.015392 -0.111092 -0.019796 -0.488453 -0.344515 -1.037100 0.280775 0.098681 -0.051209 -0.257205 -0.003163 0.308273 0.343077 0.076935 -0.169298 0.131013 0.856474 0.517998 -0.340371 -0.866586 -0.186800 -1.309631 -0.216203 0.577208 0.357565 0.996355 0.134484 -0.299491 0.213028 -0.309143 -0.097144 0.042654 0.450443 -0.029502 -0.179187 0.416046
this -0.504759 0.280419 0.153817 0.638427 -0.560799 -0.426526 -0.079727 0.268480 0.155503 0.161831 -0.686094 -0.005675 1.480655 0.529520 -0.875300 0.880605 0.404404 0.636820 -1.103672 -0.535212 0.238929 0.957452 0.216669 -0.180243 0.155256 -0.066745 -0.928068 -0.282842 0.147864 -0.575938 -0.532701 -1.007878 0.679795 -0.135227 -0.757278 0.310112 -0.391389 0.567170 -0.188808 -0.076027 -0.084390 0.554314 -0.982402 0.144215 -0.130224 0.040871 -0.074165 -0.198165 0.565219 -0.280928 -0.291033 0.064576 -0.023807 0.226427 0.110209 0.030192 -0.236522 0.473875 -0.368581 0.008811 0.235157 -0.505144 0.016648 -0.282685 -0.696396 -0.515079 -0.569831 -0.520310 0.450661 -0.035668 -0.445563 -0.006534 0.131688 -0.577193 -0.175626 1.118525 -0.420470 -0.091485 -0.500866 -0.340802 0.318011 -0.084248 -0.171146 0.126929 0.376625 -0.047649 -0.033920 -0.261943 -0.144051 0.341294 0.019882 0.657750 0.324001 0.126426 -0.066726 -0.171962 0.187036 0.471460 -0.206910 -0.004586
which 0.661231 0.137008 -0.215728 0.400301 0.369821 -0.289075 0.107604 0.220394 0.031087 0.024603 0.045310 0.280972 0.617641 0.249429 -0.481281 1.014836 0.018482 0.419862 -0.390080 0.043615 -0.057155 0.986590 0.123173 0.051433 0.125888 0.046774 -0.043182 0.125150 -0.532300 -0.319203 -0.224931 0.332918 0.374316 -0.508429 -0.673643 -0.427079 0.206973 -0.436161 0.153122 -0.034032 0.365528 -0.108566 0.293979 -0.124445 -0.155236 -0.397217 -0.628143 -0.087596 0.632393 -0.319913 0.307792 0.218859 0.041796 0.310100 -0.017665 0.338198 0.503598 0.167392 0.180187 0.336533 0.326222 0.098062 -0.327034 0.236064 0.102930 -0.187061 -0.594194 0.013565 0.113463 -0.331096 -0.472330 0.045364 -0.505118 -0.146630 -0.700299 0.879422 0.203714 0.471656 -0.401919 0.114134 -0.012441 0.508757 -0.319727 0.095593 0.056781 -1.226053 0.781249 0.312032 0.458327 -0.135058 -0.015898 -0.245627 -0.102800 0.359145 0.124676 0.188291 -0.170292 0.111916 -0.432719 0.261026
me -0.243704 -0.132979 -0.363245 0.059653 -0.422112 -0.118931 -0.010626 -0.370646 0.355296 0.554450 0.480702 0.121139 0.551080 0.314455 0.044685 -1.044783 0.448535 0.198973 0.089311 -0.344978 -1.378254 0.343672 0.096450 0.122831 0.265239 -0.268977 0.361173 -0.287738 -0.265373 -0.323090 -0.689328 0.504617 0.072092 -0.362023 0.113581 0.109769 -0.667958 -0.376684 0.113143 0.434674 -0.346541 -0.176874 -0.085323 0.446631 -0.333347 -0.492999 -0.307496 -0.040692 0.129835 -0.029485 -0.509687 -0.501006 0.114205 -0.127785 0.259200 -0.419642 -0.363013 0.983773 -0.705020 0.036060 0.155525 0.495953 0.103887 -0.127699 -0.023376 0.036975 -0.365465 -0.257132 0.304604 0.209017 -0.023538 0.181806 0.181013 -0.033637 0.042514 0.725123 0.098556 -0.009075 0.075045 0.073277 -0.284487 -0.937523 0.555128 -0.197509 -0.099279 0.395301 -0.281726 -0.229509 0.848672 0.189770 0.366784 0.071176 -0.095697 0.023028 -0.367120 -0.487782 -0.123476 0.305912 -0.118730 0.361666
all 0.665449 -0.104771 -0.462306 0.104321 -0.714639 -0.678727 0.430360 -0.176374 -0.207729 0.525349 0.434771 0.624572 -0.234203 0.031665 0.330901 -0.107200 -0.088706 -0.175999 -0.436416 0.295284 -0.004291 -0.234636 0.023906 0.690649 -0.401863 -0.904453 0.330459 -0.143469 -0.332366 0.071166 -0.406491 0.350831 0.403350 0.082172 -0.004221 0.213977 -0.128533 0.057725 0.406479 0.073852 -0.428692 -0.275502 -0.016053 0.054714 0.118173 0.055340 0.360821 -0.018905 -0.043847 0.204290 -0.058331 0.104681 -0.108479 0.063553 -0.149068 -0.118897 0.121824 -0.979476 0.188232 -0.319326 0.346491 -0.147151 -0.602831 0.164987 0.242106 -0.005114 0.308489 0.489011 0.522749 -0.828564 0.637906 0.168427 0.055353 0.214516 -0.795236 0.020043 -0.029759 -0.146534 0.071943 -0.266132 0.080491 -0.461825 0.252291 0.794502 -0.529600 -0.292773 -0.484169 0.387854 0.103170 -0.086966 -0.357618 0.320255 0.156913 0.143442 -0.487324 0.788148 0.165885 -0.365480 -0.432537 -0.824168
said 1.008922 -0.127576 0.285976 0.774537 1.377053 0.620777 1.006615 -0.160816 0.375636 0.451445 0.013296 0.107557 -0.474146 -0.219087 0.024850 -1.022935 0.345202 -0.438379 0.443928 0.668151 0.029524 0.067315 0.040419 -0.837544 -0.579125 0.466377 0.308909 0.091321 0.307023 -0.069408 0.535510 -0.488421 0.214808 0.310651 0.385314 0.935227 0.995010 -0.223233 -0.345131 0.741891 0.741771 -0.927283 0.144470 -0.110786 -0.373238 -0.501134 0.317133 1.069775 0.284588 0.210575 0.616555 -0.286058 -0.776756 0.453498 0.087300 0.247931 -0.034771 0.427528 0.759581 -0.460973 -1.307543 -0.601233 0.076784 0.015612 -0.399806 0.289910 -0.533887 -0.301884 -0.639441 -1.098914 -0.722418 0.004494 0.436513 0.070160 0.217836 -0.110307 -0.262408 -0.206989 -0.854117 -0.867016 -0.072027 -0.591073 0.292298 0.825003 0.702297 0.154171 0.457953 0.244258 0.628249 -1.053885 1.441095 -0.340820 -0.525505 -0.631097 -0.037878 1.052346 0.381204 -1.163244 0.046836 0.649451
she -0.373752 0.159815 0.000814 0.618723 -0.211357 -0.684674 -0.682002 0.155306 -0.055591 -0.043063 0.016335 -0.487031 0.350625 -0.218727 -0.367235 -0.284184 -0.344462 0.592611 0.294203 -0.852968 0.136431 0.582978 -0.255735 0.984890 0.442475 -0.781437 0.061531 -0.562673 -0.450808 0.137659 0.108424 -0.024057 0.082806 -0.291680 0.624502 -0.021657 -0.893295 0.485630 -0.038649 -0.362820 -0.157078 0.010467 -0.384603 0.068331 -0.125137 -0.258497 -0.082285 -0.224551 0.155953 -0.428528 -0.431850 -0.126948 0.675338 -0.211941 -0.115368 0.423276 0.248749 -0.073212 -1.607357 0.542740 0.215397 -0.562118 -0.120262 -0.094397 0.561732 -0.234955 0.025452 0.054701 0.155149 0.295320 -0.042200 0.842229 -0.162886 -0.158385 0.034449 0.150172 0.362984 0.301259 -0.148211 0.101241 -0.401312 -0.145417 0.388728 -0.729580 -0.591297 1.423240 -0.142442 0.468720 -0.133158 0.818449 -0.671525 -0.219614 0.176440 -0.307055 1.184311 -0.873128 0.091671 0.071813 0.377500 -0.559610
from 0.397156 0.076184 0.511785 -0.026131 0.441238 0.429646 -0.082989 -0.386794 0.343275 -0.194788 -0.171794 0.314657 0.182901 0.397179 0.950321 1.544376 -0.264540 -0.240499 -0.654231 -0.247530 1.216148 -0.435852 -0.260949 0.676179 0.107567 0.297253 -0.450923 0.216484 -0.033656 0.168311 -0.317423 0.273366 0.412662 0.137144 0.853074 -0.469265 0.909931 -0.093133 0.622093 -0.066508 -0.493709 -0.101206 -0.564439 0.076681 -0.353474 0.455857 0.176830 0.059639 0.635768 0.335137 -0.149289 -0.481094 0.590320 -0.518908 -0.514582 0.290827 -0.727089 -0.612264 0.679367 0.122835 -0.502286 0.324136 -0.280805 0.152475 -0.962171 0.088808 0.345051 -0.435187 -0.440594 -0.163148 -0.884894 0.162121 0.075796 -0.153374 0.278949 -0.080266 0.105226 -0.844687 0.117931 0.468151 0.350618 0.335640 -0.387614 0.406571 -0.119754 -1.040258 0.223083 0.124380 -0.468490 1.072357 0.473111 -0.135880 -0.169300 -0.078574 0.609206 -0.351987 0.170993 -1.283520 -0.323331 -0.345723
or -0.522620 -0.283904 -0.224669 -0.322707 -0.312201 0.251742 0.081411 -0.581821 0.138848 -0.212064 0.118971 0.072592 0.327270 0.912628 -0.219058 0.350335 0.525148 0.063563 -0.035164 -0.304995 -0.542538 -0.127822 -0.072448 -0.444630 0.594446 -0.347118 -0.081357 0.212464 -0.059435 0.160420 -0.521876 -0.907771 0.962053 -0.010901 -0.110890 -0.240360 0.100183 0.687962 0.362432 -0.262759 -0.386650 -0.552817 -0.599791 -0.682284 -0.454027 -0.517658 -0.237099 -0.293348 -0.173700 0.113814 0.085112 -0.329884 0.277906 0.210744 0.239843 0.230804 0.145205 -0.914618 0.224247 0.246353 0.639827 0.290987 0.182020 0.089264 -0.036375 -0.459374 -0.036508 -0.307867 -0.696456 0.225770 -0.540442 0.464217 -0.307337 0.057790 -0.424692 0.917952 -0.386043 0.154294 -0.442668 0.620529 -0.176700 0.044991 -0.611096 0.361703 0.640830 -0.886139 1.217984 0.364660 -0.121327 -0.009567 0.500649 -0.367801 0.341963 0.252128 0.056181 -0.558709 0.082035 -0.555241 0.178075 -0.527542
they -0.033539 -0.693051 -0.066831 0.130256 -0.775375 -0.203820 -0.563454 0.130291 -0.057868 0.281208 0.284609 -0.425817 -0.180095 -0.140165 -0.421024 0.012470 -0.182422 0.385147 -0.084157 -0.731617 0.189068 -0.120869 0.123032 0.471919 1.238348 0.325672 0.073374 -0.178630 -0.013767 -0.242596 0.713104 -0.267295 -0.438736 0.290423 0.216585 -0.104068 -0.139503 -0.295190 0.297909 -0.392044 -0.174388 0.434030 -0.666675 -0.382149 -0.538737 -0.075403 -0.134380 -0.082573 -0.009984 -0.864147 -0.047126 -0.502402 0.583136 -0.403112 -0.208912 0.523733 -0.084319 -0.215978 -1.357236 -0.460409 0.839070 -0.289273 -0.353096 -0.132904 0.875072 -0.337573 -0.152890 0.724510 -0.260420 -0.375662 -0.101391 0.984492 -0.272545 0.230946 -0.415946 0.081175 -0.099293 0.046453 0.239092 0.349011 -0.208867 -0.232676 -0.197766 -0.187652 -0.304590 0.118474 -0.365760 -0.105927 0.000193 0.305696 -0.311199 0.387953 0.882571 -0.015482 0.569288 -0.678784 0.266951 -0.366880 0.431046 -0.332193
so 0.154598 0.417067 0.442006 -0.474289 0.556035 -0.560984 0.104076 -0.105492 -0.152934 -0.064961 -0.045924 -0.454931 -0.459550 0.520615 -0.372793 -0.171921 -0.389683 -0.036328 -0.026800 -0.066541 0.170752 0.275799 -0.462035 0.176077 0.153408 0.300450 -0.353098 -0.122987 0.575554 -0.497560 -0.010812 -0.144099 0.435493 0.387027 0.320251 0.239477 0.413160 -0.246976 -0.196486 0.226555 0.236964 -0.256200 -0.041012 0.168078 -0.002606 -0.167728 -0.767041 0.158668 0.641100 -0.117612 -0.383968 0.313378 -0.229381 -0.289120 0.151971 -0.501079 0.080339 -0.366628 0.442882 -0.171721 0.100989 -0.161009 -0.324309 0.163418 0.048737 -0.112237 0.129639 -0.025904 0.288427 0.128104 -0.252126 -0.700437 -0.056273 0.248152 0.614849 0.380382 -0.851794 0.191438 -0.279678 0.077042 0.205993 -0.464304 0.267462 0.276767 -0.217774 0.038530 -0.068711 0.212135 -0.057272 0.858961 -0.464256 0.479913 0.017562 0.404986 -0.119741 -0.141226 0.073262 -0.266524 -0.365592 -0.002108
are -0.622191 0.007836 -0.115341 0.264468 -0.545425 -0.319304 0.461434 0.074576 -0.858059 -0.354569 -0.206563 0.398310 -0.911420 0.487547 -0.060444 0.126029 0.361486 -0.581245 -0.599355 -0.274194 -0.347869 0.252341 0.055288 -0.504372 -1.517611 -0.067169 0.284227 0.154960 0.068853 0.050298 -0.683624 0.075877 -0.560177 0.227856 0.386860 -0.643947 0.250777 0.490232 -0.127025 -0.584455 -0.883981 -0.183925 0.788870 0.353146 -0.394292 0.019044 0.234225 -0.190330 -0.248539 1.585681 0.523027 -0.283335 -0.740919 -0.140339 0.632224 -0.128902 0.074682 -0.387790 0.807855 -0.026856 0.728446 -0.210514 0.660971 0.226982 -0.164175 0.046432 -0.388735 -0.342411 -0.302021 -0.112728 -0.269749 -0.376234 0.629782 0.047122 0.920895 -0.706468 -0.297397 -0.943286 0.728275 0.289754 -0.488236 -1.252193 0.320747 -0.599025 0.647369 -0.239177 0.065951 -0.949924 -0.534570 0.576657 0.199801 -0.380895 0.711999 0.527585 0.951831 0.477057 0.091311 -0.833707 -0.921931 -0.023591
one -0.254847 0.331496 -0.357835 -0.235196 -0.342034 0.199894 0.234533 0.559620 0.379487 0.619392 -0.360087 -0.038466 -0.041961 0.174691 0.088684 -0.078639 -0.315339 0.204593 -0.126408 0.230913 0.144618 0.539459 0.509741 -0.261931 0.216443 -0.746803 0.375335 0.166960 -0.434717 0.716564 0.419212 -0.459737 -0.520129 -0.318733 0.048375 0.444661 -0.389885 0.388191 0.099558 0.234553 -0.471684 0.069591 0.129505 -0.669003 0.583957 0.242609 -0.174835 0.131918 -0.029207 -0.592956 -0.220208 0.115888 0.523223 0.430751 0.228726 -0.173727 -0.078317 0.544287 0.144935 -0.265028 0.503314 -0.345312 -0.418155 -0.074995 -0.548117 0.133657 -0.166622 0.283439 -0.054759 -0.032605 -0.436812 0.202286 0.050196 0.044145 -0.465625 0.235643 0.251739 0.333821 -0.147013 -0.150081 -0.580783 -0.830778 0.629901 0.111901 0.212647 0.078158 0.005738 -0.413675 -0.385349 0.578451 -0.197594 0.042639 0.231925 0.025242 0.288760 0.072247 -0.098134 0.785521 0.137910 0.011082
were -0.490523 -0.400556 -0.171274 0.447798 -0.485156 -0.361459 0.824794 0.095737 -0.251351 -0.374504 -0.345958 0.477438 -0.895374 0.488870 -0.196613 0.687901 0.364623 -0.267182 0.308288 -0.022746 -0.181805 -0.132173 -0.110692 -0.447539 -1.264505 -0.078067 -0.189439 -0.027519 0.412615 0.126043 -0.494908 -0.223842 -0.201148 0.006882 0.138097 -0.506744 0.420498 0.502803 -0.075838 -0.264437 -1.125639 -0.698202 0.629600 0.068367 -0.455669 0.270495 0.125695 0.033701 -0.060978 0.670584 -0.051294 -0.020164 -1.087490 -0.115911 0.438121 -0.889682 0.325138 -0.276318 0.302608 -0.145017 0.762709 0.317113 0.168663 0.287969 0.083617 0.768140 0.056454 -0.518245 -0.897971 -0.650444 -0.101152 0.301453 -0.233306 0.256925 1.183159 -0.742803 -0.131724 -0.516096 0.550619 0.197464 -0.840958 -1.151257 0.132674 -0.467243 0.426813 0.236000 -0.373936 -0.562847 -0.289588 0.239869 0.121232 0.237576 0.164851 0.687835 0.923472 0.283618 0.394685 -0.677429 -0.565220 -0.226565
what 0.732794 0.906267 -0.679794 0.272571 -0.272530 -0.056316 -0.287548 0.699859 0.667629 -0.177900 -0.411545 0.000816 0.199235 -0.247336 -0.136454 -1.204937 0.188795 0.040422 -0.756197 -0.008310 -0.341536 0.241684 -0.169240 0.528914 0.129929 -1.057237 0.849027 -0.051232 0.139686 -0.964294 -0.264867 0.144888 0.836391 -0.850088 -1.053394 -0.118296 -0.293438 -0.727515 -0.271495 0.012300 -0.433338 0.282112 -0.608796 1.233696 0.244060 -0.423669 0.615652 -0.482131 0.729518 -0.437906 -0.427814 0.719337 0.081730 0.666056 0.005609 -0.358783 -0.043972 0.573890 0.300736 0.260650 0.709836 -0.241603 0.021810 -0.172719 0.148687 -0.956616 0.069914 -0.834145 0.543139 -0.235199 0.011872 -0.278567 0.003744 0.483389 -0.914698 -0.164056 -0.455594 -0.204644 -0.221053 0.058051 0.036503 0.755663 -0.458450 0.531949 -0.243474 -0.471910 0.430153 0.608453 0.317839 -0.075607 0.375426 0.417573 0.204896 0.270999 -0.193734 -0.026127 -0.188233 0.282396 0.012162 -0.614822
when 0.470362 0.812837 0.310082 0.688989 0.134745 0.178316 0.313231 0.096191 0.233989 -0.027599 -0.654976 0.487859 -0.269040 0.721712 0.249712 0.239357 -0.186013 0.136998 -0.616782 0.092854 -0.095640 0.631733 0.354795 0.237659 0.138306 -0.818085 0.246421 0.503865 -0.332493 -0.718172 0.302872 0.297882 0.428855 0.009317 0.249357 -0.652165 0.032580 0.047480 0.738096 -0.148566 -0.086964 0.201462 0.349988 0.104094 -0.057005 -0.174954 -0.256909 0.582177 -0.222993 0.182293 -0.094810 0.221823 -0.554587 0.257000 -0.156592 0.245785 -0.114210 -0.306339 0.465905 0.119476 0.020705 0.335114 0.278043 0.794706 -0.278833 -0.171556 0.622697 -0.125987 0.852240 -0.369433 0.160397 -0.701168 0.112262 0.034410 -0.092123 0.234024 -0.105681 0.171410 -0.264703 -0.048814 0.373911 1.126473 -1.052612 0.000603 -0.120494 0.281573 0.144782 0.913289 0.166950 0.113965 0.392894 -0.011117 -0.415005 -0.686506 -0.185407 0.348486 0.679126 -0.592568 -0.083098 0.409840
no 0.787358 -0.141078 0.248542 -0.496266 -0.629599 0.590333 -0.422882 0.049734 0.423799 -0.465718 0.199258 -0.016402 1.611913 -0.063519 -0.347075 0.118786 0.241421 0.160652 -0.490492 -0.197330 0.595511 0.154331 0.508669 0.410751 0.280717 -0.378315 -0.092454 0.307986 0.567603 -0.102073 -0.266417 -0.699156 0.529280 -0.467096 -0.457426 0.408755 0.000444 -0.165607 0.197736 0.054862 -0.148024 0.065402 -2.066894 0.344729 0.255787 -1.094749 0.577667 0.100553 -0.391056 0.211739 -0.493612 0.217545 -0.360871 0.144607 -0.065942 -0.291776 -0.219497 -0.455150 -1.079304 0.476769 0.229253 -0.709414 0.146632 -0.256980 -0.055415 -0.167843 0.121127 0.614753 0.024698 -0.762370 0.393988 -0.310451 0.414640 0.620936 -0.241532 0.535905 0.182084 -0.916326 0.164769 -0.243058 -0.342465 0.157416 -0.339491 0.088857 -0.402693 -0.695179 0.155006 -0.200829 0.380845 0.088635 0.249167 -0.058539 0.064484 0.181737 -0.146422 -0.521702 0.112423 -0.156510 -1.426111 0.598249
if -0.085514 0.269223 -0.235125 -0.241301 0.467599 0.463035 -0.641967 -0.025426 -0.725829 -0.236917 -0.091182 -0.348819 -0.063381 0.942760 0.040851 -1.128835 0.294442 -0.026671 -0.551588 -0.501079 0.320519 0.300092 0.475981 0.057400 0.206892 0.119858 -0.261193 0.539239 -0.085907 -0.216141 0.300077 0.663595 0.682651 0.279069 -0.562969 -0.346692 -0.042880 -0.604198 0.296218 0.560593 -0.030133 -0.225149 0.134956 0.188691 -0.059946 0.647255 -0.202722 0.815468 -0.535626 0.271818 -0.144706 0.279054 0.333257 0.878642 -0.557591 1.142843 -0.056305 -0.136154 0.501665 0.374453 -0.139829 0.378334 0.325087 -0.475226 -0.159113 -1.369206 0.144521 -0.006745 0.780566 -0.635331 0.310194 -0.347276 -0.554508 0.101057 -0.061660 -0.232710 -0.193616 -0.263349 -0.195212 0.326746 0.242445 0.384483 -0.166049 0.419225 0.267794 0.034906 0.368946 0.576782 0.213266 0.019112 0.196829 -0.904061 0.294432 -0.549723 -0.320142 -0.568394 -0.323965 -0.311074 -0.873732 0.346943
there -0.091354 0.064468 -0.455580 -0.183952 -0.138218 0.267082 0.181375 -0.507709 0.046379 -0.241841 0.266777 0.253401 -0.219736 0.398503 -0.407701 0.293962 0.057870 0.313167 0.016268 0.747264 1.121140 0.311885 -0.019320 -0.098484 0.619811 0.560877 0.323735 0.073844 -0.549151 0.337538 0.050313 -0.363477 0.526696 0.374767 0.089625 0.806533 -0.053917 -0.312414 -0.195774 -0.473909 0.671491 0.113771 -0.165926 -0.469969 0.856627 -0.719049 -1.021688 -0.519017 0.221914 -0.499673 -0.449850 0.737050 1.120966 0.402747 0.006370 -0.009133 0.568149 0.280134 -0.752365 -0.869262 -0.130179 0.093484 -0.257754 -0.500919 0.231636 -0.208705 -0.165876 0.026478 0.216505 0.456551 0.355183 -0.301497 0.451011 -0.454551 -0.387430 0.265801 0.547568 -0.186514 -0.481878 0.397699 0.690945 -0.054109 -0.768549 -0.162716 -0.516549 -0.427494 -0.106478 -0.588881 0.297770 -0.155821 -0.334195 -0.467107 -0.506196 -0.430033 0.794838 0.289482 0.239999 0.278860 -0.032840 -0.638714
who 1.348348 0.135845 -0.506562 0.714651 -0.311177 0.060444 -0.162833 -0.309114 0.257694 0.130717 -0.856427 -0.735993 -0.030139 -0.204086 -0.605573 -0.083268 -0.507304 -0.273633 -1.104977 0.353563 -0.357151 -0.173936 0.106101 -0.215988 0.212448 -0.274274 0.272685 0.452887 -0.348180 -0.515343 0.128800 0.136258 0.370792 -0.111991 0.218577 0.207174 -0.403022 0.007870 -0.012590 0.412698 -0.116695 -0.203744 -0.523569 -0.353328 0.168445 -0.214330 -0.457722 -0.393616 0.414742 -0.270755 0.405128 0.473638 -0.335746 0.509563 -0.352965 1.284032 -0.120899 0.075410 -0.201238 0.472591 -0.114996 -0.013668 -0.144439 -0.086079 0.313234 -0.427871 -0.296616 0.765402 0.025200 0.090935 -0.397605 1.073811 -0.424544 -0.044431 -0.180119 0.920398 0.135025 0.571041 -0.233822 0.541471 -0.366567 0.278710 0.744670 0.116747 0.164614 0.219377 0.933272 0.620169 0.737978 0.711051 0.052854 0.187435 0.628762 -0.509682 0.637240 -0.081962 0.150280 -0.543571 0.175129 -0.370212
we -0.117018 -0.678304 -0.300528 -0.048305 -0.882211 -0.216536 -0.059759 -0.501190 0.093202 -0.043692 0.098844 -0.519665 -0.476898 -0.000620 -0.523852 -0.509604 -0.137259 0.090875 -0.033852 -0.872752 0.444278 -0.020312 -0.001835 -0.013616 1.212413 0.272596 0.355472 -0.328291 -0.336441 -0.762700 0.044643 -0.871557 -0.296256 0.015589 0.283376 -0.259807 0.040187 0.177467 0.642250 0.092377 0.391626 0.543935 -0.278162 -0.145452 -0.263724 0.181399 0.189320 -0.626479 -0.024264 -0.629981 -0.600198 -0.709088 1.163814 -0.754056 -0.148965 0.621386 -0.738295 -0.168287 -1.493477 -0.642276 1.228261 -1.009347 -0.608035 -0.163867 0.569947 -0.134600 -0.081787 0.513527 0.260439 0.055216 -0.478033 0.295283 -0.408319 0.002846 -0.033376 -0.062706 0.007781 0.544516 0.235930 0.141962 -0.198858 0.255267 0.180113 0.705001 0.170793 0.060574 -0.133359 -0.158524 0.158005 0.248743 -0.444504 0.584544 0.890088 -0.211830 -0.091654 -0.694341 0.348200 0.230749 0.374887 -0.486292
will -0.430083 -1.512860 0.715490 -0.308549 0.441541 0.155834 0.557726 -0.057696 -0.529936 0.018320 -0.234768 0.802380 0.247523 0.054338 0.311925 -0.919317 -0.068632 -0.378036 -1.186563 -1.487864 0.478654 -0.259027 -0.402383 -0.743699 -0.922072 -0.165768 0.283668 0.971305 -0.157153 -0.237590 0.556738 -0.187637 0.188515 -0.019115 0.105943 -0.158937 0.209660 0.354824 -0.451151 -0.002886 -0.613331 -0.135451 -0.264110 -0.425208 -0.086291 -0.548890 -0.332041 0.370300 -0.118330 0.644981 0.284530 -0.110339 -0.187983 0.005324 -0.223182 -0.817438 -0.197797 -0.173531 1.352184 -1.289166 -0.402005 1.153486 0.926385 -0.610466 0.138674 -0.453980 -0.349237 0.519226 -0.003628 0.029065 0.744755 -0.199208 0.659977 -0.149296 0.215645 -0.637582 0.048931 -0.328819 0.058342 -0.247164 -0.063425 0.649731 0.041115 0.499564 0.736197 -0.444809 -0.234502 -0.093342 -0.605267 0.355602 0.793004 0.125418 -0.153821 0.250408 -0.830477 -0.901205 0.011126 -0.918747 0.080677 0.045287
an -0.306505 -0.191037 -0.410462 -0.086469 -0.597648 0.279600 -0.430923 -0.314220 -0.077895 0.565213 -1.293612 -0.511112 2.159846 -0.193792 -0.423131 1.449804 -0.323936 -0.147258 -0.350091 -0.165090 0.094826 1.073751 0.024609 -0.347821 -0.853394 -0.404833 -0.173052 0.941310 0.433528 0.119606 0.111161 -0.622876 0.030504 0.122385 0.117310 1.272581 0.113960 0.654479 0.886800 0.083429 -0.255226 -0.327801 -0.905474 0.646805 -0.511834 -0.036289 0.277062 -0.516320 -0.835941 0.267255 0.262583 0.121004 -0.198847 0.280464 -0.127165 -0.174021 -0.290693 -0.201953 -1.409056 0.796904 0.792308 -0.443021 0.113435 -0.868558 -0.332196 -0.087301 0.185076 -0.083479 0.387340 -0.997761 -0.299168 -0.243422 0.084740 -0.541670 -0.327567 1.771685 -0.759047 0.268075 -0.071562 -0.721200 -0.055869 -0.717283 -0.284465 -0.056621 0.180138 -0.576029 -0.067502 0.134749 0.371843 0.524445 0.501505 0.176120 -0.526322 -0.474178 -0.164696 -1.300072 -1.209607 -0.458405 -1.390305 0.149888
then 0.136021 0.370028 0.212778 0.041610 0.250684 -0.073771 0.011479 -0.264090 0.248718 -0.108432 0.097758 0.185747 -0.073182 0.295492 0.053149 0.256025 0.352269 -0.138978 -0.275223 -0.004195 0.211183 0.043180 -0.049111 0.091191 -0.045342 0.126372 0.394057 -0.301748 -0.340893 -0.021926 0.418797 -0.153413 -0.269691 0.462718 0.425319 -0.124166 0.038177 -0.183750 -0.129598 0.077069 -0.079260 0.043365 0.363387 0.013510 -0.364054 -0.277527 0.067775 0.048131 0.143953 -0.361901 0.070748 -0.073751 -0.185131 0.019260 0.342218 -0.166215 -0.002154 0.041045 -0.221712 -0.150795 -0.681487 -0.018889 0.350860 0.026487 0.141943 0.011326 0.271136 -0.180260 0.054849 0.462135 0.184756 -0.394086 0.192919 -0.413632 -0.464964 0.275837 0.005646 0.003006 0.266960 -0.104700 0.014930 0.303770 -0.016479 -0.022851 0.000906 0.323060 -0.337736 0.309360 -0.134585 0.107527 0.077679 0.264462 -0.185071 -0.156203 -0.037326 0.012909 0.278885 -0.019662 0.114495 0.218412
their -0.311797 -1.151581 0.125114 0.432343 -1.227754 -0.495754 0.319853 0.049036 -0.815512 0.346506 -0.146966 0.598851 1.296407 0.616137 -0.370588 2.150108 0.299944 -0.023046 -0.321006 -0.217435 -0.326536 0.591314 -0.241107 -0.080477 0.469998 0.640123 0.809171 0.128883 -0.144049 -0.362083 0.035087 0.083311 -0.066381 -0.044655 0.488302 0.750369 -0.290412 -0.442578 0.215180 -0.314108 -0.398679 -0.004529 -0.847807 0.490968 0.071091 -0.737200 -0.176298 -0.345207 0.361677 0.711327 0.091518 0.593581 -0.001309 -0.013062 0.471942 -0.040858 0.232721 -0.733955 -0.637597 -0.696438 0.511515 -0.668053 0.124368 -0.188226 0.135196 -0.286920 -0.141249 0.008299 0.716897 -0.801945 -0.303835 0.152158 -0.284221 0.667545 -0.343769 0.056175 -0.503136 -0.041172 0.496498 0.273133 -1.247648 -0.027300 0.378270 -0.060687 0.049431 0.037928 0.341017 0.504802 -0.203862 0.980794 0.102025 0.258462 0.403429 -0.280810 0.560986 -0.098569 0.198665 -0.010502 -0.360750 0.386571
would -0.411598 -1.371196 0.541739 -0.917982 0.302448 -0.051956 0.487485 -0.077843 -0.008803 0.464871 -0.285735 0.213144 0.669966 -0.312050 -0.196250 -1.194188 -0.197745 -0.271625 -0.487450 -1.659238 -0.141613 -0.407543 -0.210016 -0.588325 -0.579309 0.297256 -0.297740 0.935322 0.096679 -0.622303 0.658860 -0.618506 0.787500 0.085293 -0.027466 -0.044028 0.975095 0.003479 0.003538 -0.600136 -0.511155 0.322189 -0.708412 -0.447816 -0.013552 -0.029478 -0.466941 0.880641 -0.205605 0.432863 -0.377549 -0.495498 -0.344130 -0.317502 -0.196574 -0.927974 -0.015023 0.043425 1.249477 -1.083061 -0.169383 0.857450 0.790491 0.022568 0.254534 -0.606815 0.157817 0.154897 -0.478019 -0.577340 0.486991 -0.466777 0.490187 -0.149835 -0.203549 -0.331594 -0.052302 -0.153099 0.248128 -0.429972 0.214743 0.144182 -0.309470 0.429215 0.665368 -0.804054 0.170441 0.538414 -0.416282 0.068633 0.739922 -0.454781 -0.191610 -0.276199 -0.633271 -1.196681 0.307024 -1.243347 0.133864 0.083818
them -0.018335 -0.051795 -0.502609 -0.017058 -0.764163 0.353125 0.201762 0.439524 0.323152 0.726360 0.006121 0.128587 0.080639 0.601005 -0.304521 0.171895 0.761603 0.331019 0.453169 0.057398 -0.813048 0.488484 -0.032918 0.095801 0.222899 0.311108 0.472564 -0.383874 -0.524506 -0.218754 -0.473592 -0.203227 -0.393546 -0.134640 -0.290769 0.193044 -0.114917 -0.588977 0.057529 0.010724 -0.849707 -0.336419 -0.197425 0.443094 -0.302368 -0.391000 -0.502355 0.338550 0.272014 -0.313129 -0.313269 0.075718 0.401222 0.614739 0.570058 -0.353619 0.207879 0.775147 -0.942751 0.081287 0.804190 0.369190 -0.236946 -0.192127 0.337586 -0.013344 -0.341186 0.124989 0.148300 -0.062199 0.307570 0.504033 0.366524 -0.260725 -0.158275 0.254389 -0.297743 0.294480 0.308491 0.257423 -0.260758 -0.473907 0.652043 -0.000580 -0.357019 0.493588 -0.497723 -0.792375 0.281319 -0.414545 0.190415 0.253857 0.064992 0.734706 -0.027036 -0.644796 -0.001613 0.765300 0.246122 0.120436
been -0.278102 -0.365349 -0.380764 0.356094 -0.458317 -1.206097 0.367014 -0.517826 0.812775 -0.018852 0.233165 0.346611 -1.158627 0.159186 -0.070467 -0.056520 -0.316606 -0.402713 -0.078644 -0.200785 -0.790667 -0.648927 0.456472 0.037252 -0.329871 -0.903549 -1.289032 0.235213 -0.928427 -0.965711 0.019079 0.060546 -0.267916 -0.676738 -0.304010 -0.161127 0.295134 0.626129 0.419435 -0.223533 0.311080 -0.452703 -0.453766 0.210596 -0.437422 0.522541 0.612851 0.439501 -0.228589 0.158139 -0.735812 0.298817 -0.967338 -0.058991 -0.142228 -0.406704 0.556518 -0.596146 -1.094962 0.537284 0.387260 -0.141327 -0.448760 0.331164 -1.094734 0.411094 -0.384150 0.400275 -0.094054 -0.269598 -0.833005 -0.355960 -0.745101 0.153852 0.261537 0.322661 -0.114008 0.029048 0.576696 0.175128 -0.762614 -0.090796 1.405608 0.195176 0.303457 -0.080243 0.859577 -1.120646 -0.053585 0.162389 -0.219854 0.325881 0.581606 0.890402 1.304288 -0.615276 -0.260493 0.637193 0.537363 1.498757
do -0.734670 -0.016750 -0.271867 0.184303 0.405723 0.865431 0.376094 0.449670 -0.742033 -0.000781 0.408690 0.041073 0.235826 -0.110873 -0.520303 -2.192810 -0.264713 -0.074398 -0.180578 -0.285834 0.629847 -0.425444 0.055941 0.180622 0.366926 0.433688 0.037180 -0.370621 0.376795 -0.449101 -0.552259 0.461687 -0.645111 -0.483062 -0.034239 -0.191558 0.105855 0.006909 -0.521587 0.182327 -0.681026 -0.231708 0.807025 0.234463 0.326073 -0.188402 0.649238 0.057731 0.036786 0.137144 0.839183 0.052274 -0.874957 -0.030611 -0.144738 0.091312 0.132016 -0.699739 -0.102159 0.543272 -0.992401 -0.089239 -0.122528 0.465441 -0.535794 0.460096 0.210224 0.410459 -0.197932 -0.326517 -0.337725 -0.100396 0.711000 0.158810 -0.986556 -0.155646 0.278142 0.383222 -0.421913 -0.039292 -0.919548 -0.816568 0.502966 0.364653 1.012259 0.040740 -0.464787 -0.833474 -0.142155 -0.566862 0.174257 -0.502901 -0.093843 0.465630 -0.448914 -0.102272 0.012198 -0.241835 -0.531391 0.689957
your -0.627260 -0.595971 0.049570 0.304777 0.497159 -0.031001 0.178977 -0.371862 -0.682873 0.113859 -0.463568 0.371967 2.418452 0.617445 -0.252801 0.517097 -0.515841 0.321445 -0.555312 -1.101688 -0.231899 0.334382 0.282884 0.207380 0.511835 0.456405 0.457561 0.802723 0.341507 -0.617604 -0.682565 -1.167584 0.056138 0.425063 -0.591927 1.004153 -0.202475 -0.001194 0.459707 -0.410741 0.130271 -0.527053 -0.775124 -0.113327 -0.262888 -0.504559 0.464661 -0.742254 0.163308 1.169211 0.288827 0.171450 0.434718 -0.135027 0.094233 0.650457 0.165009 -0.023866 -0.474218 -0.729330 0.309634 -0.263204 0.819842 -0.003163 -0.186397 -0.282860 -0.711846 -0.517172 0.615951 -0.643242 -0.243404 0.217625 -0.472609 0.506808 -0.220249 0.218314 -0.554164 -0.360797 0.033519 0.178213 -1.305467 -0.058206 0.041280 -0.117776 -0.006997 0.197972 0.324056 0.909880 -0.093730 0.803543 0.170855 0.441536 -0.126588 0.582146 0.132718 0.317468 -0.049611 0.174576 -0.452315 0.183002
now 0.086267 0.127008 -0.062555 0.287321 -0.103195 -0.031109 -0.177867 0.022514 0.315082 -0.337494 -0.117977 -0.221577 -0.167329 0.452245 0.198561 -0.121233 -0.094896 -0.122163 -0.148018 -0.428160 0.344611 0.319635 0.063106 0.243866 0.037929 0.113597 0.103848 0.514764 0.041350 0.023012 0.301237 -0.327195 0.058215 -0.165079 -0.000543 0.009965 -0.232144 -0.031019 0.198277 0.294825 0.106429 -0.534811 -0.038126 0.393533 0.490471 -0.182865 -0.270210 0.260073 0.408874 0.272944 -0.009837 0.122210 -0.097699 0.018203 -0.150389 0.320607 -0.271661 -0.062693 0.015944 -0.215107 -0.119496 0.101266 0.264867 -0.052655 -0.006904 -0.089181 0.182963 -0.053487 -0.125285 0.235824 0.177459 -0.612332 0.019563 0.070774 -0.259655 0.030247 -0.058293 -0.159684 -0.062925 0.092375 0.047002 0.277575 -0.466048 0.461781 -0.158614 0.529327 -0.207785 -0.018999 0.213321 -0.303102 -0.129607 -0.119414 0.212570 -0.129663 -0.274682 0.111902 -0.022948 -0.087741 0.069441 0.155159
out 0.410470 0.347617 0.101888 0.215924 0.691324 0.434627 0.405362 0.101687 0.440698 -0.125800 -0.678197 -0.347341 0.625945 0.862863 0.252220 1.526757 0.553008 0.712121 0.921749 0.054454 -0.149824 -1.026699 0.392830 0.178815 -0.803323 0.173371 0.817169 0.726694 -0.499574 0.330645 0.090092 -0.066521 -0.480571 -0.193677 0.100468 -0.266735 0.362896 0.014438 0.129840 -0.405768 -0.334932 -0.073990 0.199108 -0.435899 -0.218600 -0.433660 0.442205 -0.601558 0.241132 -1.152274 -0.934946 -0.014909 0.451811 -0.196970 -0.385622 0.296648 -0.232816 0.523939 -0.733549 -0.269927 -0.149007 0.208356 -0.803899 0.096142 -0.504186 -0.426020 -0.602865 0.219086 0.146664 0.200432 0.712259 0.165902 0.060120 -0.095295 -0.393484 -1.101339 0.081108 0.486394 -0.031794 -0.658929 0.901349 -0.299312 0.176991 -0.414737 -0.159818 0.678131 0.183803 -0.580050 -0.325979 -0.318496 -0.549816 0.048034 0.139100 0.706872 -0.709950 -1.183757 0.104669 -1.457580 -0.386155 -0.006335
more -0.908072 0.744682 -0.031101 -0.626444 -0.168539 -0.365024 0.275825 -0.359831 -0.295881 0.283052 -0.528927 -0.083953 -0.119934 0.172465 0.113510 -0.626992 -0.237402 0.196711 -0.502221 0.070793 0.466901 0.422880 -0.071174 0.754843 -0.324732 -0.526702 -0.160429 -0.073975 -0.118227 -0.454852 0.270965 0.256067 -0.102286 -0.886556 0.133580 0.451796 0.188014 -0.692386 0.939315 -0.159527 0.675915 -0.819918 0.482152 0.272105 0.338540 0.580498 -0.315583 -0.647204 0.421687 -0.342983 0.124858 0.713647 0.515837 0.172937 0.247771 -0.581743 0.403382 0.022955 0.244419 0.345938 -0.308231 -0.125594 0.570297 0.210834 0.120018 0.325478 -0.064152 0.197246 -0.334534 0.343820 -0.193405 0.453308 0.931288 -0.494733 -0.268184 0.284091 -0.626967 -0.127226 -0.245415 0.493942 0.629296 0.172909 0.280925 -0.049148 -0.261771 -0.473791 -0.359012 -0.254551 0.286344 -0.000703 -0.313942 0.611522 0.654489 -0.975858 0.191775 0.260687 0.349658 -0.481048 -0.024926 0.122896
up -0.200435 0.129304 -0.201000 0.728741 0.878578 0.267842 -0.281511 0.332472 0.520352 0.563887 -0.499084 -0.254072 -0.005607 1.051392 0.335432 1.566542 1.096763 0.340159 0.441801 0.277462 0.097761 -0.770896 0.405243 -0.199952 -0.406887 -0.107215 0.056839 -0.012319 0.030316 -0.439455 0.564738 0.257615 -0.443387 0.298250 0.893294 -0.074832 0.136316 -0.667768 0.387088 0.003503 -0.363466 -0.479113 0.097347 0.184841 -0.596991 0.018199 0.225762 -0.107977 0.570938 -0.557372 -0.527505 0.148423 0.292329 -0.178529 -0.596984 0.709933 -0.376083 0.650351 -0.971011 0.391027 0.339284 0.508161 0.176850 0.550190 -0.106011 0.562062 -0.281713 -0.453007 0.090297 -0.020996 0.206073 -0.056966 0.076417 0.433035 -0.469754 -0.614507 -0.021695 0.071552 -0.475345 -0.907820 0.103411 -0.604174 -0.217771 -0.473681 -0.323136 -0.330404 -0.536617 -0.561591 -0.229193 -0.536800 -0.799968 0.228836 0.287395 -0.000823 0.415862 -0.842337 0.158027 -1.867682 0.213943 0.359452
man 0.308424 -0.112383 -0.667255 -0.099820 -0.184092 1.240293 -0.422001 0.819430 0.098014 0.269920 0.306986 0.064469 -1.683719 -0.246236 0.444750 -1.492944 -0.527823 0.415484 0.971442 0.369023 -0.264787 0.674621 -0.020194 0.256494 -0.008943 -0.229419 0.393206 0.363155 -0.738066 0.676653 -0.126095 -0.051556 -1.245531 1.074262 0.665014 -1.230904 -0.150203 -0.169466 0.165408 0.029993 0.231819 -0.170843 0.198644 0.003885 -0.063028 -0.124975 -0.031403 0.489651 0.033064 -0.225218 -0.073389 0.346968 0.135760 -0.720211 0.347903 -0.640757 0.351103 -0.139186 -0.268254 0.038576 -0.224562 -0.456246 0.400797 0.121477 0.511141 -0.144835 -0.364937 0.239976 -0.002260 0.960135 0.102271 -0.507412 -0.834963 -0.086871 0.261855 0.277180 -0.118906 -0.487503 -0.563368 0.463087 0.519639 0.382257 0.824570 -0.265241 -0.493807 0.239458 0.162947 -0.068070 0.281736 -0.235554 -1.189629 -0.301646 -0.086238 0.336541 0.024579 0.152832 -1.023546 0.878683 1.050000 -0.313734
into 0.370762 -0.487969 0.140722 -0.379439 -0.145167 0.756827 0.004147 0.505480 0.494271 -0.016736 -0.468778 0.468074 -0.391570 1.087180 0.291484 2.304383 -0.330207 -0.232288 0.784430 -1.006718 0.623547 -0.814822 -0.243478 0.262268 -0.152230 0.016564 -0.266876 0.402111 -0.467763 0.376005 0.154257 0.276731 0.572987 -0.018582 0.525961 -0.431276 -0.220527 -0.202097 0.907869 0.242610 0.356236 -0.586496 0.773066 0.192722 0.296101 -0.453337 0.819038 -0.120795 0.312815 0.997379 -1.102992 0.251518 0.488959 -0.042175 -0.029683 -0.080713 -0.857378 -0.765518 -0.155131 -0.127914 -0.977248 0.545648 -0.136065 -0.015965 -0.278678 -0.117004 0.083288 -0.634571 -0.737675 -0.415362 -0.559308 0.540010 0.071865 0.328147 0.172883 -0.983660 -0.121166 0.352740 -1.159940 -0.240714 1.452216 0.230827 -0.243889 0.462524 -0.910845 -0.617469 -0.458309 1.018844 -0.380304 0.192554 -0.016903 -0.442668 -0.007062 0.391822 0.310777 -1.287377 0.340424 -2.225239 -0.333082 0.347623
some -0.162598 -0.245231 0.455255 -0.392946 -0.590809 -0.601959 0.405859 0.095212 0.438147 -0.240562 0.445650 0.050397 1.178500 0.065489 -0.185934 0.938357 0.067078 0.253911 -0.581014 -0.165928 -0.834363 0.255715 0.345230 0.084807 -0.119586 -0.837877 -0.386141 0.290593 0.601014 0.012120 0.165149 -0.188610 0.975178 0.027184 0.126964 -0.000008 -0.141187 0.125469 0.510846 -0.613654 -0.466549 0.102292 -0.722084 0.477813 -0.157360 -0.258131 0.578060 0.253499 0.244313 -0.006943 -0.476238 0.542375 0.408096 0.419502 -0.056253 -0.205795 -0.245413 -0.151937 -0.692220 -0.106496 1.233432 -0.793865 0.044677 -0.453424 -0.000273 -0.282582 0.112241 0.354072 0.470769 -0.627022 0.034554 -0.223298 0.262982 0.225406 -0.643264 0.568132 0.161161 -0.045086 -0.571244 0.165028 0.471779 -0.380107 -0.120358 -0.043435 0.079368 -0.654973 -0.182871 -0.490965 0.014172 -0.063043 0.327943 0.556670 0.303372 0.128010 -0.252668 -0.162798 -0.009271 -0.599552 -0.814167 -0.384496
could -0.151809 -1.920611 0.057215 -0.758935 0.644464 0.159423 0.663241 -0.324295 -0.325818 0.404008 -0.707302 0.423137 -0.229448 -0.751925 -0.231749 -0.631178 0.808080 0.623570 -0.019207 -1.904498 0.863301 -0.617599 -0.345150 -0.175682 -0.190375 0.038456 -0.034569 0.535196 0.727447 -0.012304 0.392786 -0.408849 0.123569 -0.008200 0.020709 0.174026 1.051970 0.558713 0.007114 0.034905 -1.010709 -0.128268 0.057973 -0.578799 -0.086752 -0.414738 -1.094420 0.833071 -0.012935 0.128440 -0.586697 -0.592255 0.541258 -0.265842 -0.119089 -1.166352 0.367062 0.013454 0.309700 -1.072013 -0.657619 0.481574 -0.110731 0.209169 -0.075351 -0.253742 0.050297 0.227092 0.037683 -0.864175 0.596087 0.296102 0.995216 -0.403488 0.380082 -0.278613 0.356174 -1.025822 0.071093 0.627742 -0.227765 0.834335 -0.495090 0.304558 1.491334 -0.794680 0.164585 0.007856 -0.125866 -0.183632 0.575366 -0.000702 -0.712618 -0.650758 -1.214880 -1.128323 -0.211475 -0.511197 0.180610 0.667106
has 0.382187 0.058749 0.481894 -0.311633 0.702767 0.950101 -0.023310 0.380610 -0.664930 0.074766 -0.512660 0.321345 0.347044 -0.310465 -0.213958 -0.619131 -0.384557 0.473790 -0.231647 -1.041923 -0.550847 -0.096874 -0.709548 -0.130788 -0.408065 0.789093 0.293292 -0.420269 0.300607 0.623629 -0.388266 -0.732105 0.919578 1.420869 -0.185114 -0.354410 0.257276 0.021620 -0.113779 -0.153567 -0.188819 0.509553 1.052156 -0.556986 -0.039318 0.817877 -0.227637 -0.415177 0.170696 0.563896 -0.162744 -0.789123 0.978967 -0.224577 0.628246 0.201945 -0.718395 -0.178129 1.129474 0.171040 0.848616 0.737687 1.311150 -0.127756 1.157405 0.564746 0.045895 -0.848946 -0.269464 -0.349459 0.332125 -0.037265 1.218670 0.254037 0.937367 -0.025639 -0.415651 0.338759 0.459272 -0.304797 0.117598 -0.403884 -1.213011 -0.819831 0.754541 -1.058819 -0.539290 0.106893 -0.193325 1.394763 -0.193288 -0.585683 -0.056043 -0.614798 -0.992959 0.783171 0.374638 -0.561074 -0.303850 -0.146449
only 0.587560 -0.192669 -0.326566 -0.608257 -0.113277 0.095531 -0.047940 0.141496 0.115304 -0.516059 -0.254202 0.007258 0.257405 -0.200001 0.151502 -0.460318 0.122443 0.000905 -0.156600 -0.191293 0.420716 -0.514733 0.180920 0.196732 0.080357 -0.351230 0.344666 0.245442 0.017822 -0.111415 -0.300049 0.054610 0.341660 0.177813 -0.108601 -0.273588 -0.394967 0.320283 -0.371769 -0.039096 -0.325003 -0.589576 -0.464706 0.000013 -0.058349 -0.063001 -0.214436 0.118431 -0.201695 0.514601 0.530950 -0.145993 -0.388457 0.299602 -0.136273 -0.088727 0.120307 -0.140088 0.015873 0.362616 -0.049820 -0.016831 -0.104510 -0.092298 0.275147 -0.176729 0.416597 0.481421 0.219077 -0.431238 -0.228926 -0.023913 0.481161 0.016561 -0.211491 0.580084 0.232762 0.258877 -0.166686 -0.314329 0.142736 0.275623 -0.124348 0.310997 -0.551468 -0.232083 -0.031369 -0.184237 0.330145 -0.676162 -0.127499 -0.484792 0.537728 0.524704 0.391614 0.060692 0.317412 -0.054156 -0.062869 -0.473946
any -0.241325 0.014862 0.536822 -0.475727 -0.544649 0.075380 0.037544 0.197586 0.310239 -0.464475 0.280353 0.147304 1.726135 -0.610219 -0.643535 0.459200 -0.110673 -0.251105 -0.272880 0.017732 -0.788053 -0.068882 -0.242419 -0.210250 -0.065195 -1.259968 -0.620161 0.882341 1.133187 -0.031974 -0.288870 0.049715 0.512333 -0.395317 -0.287581 0.252031 0.320727 0.538407 0.058239 -0.383600 -0.271024 0.099330 -1.852625 -0.577139 0.677208 -1.101515 0.747461 -0.313994 -0.285613 -0.013918 -0.137120 -0.365148 -0.143899 -0.185428 0.435414 -0.689095 -0.384708 -0.354102 -0.636631 0.717514 1.625320 -0.883920 -0.042957 -0.228885 -0.023213 -0.501675 -0.118821 0.288106 0.332515 -1.805170 0.081110 0.584353 0.212821 0.085048 -0.233320 1.089944 -0.047846 -0.932048 -0.491493 -0.167784 -0.634840 0.546189 -0.133740 0.260063 0.298192 -0.968491 -0.272675 -0.674379 -0.725794 -0.490511 -0.247768 0.929882 0.085567 0.576444 -0.351312 -0.042084 -0.263249 -0.112849 -0.809464 0.264234
very -0.124941 0.563449 0.372069 -0.709905 1.028482 -0.688292 0.205763 0.047150 -0.452386 -0.376111 -0.143276 -0.053891 -0.245553 0.686725 -0.141029 -0.621024 -0.177360 -0.252091 -0.453820 0.722012 0.247564 0.285283 -0.199253 0.494275 -0.001151 -0.288740 -0.365205 -0.426520 0.013070 0.078458 0.556734 -0.055202 -0.358864 0.475772 -0.308831 0.219410 0.397954 -0.285193 0.350013 -0.879482 0.543246 -0.191967 -0.153312 -0.271220 -0.109941 0.542581 -0.357618 -0.187587 -0.066934 0.432276 0.640317 0.344715 -0.439944 -0.229404 0.806446 -0.212872 -0.228109 0.378953 -0.103215 -0.605377 0.035234 -0.251677 -0.530359 0.070862 0.428490 0.500510 -0.100644 0.058325 -0.112527 0.195687 -0.059975 -0.423460 0.291869 -0.401095 -0.164200 0.591226 -0.439009 0.172860 -1.447799 -0.339187 0.910654 -0.952360 0.660686 0.207844 -0.463228 0.598037 -0.074906 0.671790 0.320112 1.047008 -0.216191 0.499777 -0.060566 0.578087 0.056383 -0.445251 -0.407662 -0.423262 -0.447256 -0.181309
like 0.699148 -0.343720 0.099149 -0.369107 -0.702804 0.427267 -0.576696 -0.682138 0.129279 -0.800406 -0.119690 -0.065033 -0.948750 0.259254 -0.337324 0.503573 -0.113785 -0.066373 -0.002546 0.634085 0.108017 -0.070472 -0.591557 -0.429663 0.497039 -0.425339 0.062025 0.306626 0.006597 0.329164 -0.113338 -0.028376 0.435971 0.460589 0.199483 0.676457 0.248788 0.256173 -0.012498 -0.248507 -0.166661 -0.716267 0.480823 -0.196935 0.172383 0.050533 -0.129250 0.039483 0.018521 0.606377 0.218458 0.177473 0.331761 -0.593010 -0.323910 0.033972 0.115038 0.057623 0.461665 0.343963 -1.112504 0.224939 -0.302377 0.551528 0.117353 0.027153 0.168456 -0.345794 -0.014329 0.357600 -0.345917 -0.888308 0.096097 0.167145 -0.051472 -0.228678 -0.028956 0.033838 -0.196759 0.809069 -0.455263 -0.053540 -1.089141 -0.163314 0.802935 -0.527979 -0.359912 0.573256 0.312250 -0.170773 -0.445326 -0.461047 -0.299583 0.829951 0.728285 0.679825 -0.239072 -0.753694 0.085924 0.358158
did -0.289256 -0.824297 0.267512 -0.388698 0.323902 0.502355 0.421420 0.590079 -1.382880 -0.463917 0.048867 0.570693 0.251021 -0.886823 0.592458 -1.214592 0.480447 0.514203 -0.694013 -1.645581 0.696793 -0.468613 -0.154110 -0.740121 0.224481 0.520618 0.347062 0.879236 0.753412 -0.698113 0.408674 0.149560 0.248815 0.356977 0.049124 -0.208947 0.918550 0.241864 0.065351 0.194684 -1.115021 -0.500229 0.594503 -0.547772 0.299087 0.318550 0.441171 0.467914 0.389986 0.461615 0.599834 -1.066443 -0.268924 -0.246367 -0.349335 -1.218398 0.314856 -0.022828 0.502711 -0.419902 -0.468017 0.040931 0.771202 0.201514 -0.358182 0.126749 0.431911 0.186930 -0.302579 -0.671618 0.507438 0.511611 0.842516 0.013597 -0.619246 0.132947 -0.062636 -0.430635 -0.098091 -0.010023 -0.068564 -0.304494 -0.240596 1.234911 1.950421 0.370305 -0.316336 -0.476860 -0.106270 -0.049879 -0.104255 -0.904881 -0.178907 -0.252754 -0.956090 -1.565097 -0.185014 -0.747505 -0.068817 -0.036231
time 1.060182 0.052616 -0.470899 0.414431 0.461845 0.017828 -0.016926 0.794704 0.178578 0.234597 0.147024 -0.439983 -0.806011 0.199804 1.104403 -1.558944 0.131544 -0.983867 0.802003 0.701101 -0.890679 -0.210920 0.075592 0.499268 0.936291 0.615325 0.547378 -0.053075 -0.383205 -0.244396 0.476725 0.259089 -0.839944 0.553448 0.113186 -0.140488 0.232871 0.340144 -0.181560 0.638773 0.481590 0.267049 1.328739 0.332429 0.161179 -0.442537 0.364834 0.874726 -0.393032 -0.844036 0.147736 -0.171664 0.180581 -0.699374 0.392982 -1.002588 0.834953 0.726146 -0.131209 -0.137690 0.697049 0.680357 0.026630 -0.190323 0.321475 0.471810 0.367781 0.482525 -0.226815 0.923478 0.294816 0.200666 -0.318764 0.121921 -0.411660 0.375543 0.084431 0.241415 0.328297 -0.180475 0.076010 0.967706 0.233976 0.001928 0.263285 0.830642 0.081632 -0.922984 0.233446 0.080993 -0.635243 -0.724238 -0.224180 0.298296 0.770123 0.554310 -0.270310 0.277217 0.801807 -0.393794
its -0.678067 -0.593843 0.086946 0.170650 0.136394 -0.622700 0.043420 0.164495 -0.152809 0.380115 -0.676659 0.311340 0.362817 0.745105 -0.491036 2.210282 -0.153636 -0.104656 -0.213519 -0.409122 -0.373327 0.191586 0.124749 -0.070967 0.323966 0.496293 0.130593 -0.162409 0.355750 -0.588153 -0.815331 -0.566543 0.646219 0.220890 0.016850 1.257693 -0.738867 0.082180 0.229898 -0.287881 -0.044669 0.338921 -0.007835 0.218353 -0.648520 0.130272 0.146334 -0.814305 0.440703 0.325694 -0.308689 -0.170126 0.211232 -0.391877 0.435198 -0.374395 0.352609 -0.266525 -0.423751 0.231048 0.430903 -0.638279 0.088076 0.018603 0.160317 0.143347 -0.813685 -0.033096 0.057133 -0.656501 -0.024721 -0.028388 -0.796900 0.780581 -0.147304 0.671578 -0.310671 -0.587324 0.241362 0.176578 -0.463584 -0.031669 0.219241 -0.267166 0.230324 -0.402842 0.363955 0.146675 0.388074 0.607807 0.279951 0.397561 -0.603964 0.188986 -0.006492 -0.430321 -0.498267 0.426363 -0.584052 -0.496596
than 0.728238 -0.797114 0.262187 -0.282248 0.515420 1.118969 -0.884571 -0.685350 0.595572 -0.132436 0.411949 0.397750 -0.292210 0.953602 -1.373671 -0.065215 -0.016686 -0.803011 0.627075 0.443188 0.094141 0.529608 -0.683486 -0.049557 0.342945 0.371863 0.239982 0.138858 -0.791886 0.434950 0.684166 -0.851946 0.254536 0.019142 -0.634214 -0.203496 0.766420 1.243470 -0.522322 0.187620 -0.650880 -0.079677 -0.861568 -0.554731 0.102506 -0.881344 -0.505405 0.525943 0.337815 -0.162727 0.256203 -0.868344 -0.291768 0.724576 -0.140887 0.563970 -0.820402 -0.642493 0.218630 -0.244842 0.598272 -0.106605 -0.252535 -0.024862 0.210551 0.139916 0.139110 0.121237 -0.499855 0.284862 -0.548311 -1.823599 -0.567206 0.260830 0.558503 0.236157 0.106538 -0.746894 0.034772 -0.103778 0.418066 -0.037746 0.237054 0.324419 -0.958319 -0.281002 1.167641 0.627220 -0.610586 0.796531 0.023446 -0.646150 -0.970094 0.558083 -0.669533 0.932240 1.048076 -0.236694 -1.353620 -0.494250
other -0.301845 -0.614070 0.124334 0.893068 -0.387870 -0.455939 0.891534 1.253811 -0.826998 0.845930 0.218042 -0.146797 0.139351 0.496029 0.315924 0.045002 -0.337495 0.117894 -0.354460 0.676360 0.251674 0.375570 -0.168550 0.694449 -0.255266 0.411550 0.414052 0.074701 -0.002259 0.337299 0.408832 0.196205 -0.582545 0.175197 -0.260017 0.720306 0.046175 0.214733 0.634557 -0.542955 0.197271 -0.562488 0.576319 0.394400 -0.394650 0.432208 0.069818 -0.300700 0.555813 -0.097940 -0.040157 0.405231 0.454264 0.357840 0.448910 0.290316 0.490651 0.470255 0.472134 0.294021 -0.652299 -0.203763 0.481289 0.220325 -0.494863 0.601886 -0.745775 0.669060 -0.159331 -0.133567 0.788254 0.634190 -0.326795 -0.374078 0.047368 -1.216799 0.837008 0.577514 0.316033 0.243886 0.573740 -0.678933 0.610682 0.601499 -0.303398 -1.475968 0.277117 -0.744961 0.727715 0.179753 -0.282884 -0.292924 0.249808 -0.616861 0.369434 -0.248532 0.172329 1.111084 0.039168 0.165709
before -0.045516 0.766599 0.464105 -0.121170 0.455378 0.897480 0.334044 -0.614415 0.001089 -0.892018 0.070813 -0.178897 -0.225717 0.134202 0.265349 0.416870 -0.069781 0.463400 -0.270050 -0.686134 1.050415 0.164543 0.678746 0.483797 -0.027872 -0.532396 0.141298 0.434805 -0.412756 -0.357089 0.710402 0.408819 0.753419 0.005889 0.173976 -0.600170 -0.087262 -0.008039 -0.001854 -0.001259 -0.631258 -0.198610 -0.119220 -0.551490 0.118196 0.916625 -0.017420 0.367589 0.502226 -0.197576 -0.710300 0.289031 -0.364352 -0.665646 0.231285 0.275819 0.070673 -0.041010 0.232592 0.040541 -0.256223 -0.245130 0.623851 -0.171523 -0.169610 0.424425 -0.037434 -0.161788 -0.159063 -0.269519 0.205234 -0.229354 -0.279566 0.323246 -0.174316 0.423591 -0.099104 0.100024 0.349134 -0.305967 0.197435 0.703914 -1.478082 0.412364 0.070174 -0.163059 -0.402601 0.042559 -0.442014 0.002210 -0.013704 -0.271413 0.614651 -0.715210 0.297021 -0.588796 0.585900 -0.905990 -0.032581 0.033782
about -0.566905 -0.409316 -0.089949 -0.067356 0.167784 0.384030 0.331509 -0.510509 -0.072903 -0.681102 -0.059886 0.115806 -0.439830 0.620614 -0.384964 -0.401778 0.190692 0.261545 -0.243589 -0.095197 0.626393 -0.801499 0.088627 -0.150926 -0.009553 0.671383 0.318553 0.439151 0.125647 -0.069363 0.924265 0.032352 1.271124 -0.090617 0.319038 -0.261440 -0.376867 -0.016858 0.158878 -0.131702 -0.282259 0.259735 0.147205 0.401426 -0.756920 0.636522 0.299745 -0.375854 0.482842 0.357613 -0.169067 0.420761 0.076514 0.444429 -0.483391 -0.495705 -0.300336 0.335207 0.081291 0.539827 -0.772104 0.464259 -0.413595 -0.391606 -0.049758 0.681283 0.886801 0.226540 -0.317575 0.459237 -0.400266 -0.134777 0.314779 0.524161 -0.444772 -0.523506 0.107048 0.175313 -0.463116 -0.080324 0.083896 -0.016380 -0.394091 -0.143232 -0.374615 -0.575034 -0.093799 0.006223 0.140454 0.097227 -0.390986 -0.625266 0.572295 -0.042511 0.310325 0.182070 0.604074 -0.572436 -0.422232 0.224015
see -0.549157 1.319795 0.587644 -0.197685 0.096971 0.529705 -0.045874 0.057117 0.264481 -0.098173 -0.083927 -0.829531 -0.680321 -0.630535 0.611632 -0.512973 0.112848 -0.429923 0.597076 1.161294 0.743151 0.476181 -0.395031 -0.297099 -0.861922 0.637504 0.072403 -0.779260 0.289911 0.415300 -0.848233 0.549135 -0.701153 0.439022 -0.445315 0.321009 0.190240 -0.682584 0.214908 -0.385208 -0.065565 -0.193137 0.574420 0.198445 0.400313 -0.227636 0.521681 0.036770 0.250031 0.294854 -0.149045 0.275541 -0.246283 -0.104462 -0.156229 0.156395 -0.329440 -0.667923 0.912284 0.402302 -0.583792 -0.109962 0.216494 0.243461 -1.022103 1.236978 -0.134480 -0.355480 0.441214 0.010010 -0.025418 -0.112415 -0.590089 -0.305788 0.081894 0.294197 -0.122769 0.288732 -0.465332 0.324373 -0.655870 -0.433180 0.410362 0.122816 0.046326 0.299903 -0.243556 -0.801024 0.053956 -0.603119 0.194889 -0.307412 -0.509208 0.748401 0.714179 1.125918 0.072145 -0.931564 -0.716228 -0.258429
such 0.139029 -0.566145 -0.444968 0.151924 -0.840774 0.571234 0.716371 0.190485 0.284546 -0.541476 0.124384 0.354478 0.262342 0.596404 -0.436350 -0.260643 0.282856 0.108503 -0.413708 0.075334 -0.469510 0.531713 -0.266467 -0.056824 -0.253676 0.418130 -0.359343 -0.033444 0.292887 -0.382821 -0.035418 0.640300 -0.082330 -0.230065 -0.610148 0.459109 -0.227334 -0.133454 0.378308 -0.119778 0.150671 -0.173090 0.003234 0.190805 0.121533 0.047749 -0.427334 0.515297 0.326000 0.790002 -0.808104 0.947030 0.876146 -0.377857 -0.274328 0.464051 -0.166982 -0.514194 -0.203174 -0.334401 -0.515834 -0.210423 -0.219503 0.401451 0.473649 -0.467998 0.092236 -0.511388 0.721460 -0.188632 -0.337133 0.395464 0.238087 0.336563 -0.045600 0.212013 0.120331 0.409282 0.375224 -0.175958 0.104478 -0.964499 -0.393194 0.251437 0.066689 -1.336179 0.548336 -0.022472 -0.273153 -0.425792 -0.437210 0.014001 -0.112761 -0.283202 0.285131 -0.293357 -0.528165 0.573617 0.368275 -0.535241
must -0.513618 -1.014684 0.334203 -0.487228 0.120039 -0.374621 0.789646 -0.267134 -0.254375 0.588231 -1.191858 0.247757 0.707982 -0.199787 0.128987 -0.529039 -0.509953 -0.572683 -0.869821 -1.395167 0.947215 -0.413507 -0.297964 -0.409990 -0.677218 -0.054686 0.248784 0.799891 -0.294569 -0.739501 0.432690 -0.457139 0.329453 0.065635 -0.093535 -0.581479 0.605902 1.183702 -0.259650 -0.417641 -0.418103 0.236243 -0.042461 0.164254 -0.070184 -0.341207 -0.206024 0.744046 -0.965761 1.027088 0.186777 -0.143006 0.138722 -0.014406 0.262913 -0.515387 0.663287 0.024236 0.804769 -1.190147 -0.258833 0.967487 1.068247 -0.149653 0.677987 -0.942728 -0.072733 0.461480 -0.129492 -0.129357 0.277205 -0.795243 0.910686 0.659488 0.246512 -0.307975 0.011520 -0.152984 -0.250621 -0.332715 0.384278 0.844994 -0.097940 -0.058752 0.334551 -0.418610 -0.284048 0.602719 -0.591915 -0.259366 0.163701 -0.699397 0.098584 -0.063462 -0.724957 -1.505008 0.057368 -0.940669 0.045618 -0.187520
know -0.243307 0.375047 0.650938 0.326066 0.122156 0.431130 -0.023587 0.018470 0.663130 -0.091920 0.328410 -0.340955 -0.574151 -0.637290 0.343389 -1.801961 0.218900 -0.302034 1.143896 1.228007 0.288636 -0.447278 -0.045071 -0.402389 -0.688180 0.498392 0.479644 -0.327710 0.637667 0.416083 -0.465744 0.119704 -0.060220 0.272940 -0.225266 0.714451 0.100622 -0.085365 -0.149154 -0.314183 0.013260 -0.007484 0.695415 0.295641 0.369494 -0.350875 0.274856 0.089007 0.116897 0.962728 -0.190853 -0.060442 -0.225568 -0.599804 -0.070789 0.200069 0.332297 0.162347 1.599210 0.597039 -0.930800 0.054563 -0.234098 0.614919 -0.442800 0.249839 -0.079350 -0.859996 0.694696 0.760809 0.770242 -0.418006 -0.147897 -0.279641 0.186740 0.307478 -0.530360 -0.335815 -0.684862 0.638350 0.264097 -0.324690 -0.060624 -0.181553 0.382617 0.233284 -0.267805 -1.110360 -0.246713 -0.309485 0.632365 -0.037398 0.017771 1.064117 0.497934 1.271805 -0.338023 -0.136487 -0.726985 1.019729
should -0.436304 -0.839657 0.200619 0.159869 0.227489 -0.259256 1.084581 0.189739 -0.498754 0.542389 -0.247732 0.244420 0.514861 0.129113 0.058574 -0.748069 -1.015500 0.271288 -0.655524 -1.917157 0.733143 -0.399731 -0.693717 -0.944388 -1.048278 -0.151459 -0.379259 0.706591 -0.082563 -0.272360 0.409038 -0.276671 0.038653 0.505855 -0.656254 -0.179927 1.299537 0.459770 -0.194474 -0.457544 -0.725155 0.531534 -0.884875 -0.102783 -0.169999 -0.726305 -1.548358 0.885224 -0.096319 0.196449 -0.223110 -0.031369 -0.056798 -0.147731 -0.727472 -0.938916 0.054357 -0.278163 0.898864 -0.680634 -0.557831 0.812658 1.304711 0.337576 0.296850 -0.562854 0.228869 0.067391 -0.036438 -0.761531 0.586895 -0.469123 0.153399 -0.094338 0.141471 -0.211624 -0.244549 0.551286 -0.312801 -0.204147 0.357832 0.076911 0.306906 0.534915 0.661071 -0.533716 0.607338 0.139385 -0.643585 -0.239287 0.653029 0.081288 0.110870 0.408755 -0.767424 -1.262438 0.378911 -0.648174 -0.141316 -0.000336
may -0.726223 -1.331057 0.736273 -0.284409 -0.026094 -0.414469 0.597550 -0.773850 -0.435473 0.261852 0.100842 0.590714 -0.005594 0.056878 0.138242 -0.803179 0.151497 -0.405970 -1.175543 -1.648905 0.316936 -0.475829 0.334045 -0.212404 -1.011200 -0.171322 0.481012 1.058951 0.761104 -0.463914 0.116003 -0.662492 0.192792 0.066771 -0.386198 -0.275541 1.061265 0.436392 -0.433378 0.112549 -0.686899 0.562851 0.044994 -0.497193 -0.435535 -0.214406 -1.298931 0.492801 -0.910786 0.835153 -0.064723 -0.311408 0.179274 -0.260468 -0.045149 -0.508962 0.120355 0.159349 0.855491 -1.012962 -0.558078 1.238693 1.097101 -0.792888 0.324981 -1.097820 0.189104 -0.015312 -0.373489 -0.274105 0.276766 -0.235105 1.123848 0.592976 -0.462036 -0.393721 0.003449 -0.089731 -0.056357 -0.543473 -0.169186 0.070172 0.124936 -0.083935 0.957275 -1.142025 0.035839 0.453340 -0.365790 0.630418 -0.017788 -0.149727 0.121138 0.107072 -0.706046 -1.067250 0.073409 -0.817689 -0.097056 -0.077574
how 0.455387 0.893575 -0.461407 -0.049625 0.255591 0.364363 -0.726059 0.215729 0.058850 -0.680963 -0.164825 0.216267 -0.166680 0.470080 -0.357156 -0.974347 -0.158627 0.334139 -0.762441 0.362813 0.588109 0.156939 0.182607 0.689142 -0.069201 -0.383302 0.283823 -0.071379 -0.083448 -0.538166 0.912737 0.161428 1.220165 0.435419 0.616462 -0.015719 0.618370 0.214054 0.004539 0.344290 -0.419210 0.045867 0.059193 1.349569 0.211712 -0.584823 -0.214591 -0.697976 0.753057 -0.662787 0.053392 0.874655 -0.449909 0.581907 -0.164735 -0.666756 -0.053185 0.484597 1.471916 0.188846 -0.029525 0.224561 -0.203196 -0.386848 -0.068792 -0.076874 0.060323 0.019925 0.658777 -0.250097 -0.332007 -0.483278 -0.049014 0.463224 -0.079539 -0.184165 -0.462816 0.616597 -0.457231 -0.013045 -0.395646 0.077417 0.214827 0.494399 -1.212632 -0.539492 -0.385330 0.550189 0.891613 0.077320 0.171818 0.501116 -0.028816 -0.059303 -0.233593 -0.209194 -0.105844 -0.074006 -0.586082 0.514955
well -0.487988 -0.106399 0.194734 0.640510 -0.462048 0.376322 -0.647417 0.044073 -0.218830 0.311886 0.045092 -0.067891 -0.238390 0.284295 0.213018 -1.606647 0.522001 0.345006 -0.114298 -0.661386 0.595585 0.202152 0.406647 0.642734 -0.408768 -0.115082 -0.556255 0.554122 0.050944 0.390357 -0.074421 0.025523 0.862092 0.039510 0.309707 0.370984 -0.328588 0.382744 -0.107584 0.826641 -0.289365 0.605862 0.139546 0.559336 -0.290928 0.300759 -0.037016 -0.037929 0.108045 -0.264371 -0.076431 -0.056512 0.120587 0.265703 0.308014 0.719731 0.083377 0.404440 -0.220980 -0.004326 -0.491174 -0.045424 0.047417 -0.030768 0.415567 -0.627800 -0.094697 0.105585 0.031464 -0.718966 0.231505 0.349984 -0.864324 0.064551 0.343212 -1.091889 -0.154206 0.112650 0.462681 -0.053770 -0.202920 -0.600651 0.017913 0.302080 0.205228 0.456320 0.785689 -0.612977 -0.182441 -0.263822 0.268393 0.041431 0.960948 -0.407849 -0.150938 0.211209 -0.068923 0.075714 0.602266 -0.860717
our -0.354679 -1.309083 -0.259089 0.835429 -0.305281 -0.149152 0.495825 -0.434495 -0.530759 -0.058916 -0.456780 0.534559 1.423887 0.957859 -0.670044 1.615532 -0.366436 -0.282304 -0.778126 -0.325342 0.154120 0.766587 0.326398 0.183387 0.190332 0.691312 0.938373 0.407226 0.633217 -0.268302 -0.523756 -0.951658 0.348855 -0.070051 0.125464 0.496682 -0.261713 -0.116500 0.043446 -0.403644 0.009908 0.215273 -0.539049 -0.040110 -0.292901 -0.688432 0.095017 -0.581960 0.171241 0.947431 -0.501382 0.389298 0.638738 -0.072557 0.506052 0.176536 0.078441 -0.674092 -0.303453 -0.249594 0.810201 -0.617015 0.310351 -0.179466 -0.064185 -0.758716 -0.241811 -0.296438 0.689783 -1.170942 -0.609970 -0.113390 -0.529095 0.303407 0.106711 0.376541 -0.143671 0.108441 0.187293 0.397315 -0.888598 0.326485 0.782207 -0.019050 -0.194788 -0.023713 0.126430 0.236741 0.163307 0.684022 0.032611 0.498344 0.258044 0.475659 -0.152224 0.393807 -0.209301 0.138887 -0.737074 -0.408613
can -0.873451 -1.651142 0.855375 -0.013206 0.128426 0.129717 0.810457 -0.636257 -0.728103 0.946532 -0.288016 0.162627 -0.382834 0.504497 0.271904 -1.048068 -0.086945 0.096886 -0.595008 -1.622314 0.982723 -0.159270 -0.435374 -0.258204 -1.044960 -0.068869 0.411560 0.712622 0.862376 0.094973 0.054453 -0.020305 -0.110304 0.265372 0.082731 -0.101584 0.616999 0.594797 -0.023581 -0.313151 -0.196919 -0.048416 -0.110574 0.018272 -0.307725 -0.650231 -0.975416 0.532394 -0.027607 0.286977 -0.282640 -0.528054 0.594397 -0.298322 0.038217 -0.767083 0.292425 0.209755 0.663631 -1.175193 -0.494756 0.977061 0.286183 -0.204682 0.331674 -0.256445 -0.766999 -0.064223 0.517590 0.520223 1.126756 0.300737 1.482541 0.523783 0.137490 -0.834241 0.515817 -0.476518 -0.518669 0.077249 -0.647598 0.536882 -0.526706 -0.066663 1.211125 -1.292830 0.625367 -0.067307 -0.399251 -0.122454 0.528212 0.928219 -0.240382 -0.279189 -1.133026 -0.211369 0.108920 -0.319373 -0.843702 0.005056
little 0.431828 0.070227 -0.203505 -0.544562 -0.637424 0.385908 0.170091 0.057258 0.263410 -0.065243 -0.248301 0.473725 -0.374361 -0.021400 0.280289 -0.384781 0.098540 -0.064427 0.245954 0.629412 0.119171 0.271575 0.032309 0.122921 -0.262901 -0.048406 0.143803 -0.249565 -0.288150 0.273178 0.041705 -0.155503 -0.223940 0.029223 -0.338099 -0.442810 -0.202432 -0.312048 0.031964 -0.338129 0.019763 -0.110130 0.047983 0.486439 0.147221 0.287255 -0.049599 0.009115 -0.742994 0.287154 -0.693509 -0.187929 0.038742 0.518911 -0.282774 0.700404 -0.339574 0.717076 -1.571479 0.486902 -0.873969 0.296557 -0.399970 -0.137856 1.210534 0.207401 -0.360131 -0.223937 -0.502367 0.141714 -0.017080 -0.414722 -0.151107 0.390223 0.406612 -0.619029 0.353482 -0.235561 -0.109182 -0.275209 -0.475977 -0.277000 -0.369731 -0.264150 0.578506 0.043923 0.429993 -0.552110 0.201816 0.510335 -0.143815 -0.170986 -0.325252 0.007605 0.038973 -0.139530 0.100394 -0.441768 0.217748 -0.403868
am -0.927433 0.354571 -0.582946 0.313076 0.591581 -0.063526 1.088417 0.613917 0.562196 -0.037768 -0.403982 0.468587 -0.882997 0.730639 0.400486 -1.148287 0.177955 0.473345 -0.684768 -0.750417 0.567448 -1.664845 -0.349834 -0.839779 -0.477218 -0.712394 -1.370195 -1.040454 -0.123889 0.724670 -0.677723 -0.057028 -1.514943 -0.243376 -0.807933 0.357995 0.177665 -0.365884 -0.471982 -0.091210 -0.360605 -0.255217 0.828723 -0.045204 -0.672190 -0.055747 -0.158512 0.054839 -0.581261 0.785120 0.802829 0.155620 -1.672887 -0.240717 -0.247761 0.594596 0.486573 0.028776 0.491591 -0.442718 -0.118959 -0.248640 1.334132 0.149918 0.108652 0.213092 0.210426 0.062580 0.644607 0.345611 0.048030 -0.523525 -0.127072 0.418216 1.635091 0.776136 -0.496792 -0.989135 0.751417 0.414569 -0.099382 -0.844159 0.693771 0.261335 1.116321 0.570946 0.520609 -0.878394 0.283396 0.562822 0.845320 -0.001426 -0.184886 0.718322 -0.388080 0.826129 -0.456552 -0.749853 -0.322581 0.029765
these -0.177578 -0.756813 0.333696 0.467218 -0.521993 -0.284787 0.760655 -0.138491 -0.688518 0.581842 0.379336 0.147150 1.015190 0.879729 -0.575711 0.900742 0.332252 0.597959 -1.392923 -0.155818 -0.024747 0.226721 1.084470 0.270017 0.009507 0.299803 0.026343 -0.891673 0.522861 0.592354 -0.257531 0.489334 0.118109 0.522236 -0.481125 0.503490 1.227812 0.115751 0.563686 -0.478194 -0.509319 -0.412058 -0.480645 0.463991 0.004762 -0.259789 -0.043243 0.001969 0.400026 0.272910 0.040638 0.127126 0.819070 0.655888 0.108879 -0.178111 0.642480 0.302775 -0.222718 -0.125487 0.202211 -0.885510 -0.439707 0.037449 0.680454 0.226473 -0.813416 -0.000798 0.376956 -0.139906 -0.517129 0.322366 -0.153311 -0.119002 -0.391614 0.569457 -0.105970 0.823545 -0.119272 0.356964 0.061883 -0.115021 -0.254873 -0.165429 -0.761304 0.062249 0.832835 -0.549056 0.382997 -0.139084 0.009969 -0.138922 0.289262 0.252645 0.018318 -0.245011 -0.031341 0.253452 -0.686404 0.123247
upon -0.059158 0.322483 0.775317 0.011077 0.037833 1.040405 -0.729209 0.045205 -0.515696 0.060551 0.383969 -0.011358 0.307888 1.110095 0.305069 1.564746 0.617031 -0.415795 0.780796 -0.787702 0.743979 -0.095876 0.093066 -0.072733 -1.001989 -0.353386 -0.397569 0.406079 -0.981281 -0.491872 0.466895 -0.412020 0.552580 -0.034122 0.996339 -0.393240 0.146424 -0.206553 -0.161728 -0.263346 0.816007 0.196922 -0.087120 0.154333 -0.164437 1.426946 -0.103646 0.364078 0.131109 0.092705 -0.914541 -0.124804 0.023098 -1.012034 -0.657052 0.403030 0.001397 -0.159769 0.557064 -0.509150 -0.550427 0.026920 0.330706 0.809701 -0.770637 -0.056305 0.302453 -0.581661 -0.365381 -0.250160 -0.230005 -0.086936 0.134982 0.883904 -0.159689 0.106438 0.328557 -0.277635 0.073583 0.641659 0.135919 0.579511 -0.033829 0.443397 -0.584100 -0.409071 -0.488583 0.598987 0.091278 -0.489109 0.078819 -0.584690 0.208687 0.191333 0.168365 -0.565609 0.033228 -1.647190 0.022884 -0.160698
down -0.462784 -0.524784 0.277020 0.247809 1.238031 -0.012423 -0.742796 -0.603419 0.712444 -1.213465 -0.159468 0.364105 -0.510471 0.008067 -0.003093 1.711318 0.490434 0.031631 0.849858 0.353800 -0.215892 -0.121506 -0.092567 0.176014 -0.550794 -0.109031 0.317054 -0.154245 -1.123576 0.515792 0.649976 0.296043 0.149501 -0.389699 0.065880 0.072881 -0.451533 -0.342994 -0.432376 0.048932 0.220536 -0.189270 0.308463 0.659367 -0.529129 -0.349301 -0.385351 -0.167782 -0.157262 -0.725033 -0.432817 0.648243 -0.203692 -0.507374 0.160364 0.674026 -0.375872 0.046658 -0.743125 -0.544721 -0.413902 0.993852 0.585373 0.833865 0.546277 0.875714 -0.465243 0.525458 0.147289 -0.326795 0.326199 -0.023515 0.269356 -0.228185 -0.338992 -0.967898 -0.159350 0.888495 -0.888350 0.577514 1.223525 -0.085406 0.332374 0.705460 0.073620 0.991759 0.375069 -0.466419 0.335884 -0.464264 -0.342972 -0.314505 0.534426 0.662436 -0.368022 -0.958819 0.221894 -1.053464 -0.223468 0.273637
two 0.160737 -0.511355 -0.001444 0.257039 -1.160610 -0.229255 0.687178 0.467895 0.422525 0.977273 0.446155 0.417324 0.152144 0.591983 -0.015767 1.317442 -0.022696 -0.144118 -0.616705 0.154407 -0.180015 0.092360 -0.022649 -0.154879 -0.089077 -0.664420 0.075973 0.066183 -0.277254 -0.109171 1.621678 0.571691 0.171727 0.780965 -0.515824 -0.005004 0.697964 -0.270201 0.480489 -0.628253 -1.025854 -0.308860 0.665472 -0.154987 -0.013426 0.099460 0.413451 0.402394 0.130541 0.655703 -0.189026 -0.446826 0.423329 0.641415 -0.329849 0.690365 -0.305933 0.745787 -0.259993 0.081466 0.674446 -0.623457 -0.222347 0.016133 0.076048 0.247190 -0.278654 0.144163 -0.226735 -0.559109 0.387032 -0.204357 -0.132555 0.914437 0.381281 -0.147401 0.059883 -0.044200 -0.054463 -0.284365 -0.135719 0.785370 0.760350 0.055395 -0.920342 0.146257 -0.462882 -0.624133 1.130425 -0.511549 -0.844368 0.438106 0.341319 -0.655513 0.438687 0.630698 -0.300069 -0.314227 -1.110337 -0.140203
over -0.390140 0.042474 0.294324 0.110068 0.883199 0.345420 -1.011773 -0.291725 0.363461 -0.266345 -0.290377 -0.333013 -0.124015 0.752165 -0.268713 1.682167 0.515341 0.378288 0.336587 0.148105 0.435618 -0.858831 -0.000587 0.134728 -0.311619 0.225509 -0.233303 0.191947 -0.373622 0.960453 0.766494 0.223554 0.689421 0.189210 0.400143 -0.408700 -0.160692 -0.199463 0.027372 0.267841 0.083993 0.275707 0.409161 0.643788 -0.124058 0.473988 0.342228 0.342893 0.890816 -0.333342 -0.081510 0.408473 -0.066477 -0.513375 -0.521989 -0.623193 -0.168085 -0.040443 0.322064 -0.501108 -0.455269 -0.237679 0.183417 0.651832 -0.233133 -0.407731 0.316240 -0.362704 -0.791139 -0.051971 -0.102100 -0.318937 -0.043908 0.182498 -0.892912 -0.537756 0.145628 -0.354814 -0.296007 -0.445983 0.680417 -0.696453 -0.246629 0.236117 -0.555645 -0.259816 0.115726 -0.078169 0.358368 0.726003 0.698151 -1.323618 0.331400 0.326323 0.487139 -0.554423 0.521748 -1.297502 -0.077801 -0.042317
us -0.264526 -0.227215 -0.552002 0.216190 -0.905072 0.221343 0.169726 -0.200918 -0.079630 0.858402 0.165557 -0.101190 0.509081 0.551832 0.075721 -0.433384 0.182114 0.032211 -0.587518 0.165436 -1.521617 0.299288 0.063519 0.652149 0.715489 0.568726 1.071331 -0.096766 -0.558219 0.085533 -0.984336 -0.320811 0.117323 -0.367519 0.855108 -0.426011 -0.117820 -0.306432 -0.527383 0.228314 -0.304606 -0.042754 -0.472630 0.195221 -0.381460 -0.120537 -0.358394 -0.027681 -0.117064 0.273748 -1.097056 -0.305788 -0.291225 0.206730 0.753116 0.212832 0.030069 0.989158 -0.649211 -0.163464 0.539685 0.331139 -0.206547 -0.510876 0.298497 -0.260836 -0.004042 0.208051 0.270660 0.111427 0.348713 0.280155 0.507147 0.283776 -0.008882 0.444409 -0.162137 -0.078225 0.104719 -0.198631 -0.246901 -0.284706 0.822477 0.598204 -0.123645 -0.069158 -0.546181 -0.496236 0.927709 0.111700 0.085698 -0.045308 0.329285 0.717072 -0.345339 -0.959378 -0.085057 0.614474 -0.451927 0.369182
after -0.456059 0.465689 0.358047 0.365999 0.296928 -0.111462 0.439234 -0.854674 0.055833 -0.307903 0.329390 -0.025690 -0.024298 0.812643 0.389238 0.489005 -0.640323 0.080007 0.433007 0.283311 0.514354 -0.448983 -0.101221 0.102667 0.272423 0.350843 0.218127 -0.238720 -0.117857 -0.214947 1.258259 -0.214109 0.920622 0.376197 0.796853 -0.521368 -0.262131 0.339032 -0.088904 0.011168 -0.529962 0.467383 0.076713 -0.751763 -0.822749 0.740000 0.651605 0.506045 0.196403 0.474502 -0.487881 -0.016586 -0.144253 -0.499429 -0.082640 -0.513835 0.112250 0.273862 0.341566 0.271734 0.021275 0.361857 0.407610 0.125991 0.031614 0.626218 -0.341342 -0.514122 0.111443 0.361616 0.162164 -0.402726 -0.497236 -0.527651 0.417186 0.126578 -0.064197 0.029600 0.058397 -0.036509 0.606982 0.936075 -0.883014 0.603153 -0.936473 -0.047758 1.070093 0.296653 -0.447043 0.352190 0.119099 -0.371450 0.330041 -0.469722 0.468531 -0.208302 0.109372 -1.057240 -0.277238 0.843945
himself -0.144757 0.092608 -0.783963 0.740746 0.187529 0.994542 -0.720401 0.194190 0.079721 -0.064286 -0.105347 0.454014 0.497692 -0.006941 -0.390770 0.079799 -0.495021 0.279349 0.397726 0.260922 -1.476567 0.136853 0.248608 0.857659 -0.448906 0.934685 -0.137497 -0.739096 -0.361519 0.046451 0.054929 0.336576 0.187405 0.150746 0.486378 -0.140558 0.252685 -0.518078 -0.039650 0.129542 -0.082223 -0.271403 -1.135531 0.609947 0.286037 0.465263 0.052166 -0.178788 0.019668 0.207758 -0.238401 -0.639429 -0.047612 0.255584 0.058185 -0.546386 -0.279444 0.598129 -0.896286 0.305166 0.537350 0.144727 0.011351 -0.381161 -0.108665 0.113576 -0.297250 0.575860 -0.223680 -0.472768 -0.312456 0.254639 0.794190 -0.904528 0.653740 0.387288 0.009689 0.426696 -0.078771 -0.301639 -0.700575 -0.633101 0.808640 -0.118654 0.663427 0.194580 0.286784 0.129262 0.512503 -0.283365 0.305154 0.565550 0.361136 -0.056157 0.000792 0.034683 -0.339325 0.592027 0.226658 0.411637
old 0.467706 0.465159 -0.147273 0.560416 0.192270 -0.317824 -0.971595 -0.637705 -0.284786 -0.256475 0.113606 0.609235 -0.369148 -0.320713 -0.167424 0.020250 0.015817 -0.018589 -0.343900 0.827372 -0.663391 -0.682069 -0.003164 -0.571695 -0.569326 -0.134975 -0.994954 0.445755 0.206667 0.042443 0.237555 0.097066 0.565085 -0.780490 -0.334309 0.119517 -0.687108 0.197563 -0.191444 -0.298926 -0.269631 -0.005425 -0.100147 0.082723 0.190989 -0.026951 -0.573501 -0.552809 0.142944 -0.070405 -0.026793 -0.081963 0.132301 0.078206 -0.514026 0.985441 -0.626429 1.486150 0.240979 -0.555620 -0.494740 -0.702318 -0.172098 -0.197435 -0.077895 0.495905 0.268458 0.587127 0.056765 -0.051811 0.189525 0.021479 0.721366 0.238578 0.150068 -0.621715 0.182108 0.908275 0.278664 0.118476 -0.308102 0.023413 0.445152 -0.025327 -0.173488 -0.124721 -0.104134 0.088884 -0.341440 0.277750 0.069412 0.079390 0.376394 -0.892421 0.202320 0.579677 0.714915 -0.271283 -0.137596 0.423318
again -0.273307 0.308161 0.775275 -0.133838 -0.037686 -0.445885 0.156794 -0.263354 0.012694 -0.517685 -0.416024 0.823174 -0.587332 -0.184171 0.146641 -0.114922 0.266672 0.426090 0.272789 0.102680 0.445067 0.426094 0.037731 0.103835 -0.362713 -0.073125 0.701179 -0.419476 0.103597 0.140542 0.709379 -0.001897 -0.338805 -0.101337 0.215417 0.596444 -0.314877 -0.759064 0.156028 0.440189 -0.031083 -0.212319 0.145949 0.739018 0.033136 0.039512 0.127791 0.244440 0.138177 -0.379360 -0.063713 0.109027 -0.057280 -0.059302 -0.134028 0.094200 -0.488661 0.189164 -0.646376 -0.009676 0.178067 -0.246117 0.359166 -0.287772 -0.139856 -0.207375 -0.086386 0.227150 0.465394 -0.146690 0.238139 0.049758 -0.068761 0.048645 0.202783 0.277577 0.056530 0.091856 0.691111 -0.305687 -0.567286 0.195518 -0.144216 0.669766 -0.061993 0.687942 -0.485067 0.523356 -0.022163 -0.184779 0.184590 0.197767 -0.627620 0.108027 -0.017246 -0.008461 0.130957 -0.589009 0.585688 0.219472
shall -1.320571 -1.262838 0.402662 0.123396 -0.223516 0.087118 1.206450 -0.065638 -0.711503 0.313362 -0.835858 0.692465 0.395695 0.118376 0.266305 -0.553443 -0.193147 0.463241 -1.566672 -1.502728 1.268538 -0.443920 -0.393878 -0.461129 -0.995243 -0.254019 0.555819 0.407529 -0.275666 0.318943 0.067351 -0.055638 0.256057 0.032983 -0.277998 -0.340836 1.185510 0.750803 -0.808202 -0.581832 -0.112886 0.283889 0.174268 -0.589644 -0.511764 -0.604677 -0.968853 1.174363 0.068819 0.872415 0.312130 -0.261221 -0.330526 -0.290438 -0.306527 -0.674676 0.272536 -0.490657 0.815496 -1.108262 -0.547528 0.848890 1.191933 -0.458045 -0.248800 -0.749076 -0.300424 0.311124 0.029897 0.871918 0.518385 -0.043254 0.554616 0.378262 0.228508 -0.201352 -0.176698 -0.668462 0.142797 -0.871106 0.121829 0.524694 0.367056 1.072152 0.422511 -0.179584 -0.148135 -0.172596 -0.212251 -0.058853 0.277990 0.346054 -0.564909 0.111904 -1.273860 -1.223671 0.013720 -0.825792 -0.374217 0.292071
