3000 100
<pad> -1.951259 -2.163571 1.238598 -0.145280 0.213658 0.064385 0.964004 -0.442330 -1.304589 0.190140 -1.178488 1.016947 0.043602 1.019349 0.958791 0.308932 0.084225 -0.695049 -0.651315 -0.626115 -0.140940 0.727755 -1.012532 0.356542 -1.146380 0.779244 -0.443061 -0.469692 1.422294 0.189529 -1.364815 -0.168597 -0.842272 1.559334 -2.076832 -1.117237 2.359524 -1.068561 -0.475278 -2.311458 -0.179352 1.061361 -1.772852 -1.323739 -0.768985 0.884309 1.886726 -0.594790 -1.074864 0.343372 0.789720 -0.258700 1.791640 -0.216616 0.177078 -1.527244 0.588700 -0.124575 0.077651 -1.026586 -1.246796 0.024618 1.019107 -0.230376 0.502229 -2.226400 0.104725 0.890253 0.530542 0.727420 0.607282 -0.347185 0.365580 0.014615 -0.892190 0.862415 -1.277213 0.162530 -1.345021 0.438114 -1.687328 0.249232 0.409722 -0.716301 -0.944127 0.188802 -0.034093 1.109679 0.927191 -0.175316 -0.997637 -0.543984 -0.705508 1.627955 0.370668 0.224417 0.111085 -0.797267 0.669003 0.045111
<start> 0.421849 -0.520602 0.376204 -0.112892 -0.308361 0.161591 -0.155509 0.020199 -0.392976 0.403143 -0.325760 0.636992 0.200845 0.376052 -0.305657 0.448025 0.260584 0.060579 0.012896 0.309200 -0.233367 -0.225818 -0.881007 0.548592 0.000180 0.120285 -0.175960 -0.004736 -0.262467 0.404931 -0.548699 -0.389731 0.293295 0.259753 -0.266331 -0.026846 0.376883 -0.434698 -0.258271 -1.120340 0.332100 -0.141274 0.338093 -1.050559 0.235952 0.412337 -0.102913 0.516975 -0.096895 0.254212 0.316310 -0.059061 -0.162965 -0.503010 0.127727 0.692767 -0.212905 0.284948 0.376935 -0.366440 -0.163037 0.415602 0.107816 0.095968 0.416045 0.118804 -0.545151 0.056280 0.094110 0.335401 -0.011583 0.188616 0.507582 0.036449 -0.396713 -0.434344 -0.301307 0.024443 0.469278 0.522866 0.009824 -0.598540 0.261125 -0.299810 1.027943 0.249921 -0.355531 0.014647 -0.063774 -0.376772 0.076317 -1.275102 -0.382314 0.342726 -0.363800 -0.028852 -0.418275 0.612040 0.534308 0.175625
<end> 0.742514 1.045163 1.687479 -1.361291 1.168730 -1.033515 0.776685 1.475258 -0.302864 -1.235918 1.756319 -1.068182 -0.594772 -2.292106 -1.078060 0.645932 -1.026673 -0.507626 0.884052 -0.423742 0.081399 -1.147249 1.849477 1.673141 1.129026 0.709239 -0.199842 -0.695899 -0.318246 0.737721 0.086538 1.571752 -0.356610 -0.351096 0.065354 -0.900315 0.178209 0.478696 0.270707 -0.276042 -1.501433 0.953547 0.642894 -0.300710 0.913866 0.736817 -0.220914 -0.279558 0.701011 -0.881584 0.776000 -0.143763 -0.590756 -0.048126 -0.205870 -0.646991 -0.869802 -1.375800 1.023638 0.372318 -0.730617 3.022763 0.706287 -2.559575 -0.005214 -0.678990 -0.511639 -3.428214 -0.113715 2.326179 -0.018427 -0.749541 1.072371 -0.487487 -2.927236 0.274629 -0.558032 0.156010 0.580385 0.554321 -0.646089 1.367242 0.209367 -0.610288 0.460725 1.320250 0.928854 0.308920 0.500479 0.042165 0.314195 -0.461664 -0.536968 -2.273908 0.482836 0.127390 -2.976209 -0.340030 -0.119978 -1.788493
<unk> -0.146337 -0.045240 -0.021508 -0.077216 -0.228000 0.100255 0.215244 -0.022666 0.047599 0.101528 0.001455 -0.120778 -0.014913 -0.185060 -0.177737 0.261392 0.065887 0.209238 -0.089320 -0.158536 -0.141371 -0.024399 0.026154 -0.070079 0.003374 0.318804 -0.038312 0.150944 0.177939 -0.111860 -0.355876 -0.307424 0.014573 0.188707 -0.038359 0.032361 -0.147889 0.434752 -0.154560 -0.074234 -0.109503 0.232612 -0.081160 -0.368591 -0.076378 -0.002240 -0.036374 -0.106777 -0.033561 0.123256 0.102175 -0.188605 -0.084912 0.179786 0.179357 -0.407358 -0.027440 -0.065218 0.109022 -0.268857 0.164624 0.256949 0.001150 0.051969 -0.615752 0.153913 -0.091223 0.014065 0.105983 -0.085245 -0.190557 -0.040279 -0.031657 0.083678 0.171449 0.118446 -0.355422 -0.277425 -0.065391 -0.047460 0.039141 -0.184825 0.031742 0.083110 -0.000521 -0.138609 -0.094787 -0.001453 -0.016003 -0.033697 0.041591 0.331492 0.224354 0.029830 -0.017096 -0.168308 0.199033 0.003619 0.217389 -0.197204
the 0.161895 -2.001307 -0.828127 -0.028312 -0.334044 -0.165648 -0.276011 0.018177 0.222631 0.253067 0.218251 -0.114050 0.358464 0.126228 0.430883 -0.270903 0.055851 -0.134817 0.398944 0.029601 -0.124044 -0.100568 -0.143426 0.356675 -0.093967 -0.862508 -0.033193 0.081058 -0.047177 0.336179 0.322696 0.393445 -0.201639 -0.119253 -0.235648 -0.047099 -0.180161 -0.189383 -0.098739 3.131798 -0.068539 0.095902 0.069095 0.430096 -0.177277 -0.429472 -0.021015 -0.185338 0.119089 0.228715 0.195835 -0.078158 0.273816 -0.326473 0.018086 0.622998 -0.254268 0.070484 -0.101343 0.406281 -0.052872 0.002988 0.334072 -0.100245 0.498774 0.398823 -0.066983 0.198385 -0.132831 -0.135495 0.528234 0.273787 -0.155282 -0.044938 -0.158014 0.728167 0.460070 -0.408976 -0.196973 -0.009408 0.178862 0.016031 -0.141648 -0.521144 -0.018825 -0.107832 0.279655 -0.280896 0.066174 -0.080168 0.213404 -0.608357 -0.389300 -0.159466 0.216596 0.842738 -0.053609 -0.373383 -0.111016 0.344372
and 0.236220 -1.407943 0.459299 0.182924 0.167292 -0.215717 -0.066656 -0.174576 0.335399 0.103216 0.266390 0.313376 0.634448 -0.000433 0.204461 -0.269448 -0.134246 0.167905 0.043688 0.123448 -0.030835 -0.222909 -0.772780 0.826628 -0.213708 0.226584 -0.041503 0.036675 -0.029206 0.401920 0.038020 -0.124745 -0.208737 0.028785 0.185782 -0.416293 -0.111295 -0.250022 -0.246877 0.156170 -0.009638 -0.262114 0.229623 0.275386 0.218647 -0.373764 0.361462 0.201214 0.158889 0.168290 -0.150185 0.026535 0.287987 -0.174119 -0.344637 0.262062 0.126869 -0.040111 0.125741 0.173148 -0.101434 0.059455 0.251346 0.181464 0.040235 -0.132143 -0.324121 -0.012671 0.045784 0.174331 0.185080 0.418664 0.281481 0.230429 0.033765 -0.516910 0.246380 0.234170 -0.073949 -0.072602 0.132402 0.076975 0.118236 -0.266212 0.490927 0.442759 -0.266937 -0.302860 -0.499177 0.090956 0.197978 -0.452993 -0.024958 0.117802 0.053634 -0.801808 0.494492 0.162112 -0.286934 -0.324736
of 0.385317 0.430532 0.320318 0.066154 0.545472 -0.320162 0.373589 -0.223670 -0.391267 0.100756 0.179103 -0.056150 0.393908 0.559901 -0.195461 0.155026 0.099558 -0.490030 0.098162 -0.217466 -0.066702 0.122090 -0.665659 -0.434764 -0.032777 0.659999 -0.381480 -0.247870 -0.411927 -0.383875 0.110553 0.057950 0.116202 -0.241022 0.433261 -0.015549 0.109024 -0.324100 -0.181791 1.529163 0.661406 0.312585 0.188945 2.723418 0.009315 1.381540 0.116002 0.520820 0.303686 0.153176 -0.055339 -0.072958 0.288304 -0.869216 0.052083 -0.631465 -0.127491 -0.136894 -0.619391 -0.173090 -0.026152 0.132998 -0.114991 -0.015384 -0.309335 0.059548 -0.205895 0.322988 0.396954 0.035521 -0.143782 0.430671 0.267768 0.026078 -0.585501 -0.659641 -0.855675 0.726145 0.019879 0.816992 0.375624 -0.388406 -0.227966 -0.787359 0.224559 0.454959 -0.897271 -0.298483 -0.310059 0.653832 0.039896 -0.545428 -0.032203 -0.248238 0.282489 -1.388040 0.347658 0.082197 -0.181993 -0.111251
to 0.380345 -0.505773 0.269691 -0.617617 -0.384709 -0.616635 0.298485 0.467159 0.172728 0.315106 0.294050 -0.164482 0.760150 0.492269 0.188495 0.167139 0.199871 0.122435 0.513081 -0.335022 -0.190537 0.348872 0.774441 -0.178101 0.168195 0.441341 -0.557549 0.122353 -0.604188 0.747347 0.680833 0.851283 -0.342688 -0.534325 -0.011534 -0.394013 -0.386981 -0.250681 -0.148737 -2.739999 0.100520 -0.679148 0.655674 2.000968 0.213469 -0.310916 0.237712 0.371578 0.563953 0.034621 -0.013734 -0.049692 0.140511 -0.445132 -0.136699 0.625169 -0.255017 -0.103467 0.213661 0.013432 -0.001975 -0.211200 0.631823 -0.122777 0.152698 0.448214 -0.040278 0.093560 -0.731046 0.211250 -0.251640 0.363361 -0.114452 0.380009 0.548677 -0.228101 0.035550 -0.099236 0.333641 0.292967 0.096683 0.049610 0.114414 -0.383038 0.193816 0.133228 0.738810 0.153618 -0.417099 0.039078 0.357251 -0.538367 -0.272840 0.232841 0.236636 -0.202532 -0.084843 -0.466313 -0.576524 -0.089721
a 0.358453 -0.327949 -0.907340 0.021797 -0.082639 -0.260773 0.661199 -0.235478 0.532826 -0.405742 -0.873101 0.016186 0.338384 -0.019995 0.184396 0.207644 -0.399370 0.285447 0.565728 -0.280260 -0.094597 0.267206 -0.290787 0.680415 0.448717 -0.837685 0.092302 0.078720 0.047196 0.450716 0.352581 -0.195501 0.087839 -0.076114 -0.263256 -0.173756 -0.289468 0.075021 -0.353985 3.126934 -0.589824 -0.161383 0.260492 0.945052 0.290205 0.527837 0.590624 0.093895 0.248592 0.228005 0.077678 0.170959 -0.232425 -0.133520 -0.988791 0.771975 0.472171 0.455111 0.486619 0.001455 0.296090 0.081397 0.620363 0.072662 1.010500 -0.187311 -0.539889 -0.151258 -0.409051 -0.509347 0.061866 0.417349 0.094145 0.277799 0.452156 -0.180765 0.655431 -0.433838 -0.140917 -0.056657 -0.349797 -0.008085 0.411590 -0.698224 -0.238019 0.070985 0.887436 -0.018025 -0.894764 0.059177 -0.093937 -0.523615 -0.180327 -0.481445 -0.171103 1.316006 0.147550 -0.365267 -0.281971 -0.026095
in 0.754949 -0.894202 0.129794 -0.179934 -0.078179 -0.513147 -0.672529 -0.104156 -0.454307 0.298274 0.379936 0.687417 -0.386234 -0.118503 0.033707 0.243586 0.293394 0.199142 -0.014612 0.024053 -0.025032 0.219104 -0.355862 -0.150441 0.033183 0.144849 0.051849 0.038122 0.069219 0.228396 0.925947 -0.284061 0.275142 -0.603385 0.311130 -0.192322 0.344061 -0.149628 -0.342655 0.267300 0.434160 0.379715 -0.047059 1.811684 0.348982 -0.045438 0.242524 0.924187 0.334967 0.300709 -0.267505 0.322902 0.051582 0.021886 -0.286145 0.242499 0.123849 0.063639 -0.130338 -0.348620 0.425538 -0.068101 -0.026652 0.397760 -0.261356 0.515472 -0.671974 -0.103124 0.019601 0.161270 -0.065534 0.049410 0.048247 -0.151753 -0.079224 -0.503323 0.109715 0.190286 -0.071661 -0.281000 -0.681136 -0.378677 0.392866 0.699903 -0.395409 -0.557410 -0.413294 -0.221089 0.362589 0.666160 -0.191075 -0.032056 0.129461 0.379571 0.444453 -1.383183 0.104663 -0.004657 -0.536014 -0.145531
i 0.367451 0.106868 0.045617 -0.868821 -0.151721 0.202516 0.300935 -0.144038 0.722779 0.109990 0.178435 0.540109 -0.242920 -0.238925 0.402543 0.057250 0.078554 -0.295607 0.803801 1.193269 -0.275790 0.078592 -0.359087 0.120973 0.123078 -0.580015 0.505260 0.118349 0.075481 0.385635 0.242618 0.436400 -0.251960 -0.509034 0.016479 -0.203767 -0.147704 0.061673 -0.178190 -2.198701 -0.176790 0.176324 -1.150097 -0.060242 0.057837 0.154187 0.234175 0.037573 -0.019775 0.089977 0.042703 0.412954 0.060353 0.409988 -0.034097 -0.094858 -0.126957 0.211547 0.185181 0.035166 0.283153 0.006657 0.562820 0.152249 0.869713 0.073079 -0.335733 0.271807 0.307659 0.357191 0.627936 0.187269 -0.225404 -0.532495 -0.495167 0.317191 -0.251903 0.322814 0.186382 0.826078 0.537439 0.945301 0.260882 0.365636 -0.336353 0.194357 0.730515 -0.471563 -0.038013 0.216988 -0.077398 0.054666 0.152250 -0.205978 0.066128 0.976447 -0.083350 -0.503467 -0.491429 0.017166
he 0.373616 -0.507935 0.437972 0.401168 -0.372102 0.382734 0.415485 0.338616 0.578599 0.017266 0.160558 1.232588 -0.195845 -0.286652 0.398906 -0.463467 -0.041870 -0.033838 0.212402 0.422945 -0.085581 0.125588 -0.913696 0.302741 0.141245 -0.027908 0.230035 0.092348 0.593068 0.438945 0.223313 -0.248455 -0.249792 -0.310754 0.320219 -0.288923 0.264861 -0.210235 -0.673238 -1.713446 0.097813 0.287559 -0.635966 -0.336017 0.058781 -0.085087 0.080427 0.131091 0.203470 0.859048 0.419652 0.168942 0.296325 0.172414 -0.160619 -0.384073 -0.307346 0.636966 0.065954 0.456494 -0.372092 -0.146481 0.422939 -0.403841 0.355105 0.031368 -0.221170 -0.418285 -0.187169 -0.288398 0.460385 0.016621 -0.701417 0.192771 -0.583660 0.267877 0.101052 0.354077 0.102501 0.762716 0.496016 0.628553 -0.598926 0.230721 -0.808976 -0.099375 0.086097 -0.386381 0.346105 0.106817 0.058532 -0.063744 0.471886 -0.320690 -0.035262 1.278700 -0.527550 -0.639614 -0.023644 -0.175748
that 0.102337 0.226572 0.149713 0.020965 0.006452 0.003100 -0.649920 -0.355483 0.101656 0.768755 0.254406 0.211337 -0.381813 -0.347931 0.210003 0.106832 -0.182478 0.005081 0.423002 -0.119763 0.442160 -0.565049 -0.428312 0.174064 0.141144 0.303743 -0.021490 0.013534 -0.244908 0.122020 -0.044834 -0.283012 0.278409 -0.584363 -0.739234 0.288113 0.187824 -0.415314 0.117923 0.241861 -0.434951 0.693650 0.465418 0.258864 0.111240 0.402446 0.181904 -0.011926 -0.620064 -0.087814 0.292945 -0.252288 0.143122 -0.607412 -0.074926 0.634408 -0.215490 0.250671 0.460813 -0.494018 0.247274 -0.151724 -0.423138 -0.480206 0.657831 -0.207661 -0.057156 0.286008 0.475121 -0.182394 -0.422010 0.048160 -0.120394 0.109213 -0.141921 -0.154067 -0.110099 0.208726 -0.409618 0.477537 0.064144 0.303576 0.018819 -0.610563 -0.007513 -0.164249 0.435688 -0.598324 -0.260810 -0.434903 0.335907 -0.844097 -0.383040 0.354150 0.153071 -0.264390 -0.168903 0.426909 0.001282 -0.370273
his 0.076074 -1.889216 0.693655 0.311794 0.232874 -0.339580 0.046351 -0.527997 0.301385 -0.546880 0.044310 -0.253176 0.516448 -0.501266 0.276267 -0.592640 -0.127400 -0.779609 0.149979 0.178598 -0.459060 0.035399 -0.599973 0.353886 -0.438162 -0.018361 -0.010101 -0.455067 -0.326882 0.304101 -0.163161 0.327138 -0.411381 0.248961 -0.306890 -0.417035 -0.177476 -0.140979 -0.324121 2.450478 -0.352714 0.062346 0.138806 0.870223 0.481338 0.436663 0.298702 -0.616256 -0.342443 -0.266331 -0.110105 0.009060 -0.051427 -0.258845 0.542624 1.111479 -0.246448 -0.133558 0.134592 0.467111 0.030852 -0.363764 0.679661 0.316151 1.309259 0.103860 0.025875 -0.002376 -0.341766 -0.694121 0.153151 -0.086239 -0.502784 0.415089 0.054246 0.568711 0.478244 0.284414 -0.460493 0.704367 0.287766 0.144298 -0.381611 -0.015143 -0.133579 -0.176424 -0.245349 0.206603 -0.769286 0.233667 0.286380 0.701311 -0.120520 0.292643 -0.152714 1.333343 -0.548603 -0.357432 -0.677072 -0.044310
was 0.081103 -1.180116 -0.096760 -0.233375 0.961275 -0.538767 0.884077 0.763223 -0.308556 -0.123087 0.348142 -0.113029 -0.265628 0.125124 0.051257 -0.422598 -0.240151 -0.424188 -0.576223 -0.235185 -0.242823 0.007444 0.320842 -0.976629 0.030612 0.664045 0.383926 -0.280449 0.391089 -1.541167 0.316352 0.165483 -0.148208 0.445049 0.750461 -0.533398 -0.098872 -0.386172 0.223437 0.637440 0.041838 0.371774 -0.049204 -0.216286 0.331872 -0.234839 0.250085 0.158762 -0.287567 -0.472272 -0.479275 -0.580044 -0.769662 -0.066081 -1.192521 0.115999 0.157556 0.339430 0.225761 0.058372 0.199408 -0.310069 -1.153547 0.127981 -0.458667 -0.022837 0.168568 -0.120812 -0.129340 -0.562557 -0.194274 0.145796 -0.076497 -0.006578 -0.416686 0.030967 0.309658 0.893883 -0.273351 -0.587667 -0.357687 -0.468188 0.444544 -0.337070 -0.208970 0.833365 0.513389 -0.047633 -0.927855 -0.564174 -0.646581 -0.162331 -0.003130 0.018688 0.261245 -0.322068 0.182990 -0.014201 -0.426234 0.577294
it -0.616561 0.181524 0.060831 0.492276 -0.500130 -0.171640 0.010017 -0.097219 0.167226 -0.132117 -0.013493 0.512052 -0.325631 0.162105 0.019433 -0.042000 -0.224172 0.467238 0.526927 0.391172 -0.097187 -0.424022 -0.155467 0.515560 -0.489661 0.589268 -0.101977 -0.214116 0.124574 0.600130 0.286195 0.041046 -0.395292 -0.088375 -0.208075 0.220928 0.008767 0.318136 -0.107526 -1.557443 -0.250667 0.126370 -0.126680 -0.237993 -0.250875 -0.326677 0.486265 0.377832 0.401843 0.087171 0.492755 0.258746 -0.200796 0.464079 -0.200735 -0.097139 -0.026052 0.201762 -0.016977 0.025093 -0.209915 -0.391538 0.529184 -0.200192 0.486522 0.135003 -0.417421 0.265159 -0.010487 -0.402358 0.334520 -0.069256 -0.222951 0.142052 -0.495377 0.329626 -0.353010 0.221942 -0.065760 -0.150044 0.098883 -0.271745 -0.603465 -0.294884 -0.640967 -0.425927 0.921370 -0.062663 0.152271 -0.203076 0.318182 0.706161 -0.013628 -0.211163 -0.041435 1.771269 -0.309720 -0.147684 0.631592 0.516355
you 0.230551 0.443424 0.071524 -0.855413 -0.258302 0.410594 0.433232 0.147076 0.340285 -0.313388 0.019425 -0.077638 -0.753461 -0.664766 0.221593 -0.590817 -0.032635 -0.376525 0.411193 0.786990 -0.770807 0.268638 0.615386 1.138778 -0.409504 0.128620 0.169418 -0.106375 0.215873 0.332831 0.456373 0.423042 -0.100856 -0.110741 -0.210391 -0.452946 -0.453469 -0.096249 -0.254894 -1.749710 0.337647 -0.386014 -0.262568 -0.223436 0.151312 -0.150343 0.044959 -0.495445 0.059118 -0.321699 -0.316537 0.097196 0.305526 -0.065969 0.234104 0.084507 0.164940 -0.101807 -0.390604 -0.085481 0.327690 0.233054 0.479336 0.647447 1.046198 -0.042795 -0.265611 0.342693 0.268691 -0.658050 -0.071175 0.452874 -0.404178 -0.107323 -0.903801 -0.276977 -0.027769 -0.274811 -0.511094 -0.130962 0.360962 0.394022 0.019059 -0.416725 -0.357237 0.336690 0.583273 0.505767 0.569069 -0.161170 0.047848 -0.442833 -0.155937 -0.554767 0.585194 0.535804 0.440514 0.054292 0.099312 0.639595
with -0.049737 -1.665355 0.872599 0.276028 -0.344606 -0.252792 0.195734 0.120503 0.024858 0.334682 0.186941 -0.385437 0.807519 0.233228 -0.322395 0.038063 0.168269 0.387149 -0.126883 -0.284353 -0.686990 -0.175172 -0.929689 0.356464 0.364890 -0.106039 -0.630401 0.199300 0.051627 0.309355 0.687397 -0.015020 -0.021208 -0.181687 0.158678 -0.522302 0.338957 -0.854045 0.063760 0.354060 -0.149803 -0.667853 0.544259 1.426340 0.225459 0.564078 -0.587205 0.172489 -0.074336 -0.064191 -0.611929 -0.488315 -0.863117 0.541143 -0.815927 -0.023349 -0.617954 0.028527 -0.189163 -0.162050 -0.049314 0.867692 -0.661886 -0.522556 0.288066 0.192061 0.046422 0.512764 0.401863 -0.113564 -0.126344 -0.162162 0.440500 -0.166710 -0.556652 0.398919 -0.622368 0.546846 -0.051977 -0.098453 -0.175480 0.333977 0.606291 0.456082 0.261711 0.127567 -0.079700 -0.605757 -0.592410 0.764534 -0.160741 0.142856 0.483546 0.292419 0.576392 -1.241010 -0.077037 0.219401 -0.584556 0.010022
is 0.039112 -0.474504 -0.057133 -0.860449 0.782183 -0.015269 0.874678 0.600748 -0.708761 0.043873 0.254006 -0.570844 -0.277257 -0.079986 -0.434241 0.521171 -0.481727 -0.802120 0.250022 -0.187596 0.184577 -0.245229 0.169461 -0.214354 -0.070175 0.661477 0.634599 -0.298551 0.547579 -1.677843 0.318187 -0.037315 -0.185796 0.725810 0.866026 -0.396153 -0.127315 -0.639450 -0.059655 0.555924 -0.467626 0.234237 -0.039198 0.353643 -0.247782 -0.272951 0.130756 0.462803 -0.244706 -0.303150 -0.346829 -0.443750 -0.055924 0.342193 -0.581040 -0.622322 0.045808 0.394623 -0.000336 0.028825 0.157702 -0.611543 -0.782276 0.464902 -0.027868 0.364284 -0.395150 0.107736 -0.305361 -0.074582 -0.112852 -0.153422 -0.590970 0.148867 -0.649124 -0.045859 0.637284 0.276408 0.149382 -0.248783 -0.329530 -0.384459 0.137303 -0.765178 -0.124505 0.428348 0.540710 -0.282973 -0.431264 0.301165 -0.867544 -0.452280 0.089381 0.275958 0.257788 -1.057847 0.509205 -0.104953 -0.300934 0.374342
as -0.023318 -0.341312 -0.020420 -0.281523 0.139128 0.125988 -0.195310 -0.716054 -0.793799 0.155764 0.269845 -0.421234 0.247782 0.018506 -0.280192 0.050988 0.478650 0.273360 -0.248537 -0.476043 0.031361 -0.127377 -0.791589 0.369815 -0.268770 0.521724 -0.005750 -0.106878 -0.570142 0.735036 0.341211 -0.300344 0.117997 -0.508153 -0.048171 0.310053 0.489051 -0.350067 -0.114150 0.046047 -0.068313 -0.189890 -0.350030 -0.237746 0.423839 -0.006383 0.146263 -0.270867 0.450339 -0.715319 -0.243883 -0.693060 -0.870972 0.561818 -0.099089 0.469730 0.299694 0.228342 -0.004928 0.140479 0.044605 0.046149 -0.427284 -0.170162 -0.235091 -0.639653 0.079961 -0.085262 -0.020597 0.483239 -0.446713 0.117888 -0.050771 0.384012 -0.253745 0.011335 0.704767 0.403338 0.308446 0.237229 -0.445468 -0.317674 -0.171918 -0.704420 -0.369706 0.216764 -0.199481 -0.488150 0.071714 0.035039 -0.169045 -0.374831 -0.281637 0.263772 -0.059176 -0.529255 0.581397 -0.248735 -0.151391 -0.270291
not -0.658999 0.472911 0.076937 -0.622860 0.042190 -0.480178 0.988345 -0.447597 -1.057948 -0.569123 0.322111 0.201755 0.464550 -0.228367 0.733051 -0.294998 0.393050 0.267853 -0.155389 0.034765 -0.395443 -0.053265 0.416394 0.964921 -0.558910 -0.516987 -0.397421 -0.289556 -0.309550 -0.046728 -0.072338 0.249843 0.387334 -1.021344 -0.664721 -0.097699 0.143171 0.176993 -0.111850 -1.618292 -0.435844 0.299637 -0.240993 0.418011 0.015545 -0.409433 -0.041759 0.421689 -0.351557 -0.098162 0.652141 0.080043 0.351230 0.632160 0.186400 0.437500 0.331860 0.194851 -0.471652 -0.062444 -0.640114 -0.319277 -0.146447 -0.550775 1.265134 0.190779 -0.152051 0.027315 -0.015602 -0.065587 -0.225244 -0.833019 0.152439 0.058785 0.264262 -0.295363 -0.523509 -0.347173 -0.817929 0.151142 -0.488034 -0.304784 -0.206288 -0.325521 0.619190 0.282523 0.368514 -0.211717 0.593346 -0.412279 0.075269 -0.369939 0.312471 -0.224219 0.512240 0.096363 -0.284034 -0.140014 -0.442204 -0.206798
for 0.896655 -0.540193 0.162100 0.235211 -0.057964 0.240146 0.055924 -0.035622 -0.108755 0.088420 0.070874 -0.654921 1.072505 0.150678 -0.913069 -0.105449 0.205908 0.396030 0.232619 -0.025148 -0.190678 0.056999 -0.249527 0.129920 0.474423 0.663216 -0.096511 -0.143540 -0.174999 -0.807025 0.558500 0.658398 0.165555 -0.624736 -0.085252 0.364133 0.450556 -0.328490 -0.590238 -0.268699 0.473855 -0.075156 -0.089364 0.244137 0.330399 -0.232186 0.259374 0.650124 -0.100660 0.253072 -0.868385 -0.129504 0.264838 -0.470390 -0.523305 -0.363569 0.630261 0.023123 -0.487875 -0.781920 0.055828 -0.132231 -0.082170 0.003910 0.891940 0.388102 0.626861 0.470943 -0.092538 0.096402 -0.848414 0.200636 0.798407 0.037652 0.539964 -0.450313 0.173592 0.152211 0.322306 0.239988 0.854546 0.195272 0.451892 -0.755559 -0.086027 0.269105 -0.070895 -0.294560 0.164429 0.150491 0.018815 0.513840 0.110486 0.261726 -0.027167 -1.061787 -0.397251 0.114901 -0.507314 0.104141
had 0.139302 -1.273263 1.596792 0.625050 0.558990 -0.499509 0.459574 0.192593 0.144059 0.469406 0.062018 0.084316 0.548968 -0.034757 0.280275 0.018163 1.136433 -0.046454 -1.028740 -0.721048 0.294884 -0.297451 0.608915 -0.870372 -0.137474 0.698216 1.294277 -0.065487 -0.690646 -1.395282 0.615395 0.475542 0.230997 0.752936 0.317652 -0.203677 0.341082 0.047304 0.041158 0.018732 0.537657 0.094805 -0.014600 -0.252005 -0.496084 0.050596 0.353885 -0.589127 0.111059 -0.709387 -0.277047 -0.049370 -0.271338 0.288615 -1.191624 0.277482 0.070081 -0.019315 -0.025042 -0.153684 0.544287 0.114456 -0.594968 0.316288 0.011478 -0.003245 -0.528488 0.460924 0.281977 0.330724 -0.220861 0.145070 0.191417 -0.610676 -0.278565 -0.360357 0.890845 0.036404 0.314332 0.285636 -0.154263 -0.085366 0.047921 0.324217 -0.268336 -0.192458 0.484100 -0.524640 0.057161 -0.153685 -0.176433 -0.740788 -0.021241 0.103428 0.410029 0.315807 -0.191228 -0.011310 -0.414027 -0.096729
but 0.086435 -0.347995 0.033277 0.040394 -0.422583 0.205578 -0.291681 -0.130230 -0.181598 0.184519 0.011646 0.624839 0.344287 0.103098 0.127225 0.391160 -0.168013 0.165689 0.078690 0.138253 0.000210 -0.196528 -0.589559 0.569899 -0.036060 0.545151 0.058236 0.049427 -0.005859 -0.186504 -0.119313 0.253372 -0.206476 0.315175 0.138161 -0.165573 -0.005700 -0.090277 0.121539 -0.242631 0.131039 -0.096052 0.451349 -0.116333 0.191006 -0.191927 0.025181 0.186678 -0.156331 -0.142396 0.002856 -0.020353 0.218969 -0.269581 -0.602230 0.297412 0.223379 0.095795 0.333386 0.136526 0.001790 -0.037756 -0.053654 -0.212970 0.617926 0.083526 -0.756227 -0.088263 0.011333 0.206396 -0.496563 0.618616 0.046943 -0.141837 0.114412 -0.490162 0.450445 0.421204 -0.269409 0.442152 0.254547 -0.274702 -0.033681 -0.549128 0.496098 0.244022 -0.578128 -0.339244 -0.362525 -0.171825 0.225594 -0.616315 0.271537 0.226083 -0.461439 -0.796312 0.371237 0.020864 -0.017298 0.034377
at 0.636141 -0.909565 -0.192430 -0.427877 -0.375650 -0.269409 0.291163 0.536770 -0.012416 -0.166995 0.743359 0.302052 -0.078940 0.385152 -0.598298 -0.100345 -0.234197 0.179910 -0.759092 0.185840 1.096786 0.073880 -0.022718 0.206298 0.015602 0.386499 -1.361122 0.701346 -0.379107 -0.770158 0.766963 0.604461 0.512099 -0.120522 -0.035826 -0.394883 0.504603 -0.175281 0.897218 0.062887 0.366236 -0.975443 -0.170722 0.377515 0.257747 0.406620 -0.168193 0.981134 -0.395513 0.601854 0.242100 0.634208 -0.452171 0.006269 -0.244928 0.489468 0.407544 0.273095 -0.404992 -0.315034 0.602243 0.811334 0.065133 0.187323 -0.142114 -0.524133 0.023562 1.022667 0.231810 1.160176 0.116425 0.457726 0.004335 0.637914 -0.166325 -1.013743 -0.387693 0.826446 0.360682 -0.423684 0.028688 0.323759 0.385253 -0.131965 -1.015735 -0.127202 -0.543049 -0.033139 -0.047042 0.074639 -0.095674 0.191820 -0.181619 0.529710 0.071344 0.017210 -0.364675 -0.824218 -0.101432 -0.853440
be -1.728194 -0.900011 0.417574 -0.069765 0.493152 0.078634 -0.048331 -0.045029 -0.139360 -0.841107 0.056796 -0.371778 -0.828915 -0.927892 0.242636 -0.804384 -0.906832 -0.520125 -0.130344 -0.021704 -0.410840 -0.288366 -1.069550 -0.415262 -0.229516 -0.046974 0.654688 -0.522382 -0.574084 -1.036686 0.118497 -0.829007 0.388790 -0.009000 0.852600 0.018311 -0.496900 -0.241130 -0.329277 0.109927 0.258536 0.926386 -0.528921 -1.105826 0.058550 0.300167 0.041761 0.996613 -0.623343 0.473773 0.555800 -0.459285 0.016087 0.826358 -0.607582 -1.005457 -0.062538 1.667413 -0.227454 0.549507 0.171902 -0.139082 0.273800 -0.408312 0.416296 -0.698540 -0.364760 0.698529 0.560774 -0.977661 -0.302019 -0.397275 -0.039411 0.209256 -0.640784 0.724968 0.665427 0.359338 0.433306 -0.320766 0.571313 -0.106434 0.058406 0.177984 -0.694687 0.232890 0.986464 -0.270173 0.867711 -1.002673 -0.505565 -0.309209 0.207360 -0.142015 -0.830125 -0.545433 0.169867 -0.191385 0.084336 0.342216
on -0.454177 -0.721460 1.141712 -0.830980 -0.194857 0.092585 0.194819 -0.081174 -0.361177 0.575423 0.408457 0.219578 -0.144438 0.429203 -0.025924 0.300850 0.323823 -0.855419 0.131965 -0.415692 0.559754 -0.093959 -0.332716 0.329054 0.784481 0.375887 -0.319815 0.152388 -0.078433 0.606737 0.385579 0.848478 0.459785 0.137479 0.053193 -0.547762 0.120351 -0.040624 0.044791 0.649560 0.687011 -0.349979 -0.582957 0.957127 0.348242 0.079077 0.520079 0.715148 -0.433664 0.816185 -1.100933 0.139079 0.104156 -0.560532 -0.244671 -0.003753 0.079862 -0.015849 -0.100293 0.011618 0.194452 0.466402 -0.053022 0.128413 0.008654 -0.088821 0.626390 -1.166715 -0.042186 0.248828 -0.188130 -0.295900 0.791442 0.076253 0.588684 -0.961105 -0.656149 0.602097 0.872710 -0.886995 -0.153631 -0.198225 -0.509509 0.318069 -0.358030 -0.162063 0.044183 -0.837419 -0.512823 0.265697 0.396889 0.039895 0.399269 0.841320 0.377420 0.085434 0.743579 0.075570 -0.157658 0.057636
her 0.184391 -0.859393 0.619323 0.080356 -0.092095 -0.398270 -0.163592 -0.628244 0.248242 -0.504013 -0.057939 -0.308971 0.188814 0.155802 0.125066 -0.805680 -0.068154 -0.819481 0.082055 0.847788 0.238298 -0.021018 -0.327088 0.120073 -0.817302 0.324601 0.321486 -0.579727 -0.169425 0.314276 0.052181 0.372800 -0.410649 -0.010117 -0.141687 -0.203871 -0.448435 0.195675 -0.298134 1.354655 -0.269876 0.226626 0.336445 0.394661 0.167541 0.079260 0.259664 -0.627633 -0.305420 -0.153449 0.108339 -0.373669 -0.249508 0.422338 0.006769 1.267006 -0.076094 -0.266114 -0.016899 0.649316 -0.044342 -0.317988 0.756338 0.336093 1.131218 0.277104 -0.063274 -0.255767 0.288194 -0.953642 -0.163836 0.330478 0.393248 0.458101 -0.533623 0.992476 -0.013784 -0.053910 -0.650347 0.301950 0.028047 0.569102 -0.196286 0.647964 -0.041665 -0.047177 0.013741 0.155155 -0.554236 -0.259401 -0.448751 1.127534 -0.666333 -0.038142 -0.127681 1.303019 0.006610 -0.157855 -0.593933 -0.237855
my 0.140581 -1.068826 0.689075 0.418333 -0.037010 -0.316343 0.043433 -0.135227 0.295847 -0.646377 0.284220 -0.961022 0.536549 -0.177355 0.403528 -0.380535 -0.409116 -0.803664 0.571954 0.425900 -0.057455 -0.237710 -0.416768 0.422916 -0.451701 0.499320 0.278585 -0.127192 -0.188519 0.081074 0.175434 0.822958 -0.251976 -0.378138 -0.544381 -0.407444 -0.303293 -0.384972 0.225700 1.866019 0.057371 0.608397 0.480895 0.602466 0.764006 0.410807 0.334050 -0.284513 0.231599 0.184917 -0.116878 -0.108272 0.049383 0.205819 0.601553 1.150684 -0.039276 -0.599126 0.264087 0.657707 0.386730 -0.205864 0.583784 0.155763 2.024314 0.163966 -0.160477 0.116984 0.002687 -0.402555 0.422391 -0.000165 0.002430 0.555504 0.238111 0.898070 0.613083 -0.377164 -0.501860 0.891101 0.203742 0.294699 -0.042033 -0.448696 0.194007 0.078717 -1.113222 0.524020 -0.584539 0.131734 -0.264415 0.563342 -0.413364 -0.200402 -0.100126 1.318149 -0.319547 0.160545 -0.724559 0.350336
him -0.430480 -0.381959 0.185909 -0.541469 0.113381 -0.036887 -0.150429 -0.221864 0.568251 -0.264158 -0.131421 0.173168 0.560047 -0.901617 0.510000 -1.044490 0.166677 0.296040 -0.205077 0.823549 0.522521 0.409589 0.526858 -0.021363 -0.157940 0.516309 0.287897 -0.304221 -0.011526 0.419508 -0.594877 -0.486250 -0.108576 0.678252 0.255701 0.181360 -0.296053 -0.160081 -0.483224 -0.615145 -0.053293 -0.031799 -0.036625 -0.476287 -0.229649 -0.305643 0.310365 -0.017298 0.102772 -0.242687 0.214078 0.390540 -0.157515 0.128680 0.198898 0.279309 0.076432 0.593786 -0.466137 0.690665 0.030757 -0.245426 0.292363 0.039478 -0.162334 0.196157 0.294856 -0.094495 -0.334231 -0.758163 -0.612091 0.401949 0.333917 -0.148934 -0.282620 0.760224 -0.664907 0.214830 -0.601725 -0.101726 -0.126073 0.448942 -0.113895 0.678361 -0.692506 0.167138 0.549483 0.500726 0.438570 -0.564472 -0.093608 0.129989 -0.630486 -0.360927 0.028474 1.418904 0.130020 -0.241606 0.246982 0.307639
have -0.840235 -1.025861 1.464777 0.462486 0.172421 -0.130656 0.092363 -0.018084 0.459527 -0.214585 -0.202996 -0.654403 -0.699081 -0.150711 0.108658 -0.021811 0.263416 0.085857 -1.123823 -0.462318 -0.006153 -0.557829 -0.419201 -0.663137 0.054036 0.536922 0.901342 -0.353938 -0.680922 -1.452340 0.893025 -0.704784 0.660734 0.644791 0.116727 0.118641 0.050573 0.351914 0.257468 -0.625265 0.782017 1.048737 0.223577 -0.270699 -0.752499 0.184224 0.886884 -0.340665 0.388324 0.534800 0.099983 0.024998 0.699315 0.740149 -1.098184 -0.521045 0.472394 1.039538 -0.487193 0.394361 -0.059131 0.268975 -0.498197 -0.332870 0.566851 -0.615962 -0.372622 0.894113 0.611340 0.189448 0.228631 -0.399399 0.624081 -0.202780 -0.319375 0.421631 0.908417 0.156572 -0.338299 0.329087 0.275451 0.064856 -0.476763 1.122579 -0.329599 -0.218620 0.262665 -0.876882 0.685509 -0.139087 -0.362906 -1.167696 -0.020103 0.110497 -0.147480 0.016411 -0.413914 -0.042322 -0.132569 -0.084778
by -0.603076 -0.874163 1.340448 -0.046357 -0.096068 -0.197871 0.227141 0.349141 0.392300 0.717003 0.151271 -0.041528 -0.107069 -0.198145 -0.197026 -0.176218 -0.006722 -0.035668 0.137728 -0.618372 0.309863 0.086547 -0.181775 0.203364 -0.317171 0.491951 0.149657 -0.181826 0.058394 0.449478 0.837983 -0.207265 0.219236 -0.498655 0.114890 -0.035121 0.547373 0.323610 0.257428 0.574844 0.460285 -0.169590 0.186744 0.263030 0.341146 -0.358536 0.237900 0.321984 0.130413 -0.008508 0.264507 0.605532 -0.374494 -0.711688 -0.822647 -0.303647 -0.386746 -0.339713 -0.239252 0.094073 0.426611 0.696688 -0.151050 -0.384642 0.082604 0.573193 -0.134680 0.078663 -0.349441 -0.071213 -0.486780 -0.368256 0.552948 0.123441 -0.136092 -0.207155 -0.143217 0.876723 0.766822 0.809302 -0.705289 -0.195885 -0.047750 0.302396 -0.423795 0.275244 0.368666 -0.838923 -0.010713 0.740214 -0.512441 -0.122877 -0.741744 -0.501905 0.663439 -1.159344 -1.094055 -0.617079 -0.768912 -0.156006
this 0.163135 0.134412 -0.228895 0.772401 0.021103 0.388609 -0.527739 -0.125131 0.253692 0.043635 -0.382648 0.353553 -0.300612 0.413823 0.934181 0.504808 -0.027985 0.439615 0.591617 0.070039 -0.061609 0.162966 0.024694 0.750460 0.154088 0.593833 -0.727007 0.099178 -0.090068 -0.059057 0.428913 0.824124 -0.435122 -0.357571 -0.462308 0.306230 -0.079126 -0.440276 -0.092185 1.935566 0.015473 0.132232 -0.000939 0.429465 -0.210585 -0.239579 0.316418 0.022452 -0.453006 -0.027802 0.388651 0.252976 -0.134205 -0.129757 0.158232 0.096299 0.003248 0.370339 0.225330 0.653780 -0.159674 0.214822 0.176710 0.305586 0.499273 0.361682 -0.546756 0.288812 0.046841 -0.593790 0.140071 -0.414201 -0.104469 0.064877 -0.056566 0.673745 0.015388 -0.512323 0.115189 -0.108849 0.377973 -0.244533 0.144674 -0.786434 -0.728728 0.338127 1.199553 -0.338269 -0.148946 -0.321056 -0.165230 -0.633875 -0.321164 0.214206 0.334294 0.634037 -0.397950 0.496343 -0.351222 0.133999
which 0.001362 -0.667600 0.381791 0.420286 -0.068513 0.208883 -0.858065 -0.480347 -0.677927 -0.502902 0.318065 0.074241 0.068851 0.622981 0.335827 -0.131879 -0.089042 0.655149 0.146035 0.096780 0.389671 -0.302745 0.095407 -0.303817 -0.267433 0.357634 -0.109147 0.167289 -0.557770 0.501358 -0.108268 -0.812566 0.227924 0.246626 -0.743923 0.500374 -0.391888 -0.210795 0.111089 0.953304 0.033139 -0.500902 0.499421 -0.047951 -0.041804 0.137420 -0.017249 0.055478 -0.079759 0.041108 0.342762 0.063370 0.181098 -0.531568 0.644079 -0.135921 0.480573 -0.094268 0.328586 0.077874 0.095477 0.084868 0.294284 0.051479 0.366442 -0.442866 -0.281324 0.212256 0.720728 -0.368196 -0.362026 0.598610 -0.138001 -0.052179 0.214702 0.186057 -0.106991 -0.017941 0.113828 0.555963 -0.296370 -0.095178 -0.548346 -0.491918 0.039047 0.030487 0.657272 -0.710738 -0.690410 -0.127017 0.662814 -0.442869 -0.084540 -0.062030 -0.247198 -0.661531 -0.487979 0.885867 -0.432407 0.114456
me -0.513544 -0.111628 0.161271 -0.838992 0.066402 -0.050287 0.089907 -0.444773 0.266167 -0.219020 -0.263492 0.185023 0.665043 -0.628658 0.491773 -0.780778 -0.111339 0.395295 0.057907 1.054931 0.550678 0.314117 0.615797 0.186760 -0.428537 0.767963 0.329330 -0.377217 0.225725 0.453881 -0.613545 0.021509 0.114731 0.558933 -0.013377 0.019757 -0.239472 -0.539855 -0.275472 -0.858358 -0.097393 0.467097 0.016265 -0.348810 -0.128812 0.071062 0.662315 0.217239 0.244273 -0.678715 0.033414 0.084926 0.073943 0.195065 0.027858 0.127324 0.459401 0.528516 -0.603237 0.632011 -0.104207 0.001307 0.249035 0.192184 0.329667 0.217685 0.184054 0.077721 0.051554 -0.998206 -0.314176 0.331055 0.175476 -0.038916 -0.144140 0.964233 -0.252841 0.056492 -0.496867 0.138030 0.163308 0.267087 -0.096564 0.793225 -0.128335 0.192658 0.690504 0.639178 0.356071 0.100630 -0.517513 0.212264 -0.617955 -0.608301 -0.201545 1.307304 0.454368 0.370662 0.576264 0.381904
all -0.243088 -0.117196 0.193973 0.469076 -0.488700 -0.376038 0.331837 0.012986 -0.038949 -0.255678 0.474471 0.255327 -0.283075 -0.754987 -0.118141 -0.346371 0.542946 -0.503404 0.907224 -0.553378 0.067105 -0.484807 0.682668 -0.205637 0.035198 -0.225731 -0.099818 0.413927 0.404834 0.304446 -0.552269 0.094429 0.137290 -0.272138 0.328644 0.624356 -0.172459 -0.374498 -0.508547 -0.415745 -0.152237 -0.025598 -0.520825 0.746653 -0.473294 -0.511910 -0.721632 -0.534310 -0.048652 0.487344 0.116410 0.183864 0.398055 -0.035554 -0.132721 -0.158443 0.161151 0.360099 0.514741 0.497132 -0.025715 -0.221033 0.387981 0.222397 0.175611 -0.462503 0.119359 -0.107572 0.077099 0.321410 0.061017 0.630148 0.307583 0.175895 0.447050 0.601769 -0.103386 -0.278081 -0.462205 -0.207904 -0.117147 0.085252 -0.401642 0.307547 0.635431 0.168629 -0.656229 -0.950646 0.335219 0.264074 -0.061914 0.355795 -0.725594 -0.069391 -0.145921 -0.766346 -0.407249 0.026453 0.948325 0.562787
said 0.610755 -0.526843 -0.038702 0.041355 0.275471 0.126607 0.728044 -0.313523 -0.787770 0.248369 -0.480770 -0.396960 0.216067 -0.193114 -0.502417 0.759004 -0.595851 -0.029940 0.163142 -0.425012 -0.507620 -0.365789 0.479701 -0.142330 -0.138779 0.317690 -0.887392 -0.878049 -0.073165 -0.702330 -0.680618 0.139794 -0.162093 0.115074 -0.425494 0.201872 -0.152054 -0.301491 0.667854 -0.215226 -0.021536 -0.502934 -0.006365 -0.304154 -0.484957 0.096975 -0.331370 0.241074 -0.786240 -1.893024 0.639797 -0.322547 -0.576927 -1.214163 -0.684251 0.841905 0.404336 -1.339163 0.027552 -0.338225 0.691170 -0.259019 -0.493430 0.590500 0.937229 -0.790043 0.288249 0.294519 0.489767 0.396263 -0.177462 0.294673 0.786189 -0.033043 0.526648 -0.565572 -0.181855 0.305343 0.524505 -0.849961 -0.378513 -0.977413 -0.510253 -0.276747 0.229278 -0.424812 -0.759401 0.940556 0.027202 0.086047 -0.515272 -0.797187 0.192813 -0.131890 0.116812 -0.306749 0.530919 0.929119 0.074619 0.120038
she 0.614651 -0.018927 0.258380 0.444135 -0.449551 0.170396 0.432267 0.220703 0.560156 0.002265 0.161354 1.160751 -0.169690 0.155065 0.303171 -0.596839 -0.416808 -0.119449 0.236816 0.778903 0.308609 -0.033131 -0.945164 0.206076 -0.145660 0.170136 0.141695 -0.075818 0.487819 0.535504 0.556564 0.372958 -0.166800 -0.832952 0.329895 -0.272264 0.217892 0.158592 -0.623539 -1.791814 0.168613 0.410522 -0.375801 -0.609214 -0.247178 -0.346025 -0.103886 -0.319465 -0.000230 0.990637 0.737729 -0.295843 0.022843 0.897848 -0.683008 -0.213468 0.002681 0.175493 0.560914 0.529753 -0.175371 0.399178 0.560352 -0.464991 0.306540 0.027622 -0.504970 -0.781621 0.161440 -0.760458 0.536035 0.108078 0.187525 -0.009790 -0.660738 0.267882 0.248800 0.295332 0.053813 0.286138 0.415912 1.020466 -0.453892 0.382489 -0.584436 -0.064391 0.341854 -0.425104 0.103169 0.162636 -0.157470 0.590490 0.210252 -0.536391 -0.067022 1.207818 -0.243829 -0.293138 -0.294088 -0.523127
from 0.386201 -0.844622 0.683850 -0.419606 0.321181 -0.104773 0.259523 -0.111539 0.271071 0.086638 0.448798 0.292327 0.135311 -0.034419 -0.038311 0.773940 -0.249469 -0.321831 -0.373328 -0.653583 0.068783 0.043796 -1.040867 -0.327983 0.141354 0.464937 0.156772 -0.210741 -0.359770 0.684914 0.819810 0.469962 -0.146354 0.424216 0.077860 -0.506213 1.120529 0.693291 -0.056840 0.637430 -0.093234 0.293992 0.097348 1.808672 0.985501 -0.593895 -0.508154 0.593432 0.164371 0.479029 -0.396564 0.306627 0.564753 -0.653855 -0.652140 -0.094111 -0.346707 -0.183540 -0.444494 -0.033722 -0.514001 0.481884 -0.382019 0.530300 -0.190483 -0.504259 -0.267071 0.246901 -0.186368 0.913970 -0.247499 0.447243 0.197702 -0.171293 0.281933 0.234929 -0.541472 0.226149 0.630211 -0.439875 -1.038983 0.608367 -0.242663 -0.553006 -0.516290 0.614429 -0.464859 -0.546119 0.402843 -0.510091 -0.456601 0.459836 -0.042493 -0.223601 0.032480 -0.524558 0.096326 0.214535 -0.335942 -0.450024
or 0.064809 -0.581779 0.799149 -0.551272 -0.026383 -0.147693 -0.413010 0.407506 -0.266806 0.061075 -0.169090 0.108371 1.178780 0.026606 -0.595939 0.130952 0.264499 0.237242 0.074987 0.379762 -0.535527 -0.744744 -0.404606 0.714916 -0.381145 0.115390 -0.119205 -0.158799 0.029643 -1.210146 0.200757 -0.101136 0.087416 -0.651029 0.118127 -0.483514 -0.646938 -0.423440 0.297776 1.094512 0.487694 0.134512 0.209171 1.030675 0.608265 -0.503091 0.263151 0.064075 0.246018 -0.622150 0.524218 0.551512 -0.038106 -0.624992 -0.637240 0.342111 -0.009119 0.124548 -0.588590 0.464676 -0.079761 0.194570 0.493128 0.401289 -0.415229 0.142060 -0.477606 0.145633 -0.013068 -0.383008 -0.094143 0.112340 -0.523428 0.578055 -0.172540 -0.650023 0.258896 -0.552361 0.250576 -0.016851 0.145194 0.625863 0.043667 -0.218675 0.800252 0.630554 -0.056161 -0.797350 -0.058660 -0.108654 0.613419 -0.151851 0.178040 -0.075913 -0.828453 -0.691564 0.559937 -0.134382 -0.553139 0.317924
they -0.182082 -0.111107 0.014536 -0.050202 0.115386 -0.256415 0.318000 -0.099779 0.467529 0.204970 0.187395 0.876934 -0.436766 -0.454178 -0.007194 -0.330749 0.140860 -0.458526 0.119212 0.626764 -0.657758 0.060838 0.149879 0.730254 -0.113739 -0.481251 0.460461 0.162402 0.082924 1.006915 0.848617 0.501772 -0.245373 -0.008508 0.059783 -0.362962 -0.964875 0.560658 -0.566610 -1.712783 0.428461 -0.569379 -0.333095 -0.431942 -0.131648 -0.015136 -0.404962 -0.456738 -0.041984 1.116496 0.137007 0.126841 0.259770 0.454839 -0.003081 0.155928 -0.416012 0.310068 -0.616430 0.072206 -0.092864 0.336788 0.554455 0.217428 -0.025047 0.293558 -0.279811 -0.369584 0.067742 0.150973 -0.179894 0.211739 -0.561042 0.150787 -0.768896 -0.009161 0.149192 0.302932 -0.083443 0.672253 0.354925 1.129615 -0.605649 -0.266420 -0.829606 0.206255 0.607155 0.328379 0.070513 0.075566 0.069258 0.014557 0.381434 -0.437315 0.696380 0.343026 -0.294344 -0.618484 -0.396497 0.471899
so -0.108087 0.285045 0.199324 -0.138640 0.497999 0.007968 0.520803 -0.139881 -0.279997 -0.300195 -0.012001 -0.267588 -0.633563 0.418375 0.317144 -0.001673 -0.132403 0.496433 -0.486859 0.253484 -0.528653 0.638444 -0.582215 0.383496 -0.122398 0.238850 -0.448557 0.467516 -0.159875 0.552337 -0.119604 0.131200 -0.377475 0.084801 0.398334 0.405932 0.041249 -0.229390 -0.388597 0.139896 0.150261 0.207635 0.061295 -0.189265 0.017555 0.191791 -0.108943 0.108061 0.356101 0.105208 0.281106 -0.139151 -0.241506 0.935121 -0.655707 -0.120811 0.094943 -0.147126 -0.121863 -0.421371 0.136957 -0.128200 0.000583 -0.003242 0.128877 -0.460081 -0.009618 -0.262177 -0.089812 0.408422 -0.666337 0.834919 -0.115173 -0.213617 0.305166 0.627445 0.865795 0.530656 -0.113541 -0.472227 -0.271549 -0.737781 0.029608 -0.016370 0.583170 -0.074210 0.058550 -0.735883 -0.217765 0.245114 0.036339 0.217497 -0.411305 -0.668082 0.540455 -0.306618 -0.350668 -0.437762 -0.041920 -0.284885
are -0.809823 -1.456099 -0.156760 -0.328911 0.963541 0.347914 0.552874 1.219951 -0.338460 0.688060 0.463305 -1.528759 0.572031 -0.211751 -0.086986 0.470982 -0.343318 0.246679 0.499066 0.152912 0.040437 0.739323 0.056660 -1.155569 -0.439986 0.283319 1.477411 -0.356680 1.061126 -1.216689 0.158890 -0.111280 -0.187912 0.195200 1.563503 0.485386 -0.249700 0.165025 -0.041675 0.434307 -0.756512 0.213658 0.510907 1.016357 0.108596 0.358446 0.209684 0.228466 0.426895 0.054684 0.054511 0.469761 0.765365 0.998706 -1.071020 0.228718 -0.664642 1.363705 -0.199739 0.683880 -0.384811 0.452786 -0.583328 -0.007103 -0.305220 -0.301571 0.434611 0.014099 0.175402 -0.226627 0.842366 -0.946888 0.683577 -0.319467 -0.008101 -0.271866 0.643369 1.006514 -0.246962 -0.213693 0.225085 -0.484734 -0.426441 -0.726505 0.064499 -0.238463 -0.196741 -0.746938 -0.011412 0.208592 -0.583284 -0.484316 -0.387142 0.216569 -0.358568 -0.877082 -0.276521 -0.370796 0.312418 -0.451435
one 0.261560 0.076235 0.262042 0.130373 -0.579764 0.196641 -0.166613 -0.177126 0.025383 -0.818870 0.149902 -0.202882 -0.594509 -0.066271 -0.000273 0.297576 0.571404 0.158011 0.302810 0.718913 -0.267310 -0.150448 0.430254 0.139799 0.863594 -0.362583 -0.449972 0.562974 0.335349 -0.345112 0.081589 -0.357242 0.266225 -0.123929 -0.520422 -0.699928 0.125391 0.119276 -0.319032 0.195443 -0.803234 -0.074745 0.209905 -1.049420 -0.419452 0.222900 0.340058 -0.479107 0.280083 -0.193296 0.738582 0.398358 0.538571 -0.224618 0.081672 -0.371496 -0.142864 -0.127609 0.048550 0.362643 0.159644 -0.686372 0.431632 0.141910 0.091201 -0.190916 -0.743077 -0.371541 -0.141332 -0.504515 -0.045796 -1.090707 -0.107724 0.037277 0.609353 -0.009157 -0.516986 0.540492 0.299343 0.053436 0.121487 -0.217524 0.184735 0.140205 -0.770909 -0.248831 0.498862 -0.036664 -0.174778 -0.493117 -0.415540 0.611183 -0.848519 -0.238401 -0.323429 0.379379 0.502498 -0.682696 0.352081 0.264352
were -0.641868 -1.671535 0.047927 0.112381 0.857617 -0.406198 0.565971 0.856066 -0.234826 0.432849 0.466696 -0.739559 0.280920 -0.071028 0.449006 -0.171331 0.168181 -0.079084 -0.262103 -0.117393 -0.184949 -0.327484 0.428004 -1.473948 -0.134263 -0.002015 1.297095 -0.335026 0.793742 -0.673514 -0.453523 0.360861 0.170627 0.234972 1.161704 0.394280 0.372225 0.042481 0.390801 0.785345 -0.216170 0.438264 -0.064565 0.350272 0.352439 0.099455 0.335777 0.002475 0.651869 -0.161437 0.100893 0.151135 -0.073798 0.733085 -0.973887 0.188682 -0.693411 1.004230 -0.451608 0.206200 -0.117472 0.420890 -0.879581 0.588651 -0.148331 -0.705816 0.471010 -0.497028 0.116814 -0.532401 0.119293 -0.152263 0.806626 0.269206 -0.155045 -0.685793 0.605516 0.873679 -0.094682 -0.353953 0.243745 -0.224193 -0.065212 -0.232037 -0.403522 0.124158 -0.851582 -0.778564 -0.500873 -0.548673 -0.445112 0.161422 -0.621048 0.327328 -0.242008 -0.926597 0.054491 -0.482004 0.348974 0.044410
what -0.017310 1.021601 0.158708 0.609528 -0.319441 -0.221480 -0.741459 0.019178 -0.876185 -0.360190 0.099001 -0.428335 -0.059930 -0.513837 0.363118 0.157119 -0.260547 0.846160 0.448469 0.086321 0.366292 -0.663309 -0.397159 0.211390 -0.756883 0.299695 -0.754643 0.561684 -0.148100 0.122826 -0.727464 -0.985172 -0.020851 -0.555171 -0.637604 0.725154 0.177007 -0.052956 0.180457 -0.543686 -0.324633 -0.284721 -0.061796 0.524421 -0.429436 -0.446767 -0.062900 -0.159558 -0.941434 -0.098935 -0.013186 -0.474423 0.061480 -0.162511 0.184435 0.390568 0.174973 -0.017552 0.503544 -0.111212 -0.378973 0.176058 0.620323 0.109461 0.674008 0.064621 0.379993 0.228434 0.327796 -0.175301 -0.463040 -0.190129 0.168969 -0.100032 0.231209 0.581335 0.200019 -0.198144 -0.586762 0.600906 -0.104327 -0.605511 0.393366 -0.031624 0.009690 0.493040 0.409155 -0.557976 0.328626 0.039462 0.658313 -0.875310 -0.899808 -0.032212 -0.012462 0.554691 -0.191701 -0.434295 -0.262022 0.457728
when 0.189695 0.095418 0.180177 0.112571 0.400255 -0.206128 -0.325795 -0.237299 -0.629392 -0.012522 0.257106 0.172425 0.091342 0.115192 -0.150172 0.033647 0.711698 0.606672 -0.390958 -0.402954 0.389043 0.033783 -0.634476 -0.363161 -0.023025 -0.032171 -0.571343 0.233506 -0.888625 0.125320 0.457162 -0.121284 0.328710 -0.248740 0.561908 0.132617 0.314977 -0.348078 -0.071769 0.063168 -0.400037 0.225250 -0.376903 -0.227392 -0.514654 -0.454478 -0.044674 0.891745 -0.160381 -0.427981 -0.023741 -0.402791 0.357086 -0.548527 0.061788 1.043228 -0.334143 -0.481642 0.132117 -0.189845 -0.204555 0.644711 0.155670 -0.171130 0.018753 -0.464732 0.045848 0.223730 0.832498 0.665092 -0.449019 0.201543 0.400330 0.385314 0.729453 -0.192599 -0.106621 0.235807 -0.022442 0.105145 -0.540468 0.113208 0.659146 -0.364883 0.329447 0.241910 -0.209214 -0.305533 -0.658188 0.365715 -0.217047 -0.513240 -0.280546 0.302989 0.179172 0.165378 -0.780240 0.383811 -0.290001 0.275688
no -0.717400 0.119954 -0.902155 0.548548 -0.938723 0.135809 -0.374075 -0.601241 -0.792523 -0.145171 -0.277520 0.830664 0.622691 0.048801 -0.094800 -0.839189 -0.383317 -1.075342 0.392776 -0.601137 -0.377488 0.002419 -0.449663 0.830853 -0.287825 -0.241187 -0.168968 0.765436 0.555043 -0.334161 -0.129166 -0.032978 -0.303921 -0.571900 -0.225755 0.371008 0.039553 -0.101558 -0.623689 0.591123 -1.282063 0.330179 0.573388 1.257625 0.850508 0.035433 -0.505753 -0.233184 0.003955 -0.149206 0.626224 -0.166927 0.574088 -0.669339 -0.377228 0.212383 0.980147 -0.052072 -0.882880 0.079312 -0.156857 -0.290552 0.323817 0.254010 0.697149 0.367751 0.293889 0.266231 0.438329 -0.142722 0.379697 0.627795 0.740556 -0.129344 0.423954 0.314108 0.051974 -0.817352 -0.012522 0.436819 0.120694 0.224152 -0.014925 -0.027323 -0.417035 0.677364 0.211219 0.408071 -0.237198 0.650118 -0.327851 -1.527508 -0.551882 0.454949 0.169459 0.906323 -0.681073 -0.370617 -1.008344 1.305417
if -0.769256 0.391999 -0.352526 -0.402047 0.712702 0.349844 -0.465179 -0.779201 -0.411072 -0.434786 0.120287 -0.220952 0.372501 0.902678 -0.781315 0.739643 -0.330220 -0.331245 -0.731161 -0.172085 -0.062681 -0.219643 0.137272 0.245062 0.400618 0.009928 -0.114712 0.248446 -0.245268 -0.388091 0.676048 -0.537507 -0.510277 -0.868910 -0.073649 0.678827 0.450750 -0.542220 -0.136325 -1.219790 0.063819 -0.308112 0.186526 0.441742 -0.139297 -0.768859 -0.791031 0.586660 -0.342077 -0.366576 -0.048250 -0.253401 0.582985 -0.806075 -0.226749 1.085029 -0.103395 0.242043 0.409545 0.176816 -0.246897 0.841135 0.330181 -0.126620 0.624251 0.068286 -0.399363 -0.095232 0.387017 0.686241 -0.681914 0.208712 -0.137926 0.358397 0.255861 -0.140171 0.397775 0.488439 -1.018493 0.150338 0.269439 -0.521939 0.327006 0.262078 0.258805 -0.152896 -0.107286 0.291838 -0.551755 0.219603 -0.095892 -0.178230 -0.227543 -0.761957 -0.211901 0.139341 -0.420755 0.751502 -0.145552 0.473775
there -0.061380 0.053324 0.119260 0.515072 -0.378578 0.391541 -0.866934 0.197597 0.463074 0.137798 -0.456814 0.518991 -0.962110 0.624425 -0.380386 -0.010230 -0.517792 1.261994 0.428113 0.258134 -0.476657 0.068991 0.030346 0.872322 -0.591570 -0.300646 -0.400202 0.338191 -0.235768 0.179503 0.723763 0.771623 0.100092 -0.185629 -0.277807 0.482935 0.573307 0.503522 0.253107 -1.693564 0.632365 -0.113035 -0.043261 -0.337106 0.062234 0.578010 -0.762594 -0.185103 0.318959 0.522665 0.094328 0.620480 0.127117 -0.602525 0.448258 -0.018933 -0.325288 -0.751762 -0.609345 0.300538 0.224229 -0.360972 -0.375564 -0.003240 0.351259 0.127661 -0.499658 -0.363016 0.774422 0.199532 -0.483738 -0.226639 0.203823 0.214062 -0.287133 -0.195266 0.239706 -0.044656 0.167038 0.342665 -0.701270 -0.195323 -0.543817 0.173978 0.059617 -0.790605 -0.105250 -0.593568 0.336140 0.316079 0.299249 0.635823 0.323250 0.216217 0.292499 1.179613 0.552018 -0.499315 0.438374 0.375932
who 0.771081 -0.458095 0.409281 -0.022873 -0.926167 0.125994 -0.269234 -0.309412 0.808006 -0.425336 0.056969 0.567488 0.933577 -0.638721 -0.086267 0.582086 -0.974510 0.138741 -0.260359 0.396230 -0.656728 -0.228341 -0.611205 -0.169921 0.126145 0.114144 0.450214 -0.046052 -0.381257 0.995288 -0.562716 -0.180468 0.600409 -0.716805 0.994493 -0.003032 0.066290 -0.500030 -0.115995 -0.680047 0.097663 -1.017545 0.382108 -0.750030 -0.427760 -0.182480 -0.077596 0.197366 0.262574 -0.018584 0.882977 -0.308157 0.062850 -0.453826 0.481196 0.177778 -0.644468 -0.215702 0.047601 -0.443044 0.053260 0.312883 0.368992 -0.079359 0.816079 -0.016066 0.402909 0.153668 0.712175 0.076097 0.021662 -0.956986 -0.062509 -0.091440 0.384447 -0.425547 -0.007246 0.136500 0.367377 0.214844 -0.646510 -0.418223 -0.953028 0.084763 -0.244417 0.501873 0.328932 -0.261283 0.243805 -0.449658 0.746773 -1.174912 -0.010870 -0.886298 -0.253463 0.011052 -0.118244 0.099936 -0.424626 0.117012
we 0.568219 -0.108493 0.622916 -0.302391 -0.204772 -0.038327 0.467079 0.191978 0.285458 0.370928 0.233410 0.338882 -1.135325 -0.721480 0.164373 -0.108462 -0.182933 -0.298931 0.507329 0.791867 -0.653000 0.734701 0.151899 0.422147 0.037401 -1.199910 0.663051 0.153973 0.188098 0.634789 0.435628 0.405798 -0.132077 -0.433219 -0.505341 0.066295 -0.785848 -0.017233 -0.141553 -1.724061 0.263459 -0.308650 -0.577889 -0.311094 -0.282636 -0.426680 -0.191596 -0.285464 0.064188 0.469342 -0.133675 0.307626 -0.368268 0.641541 0.078138 0.273002 -0.690495 0.181134 -0.494254 -0.202325 0.253471 0.194343 0.812303 0.285051 0.232070 0.521556 -0.817752 0.378132 0.505385 0.646776 0.239714 0.021147 -0.376455 0.272118 -0.727559 0.504439 -0.207463 0.479227 0.240550 0.717842 0.599610 1.121632 -0.516089 -0.750960 -0.736710 0.797598 0.532170 0.473461 0.460541 0.319932 0.020339 0.276977 0.594455 -0.236697 0.611806 0.319266 0.230973 -0.430469 -0.340079 0.874036
will 0.564337 0.178306 -0.558948 -0.561375 0.592359 -0.690870 -0.402384 0.357655 -0.354249 0.510078 0.679443 -0.148342 0.865334 0.610505 -0.909812 1.209717 -0.002183 0.413340 0.425135 -0.351215 0.157327 0.593968 1.168477 0.394690 0.344491 0.867436 0.527919 0.608695 -0.015573 -0.616932 0.221172 0.641034 -0.911455 1.028405 -0.132150 0.209403 0.352483 -0.535792 -0.021059 -1.185652 -0.071089 -0.498641 0.836071 1.288771 -0.185357 -0.652238 0.625400 -0.671768 0.269428 -1.548442 -0.256195 0.429487 0.160401 -0.337893 -0.136816 0.498540 -0.424836 -0.203625 -0.519848 -0.174665 0.245083 0.102633 -0.021755 -0.163218 0.829588 -0.153229 0.200634 -0.537920 -0.314974 -0.023442 0.792342 0.066580 0.591464 0.429466 0.466328 0.177889 0.016378 -0.520886 -0.495654 -0.096883 -0.573906 -0.186074 0.610148 -0.814218 0.770309 -0.452581 -0.277798 0.515826 -0.435236 0.607138 -0.198618 -0.644793 -0.251367 0.290469 0.281842 -0.920356 0.156767 -0.608793 0.065912 0.540298
an 0.101349 -0.840081 0.472480 -0.013681 -0.567466 -0.658548 -0.139866 -1.088013 -0.103639 0.378728 -0.011960 -0.439451 0.548437 0.527033 0.890980 -0.946425 -1.195121 0.221692 -0.004003 0.773199 -0.069778 0.152787 -0.432678 0.569675 0.307306 -0.545975 -0.680524 -0.346691 0.601966 -0.304780 0.517090 1.135690 0.470556 -0.148678 -0.241287 0.010619 0.961409 -0.225607 0.032092 2.357228 -0.518603 0.101630 -1.014940 1.037326 -0.464080 0.666944 0.066936 -1.097231 0.247698 -0.350338 -0.246938 0.322190 -0.379072 -0.277000 0.098354 0.077043 0.145150 0.306562 -0.153710 0.098516 -0.254457 -0.298352 0.960184 -0.679720 -0.310451 -0.201808 -0.568695 -0.219262 -0.195589 -0.847178 0.938086 0.877274 -0.559563 0.234683 0.696668 -0.361753 1.107231 -0.780560 -0.546724 -0.304408 0.006821 -0.526563 -0.245174 -1.000614 -0.751650 0.217761 1.853610 1.315638 -0.043113 0.113658 -0.560628 -1.152669 -1.121303 -0.029648 -0.549927 0.075132 -0.933252 0.165265 -1.014158 -0.292938
then -0.223796 -0.046263 0.524981 -0.466780 0.637554 0.320869 0.109542 0.135105 -0.096493 0.323708 -0.134240 0.746927 -0.875732 0.016600 -0.245390 0.298965 0.216781 0.334318 0.234398 0.004200 -0.183982 0.082140 -0.286444 -0.596639 -0.293809 -0.191397 -0.184567 -0.426779 -0.637032 0.618019 -0.304366 -0.074477 -0.012252 0.172737 -0.002695 -0.214566 0.474101 0.043237 0.259078 -0.518917 -0.043155 0.243801 0.135281 -0.081688 -0.522527 -0.079973 -0.429715 0.476196 -0.087028 -0.063860 0.181699 -0.412183 0.192599 -0.327744 -0.020548 0.568350 0.008346 -0.155772 -0.403595 -0.080370 0.119182 -0.021981 -0.098212 -0.300861 -0.134157 -0.265831 0.601736 -0.218557 -0.033027 0.170441 -0.268074 0.119578 0.269264 0.226394 0.114696 0.403431 -0.065434 -0.516656 0.314606 0.074229 0.539783 -0.058317 0.472800 -0.078140 -0.117275 -0.215571 -0.419648 0.198109 -0.286739 0.250071 -0.900500 0.004884 0.276771 0.354545 0.145771 0.767406 -0.229431 -0.371631 0.114915 -0.307355
their -0.405854 -1.194574 0.176849 0.573116 -0.250756 -0.169524 -0.330235 0.130063 -0.140473 -0.224777 0.359858 -0.611915 1.248002 0.009745 0.483200 -0.531584 0.223247 -1.227281 0.420739 0.564337 -0.155109 -0.093458 0.044077 0.823575 -0.901042 -0.416040 0.728061 -0.850507 -0.057594 0.717392 -0.261343 0.404922 -0.539252 -0.288761 0.196643 0.016685 -0.361930 0.583638 -0.024185 2.026218 -0.211878 0.153315 -0.130820 1.266536 -0.558925 0.858624 -0.035029 -0.551865 0.184660 0.512035 0.063516 0.154167 0.323409 0.380921 0.369509 0.713235 -0.710238 0.159628 -0.278179 0.415473 -0.059038 -0.196773 1.158603 0.513320 0.851175 -0.159980 0.467228 0.313695 -0.121809 0.115913 -0.398347 -0.030321 0.116881 0.695315 0.175896 0.693456 0.608719 0.215100 -0.470019 -0.080336 0.268477 0.499226 -0.285661 -0.356320 0.070073 -0.149251 -0.346665 0.151034 -0.946482 0.269454 0.345899 0.120711 -0.140068 0.184296 -0.049311 0.311230 -0.990295 -0.542748 -0.466350 0.412173
would 0.582618 0.114944 -0.052638 -0.464358 1.103750 -0.711322 -0.401686 0.017730 -0.428928 0.397708 0.746712 0.757639 1.119176 0.523886 -0.436734 0.673319 0.298699 0.002588 0.512950 -0.148109 0.090447 -0.080795 1.139137 0.262585 0.271015 0.573803 0.225418 0.829604 0.096057 -0.990418 0.233550 0.983861 -0.612521 0.542361 -0.220581 0.415026 0.186725 0.048740 -0.092533 -1.065228 -0.020113 -0.777110 0.577069 1.201966 -0.045549 -0.450074 0.252710 -0.719679 0.569701 -1.747840 -0.336452 0.403876 -0.484177 0.184383 -0.137788 0.985967 -0.330511 -0.463686 -0.177831 -0.423429 0.232031 0.297748 -0.136616 0.172316 0.762630 0.454493 -0.016380 -0.642651 -0.716418 0.461106 0.378815 0.565377 -0.111936 -0.025598 0.118295 -0.361562 0.069147 -0.562276 0.028605 0.107600 -0.428739 0.234370 0.460761 -0.578042 0.214610 0.091698 0.592989 0.425072 -0.829072 0.636314 0.208001 -0.810632 0.029816 -0.290856 0.266159 -0.588717 0.204341 -0.787075 -0.343592 0.292280
them -0.956245 0.265325 0.361111 -0.371656 0.043039 -0.202906 -0.426261 -0.049887 1.006378 0.361841 -0.145431 0.056770 0.356127 -0.192213 0.677033 -0.379152 -0.408663 -0.070388 0.060886 1.221567 0.120006 0.113462 0.651978 0.447745 -0.042621 -0.077553 0.582999 -0.490755 0.250262 0.259596 -0.689142 -0.330843 -0.250464 0.416640 -0.058047 0.403794 -0.490791 0.218190 -0.104422 -0.330899 0.208885 -0.297591 0.241219 -0.839623 -0.312524 -0.659706 0.190933 -0.264497 0.367565 -0.051485 0.444577 -0.164450 0.289462 0.362750 0.252393 0.694707 0.104623 0.646428 -0.826047 -0.003393 -0.307519 -0.085744 0.181164 0.462596 -0.246559 0.024831 0.499480 -0.246000 -0.009463 -0.817024 -0.465552 0.201591 0.239117 -0.022339 0.107123 0.575715 -0.499025 0.074553 -0.812675 -0.108526 -0.505455 0.833813 -0.293752 0.381970 -0.903462 -0.248554 0.654750 0.354438 0.743446 -0.788375 0.012004 0.479678 -0.467301 0.132606 0.074013 0.832293 0.132210 -0.615847 0.315440 0.525418
been -0.039686 -0.423221 -0.102725 -0.622911 0.155294 -0.131569 -0.020252 0.964256 -0.005239 -0.589292 0.379508 0.185291 -0.097915 0.377883 0.347487 -1.056070 -0.689033 0.137243 -0.252010 0.390402 -0.062512 0.872730 -0.081709 -0.994390 -0.236783 -0.002379 0.728048 -0.236870 0.850113 -1.041358 -0.983103 -1.196257 0.893392 -1.142530 0.266887 -0.564955 -0.312199 -0.224007 -0.895696 -0.174071 -0.678451 0.355247 -0.371959 -0.448541 0.867218 0.888006 0.174026 0.311718 -0.181109 -0.337975 0.722700 0.251305 0.050159 0.827202 0.161064 1.031049 0.153649 0.839154 -0.408204 -0.254382 -0.696892 0.351449 0.005342 -0.291193 0.635067 0.175714 1.408264 -0.551032 -0.271453 -0.840661 0.127477 0.690028 -0.633918 0.062270 0.693777 1.072298 0.113850 0.916685 0.460479 -1.279799 0.051855 0.064342 -0.233395 -0.588662 -0.911707 1.103522 0.736462 -0.149735 -0.489964 -1.127732 -0.311303 -0.324091 0.531313 -0.542659 0.031955 -0.522143 0.504207 0.609493 0.360478 0.900608
do -0.150409 0.724883 -0.863721 -0.673478 0.545490 0.915453 -0.443618 -0.152920 -0.235835 0.494214 -0.318074 -0.933335 -0.035457 -0.070329 -0.479017 0.253617 -0.647223 -0.509426 0.512205 0.444667 0.441637 -0.616746 1.130660 -0.328861 0.772506 -0.275974 0.413314 -0.273075 -0.543771 -0.503225 0.260689 -1.053726 0.991243 0.668336 0.597381 -0.140935 -0.037176 0.549370 0.130037 -1.103991 0.024812 0.763411 0.618794 -0.046359 -0.501610 0.164466 -0.089314 -0.294421 0.514933 -0.832006 -0.244229 -0.284586 -0.573644 -0.753653 -0.223330 -0.027762 0.424673 0.679305 -0.008029 0.267379 0.003849 -0.039041 -0.071859 0.178426 1.718429 -0.568805 -0.084661 0.213372 -0.012281 0.666818 0.636263 0.110989 0.038279 0.245702 -0.350084 0.210208 -0.002890 0.197124 -0.740725 -1.251792 0.774348 -0.191731 -0.940401 0.086509 0.227666 -0.227955 -0.656946 0.494891 0.187533 0.970557 0.738116 -0.467411 0.249607 0.546229 -0.706759 0.205267 0.093691 -0.296939 -0.126180 0.060712
your -0.184867 -0.989788 0.393793 0.438201 -0.172704 0.226880 0.189985 0.380045 0.330178 -0.695581 0.359503 -1.029606 0.894149 0.226022 0.295983 -0.144448 -0.350168 -1.202161 0.551436 0.500557 -0.162103 0.172556 -0.313796 0.460136 -0.705504 0.200119 0.415062 -0.416994 0.038488 0.160287 -0.167746 0.563527 -0.299297 -0.364085 -0.972846 -0.123094 -0.645660 -0.781485 0.430965 1.494117 0.099343 0.525778 0.039149 0.887891 0.810905 0.511114 0.558067 -0.223661 0.326766 -0.372057 -0.084573 0.038247 0.301028 -0.380255 0.151624 0.947911 -0.006275 -0.447093 -0.111816 0.483520 -0.209554 -0.135530 0.820742 0.795309 2.351197 -0.004647 -0.271712 0.191372 -0.252196 -1.158826 0.421655 -0.370022 -0.151836 0.268195 0.294707 0.840133 0.656685 -0.434479 -0.928975 0.588940 0.242792 0.373595 -0.090598 -0.741272 0.641805 -0.687497 -0.619338 0.690709 -0.771903 0.827456 0.408922 -0.170788 -0.324392 -0.031720 -0.089541 0.494361 -0.569168 -0.188577 -0.245422 0.159587
now -0.245276 -0.100122 0.021537 -0.236826 0.203972 -0.121913 0.197048 -0.157405 0.122193 0.103110 0.133935 0.091746 -0.240465 -0.460426 0.180033 0.190125 -0.008901 0.253774 -0.239839 0.397090 0.051409 0.298119 0.190353 0.245576 -0.454298 -0.179593 -0.795991 0.472167 -0.412782 0.420062 -0.078489 0.308280 0.411495 -0.195828 -0.145473 -0.281237 0.632505 -0.088100 -0.179008 -1.157735 -0.357603 0.326627 -0.113274 -0.119546 -0.087444 0.042625 -0.609418 -0.002133 0.133293 0.068819 0.020271 -0.028243 0.137429 -0.025479 -0.199175 -0.123078 0.076447 -0.298839 -0.065216 -0.394676 -0.221511 0.132183 0.232112 -0.063549 0.194375 -0.011942 -0.453571 -0.221516 -0.375377 0.009677 0.016297 -0.139915 0.461337 -0.170052 -0.102303 0.442407 0.222188 0.116675 -0.268134 -0.018215 -0.072710 -0.333374 -0.303230 -0.481481 0.094700 -0.079501 -0.715460 0.248176 -0.619415 0.113631 -0.445276 -0.202989 -0.325475 0.234328 0.119058 0.688270 0.119125 0.090810 0.003497 0.582279
out 0.523251 -0.830445 0.899027 0.114788 -0.560663 -0.222614 0.103074 0.545102 -0.678266 0.381359 -0.417468 -0.373161 -0.130166 -0.058290 -0.214035 1.110816 -0.681464 0.656758 -0.314316 -0.759895 0.033911 -0.483274 0.365727 -0.202975 -0.509920 -0.111943 -0.151768 0.051900 0.001559 1.973614 0.344365 -0.207459 -0.494834 1.514758 -0.181934 -0.519076 -0.219447 -0.671720 -0.084270 -0.483057 -0.322591 0.224174 -0.694388 -0.715289 0.134333 -0.717913 -0.123580 -0.105913 0.745448 0.657084 0.926657 0.269498 0.395503 0.463780 0.461389 0.862427 0.906359 0.267601 -0.569089 -0.493767 0.889702 -0.049406 0.081220 -0.145647 0.080198 0.224789 0.578540 -1.386935 -0.204434 0.589980 0.375182 -0.279157 0.304786 -0.389217 0.704628 -0.683500 -0.379846 -0.217058 -0.148369 -0.706093 -0.088971 0.868430 0.812198 1.034374 -1.285187 0.077434 0.226602 0.830403 -0.038764 -1.087410 0.130436 0.825321 -0.352874 -0.018965 -0.165935 0.153421 -0.066651 -0.216105 -0.274551 -0.074502
more 0.344305 0.549873 0.020254 -0.052340 0.187028 -0.346711 -0.900097 0.321622 -0.302208 -0.017792 -0.233103 -0.322775 0.103968 -0.194192 0.862477 -0.130827 -0.574636 -0.203066 0.198710 0.251892 -0.544947 0.610458 -0.110564 0.073330 0.038107 0.580125 -0.419957 -0.121091 0.034722 -0.010323 0.053770 -0.354747 0.340015 -0.223332 -0.218851 -0.197282 0.030614 0.060083 -0.271170 -0.722108 -0.054410 0.490128 0.345989 0.033968 -0.109635 -0.328569 -0.927537 0.470100 -0.029141 0.054727 0.004036 0.365834 -0.262596 0.995572 0.208249 -0.712400 -0.194218 -0.562514 0.045176 0.238321 0.697109 -0.002591 -0.861306 -0.076672 -0.646973 -1.123439 -0.355679 0.791384 0.301584 -0.121342 -0.323972 0.370890 0.282612 0.061245 0.806289 -0.744501 0.769615 0.362579 -0.823777 0.362493 0.244977 0.073693 -0.325322 -0.799882 0.231481 0.033041 1.434040 -0.404016 -0.537513 0.340347 -0.184872 1.069973 -0.086506 0.121662 0.556591 0.187465 -0.711254 -1.326347 0.422580 -0.514257
up 0.220679 -0.504148 1.441052 -0.958825 0.498401 -0.279099 1.097661 -0.212396 -0.280871 -0.025768 -0.871145 0.854946 0.211367 0.346407 -0.590881 0.526697 -0.643658 0.455817 -0.266557 -0.513539 -0.309458 -0.039212 -0.129879 -0.732956 0.038214 -0.515778 -0.196231 -0.069749 -0.662549 1.780496 -1.018027 0.232580 0.305048 0.961285 -0.107305 0.018117 0.331511 -0.450834 0.412169 0.414853 0.193762 0.384887 -0.426382 -0.532656 -0.028488 0.390208 -0.131027 0.686460 0.259922 0.683749 -0.515526 -0.099139 -0.595770 0.225545 0.055571 -0.325748 0.842641 -0.117120 -1.222844 0.329182 0.064791 -0.073193 0.162461 0.068771 0.069441 0.550593 0.489323 -1.190545 0.402226 0.208470 0.655362 -0.035232 0.564804 -0.040165 -0.047850 -0.215164 -0.391463 -0.660278 -0.567558 -1.418002 0.037902 0.743809 -0.262249 0.417331 -1.898974 -0.442486 0.232004 -0.166032 -1.079690 -0.462668 0.729885 0.436161 -0.601665 -0.307279 -0.079939 -0.285836 -0.304233 0.035204 0.106166 -0.470038
man -0.120374 0.197225 0.888692 -0.242694 -0.155122 1.110730 -0.058279 0.946902 0.742533 0.337279 0.090881 -0.365906 -0.858534 -0.382183 0.492627 -0.712625 0.279541 0.340806 -0.401813 0.644965 -0.619629 0.401588 -0.768995 0.564143 -0.233699 0.713640 -0.433855 0.999772 0.110471 -1.026002 -0.687678 -1.021664 0.529132 0.020361 0.592964 -0.397508 -0.051984 -0.097586 -0.012201 -1.348036 -0.352786 0.273170 -0.077372 -0.531699 -0.489770 -0.224251 -0.768481 0.076042 0.827013 -0.306552 -0.413051 -0.351364 -0.085622 0.796873 0.426785 -0.740017 0.544836 0.428325 0.787747 -0.109335 -0.635753 -1.055541 0.558506 0.382465 -0.837884 0.273212 0.981119 -0.978114 -0.553221 0.368225 -0.215505 -0.608395 0.124228 0.044250 -0.523421 -0.441788 -0.685816 0.793660 -0.091808 0.940464 -0.779294 -0.795714 -0.580472 0.622944 -0.347484 -0.584378 0.557271 0.134453 0.740906 -0.791290 -0.757969 1.037949 0.073000 -0.411681 -0.503136 -0.173624 -0.285821 -0.110363 0.976952 -0.305484
into 0.543063 -1.337924 1.030930 0.346126 0.763697 0.687215 0.285639 0.030970 -0.729422 0.417482 0.078165 1.572235 0.095732 0.723098 -0.459402 0.491633 0.031305 0.279569 -0.187423 -0.832867 0.153250 0.306473 -0.424065 -0.496408 0.056038 0.269615 0.111920 -0.450805 -1.015275 0.921594 0.856798 0.245920 0.679687 0.206680 -0.491004 -0.584641 -0.321103 -0.428180 1.006445 0.092776 0.026891 0.465772 0.237240 1.663706 1.113510 0.182015 -0.027038 0.882267 -0.164818 0.840752 -0.702996 0.277134 0.872143 0.622955 -0.100527 0.043592 0.248639 -0.471356 -0.481802 0.065284 0.378156 0.127410 0.329729 -0.027962 -0.923602 -0.680298 0.284760 -1.380628 0.017632 1.070124 -0.025250 0.275399 0.418153 -0.114185 0.018185 -0.636418 -0.091622 0.217369 0.499847 -0.392246 -0.566482 -0.258607 0.220206 0.767977 -0.628386 0.727532 0.551654 0.530241 0.830777 0.042180 0.565307 0.875440 -0.774532 -0.072271 0.484180 -1.125201 0.334341 -0.186883 0.248994 -0.225293
some -0.011635 -0.573483 -0.663652 0.413343 -0.186016 -0.544773 -0.056504 0.915314 -0.415652 -0.544848 -0.069430 -0.210717 0.390900 -0.706817 0.721008 -0.086451 -0.305451 -0.087989 0.936226 -0.389611 -0.629049 0.279857 -0.641726 0.884415 0.209008 -0.850185 0.184937 0.233306 0.734962 0.414458 0.069452 0.013700 -0.008925 -0.016077 0.095873 0.593162 -0.026100 0.033595 -0.199532 1.336705 -0.017960 0.287435 0.271843 1.005994 0.201813 0.202636 0.129146 -1.135483 0.004333 -0.315875 0.396153 0.157356 0.619511 0.042447 -0.650200 0.167025 0.711120 -0.352556 -0.049230 0.725853 0.151775 0.102752 0.712727 0.017145 -0.052388 -0.206058 -0.014929 0.414228 -0.466718 0.284791 0.208355 0.548071 -0.077691 0.712471 0.215858 -0.363935 -0.087248 -0.565454 -0.487450 0.247629 -0.110122 0.750104 0.020024 -0.113859 -0.688136 0.619482 0.787815 -0.592198 0.001201 0.055051 0.159809 -0.666821 -0.617012 0.199813 0.087986 0.428522 -0.422330 0.711973 0.197347 0.256123
could 0.057549 1.009987 -0.376676 0.427702 -0.382719 -0.146993 -0.826642 0.428175 -0.376461 0.930249 0.430099 0.389452 0.168401 0.859604 0.058851 0.364991 0.824956 -0.439922 -0.289696 0.083829 -0.081061 0.692179 2.306358 -0.474900 0.260778 0.739447 0.610554 0.581335 -0.600879 -0.637738 -0.187677 0.457388 -0.984414 0.921643 0.287050 -0.233454 0.311934 0.086381 0.131090 -0.447560 0.310255 -0.702028 0.611471 1.071531 -0.045669 -0.911620 0.212941 -1.676808 -0.158101 -2.302085 -1.016230 -0.028273 -0.165586 -0.907779 0.205801 0.808019 -0.541138 -0.106607 -0.268741 -0.608426 0.132462 -0.032540 -0.365661 0.539463 1.366512 0.531992 -0.496983 -0.274856 -0.337788 1.376464 0.411969 1.282796 0.645930 0.629996 -0.102971 -0.679068 0.283057 0.140385 -0.072640 -0.502431 -0.498906 0.227450 0.142474 -0.214631 0.084892 -0.023780 0.737618 0.015672 -0.816044 -0.282046 -0.367280 -0.080087 -0.347573 -0.270145 0.365199 0.273111 0.120943 -0.149433 -0.415765 0.238591
has 0.399116 -0.820304 1.869520 0.318500 0.688279 -0.573199 0.689238 -0.037594 0.210842 0.211712 -0.107050 -0.273698 0.379157 -0.149933 -0.348680 0.715857 0.439187 -0.603486 -0.757869 -0.815198 0.729764 -0.536640 0.534699 -0.251483 0.172674 0.710580 1.015072 -0.294530 -0.373979 -1.280490 0.742584 0.552438 0.387390 1.224527 -0.102178 -0.497335 0.327193 -0.620163 0.187234 0.349735 0.125358 0.189177 0.506729 -0.326969 -0.745867 -0.042199 -0.118139 0.135627 0.126591 -0.694962 -0.089263 -0.036754 0.359397 0.556161 -1.191744 -0.389179 0.065272 -0.336343 -0.047021 0.171956 0.789093 -0.408062 -0.178911 0.237580 -0.140145 0.382251 -0.522297 1.041452 0.570635 0.251115 -0.212586 -0.197496 -0.712195 -0.321886 -0.460868 -0.391694 0.970694 -0.370051 0.240961 0.953016 -0.752970 -0.220719 0.215798 0.521541 0.014634 -0.346463 1.284468 -0.651368 0.027409 0.673228 -0.502004 -1.006252 0.187695 -0.111668 0.921446 -0.365404 0.016586 -0.666308 -0.623079 0.223762
only -0.159514 0.329810 -0.073425 -0.202135 0.008219 0.289586 -0.447808 -0.071057 -0.586393 -0.396212 -0.540645 0.718088 -0.369959 -0.355257 -0.639140 0.053074 -0.432103 -0.449421 0.319691 0.172279 0.398532 -0.015603 0.191348 -0.071682 0.075244 0.124618 -0.266812 -0.181853 -0.612896 -0.503986 0.002462 0.008337 0.150754 -0.376981 0.805430 0.246253 -0.182096 -0.417511 0.016788 -0.831446 -0.256569 0.023445 0.246894 -0.197976 0.034766 -0.037643 0.095028 -0.555275 0.417293 -0.019708 -0.051755 0.391356 0.059291 -0.015710 -0.121357 -0.360707 0.613496 0.319729 0.168625 -0.438188 -0.621248 -0.184747 0.051852 0.259414 0.168022 -0.046343 0.165075 -0.408552 0.211158 0.050916 -0.131228 0.140749 0.077295 0.351986 0.154804 -0.255466 -0.172837 -0.674381 0.167494 0.905724 -0.575674 -0.032788 0.046228 -0.355697 -0.239005 0.460000 -0.204827 -0.531824 0.530718 0.279507 0.882206 0.060375 -0.433100 0.169441 0.216715 0.285565 -0.672853 -0.535222 -0.121602 0.392775
any -0.514143 0.813209 -0.219532 1.217956 -1.408556 -0.050399 -0.237359 -0.287165 -1.044294 -0.357267 -0.874935 -0.395988 0.798865 -0.943952 0.277718 -0.704621 -0.523186 -1.121081 1.123022 -0.111935 -0.159063 0.617565 -0.178027 0.211616 0.374877 0.119903 0.974972 0.959536 0.725240 -0.093388 0.301841 0.561237 -0.235770 0.014054 0.419820 -0.055566 -0.606004 0.043902 0.379577 1.750758 -1.236453 -0.080914 -0.089609 1.203816 0.605526 -0.158517 -0.083032 -0.800998 0.545042 -0.716572 0.808212 -0.417469 0.131737 -0.709398 -1.259958 0.336996 0.862020 0.232616 -0.606661 0.689600 0.032082 0.246493 0.802391 0.044623 0.017557 -0.371060 -0.375559 -0.274650 0.086498 0.164725 0.872911 0.757345 -0.337670 0.538819 0.462895 0.251463 0.395688 -0.050428 -0.909626 0.096500 0.872703 -0.078961 0.683974 -0.407469 -0.567309 0.196096 1.422573 -0.135620 0.210788 0.186376 0.331586 -1.134062 -0.105991 0.701607 0.189342 0.433176 -0.127711 0.183027 -0.562251 0.572388
very -0.379546 0.016283 -0.590611 -0.035777 -0.463511 0.272910 0.151159 0.071858 -0.726405 -0.575287 -0.227213 -0.832571 -0.952831 -0.078895 -0.250028 -0.470936 -0.196010 0.167985 0.885274 0.058801 -0.363681 -0.325912 -0.869815 0.714625 0.275308 0.960690 -0.875184 0.748066 0.072000 -0.031862 0.401634 0.177072 0.037119 -0.407624 0.408880 -0.314433 0.027252 -0.415290 -0.591951 0.223628 0.284852 -0.097294 -0.151094 0.154842 -0.099046 0.772240 0.232515 -0.052042 0.246075 0.068170 0.879321 -0.337004 -0.482480 1.323318 -0.309364 0.100309 -0.231632 -0.303278 0.181525 -0.707072 0.055491 -1.066460 -0.792705 0.564896 -0.563047 -1.153843 0.409067 -0.293268 0.527580 0.231655 -0.215426 0.211736 0.548765 -0.009723 0.138367 0.449699 0.707401 0.324949 -0.423973 -0.412274 -0.524245 0.175395 0.363869 -0.653584 0.906543 -0.295179 0.765796 -0.434390 0.141666 -0.140337 0.374302 0.614711 -0.444071 -0.485733 0.148258 -0.800359 -0.794238 0.063370 -0.073613 -0.673542
like 0.242767 -0.319038 0.355914 0.291248 0.455916 0.208920 -0.813032 0.509677 -0.880191 0.649671 0.133356 -0.653818 -0.249575 -0.127786 -0.975896 0.560361 0.378741 0.959868 -0.902070 0.192732 0.150666 0.073519 -1.145863 0.301828 -0.167064 0.379201 -0.497902 0.460113 -0.985029 -0.024596 0.060915 0.251704 0.028105 0.348453 0.165503 -0.495807 0.353732 0.000860 0.591633 0.384851 -0.075712 0.310561 0.035693 -0.235090 0.856337 -0.015914 0.015871 -0.059006 -0.157279 0.357587 -0.149548 0.252105 0.062807 0.166496 -0.355395 -0.208671 -0.190382 -0.251880 -0.576617 -0.309775 -0.607274 0.095332 -0.394091 -0.514304 0.153969 -0.030141 0.550941 0.189307 0.839643 0.925040 -0.094945 -0.160490 -0.000884 0.654052 -0.264906 0.140610 -0.368254 -0.203265 -0.128634 -0.637747 -0.160800 -0.678121 -0.585083 1.132176 0.228386 -0.118749 -0.047070 -0.157752 0.039830 1.309260 0.377999 0.046846 0.043759 -0.547039 -0.812326 -0.492693 0.624261 0.092743 -0.398262 0.433419
did 0.355815 0.834276 -0.569085 -0.424574 0.569214 0.111787 -0.395506 -0.272852 0.078667 1.021175 0.710860 -0.548976 0.242763 0.246308 -0.672607 0.697855 0.338137 0.074047 -0.530898 -0.161356 0.164343 -0.025253 2.256002 -0.968623 0.462153 0.777343 0.511819 0.122347 -0.646166 -0.352886 0.410494 1.032449 0.554914 0.561938 0.209387 -0.671794 0.631788 -0.418413 -0.326021 -0.668482 -0.397131 0.032191 1.166633 0.248843 -0.342928 -0.540812 -0.014967 -1.184055 0.011893 -1.479974 -0.557695 0.415248 -0.858718 -1.282918 -0.980597 1.142622 -0.424793 0.180670 0.148031 -0.358003 0.180117 -0.123393 -0.201134 1.064801 0.481023 -0.242388 0.181801 -0.593498 -0.277840 0.668610 1.073047 0.685712 -0.211982 0.113030 -0.803693 -0.118226 0.308254 0.813356 -0.563525 0.021446 -0.103996 -0.072949 0.238602 -0.260387 0.980390 -0.437386 0.246486 1.057863 -0.468392 0.899819 0.672741 -0.726692 0.110931 0.740813 -0.078852 -0.001657 -0.345934 -0.482309 -0.362431 0.077467
time -0.333153 1.055958 0.503095 -1.084866 -0.947994 0.062517 -0.636284 0.421484 0.599478 -1.028423 -0.612987 0.589079 -0.701906 0.661100 0.122234 0.030674 0.696012 0.592384 0.176670 -0.241350 0.913245 -0.738531 0.507892 0.502961 -0.023856 -0.798751 0.459994 -0.347698 0.358426 -0.566512 -0.287632 -0.323631 0.254030 0.445046 0.263444 0.266108 -0.430500 -0.197922 -0.293107 -1.673586 0.781332 0.325663 -0.346173 -1.525883 -0.374169 -0.060708 -0.841568 -0.250800 -0.141234 -0.808782 0.598072 -0.323869 -0.151296 0.916009 -0.077949 -0.279887 0.316279 -0.253892 0.226749 -0.513410 -0.165172 0.041523 -0.665158 0.762423 -1.265730 0.198159 0.858897 -0.177574 -1.101798 0.524624 -0.456884 -0.814564 0.284741 -0.618015 -0.179397 0.451812 -0.402203 1.068603 -0.072566 0.369959 -0.294531 -0.836546 -0.058778 -0.311711 -0.265447 -0.308211 -0.206730 1.152598 0.742761 -0.313223 -0.188611 1.105271 0.187311 0.797471 -0.300739 -0.007771 0.345240 1.126886 0.173519 0.703660
its -0.316479 -0.701512 0.223459 -0.231427 -0.046727 -0.211893 -0.279611 -0.400408 0.269951 0.188056 0.546499 -0.266673 0.634928 0.643223 0.154274 -0.153245 -0.222465 -0.744078 0.740827 0.210916 -0.159422 0.122124 -0.600582 0.257793 -0.697732 0.177742 0.272736 -0.733079 0.283074 0.241602 -0.149634 0.525945 -0.286563 0.209394 -0.547356 -0.395900 -0.268372 0.131399 -0.041571 2.177065 -0.023274 0.226181 -0.095034 1.536236 0.257132 0.714818 0.381417 -0.433750 0.183984 0.268531 0.676581 -0.130197 0.654436 0.533096 -0.212289 0.150490 -0.202830 -0.145711 0.145717 -0.234441 -0.084113 -0.797808 0.625892 0.232639 0.352126 0.425274 -0.186821 0.361435 0.201123 -0.400779 -0.185418 0.380689 -0.343810 0.410305 -0.576506 0.674704 0.825488 0.571780 -0.681153 -0.686455 0.477080 -0.091933 -0.392302 -0.495256 -0.873539 0.511420 0.009038 -0.286811 -0.872621 0.093976 0.586137 0.334395 0.314890 0.072662 -0.484571 0.826561 -0.619296 -0.566814 -0.262018 0.666041
than 0.004706 0.668720 0.177027 -0.841524 0.579888 0.729657 -0.135189 0.169079 -0.477859 0.409135 -0.270681 1.006669 0.819887 0.523772 -0.397915 -0.268394 0.327349 0.103467 -1.269133 -0.015418 -0.661842 -0.881603 -0.582970 0.500463 -0.553883 0.492017 -0.330262 1.381675 -0.920362 -1.083904 -0.094656 -0.401555 0.073276 0.059348 0.649346 0.553225 -0.146005 -0.206387 0.396254 0.963597 -0.578880 -0.606126 -0.262517 1.109584 0.781758 -0.206538 -0.282676 0.274658 0.122314 0.014530 0.564640 0.295403 -0.057905 0.072726 -0.902400 1.104489 0.308286 -0.686613 -0.213248 0.068903 0.482111 -0.824682 0.157413 -0.243465 -0.165799 0.103922 -0.224874 1.035901 -0.358994 -0.881749 0.340307 -0.902642 0.617305 -0.233715 0.729893 -0.344526 0.616964 -0.133653 0.317375 -0.061218 0.557274 -0.235370 -0.734820 -0.538712 0.454385 0.620826 -0.787115 -0.735418 0.289326 0.689620 0.127323 0.056493 0.183050 -0.124027 -0.511824 -1.080040 0.697481 0.103032 -0.524707 0.789926
other -0.412041 0.485306 0.299206 0.513794 0.249332 0.894104 -0.523447 -0.643095 0.219432 -0.233025 0.438766 -0.958885 -0.262040 -0.091715 1.355727 0.787297 0.874245 -0.603623 1.057909 0.164718 -0.603042 0.500713 0.892656 -0.248246 0.116626 0.098172 0.432537 -0.330364 0.571167 -0.639656 -0.260899 -0.558163 0.559469 0.041923 -0.268823 0.326785 0.226808 -0.596785 -0.215621 0.259388 0.581553 0.025899 -0.044559 0.029753 -0.227614 0.095418 -0.315967 -0.359142 0.341816 0.329701 1.158860 0.074046 -0.204049 0.116358 0.540187 -0.684811 -0.377583 -0.639993 -0.155900 0.348674 0.404116 0.311585 -0.184354 0.483598 -0.094820 0.344055 -1.030402 -0.377876 -0.012816 -0.734974 -1.205507 -0.317257 -0.445710 -0.418664 1.094368 -0.875837 -1.285852 0.783120 -0.655507 -0.791168 0.018622 1.443627 -0.911673 0.135954 0.488236 -0.529384 -0.703763 -0.317674 -0.304755 0.006723 0.071287 0.449662 -0.640386 -0.498804 -0.281633 -0.142751 -0.668498 -0.548812 0.300347 -0.482738
before 0.442836 0.071998 0.324824 -0.478232 0.193611 0.003543 -0.358204 0.345549 0.141296 -0.096550 0.101545 0.655548 0.224573 0.421184 -1.380203 0.563011 0.115677 0.012951 -1.192239 -0.761814 0.089953 -0.112117 -0.134395 -0.549609 0.107625 0.192413 -0.860931 0.562892 -0.102053 0.346217 0.278062 0.074821 0.373478 -0.439528 -0.513918 -0.173271 0.265412 -0.380990 -0.157870 0.151946 0.584046 0.941094 -0.702972 0.214341 -0.653130 -0.710808 0.038890 -0.136424 0.573635 0.869414 -0.119655 0.491074 -0.055505 -0.196695 -0.276717 0.493326 -0.053708 0.557760 -0.010398 0.167945 0.020493 0.617501 0.173705 -0.437643 0.155042 -0.811288 0.233585 -0.370542 0.074411 -0.016646 -0.276835 -0.026076 -0.065315 0.042574 0.598717 -0.927683 0.323975 0.705896 0.541216 -0.139978 -0.549784 0.408175 0.504856 -0.260236 -0.267726 -0.654601 -0.491846 -0.524888 -0.685745 -0.023770 0.101050 -0.360174 0.210312 0.669228 1.014923 -0.116240 -0.153426 0.379327 -0.327313 0.260251
about 1.116118 0.278399 0.021647 -0.924241 0.649911 -0.059045 -0.481811 0.142829 0.037351 -0.562188 0.212337 -0.412378 -0.165278 0.304471 -0.442672 0.393003 -0.800704 0.552921 0.003377 0.259571 0.092715 -0.836693 0.822530 0.296518 0.585538 -0.073568 -0.316598 -0.037219 -0.792200 0.060930 -0.187032 0.088037 -0.138021 0.467364 0.246476 0.058657 -0.152792 -0.458143 0.082249 -0.302213 -0.048437 0.996880 -0.071736 1.273269 0.285502 0.523734 -0.678891 0.519687 0.052078 1.165384 -0.242982 0.782099 -0.654749 -0.031828 -1.418385 0.540437 0.025209 -0.835181 -0.422743 0.367334 0.126029 0.117949 -0.685199 -0.650105 -0.595727 0.152896 -0.108794 0.030949 0.439486 -0.022517 -0.005809 -0.140485 0.457404 0.084164 0.433634 -1.129178 -0.096802 0.364381 -0.181719 0.107195 0.551461 -0.058076 -0.294487 0.365216 -0.128436 0.358387 -0.785233 -0.710896 0.577840 -0.126057 0.463817 -0.086613 -0.124182 0.078184 0.482455 0.325392 0.054162 -0.083605 -0.550382 -0.339863
see -0.521844 0.276004 -0.359612 0.187812 0.057829 0.718313 -0.350819 0.179732 -0.665018 -0.322790 -0.044858 -0.612647 -0.144700 -0.279194 -0.425258 0.254423 -0.862210 -0.406981 -0.799802 -0.532538 -0.301011 -0.365031 -0.074613 -0.095248 0.589150 -0.518237 -0.669801 -0.289024 -0.819400 -0.996639 -0.025440 -0.001894 0.562935 0.621161 0.679830 0.192496 0.001817 1.041755 0.476447 -0.429094 0.590706 0.479775 0.031505 -0.872435 0.372767 -0.822919 0.028962 0.502007 0.043829 -0.085199 0.079923 -0.337332 -0.766977 0.539150 -0.037528 -0.004049 0.290073 0.372362 -0.362867 0.705545 -0.453939 0.140430 -0.924315 0.052879 0.443588 -1.003480 -0.775892 -0.632912 0.432719 0.056405 -0.351978 -0.404619 0.677988 -1.292877 0.269798 0.814227 -0.468063 0.434403 0.771522 -0.018494 1.044205 -0.678851 0.380928 -0.295321 -0.051521 -0.696133 -0.738653 0.229429 -0.287535 0.931622 -0.512198 -0.478511 0.034348 -0.489299 -0.136367 -0.584098 0.131315 0.752001 0.648322 -0.840671
such -0.060330 -0.131062 -0.158596 0.509848 0.185820 0.658913 -0.133625 -0.221345 -0.303024 -0.823719 -0.045238 -0.643910 -1.189694 0.128373 0.041041 -0.158502 0.284645 0.061288 -0.569434 0.713804 0.096733 0.422802 -0.599630 -0.053685 -0.752335 0.340013 0.457534 -0.732485 0.437062 0.436407 -0.386702 -0.487739 -0.384404 -0.503004 -0.776655 -0.052329 0.503113 0.376260 -0.728083 0.166063 0.618095 -0.691499 0.243512 1.294495 -0.006087 0.175335 -1.239827 -1.157174 0.351637 -0.097994 0.364013 0.148689 0.020185 -0.103881 0.236728 -0.790083 -0.038149 0.192879 0.091775 1.196223 -0.207727 -0.483790 0.271046 0.487104 0.075423 0.661869 -0.034183 0.340351 0.823148 0.200427 -0.387522 0.010547 0.281258 0.554603 0.520043 0.187283 0.304277 -0.934514 -0.424943 0.414350 0.501312 0.012266 0.489296 -0.423876 -0.389211 0.084403 0.821141 -0.888079 -0.060997 0.579156 0.552721 -0.071957 -0.303349 -0.211621 -0.600020 -0.276370 -0.044305 0.039483 -0.218331 0.959270
must 0.240109 0.171380 0.129225 -0.784818 0.793133 -0.507172 -0.398595 0.163578 -0.166154 0.187468 0.921303 0.750421 0.630233 0.448445 -0.807831 1.080016 0.637895 0.298285 0.938432 -0.199663 0.309741 -0.103452 1.154453 -0.480109 0.499941 0.575361 0.530938 0.193669 0.725668 -1.265946 0.084736 0.910894 -0.288765 0.600482 -0.593797 0.326481 0.368282 -0.956959 0.043978 -0.580959 0.273480 -0.909763 0.842135 1.511420 -0.596009 -0.884724 0.294940 -0.757151 0.824407 -0.932081 -0.266569 0.684787 0.105876 -0.040337 0.272730 0.447635 -0.066018 -0.435665 -0.402595 -0.377558 -0.311819 0.480983 -0.054714 -0.188620 1.485158 0.045806 0.485047 -0.820131 0.152950 0.853884 -0.073653 0.033788 0.566097 0.381877 0.344639 0.229558 0.482975 -0.726059 -0.285069 0.198430 -0.792702 -0.386754 0.271942 -1.022403 0.981012 0.214534 0.256664 1.139372 -0.809852 1.095062 -0.062700 -0.555857 -0.162502 0.284157 0.629652 0.013620 0.268154 -0.397259 -1.130540 -0.462373
know -0.156067 0.811199 -0.461617 0.878422 -0.073569 0.639651 -0.651910 0.554257 -1.046283 0.247865 -0.470468 -1.453647 0.091077 0.328296 -0.340681 0.481352 0.033383 -0.352430 -0.774030 0.026256 -0.414236 -0.442152 0.244435 -0.200850 0.296820 0.431577 -0.463841 0.040182 0.175604 -0.705141 -0.091511 0.098920 0.690203 0.998395 0.664026 0.427500 -0.314082 0.609931 0.187958 -0.355341 0.529208 0.650958 -0.062445 -0.870000 0.134391 -1.038026 -0.153797 0.140028 -0.446654 0.239438 -0.004638 -0.280104 -0.006696 0.647606 -0.589146 0.149803 0.404121 0.017733 -0.160279 -0.058324 -0.832892 -0.435989 -1.363390 0.204367 0.589630 0.156234 -0.942095 0.344083 0.078705 0.444567 -0.184530 0.411961 0.027017 -1.023422 0.597846 0.737122 0.129009 0.136608 0.525519 -0.332998 0.552022 -0.977617 0.004179 -0.085928 0.331428 -0.723919 -0.929341 0.533007 0.061877 0.750554 -0.634230 -0.881433 0.231436 -0.410255 -1.329784 -0.629934 -0.054598 0.688564 1.077175 -0.559866
should 0.339292 0.419087 -0.050758 -0.327506 1.124128 -0.067407 -0.295603 0.721545 -0.862708 0.523586 0.591010 0.378178 0.955070 0.076527 0.224624 0.677131 0.652705 -0.059008 -0.469388 -0.692085 -0.319209 -0.247152 0.820173 0.056439 0.386507 0.321162 0.423995 0.443074 0.276393 -1.051873 0.592927 0.301509 -0.229932 0.685322 0.549461 -0.026237 0.282060 0.048153 -0.122510 -0.859260 0.239057 -1.058236 1.076952 1.211268 -0.672706 -1.043603 0.526744 -0.682209 1.250820 -1.079638 -0.095201 0.256050 -0.685538 -0.466479 0.033855 0.675192 -0.260397 -0.772259 -0.403801 -0.361931 0.218939 0.839778 0.007750 0.335188 1.367921 0.212868 0.310119 -1.282191 -0.038155 0.321158 0.004389 0.523155 -0.124136 0.152192 0.342224 -0.142108 0.397382 -0.727192 -0.523370 -0.248116 -0.528752 0.039628 0.317493 -0.920678 0.902798 0.090811 0.453853 0.889033 -1.179706 0.079315 0.240830 -0.558829 -0.466588 -0.023384 0.591998 -0.038905 0.375600 -0.587562 -0.251266 0.191674
may 0.589176 0.463445 0.340734 -1.155344 0.634248 -0.051547 -0.613364 0.561599 -0.824107 0.398257 0.534749 -0.367940 0.931664 -0.021855 0.314863 0.795109 0.136778 -0.405273 0.543935 -0.687448 0.370426 0.339946 1.136049 0.434156 0.600291 0.702995 0.464983 0.057294 0.292012 -0.636151 0.388457 -0.065401 -0.900859 0.842115 -0.182571 0.671469 0.530076 -0.332157 -0.054334 -0.330416 0.126693 -1.084056 0.980739 1.301149 -0.578953 -0.935035 -0.105240 -0.761518 1.192336 -0.869682 -0.023640 0.712252 0.500656 0.001687 -0.147724 0.601681 -0.552980 0.401698 -0.422636 -0.341957 0.193806 0.678994 -0.763509 -0.165404 1.007447 0.464375 0.640580 -0.335277 -0.542227 0.969775 0.375659 0.644588 0.375276 0.566667 -0.654232 -0.264452 0.282286 -0.789593 -0.234698 0.251451 -0.543834 -0.470536 -0.181746 -0.575779 1.003954 -0.228604 0.424283 0.140165 -0.776261 0.960073 -0.605962 -0.048982 0.126826 -0.192997 0.445758 -0.458251 -0.071674 -0.438042 -0.689477 0.389159
how 0.743574 0.943193 0.324463 -0.447961 0.244740 0.560474 -0.229120 -0.114155 -0.740400 0.137431 0.837650 -0.551722 -0.793937 -0.024134 0.169188 0.369224 -1.117086 0.241388 0.169158 -0.214930 0.021197 -0.252374 -0.370874 0.894838 -0.552863 -0.352724 -1.101417 0.700918 -0.821873 0.231128 -0.754993 -0.831959 0.081203 -0.145756 0.205985 0.987430 -0.066840 -0.672016 -0.017164 -0.149350 0.109158 1.036842 0.103678 0.412080 0.108645 -0.158191 0.233529 -0.513783 -0.766589 -0.442871 0.414459 -1.134067 -0.360741 0.791485 -0.258644 0.231555 -0.372876 0.483792 0.070684 -0.835794 -0.194081 0.027402 0.328683 0.235939 0.476032 -1.247919 0.567812 0.457842 0.727514 -0.075985 -0.317512 0.225661 0.415146 -0.720321 0.828531 0.233632 0.507944 1.117135 -0.446652 0.175496 -0.740775 -0.257723 0.865997 0.139778 0.446637 0.263775 -0.070022 -1.004681 0.404640 0.194681 0.041387 0.010842 -0.741030 -0.555306 0.968161 0.125010 0.188636 -0.527582 -0.469698 -0.480556
well -0.573774 0.673549 0.119316 -0.054771 0.482076 -0.287843 0.914371 0.262260 0.901011 -0.506029 0.512522 -0.519024 -0.121016 -0.362157 0.477197 0.089078 -0.616888 -0.429604 0.138124 -0.264990 -0.007733 0.303851 0.704377 0.579513 0.060584 1.134847 -1.080455 -0.605200 0.728402 -0.092207 -0.597139 -0.212527 -0.788108 -0.670074 -1.004780 1.141659 0.285186 -0.511766 0.128049 -1.308872 -0.078945 -0.285034 0.078888 -0.792863 -1.028799 -0.149776 -0.245520 -0.228402 0.461011 0.215607 -0.398722 -0.151133 0.422596 0.050523 -0.552698 0.751063 0.291722 -0.255939 -0.074088 -0.265216 -0.427068 0.426879 0.539714 -0.545812 0.850736 0.737411 -0.428956 -0.567584 0.360273 0.637877 0.545843 -0.728916 -0.224976 -0.870414 -0.765558 -0.363127 0.491820 0.477740 0.041135 -0.230538 0.671026 0.359248 -0.078106 0.807286 0.019207 -0.271641 -0.360754 -0.029748 -0.440779 0.157025 -0.158084 -0.571209 -0.110933 0.149940 -0.714581 0.067356 -0.403781 -0.347517 0.860776 0.607314
our 0.092269 -1.302447 0.563079 0.738820 -0.753381 0.191739 -0.253963 0.225907 0.007210 -0.136357 0.145454 -0.921495 0.421621 -0.453944 0.863627 -0.362708 0.117922 -0.521036 0.145296 0.742979 0.466662 0.497585 -0.205764 0.530509 -0.454459 -0.561723 0.381630 -0.331239 0.178660 0.431245 0.012924 0.526200 -0.454678 -0.361216 0.108918 0.141373 -0.048895 0.098908 0.392313 2.296186 0.133083 -0.015426 0.267444 1.147500 -0.405408 -0.072776 -0.134002 -0.169883 0.321719 0.339840 0.189682 0.256105 0.428249 0.412096 0.593050 0.612915 -0.464356 0.315591 -0.845669 0.361611 0.347249 -0.557101 0.454224 0.275201 1.615222 0.169245 -0.420565 0.185791 0.079851 0.013299 0.037125 -0.176449 -0.531614 1.054658 0.194334 0.927631 0.718154 -0.053150 -0.355997 0.677953 0.372191 0.164416 -0.560430 -0.939642 0.427770 0.216002 -0.808561 0.755692 -1.078151 0.368447 0.241660 -0.218542 -0.216327 0.121276 -0.016179 0.014128 -0.782145 -0.518541 -0.247868 0.484182
can 0.201025 1.117858 -0.641160 -0.307062 -0.143659 -0.287041 -0.171269 0.186500 -0.711562 1.132249 0.388104 -0.002726 0.963985 0.912169 0.142830 0.872197 0.795526 0.020276 0.235684 -0.127247 0.012906 1.007793 1.449657 0.535617 0.466397 1.270031 0.635552 -0.393004 0.026468 -0.487338 -0.359287 -0.010990 -1.269456 0.822170 -0.715626 -0.708835 -0.039675 0.034113 0.470404 -0.314004 -0.109987 -0.830218 0.887968 1.233665 -0.330378 -0.995341 -0.345044 -0.405026 0.835909 -1.355916 -0.888069 0.638558 0.928926 -0.723149 0.276667 0.435193 -0.585900 -0.128005 -1.405873 -0.099923 0.325002 -0.298060 -0.531660 -0.470675 1.409264 0.113907 -0.769586 -0.410322 -0.110748 0.891106 0.509484 0.382789 0.428059 0.893356 0.181814 -0.823792 0.370299 -0.126403 -0.743422 -0.441903 -0.131485 -0.711638 0.717342 -0.246559 1.224248 -0.990165 0.374566 -0.244850 -0.360822 0.452259 -1.227732 -0.673587 -0.261915 0.025117 0.279810 0.544093 -0.256901 -0.296623 -0.389423 0.336148
little 0.258310 -0.105510 0.076758 0.183746 -0.249435 0.938803 0.388258 0.035188 -0.051555 -0.889788 1.142076 0.250274 -0.453945 0.327104 0.727946 -0.057731 -0.169316 0.200226 0.420423 0.283181 0.253434 -0.357184 -0.497637 -1.103950 0.274577 0.678899 -0.253220 -0.586987 0.208005 -0.313367 -0.060355 0.276871 0.395817 -0.538889 0.372753 -0.134233 0.242659 0.058775 -0.192166 -0.071470 -0.458328 -0.190683 -0.352433 -0.268313 0.531318 -0.489941 -1.047354 -0.763149 0.330346 0.353915 0.549737 0.164011 -0.455806 0.207405 0.088375 -0.312472 0.541036 0.088442 -1.090192 -0.314465 -0.532882 -0.362347 0.386933 -0.108708 -1.163509 0.366984 0.022155 0.551851 -0.019643 0.467005 -0.123023 -0.929514 1.133305 -0.027687 -0.473007 -0.741290 -0.120171 -0.553129 -0.393236 0.119712 -0.272568 0.574927 0.087543 0.928780 0.379436 -0.103276 0.198047 0.331830 -1.045787 0.133181 0.397618 0.094381 -0.537475 -0.291233 -0.581406 0.375539 0.313488 0.834155 -0.647955 1.146489
am -0.645691 -0.465376 -0.571131 0.191770 1.788977 0.645525 0.949515 1.234484 -0.409216 -0.049804 0.551856 -1.637424 -0.968292 -0.167012 0.135899 -1.322758 0.042543 0.171491 -0.551258 -0.259495 -0.610255 0.533602 0.654842 -1.188559 -0.501315 1.286105 -0.770806 -0.612790 1.144604 -1.106352 0.724373 0.091896 0.683675 0.017652 1.663045 0.017596 -0.132123 -0.232152 -0.315772 0.446277 0.965055 0.113217 1.135652 -0.843272 0.479725 -0.524173 0.538031 -0.359329 0.190956 -0.698090 -0.818110 -0.144542 0.154194 -0.216818 -0.963139 -0.109788 0.446563 -0.101245 0.676138 0.465184 0.125193 0.143252 -2.089240 -0.330459 0.271783 -0.441544 0.587697 -0.260346 0.544078 -1.234135 0.571081 -0.916936 0.671353 -0.260890 -0.170386 1.121797 0.267661 0.710504 -0.624311 -1.708043 -0.375408 -1.137279 0.468463 -1.458975 0.325431 0.323037 -0.015722 0.766307 -0.235096 -1.122952 -0.598023 -0.465606 0.094722 -0.328003 -0.524218 -0.147258 0.528002 -0.050698 -0.124256 0.230369
these -0.920343 -1.308304 -0.635589 -0.006302 0.900511 0.366302 -0.974397 0.770666 0.247504 0.857976 0.420865 -0.334634 -0.713465 -0.275489 0.430959 0.036312 -0.091676 -0.107904 -0.085319 0.483520 -0.410572 -0.086404 0.275224 0.237976 -0.562401 -0.618240 0.229185 -0.256284 0.792246 0.911518 -0.267398 0.406458 0.076586 0.097804 -0.398784 0.229720 -0.028239 -0.514094 -0.440652 1.366803 0.864999 -0.168111 0.658136 1.001291 0.151035 -0.377747 0.170279 -0.928639 0.398211 -0.669316 0.423719 -0.050051 0.316796 0.767682 0.294974 -0.010081 0.093779 -0.367160 -0.220196 0.345907 -0.291504 0.139716 0.482402 0.314877 0.193069 0.442191 -0.077992 0.766035 0.397887 0.110544 -0.566402 0.831711 -0.158780 0.641142 0.364521 -0.193454 -0.043140 -0.272047 0.346530 0.288636 0.673559 0.843972 -0.502616 0.099892 0.057129 -0.618077 -0.638104 -0.665714 0.543322 -0.496270 0.423954 0.131944 -0.289657 -0.415805 -0.039176 -0.225007 -1.374527 0.221053 0.045093 0.450735
upon -0.368964 -0.417485 0.945423 -1.058643 0.368583 -0.276729 0.340708 -0.037272 -0.701733 0.261746 0.378866 -0.258114 0.162140 0.674553 -0.400425 1.027825 0.015975 -0.778124 -0.180870 -0.038810 0.536689 -0.278861 -0.198110 0.757833 0.721023 0.418117 -0.457097 0.346628 -0.711440 0.080575 0.375950 0.501555 0.243749 0.136675 -0.392326 -0.927596 0.729769 -0.086279 -0.253975 0.889583 0.453248 -0.253155 -0.397362 0.386327 0.564744 0.125914 0.176919 1.166049 -0.247200 1.101624 -1.126753 0.802589 0.418781 -0.167365 -0.678211 -0.129758 -0.435589 0.059972 0.291634 -0.493764 0.642508 0.646678 0.483599 -0.487381 0.159962 -0.645819 1.031467 -1.387762 0.094014 0.809244 0.076614 0.036181 0.481347 0.193063 0.438080 -0.570746 0.054293 -0.020967 0.271973 -0.424988 0.399916 0.186805 -0.892801 0.832985 -0.983952 0.142329 0.267354 -0.299980 -0.400908 0.124641 0.228087 0.665483 0.402944 0.556603 0.432594 -0.093121 0.738639 0.460393 0.147405 0.059123
down -0.252201 -0.673046 0.310311 0.286419 0.035222 0.269140 0.228389 0.424192 -0.191617 -0.265051 -0.807717 1.045247 0.033809 -0.683587 -0.315356 1.170426 0.268827 0.466620 0.549331 0.549976 0.263014 0.257844 1.021557 0.034226 -0.198423 -0.718984 0.589669 0.226016 -1.534904 1.063226 0.160859 0.432167 0.082875 0.955676 0.320732 -0.207548 0.796123 -0.170135 1.093368 -0.756345 0.441736 0.090813 -0.365692 0.261669 0.398414 0.376231 -0.322442 -0.139085 0.745705 0.963588 0.076039 0.035856 0.087667 -0.156399 0.566469 0.173775 1.379065 -0.510662 -0.680305 -0.348474 0.920284 0.190379 -0.006007 -0.631752 -0.481721 0.135555 1.513177 -1.836917 0.505779 -0.811106 0.261034 -0.599597 0.349454 0.068422 -0.651028 0.411725 0.099436 0.242579 0.070497 -1.676873 -0.052059 -0.131487 0.529918 0.862831 -1.214989 0.392765 -0.600212 -0.408100 -0.524651 -0.307395 -0.022282 0.340665 0.013300 -0.202018 0.338011 0.468513 0.800859 0.798884 0.019100 -1.065590
two -0.426535 -1.068290 0.035854 0.374785 -0.001419 -0.380530 -0.552746 1.167685 0.382767 -1.265892 0.243699 0.111193 -0.870406 -0.463540 0.081033 0.486035 0.684111 -1.085989 0.161921 0.258055 -0.674423 0.409238 -0.213811 -0.101819 -0.231794 -0.776868 0.533356 0.695536 0.708814 0.819240 -0.340989 0.091400 1.144863 0.204418 0.021020 0.686156 0.352783 0.364797 -0.167670 0.754666 -0.852578 -0.508511 -0.040174 0.196044 -0.181075 -0.358866 0.542721 -0.078405 -0.059507 -0.387355 -0.502514 -0.721466 0.909099 0.144144 -0.221392 0.297047 -0.084142 0.420854 -0.821389 0.648336 0.681087 0.386926 0.921993 -0.531179 -1.356552 -0.198426 0.581892 -0.275971 0.606941 0.116382 0.159474 0.207258 0.436372 -0.174047 0.856836 -1.225180 -0.790870 0.603418 0.019153 0.041113 0.171003 -0.119527 -0.487158 -0.299359 0.452870 -0.136566 -0.769859 0.165847 0.326377 0.254553 0.028825 0.214972 -0.940135 -0.989746 0.287204 0.074377 -0.452339 0.363517 0.486849 -0.043014
over 0.309098 -0.658372 0.857753 0.087523 -0.003612 -0.455305 -0.182942 -0.505928 0.004547 -0.267908 0.178205 0.173902 0.392869 0.009150 -0.104781 0.864433 -0.255888 0.046860 0.412970 -0.551172 0.489425 -0.472316 0.066888 0.845470 0.145409 -0.616519 -0.317196 -0.209975 -0.816915 1.334327 -0.166448 0.083958 -0.234706 0.517647 -0.188614 -0.304648 0.240496 -0.465390 0.852800 -0.040825 0.301847 1.236896 0.106834 1.259849 0.151481 0.548690 0.607712 0.040982 0.370409 0.953089 -0.355289 0.368658 -0.590210 -0.185592 0.036302 -0.443915 0.501385 -0.773955 -0.649685 -0.403782 -0.039126 0.823043 -1.393831 -0.168235 -0.851541 -0.453198 0.877820 -0.887085 0.411752 0.458928 0.007272 0.214513 -0.121180 -0.294046 -0.137584 -0.491853 -0.132234 0.362768 0.497436 -1.093831 0.796917 -0.313652 -0.883744 0.951429 -0.477095 0.421468 -0.257087 -0.107961 -0.459567 -0.193752 -0.838912 0.246600 0.431557 0.444128 0.175096 0.162486 0.145686 -0.244994 -0.139549 -0.375667
us -0.429554 -0.534688 -0.132017 -0.806752 0.125948 -0.148154 -0.049034 0.131534 0.720421 0.522840 -0.326522 0.592074 0.386368 -0.635962 0.575962 -0.495932 -0.242275 0.519986 0.269386 1.466084 0.851142 0.458150 0.823641 0.768354 -0.725439 0.316790 0.995771 -0.479831 0.406030 0.400152 -1.008105 0.513521 0.238009 0.517575 -0.220937 0.435956 -0.487361 -0.513507 -0.271117 -0.195230 0.114740 0.238781 0.726392 -0.020675 -0.106408 -1.074354 0.247303 0.212176 0.384541 -0.505684 0.224938 -0.072065 -0.044517 0.415048 0.580056 0.260180 0.496058 0.771938 -1.027090 0.576706 -0.146744 -0.404086 0.165277 0.532695 0.143395 0.296687 -0.115252 -0.355500 0.186145 -0.171544 -0.825846 -0.477913 -0.510791 0.100314 0.247183 1.061509 -0.652025 0.181411 -0.529777 0.481567 -0.431104 0.581015 -0.588309 0.161162 -0.097495 -0.184043 0.476719 0.901636 0.659641 0.180910 -0.402288 0.252693 -0.494044 0.169673 -0.081725 0.534731 0.286680 -0.510186 1.149754 1.109060
after 0.765335 -0.402962 0.094131 0.393041 0.496982 -0.066945 0.243636 0.951398 -0.384102 -0.484011 -0.516795 0.055300 -0.641207 0.260599 -1.359220 -0.366826 0.175376 0.713380 -1.337953 0.041947 0.388241 0.228192 -0.204211 0.641414 0.604533 -0.398397 -0.607294 -0.148951 0.036560 -0.423957 -0.407291 0.647701 0.257030 -0.279536 -0.342621 -0.588612 0.139114 0.044648 -0.670093 -0.351471 0.613825 0.901307 -0.456098 0.674210 -0.651583 -0.303104 0.487649 1.193718 -0.006699 0.104298 -0.011297 0.454466 -0.543772 -0.526444 -0.007485 1.007763 0.323044 -0.205346 -1.368140 -0.132090 0.389169 0.554347 -0.535500 -0.463786 -1.317656 0.013256 0.847008 -0.231481 -0.305713 0.220602 -0.115986 0.013283 0.115176 0.445471 -0.005150 0.502123 0.017474 0.517902 0.383611 0.038957 -0.141969 0.350809 0.463613 -0.488940 -0.217340 0.201890 -0.460683 -0.300011 -0.658336 0.155697 -0.174680 -0.085384 0.456385 0.375477 0.027758 -0.642202 -0.523563 0.469040 -1.284163 -0.269272
himself -0.208117 -0.788181 0.278291 -0.052808 0.522790 -0.605203 -0.097050 -0.091061 0.444119 0.114716 -0.157171 0.459995 -0.263600 -0.894554 0.251634 -0.715347 -0.439873 -0.699898 -0.234099 0.615911 0.543289 0.737963 0.546869 0.470710 -0.069801 0.548876 -0.078592 -1.034276 -0.140820 0.166513 -0.789097 -0.736482 0.068542 0.574064 0.473765 0.227945 -0.450986 -0.100858 -0.342487 -0.734004 -0.044162 -0.011372 -0.450242 -0.670927 0.049569 -0.135725 -0.575094 0.061577 -0.216861 -1.114453 1.181806 -0.212369 -0.684564 -0.975678 0.425689 -0.511079 -0.054384 0.870365 -0.656731 -0.131868 -0.019351 -0.051866 0.497446 -0.164370 0.400206 -0.164998 1.403353 0.390805 -0.612864 -0.571869 0.220202 -0.057082 -0.872034 -0.279266 0.135299 0.255911 -0.165726 0.738418 -0.888936 0.075853 -0.941679 0.083062 0.220383 0.175495 -0.746465 -0.629879 1.273229 -0.196851 -0.365035 -0.577418 -0.552964 -0.107612 0.509755 -0.251597 -0.600371 0.909452 0.509021 0.005306 -0.031899 0.361656
old 0.575038 0.225438 0.128544 0.496996 0.853706 0.546624 0.881489 -0.712399 0.064979 -0.664237 0.099411 -0.112009 0.025621 -0.429835 -1.082781 1.322554 0.639397 -0.105684 -0.367966 -0.124655 0.206089 1.086318 -0.307163 -0.249531 -0.163103 -0.572309 -0.121602 0.287617 0.535236 1.064797 -0.905514 0.443374 -0.109014 -0.187434 0.784330 0.034995 -0.862550 -0.340549 -0.545509 0.602798 0.426975 0.116635 0.375785 0.080165 0.209414 -0.549662 0.689039 0.484110 -0.111272 -0.188509 1.352342 -0.394716 -0.061402 -0.435823 -0.007752 -0.768059 -0.191656 0.476987 -0.123175 -0.020728 0.765820 0.002433 -0.823915 -0.326467 -0.125183 0.299206 -0.021767 0.314065 0.930624 0.496441 0.839737 -0.953888 -0.429210 0.355075 0.460961 -1.206922 -0.047549 -0.593353 0.098363 0.119289 0.013767 0.525612 0.204188 1.083902 0.907971 -0.388204 -0.533658 0.142000 -0.594524 -0.633853 -0.250413 -0.714846 0.288926 -0.619963 0.299085 0.691739 0.302867 0.721277 0.494668 -0.222109
again -0.417184 -0.113579 0.274837 -0.028238 0.497707 -0.066600 0.247624 -0.462677 0.450283 -0.087120 -0.097589 -0.172556 -0.073576 -0.569786 -0.073925 -0.097658 0.091042 0.439834 0.614721 -0.326129 0.184700 0.104734 0.053772 -0.393168 0.025275 0.074344 -0.273760 0.053070 -0.530350 0.438062 -0.414609 0.159661 -0.179932 0.058600 -0.203313 -0.287296 0.505422 0.167531 0.610979 -1.347123 0.123853 -0.229045 -0.284336 -0.309240 -0.175343 -0.506836 -0.194040 0.592917 -0.389812 0.421965 0.303648 0.052906 -0.563630 -0.314415 0.185460 0.661783 -0.477161 -0.088114 -0.093303 0.457319 0.485969 0.447417 0.127795 -0.381191 -0.196382 -0.722227 -0.137472 -0.606704 0.038883 -0.301689 0.458780 0.363809 0.533676 0.305194 -0.436834 0.174984 0.180794 -0.215604 -0.270266 -0.515493 -0.079535 0.207123 0.251042 0.343745 -0.291359 -0.207583 -0.099927 0.544617 0.008601 0.126683 -0.766927 0.442881 0.271047 0.243016 0.667665 0.973597 -0.055638 0.197875 -0.424420 -0.276964
shall 0.073401 1.014979 -0.513055 -0.947993 0.304371 -0.691096 -0.460792 0.763310 0.076416 1.022796 0.758261 0.382038 0.474424 0.629843 -0.442484 1.012935 0.524394 0.064145 -0.138946 -0.813695 0.204579 0.991733 0.952095 0.202118 0.349781 1.070952 0.039923 -0.070263 0.338767 -0.781388 0.460855 0.046243 -0.415701 0.860270 -0.260829 0.019498 0.244348 -0.468460 0.044993 -0.677451 0.470277 -0.983155 1.151453 1.591387 -0.198168 -0.925461 0.560154 -0.905625 0.541142 -1.124094 -0.577617 0.671127 0.252456 -0.735240 -0.064708 0.300930 -0.163129 -0.486394 -0.446041 0.657975 0.356126 0.286354 0.137209 0.350625 1.207678 0.113006 0.361444 -0.776009 -0.057527 0.475634 0.397687 -0.091792 0.485970 0.361067 0.319596 0.740492 0.330732 -0.468474 -0.575961 -0.682508 0.505226 -0.472550 0.457879 -1.212675 1.198799 0.046111 -0.502022 1.017897 -1.158953 0.287866 -0.639943 -0.033449 -0.096751 0.132295 0.967499 -0.022047 0.008817 -0.524602 -0.599529 -0.260735
