3000 100
<pad> 0.576031 0.203333 0.851154 0.018945 0.430005 -0.199553 0.148701 0.514677 0.495860 -0.835294 -0.786897 -0.207352 0.657140 0.124888 0.509150 0.239522 -0.030698 -0.039261 0.127835 -0.619725 -0.605388 -2.062259 0.477783 0.098196 0.479400 0.184812 -1.262569 0.731040 -0.179458 0.183539 0.250499 -2.369032 2.863477 2.510531 0.183568 -2.379060 0.149651 -0.640721 -0.367444 -0.048434 -0.716252 -0.082554 -0.434476 0.133414 -1.486856 -0.723659 -0.071588 0.459209 -0.538070 -0.071496 -0.225986 0.082259 0.099483 0.076915 0.783168 0.899650 -0.080404 -1.049281 -0.493205 -0.431774 -0.668290 -0.360469 -0.304897 -0.552236 -0.072390 0.563977 -0.819255 -0.528881 -0.746633 -0.310789 0.515140 0.185092 0.889582 -0.746711 -0.304355 -0.651656 -0.576801 1.143709 -0.761804 -0.380184 0.610914 -0.386088 -0.263115 0.055714 -0.198907 -0.409924 -0.035338 -0.562017 0.353252 -0.195733 -0.100996 0.466598 -0.129627 -0.402845 0.384726 -0.712932 0.171640 -0.315242 -0.492344 -0.968965
<start> 0.510264 0.237765 0.712909 -0.234706 0.199414 0.178099 -0.201754 -0.165096 -0.487169 0.013540 0.178306 -0.209418 0.088034 0.453677 -0.041047 0.451040 -0.326934 0.213122 0.389033 -0.248225 -0.285802 0.972555 -0.353081 0.383911 0.406125 -0.006530 0.158913 0.522985 -0.145362 -0.123806 0.024879 0.527222 -0.141088 1.943980 0.467959 -0.474774 -0.167663 0.087231 -0.123817 -0.245310 -0.738046 0.309240 -0.264046 -0.374432 0.379100 -0.340886 0.146759 0.180501 0.035239 -0.328582 -0.049474 0.333286 -0.463053 -0.272738 -0.047009 -0.422523 0.010264 -0.129518 0.147951 -0.483660 0.527757 -0.044380 0.248298 0.597677 0.129133 -0.262025 0.262376 -0.280197 -0.447491 -0.313756 -0.199840 0.321933 0.213704 -0.423899 -0.385565 0.061710 0.120694 -0.061205 -0.511903 -0.286916 -0.424334 -0.158730 -0.139396 -0.218668 -0.207288 0.259529 0.025905 0.865368 -0.354565 0.127980 0.096391 -0.109781 0.519459 0.385198 -0.238528 0.321649 0.424913 -0.038329 0.003016 -0.295420
<end> 0.014304 -0.538115 -0.620261 -0.355425 0.027123 0.754821 -0.205017 -0.021309 -0.141211 1.178322 0.583513 0.418207 -0.534200 0.009642 -0.253184 -0.394514 0.305229 -0.425629 -0.224824 0.248611 0.362293 0.812871 0.167344 -0.271977 0.603972 -0.097981 0.665844 -0.226349 -0.194101 -0.089654 -0.018148 0.854388 0.932499 0.542899 -0.183237 0.003496 -0.174691 -0.254377 0.583046 -0.045553 0.480713 -0.049211 0.104081 -0.343005 0.989348 0.640182 0.356199 -0.316877 0.193713 -0.468359 0.578738 0.028823 -0.281601 0.186715 -0.019317 -0.688105 0.337564 0.702304 0.481926 0.815441 0.324342 -0.236841 0.604796 -0.332367 0.206954 -0.453802 0.272888 0.306639 0.437301 -0.034477 -0.187319 0.524325 -0.173945 0.542342 0.483323 0.269331 -0.250150 -0.256120 0.556441 -0.484742 -0.405117 0.032926 0.488327 -0.621427 -0.975237 0.528071 -0.168417 -0.373417 -0.411433 0.301392 -0.414918 -0.221795 -0.196309 -0.044074 -0.404840 0.637608 -0.174602 0.517147 -0.497451 0.355889
<unk> 0.024456 -0.021137 0.166258 0.161489 0.067120 -0.121727 -0.077111 0.091528 -0.243739 -0.006648 -0.054578 -0.045175 -0.012207 0.031258 -0.125283 0.003128 0.085054 -0.070800 -0.156230 -0.070106 0.046613 0.315978 -0.039262 -0.026169 -0.181847 -0.055230 -0.098825 -0.093301 0.007529 0.036646 0.091009 0.678968 0.050528 -1.313140 0.037565 0.226330 0.038335 0.171333 -0.047759 0.085267 0.129546 0.148859 0.108027 0.024775 0.110102 -0.054397 0.145854 0.072508 0.223573 0.064612 -0.004017 -0.258115 -0.231052 0.100917 0.266971 0.070901 0.022703 0.076256 -0.016449 0.228319 0.056724 0.148028 -0.280113 0.649600 -0.138636 0.188590 0.382868 0.162873 -0.161907 -0.110945 -0.118443 -0.018296 0.063521 -0.016577 0.274939 -0.067183 -0.113516 -0.166014 0.218350 -0.012792 0.171001 0.095133 0.013639 0.175225 -0.068709 0.197033 0.095524 -0.006609 -0.099351 0.198325 0.077443 -0.061279 -0.024549 -0.011418 0.099302 -0.006442 0.062711 -0.156277 -0.161780 0.450552
the 0.085982 0.071585 -0.009303 0.184675 0.254906 0.070109 -0.063273 0.059001 -0.333873 0.278545 0.025202 0.226809 -0.385485 0.735692 -0.222488 0.527992 0.084006 -0.256240 -0.072052 -0.235396 -0.155494 -2.742679 0.147479 0.458595 1.035668 -0.187845 -0.147116 -0.223251 0.253388 0.152321 0.244671 -0.451825 3.835342 -0.238109 0.510478 0.405352 0.018464 0.117882 0.037088 -0.354582 0.197381 -0.040466 0.018091 -0.473380 0.281526 0.248102 0.069957 -0.040107 -0.641410 0.227099 0.412025 0.018611 -0.018907 -0.051193 -1.308728 -0.251974 0.122941 -0.207655 0.103219 0.009088 0.055295 0.145191 0.153700 -1.038961 -0.172060 -0.093355 -0.223523 -0.188560 -0.221215 -0.159747 0.112904 -0.064788 -0.029881 0.031500 -0.453374 0.180508 -0.020089 -0.628175 0.033682 -0.143896 -0.076413 -0.042979 0.375201 -0.232849 0.061505 0.068857 0.142796 0.097880 0.357291 0.103122 0.155611 -0.107187 0.283248 0.018021 0.194833 0.088484 0.025023 -0.019241 0.608027 -0.110414
and 0.253469 -0.200534 0.138909 -0.022843 0.383235 0.174810 0.031503 0.267762 -0.420233 -0.406182 0.258062 0.061796 0.103207 -1.075994 0.255693 0.315276 -0.265644 -0.205238 -0.129263 -0.196085 -0.060498 0.895125 0.593379 0.152005 0.974897 0.114527 0.018112 0.339606 0.029924 0.255475 0.029903 -0.352797 2.151854 0.326927 0.252936 -0.871122 0.098874 -0.059703 0.179507 -0.392601 -0.469192 0.044283 -0.019680 0.417243 0.359329 0.394917 0.011626 0.187278 -0.009637 -0.116889 -0.137646 0.034446 0.238573 -0.139989 0.033650 -0.177035 0.210291 0.057466 0.056231 -0.004570 -0.247789 -0.017595 0.098270 0.061967 0.514787 -0.650605 -0.344140 0.228246 -0.006272 -0.478422 -0.225775 0.317024 0.215803 -0.277708 -0.150146 -0.148221 -0.134574 0.131633 0.008230 -0.571481 -0.180816 -0.430576 0.159269 -0.148370 -0.407495 0.068334 0.034077 -0.020819 0.535225 0.205148 -0.268533 0.267915 0.063287 -0.004719 0.051770 0.352725 -0.070035 0.475583 -0.041427 -0.802315
of -0.028571 0.498321 -0.021136 0.376693 -0.078820 -0.121030 -0.004582 -0.125933 0.626930 -0.521127 0.137040 -0.119344 0.270486 -0.127629 0.415830 -0.078703 -0.138554 -0.004193 0.779908 0.499114 0.377811 4.982965 0.354805 0.019937 -1.226812 0.167236 0.092044 -0.027279 0.031353 -0.214888 0.202801 -0.151663 4.667981 1.201084 -0.360382 -0.161094 -0.011165 -0.292116 -0.021709 0.086350 -0.368659 0.203953 -0.028043 -0.317360 -0.427639 -0.317832 0.083311 -0.184085 0.643957 0.241894 0.097058 0.014293 0.159616 -0.144594 0.998015 -0.026684 -0.036388 -0.160569 0.190612 -0.291698 -0.241282 -0.006487 0.497010 0.125575 -0.145953 0.132565 -0.297029 -0.308144 0.216989 0.107939 0.092807 -0.534133 -0.205043 0.073462 -0.283684 -0.118249 -0.248385 0.056587 -0.034491 -0.279946 -0.415479 0.184341 -0.080909 -0.067632 -0.180107 0.131386 -0.217862 -0.370840 -0.119844 0.017398 -0.263110 -0.188386 -0.250777 0.079524 -0.249399 -0.484416 0.001276 0.100696 -0.205507 -0.247091
to 0.077241 0.158847 -0.037321 0.033782 -0.044054 0.317848 0.029979 -0.080000 -0.396793 0.234797 0.019089 0.113376 -0.227259 -3.096030 -0.155634 -0.035903 0.275957 -0.112373 0.336617 -0.281664 0.118835 1.469321 0.806345 0.110518 0.279180 -0.087770 0.004036 -0.414786 -0.004791 -0.002515 0.188591 -0.017822 1.751438 1.255417 0.229254 -0.238146 0.028590 -0.598888 0.139240 -0.117647 -0.176042 0.092995 -0.257324 -0.054811 -0.109716 -0.042923 -0.062662 0.024402 0.119516 0.037810 0.289271 0.407375 -0.388934 0.072032 0.079701 0.089520 0.179965 -0.067922 0.521496 0.132911 -0.129694 -0.304607 0.565894 -5.442954 0.210497 1.183358 -0.352319 -0.514712 -0.398121 -0.311554 -0.374957 0.295137 0.203543 0.004903 0.047148 0.171587 0.021634 0.208727 -0.139557 -0.941842 0.173147 -0.230961 0.260267 -0.096018 -0.385332 -0.259612 -0.114221 -0.191078 0.026873 -0.020255 -0.077484 -0.225193 0.288457 0.198417 0.381407 -0.039404 0.183370 -0.072307 0.135992 -0.546029
a -0.165890 0.173111 0.253203 -0.425615 0.260686 -0.045784 -0.464041 -0.056440 -0.207279 -0.837653 0.007513 0.587918 0.145775 0.658027 -0.066005 0.100782 0.631496 -0.263806 -0.136252 -0.457679 0.400579 -2.200941 -0.129832 -0.504488 -0.431029 0.573232 0.608411 -0.399712 0.174605 0.106262 -0.197602 0.842700 3.674289 0.388790 -0.005918 0.577028 -0.116231 -0.789244 -0.507656 -0.277585 -0.323113 0.028386 -0.280159 -0.042763 0.127786 0.489699 -0.050829 0.223193 -0.981732 0.311925 0.475304 0.166870 -0.420876 0.211259 -1.044349 0.040151 0.092982 0.351332 0.757338 0.232792 -0.288959 -0.238936 0.065184 -1.520913 0.380775 -0.496046 0.097315 0.766537 -0.263583 -0.701460 -0.040859 0.312189 -0.714981 0.119076 -0.105523 0.306210 0.054029 -0.169478 0.218342 0.009677 0.225231 -0.212650 -1.336239 -0.145345 0.452501 0.076661 -0.680636 0.495265 0.922633 0.028368 -0.422467 -0.236830 0.312320 0.033466 -0.590140 0.013278 -0.460180 0.622433 -0.054186 -0.575020
in 0.255096 -0.523962 -0.291194 -0.047010 -0.060340 0.018685 0.099761 0.155933 0.163796 -0.173618 -0.033392 -0.081863 0.189829 -0.296877 -0.160184 -0.605483 -0.062694 0.528300 -0.670881 -0.380904 0.204521 2.725771 -0.358738 0.193097 1.018425 -0.320368 -0.368675 0.177069 0.259012 -0.085254 0.160681 0.012516 2.802685 0.125748 -0.551992 0.443464 -0.009241 0.303370 0.266999 -0.231862 -0.053015 -0.111351 0.409527 0.412362 0.236420 -0.038889 -0.518700 -0.306256 -0.836374 0.017343 0.338977 0.463929 0.374893 -0.046690 1.141860 -0.590599 -0.389873 -0.136456 0.328517 -0.115202 -0.282229 -0.946849 0.790744 -0.833733 0.711108 -0.381197 -0.625097 -0.643034 -0.305783 0.086932 0.306684 0.236055 0.688802 0.059770 -0.277432 0.001710 0.257839 1.115657 0.480059 0.167690 0.687894 -0.204496 0.197216 -0.342146 0.099366 -0.025774 0.275672 0.328308 -0.597444 -0.009298 -0.267562 -0.159340 -0.675883 -0.495896 0.066248 0.357960 -0.428353 0.191075 -0.353732 -0.301457
i -0.006722 0.423830 0.078704 -0.486762 0.290612 0.336906 0.085510 -0.030933 0.382371 -0.917861 -0.137160 -0.293180 -0.073791 0.207345 -0.231795 0.177031 -0.321577 -0.176543 -0.402429 0.196276 -0.008310 0.088087 -0.380986 0.828006 0.900783 0.437028 -0.801278 -0.785166 -0.594630 -0.018043 0.425993 -1.199923 -0.973991 0.649489 0.522339 0.535511 0.139244 0.363740 -0.102022 -0.000031 0.098109 -0.841515 -0.169554 -0.313594 -0.009097 -0.017468 0.134204 0.029896 -0.313162 0.625120 0.763324 0.004146 0.134824 0.087912 -0.752958 -1.051700 -0.498834 -0.271834 0.031508 -0.544166 -0.347429 0.147499 -0.472983 -2.855200 -0.604711 -0.403728 -0.422327 -0.146931 0.852306 -0.178545 -0.006183 -0.013431 -0.480965 -0.159865 0.183467 0.076589 -0.091050 0.120160 -0.615269 -0.731649 0.391883 0.316627 -0.419998 -0.822503 0.282191 0.307813 -0.181874 -0.838270 0.543904 0.186700 -0.269384 -0.330118 -0.176554 0.102345 -0.144982 -0.363750 -0.180445 0.388868 -0.036174 -0.235237
he 0.272707 0.513380 0.054433 0.051619 0.472720 -0.030007 -0.084398 0.277945 0.151095 -0.271552 -0.453215 0.184879 0.489112 -0.319047 -0.084287 0.361889 0.151137 0.145319 -0.089390 -0.240109 0.496463 -0.175593 0.194841 0.585507 1.917788 0.149069 -0.501728 -1.652389 0.112428 -0.025258 0.590698 -0.982923 -0.930944 -0.318755 1.330163 0.595203 0.170453 -0.543794 -0.426116 -0.126019 0.034499 -0.027580 0.639737 -0.108269 -0.503465 -0.550560 -0.585726 -0.335488 -0.272312 0.375557 0.149661 0.287838 -0.252720 0.220847 -1.567115 -0.564602 -0.566242 -0.001902 0.252847 -1.057724 -0.244866 0.203153 0.198097 -0.122266 0.118894 -0.274384 -0.642592 -0.128464 -0.149047 0.083318 -0.120488 -0.093286 0.056991 -0.222610 -0.330806 0.149278 -0.106926 0.127043 -0.737032 -0.737527 0.400308 0.068536 -0.088185 -0.609349 0.307419 0.202729 -0.575140 -0.882977 0.987296 -0.086988 -0.287437 0.034602 -0.013840 -0.162824 0.208491 0.076340 -0.859074 -0.007934 -0.176016 -0.166953
that 0.066650 0.042796 -0.733766 -0.340138 -0.289157 0.218422 0.050905 -0.246931 -0.260972 -0.175731 0.023807 0.465585 -0.064251 0.381452 -0.596307 0.113459 -0.574253 0.176497 -0.179705 -0.358045 0.184673 0.737541 -0.359934 0.239207 -0.687224 0.348872 0.144508 -0.271002 0.022161 -0.227183 0.015474 -1.436923 1.248798 1.921340 0.180708 0.486192 0.396485 -0.004263 0.236666 0.132659 -0.522630 -0.330973 0.186210 0.099703 0.578433 -0.209914 -0.096849 0.322931 -0.532885 -0.428093 -0.260501 -0.100324 -0.525060 0.111234 -0.149626 0.075194 0.293027 0.284026 0.231409 0.252541 -0.358020 0.026810 -0.008852 0.102997 -0.245788 0.310093 0.267449 -0.321433 -0.514460 -0.208006 -0.544794 -0.079385 -0.645627 -0.126549 0.483105 -0.449050 -0.252322 -0.296378 0.047808 -0.388629 0.102022 0.648461 -0.370468 -0.357339 -0.019278 -0.023744 0.278001 0.524207 -0.097462 -0.367032 0.017600 0.451524 0.107631 0.224367 -0.011543 0.697869 -0.129580 -0.375673 -0.008652 -0.435283
his 0.369189 0.245002 0.027025 -0.210977 0.339535 0.099776 -0.098738 -0.297272 0.060090 -0.315020 0.144907 0.487892 -0.077091 -2.663100 -0.369103 0.564213 0.006350 -0.610319 -0.000935 -0.397650 -0.210265 -2.368418 -0.100135 0.381523 -0.436937 0.208805 -0.214400 -0.819236 -0.177613 0.136123 0.160890 -0.281499 3.482728 0.124814 0.388306 -1.098924 0.395723 -0.387185 0.023133 -0.062770 -0.293688 -0.732536 0.184806 -0.393919 0.129461 0.422242 0.216538 -0.220810 -0.976198 0.362983 0.115617 -0.025786 -0.091333 -0.037944 -0.555552 -0.413987 -0.367725 -0.100444 -1.180829 -0.426477 0.402702 0.180448 0.094473 0.700427 0.130861 -0.426659 -0.381606 -0.365353 -0.203222 -0.292613 0.236410 0.073464 -1.174960 -0.143377 -0.321716 0.012645 0.157725 -0.500698 0.335439 0.444115 -0.087690 0.003142 0.160984 -0.803232 0.882261 -0.001001 -0.390671 -0.268324 1.088806 -0.214106 0.246818 -0.363264 0.385960 0.107561 -0.212703 -0.233554 -0.513516 -0.483581 0.138266 0.299744
was -0.117988 -0.013794 -1.876649 -0.571706 0.002628 0.007549 0.031805 -0.076400 0.177657 0.661847 -0.237922 0.019491 -0.201425 -0.338463 -0.431291 0.500669 0.659628 -0.274616 0.089272 -0.189028 0.105341 0.523407 0.816807 -1.038171 0.273507 0.008100 0.678170 0.777500 0.086108 -0.719335 -0.096385 -1.483541 0.873613 -0.542229 -0.933850 -0.704578 0.158487 -0.587584 0.057467 0.270767 -0.123751 -0.400963 -0.974535 -0.036961 0.417955 0.574028 0.525235 0.368449 0.432183 1.461969 0.309317 0.369114 -0.248951 0.121185 0.696933 -0.064679 0.206425 -0.316299 0.194036 0.582294 -0.155145 -1.136700 -0.273089 0.837255 1.066540 -0.114656 -0.335267 0.163884 0.011076 -0.433352 0.288560 -0.348370 0.089759 0.047795 -1.097631 0.425596 0.214653 0.753523 0.958998 1.160612 -0.117005 -0.307355 -0.208660 -0.081800 -0.235766 0.177638 0.129129 0.293957 0.498756 -0.353792 -0.164133 0.048169 0.687487 0.008045 0.915839 -0.495278 -0.223194 0.219362 0.359283 -0.267677
it -0.071749 0.146983 -0.522530 -0.214759 0.300422 -0.273356 -0.143638 0.172213 -0.756432 0.363021 -0.295698 0.063130 -0.231803 0.260852 -0.047466 0.231084 -0.244134 0.108658 0.053738 -0.151143 0.204987 -0.381213 -0.376736 0.410098 0.411121 0.267423 -0.134226 -0.955965 0.123018 0.235578 0.248274 0.129152 -0.974427 -0.239453 0.382136 0.316510 -0.051178 -0.286087 -0.077854 -0.916105 -0.177569 -0.379012 0.302697 -0.361901 -0.737145 -0.105561 -0.417062 -0.641359 -0.568150 -0.262176 -0.002006 -0.070973 0.200225 -0.433996 -1.214029 0.450037 -0.324963 0.303965 -0.149338 0.095179 -0.172558 0.705488 0.284473 -1.080534 -0.659377 -0.304250 -0.792186 0.856395 -0.672958 0.448692 0.034202 0.730307 -0.443213 -0.205654 -0.045472 0.027468 -0.751331 -0.725828 -0.024573 0.176748 0.386661 0.314844 -0.105336 -0.720803 1.218962 -0.215837 0.039132 -0.038465 0.388821 -0.436765 0.883851 0.142655 0.459045 0.093717 0.121544 -0.579556 -0.364846 -0.414160 -0.221136 -0.162652
you 0.209311 -0.100301 -0.425377 -0.731603 0.167875 0.395412 -0.142663 0.430682 0.243256 -0.029931 0.008209 0.333822 0.080100 0.177021 0.145876 0.158278 -0.116233 0.378903 -0.171014 -0.514681 -0.408295 0.008187 -0.138698 0.114303 -0.024810 1.046453 -0.207362 0.265494 0.097858 -0.531805 0.368536 -0.416811 -0.973603 0.895952 0.427925 0.374913 0.553876 -0.221108 0.067879 0.527801 -0.367777 -0.544882 0.541978 -0.290729 -0.403447 0.712894 0.504728 0.478829 0.121023 1.053213 0.647327 -0.081506 -0.225527 0.251705 -0.784884 -0.511582 0.152276 -0.599252 -0.862818 0.051512 0.156493 0.033678 -0.303384 -2.996213 -0.609143 -0.617803 -0.462985 -0.253043 0.541438 -0.271783 0.104313 0.192124 0.033916 0.196704 -0.296719 0.602844 0.041600 -0.875049 0.678905 0.015054 -0.190888 -0.385836 0.097957 -0.112438 0.636960 -0.339680 -0.227244 -0.739956 0.354618 0.505435 -0.025145 0.508644 -0.202196 0.003620 -0.721745 -0.176501 -0.178520 -0.116751 0.691599 -0.224545
with -0.258721 -0.600644 -1.461852 0.023238 0.205524 0.064874 -0.003404 0.486266 0.112284 -0.056921 -0.184615 -0.147444 0.009150 -1.763455 -0.383336 -0.225203 0.574911 -0.008188 0.463918 0.368624 -0.098896 1.139213 -0.611625 0.747008 -0.335131 -0.338126 -0.294635 0.716112 0.174078 -0.256412 0.457494 0.048768 2.456758 0.448624 0.350796 -0.733480 0.407622 0.554283 0.125748 0.132922 0.622848 0.376289 -0.066368 -0.334030 0.278506 -0.223233 -0.769349 -0.284738 -0.291020 0.573632 0.583210 0.034757 -0.128377 0.294509 0.950848 0.150808 0.107187 -0.128973 0.192757 -0.235733 0.694658 0.040367 0.201387 0.297415 0.216139 -0.279736 -0.499197 0.369169 -0.352325 -0.497742 -0.272499 0.446068 1.404457 -0.010423 -0.314951 -0.671567 -0.487771 1.451869 -1.023256 -0.666544 -0.114322 -0.070475 0.003456 0.319929 -0.836638 0.556906 -0.059138 0.199023 -0.251263 0.196532 -0.720827 0.532436 0.174025 -0.280102 -0.249973 -0.639504 -0.157080 0.760105 0.700587 0.003099
is -0.361554 0.339805 -1.148096 -0.511605 0.531015 -0.251841 -0.428318 -0.285102 0.360472 1.405302 0.081775 -0.325690 0.364066 0.320947 -0.419472 0.006301 0.519837 0.125618 -0.374428 0.269038 -0.109979 1.021773 0.186488 -1.273597 -1.090077 -0.077930 0.498325 0.521736 0.102110 -0.187258 0.179924 -1.141832 0.812170 -0.580576 -0.972005 -0.557340 -0.164868 -0.863314 0.001713 -0.213325 0.202809 -0.747955 -1.292130 0.288872 -0.107498 0.475574 0.252893 0.598006 1.088813 0.991382 0.281815 -0.152072 -0.144742 -0.410769 1.262233 -0.003665 0.528318 -0.224024 0.630089 -0.306668 -0.523092 -0.967855 -0.044838 0.399615 0.736607 -0.020446 -0.492689 -0.281392 -0.307742 0.008298 0.228211 -0.413034 1.032669 0.347841 -0.510609 0.068873 0.240013 0.344240 0.957374 0.165950 -0.244816 0.125950 0.215282 -0.380563 -0.061221 0.041582 0.247098 -0.152204 0.255982 0.183351 -0.716056 -0.145755 -0.049442 0.126037 1.057125 0.259498 0.040361 0.758480 0.342172 -0.056079
as -0.208494 -0.276987 -1.129356 -0.091718 0.039370 0.172603 -0.280085 -0.217879 -0.269161 -0.354037 0.356583 -0.222390 0.292579 0.047527 -0.140493 -0.060379 0.418623 0.125120 0.415756 -0.549742 -0.724375 0.142546 -0.112587 0.244978 0.156843 -0.604317 0.064291 0.076592 0.301547 0.362246 0.372542 -0.606413 0.727295 0.287270 -0.663948 0.296150 0.629364 -0.134967 0.177152 0.367510 -0.005510 -0.104860 -0.013321 1.056784 -0.015908 0.440400 -0.250140 0.152527 -0.654380 -0.397631 -1.055600 0.417333 0.344371 -0.541923 1.031510 -0.330171 0.508990 -0.243496 -0.286647 0.193246 -0.350306 0.145825 0.887406 0.501183 0.558604 -0.690746 0.104410 0.041715 -1.010347 -0.240736 0.039569 -0.046445 -0.227288 -0.292729 0.391765 -0.083448 -0.289504 -0.020389 -0.502659 -0.403563 -0.521186 0.642922 0.100557 0.135869 -1.059660 -0.050790 -0.191559 0.521951 0.568990 0.925365 0.200432 0.021828 0.614827 0.232879 0.032165 -0.072109 0.326532 0.033817 -0.539332 -0.027193
not -0.911034 0.386133 0.000747 0.138031 -0.498337 0.140134 -0.253588 -0.015167 -0.502685 0.065728 -0.443988 -0.187855 -0.278723 0.319419 0.330606 0.211707 -0.134273 0.249652 0.082817 -0.497334 -0.810833 1.201678 0.716502 -0.374528 -0.367551 -0.811504 0.008208 -0.718002 0.316833 0.098589 0.126015 -1.138059 0.261823 1.111405 -0.200916 -0.305689 0.088777 0.176626 0.376322 0.197785 0.719317 -0.562211 0.467109 -0.274147 -0.072516 0.455781 -0.717351 0.095492 -0.689096 -0.067931 0.094937 -0.668854 -0.171813 0.413513 -0.550137 0.229433 0.227026 0.211966 -0.654213 -0.542856 0.500946 0.034972 0.336358 -2.124398 0.107113 -0.540181 -0.083146 -0.445851 -0.470979 -0.595279 0.228478 0.676808 0.140031 0.276368 0.040774 -0.573206 0.118057 -0.878923 -0.166293 -0.110165 0.502711 -1.010265 -1.053156 0.585977 -0.111751 -0.161158 0.214781 0.401581 0.356770 -0.070580 -0.372864 -0.076740 0.181006 -0.176346 -1.092123 -0.358336 0.427522 -0.110911 -0.235435 -0.106246
for 0.422368 -1.016525 -0.931722 -0.175021 -0.838794 -0.102843 -0.265559 -0.307657 0.377741 0.536899 0.674007 -0.362706 -0.416774 -0.352792 0.930095 0.126608 0.275781 -0.366380 1.049227 -0.623295 0.372178 1.308478 0.030246 0.648428 0.173716 -0.052161 -0.812226 -0.031544 0.304191 0.109233 -0.295566 0.475079 1.399939 1.615711 -0.228511 0.009580 -0.417676 -0.388245 -0.222503 -0.499778 -0.040853 0.088042 -0.393774 0.188029 -0.190812 -0.056781 -0.308972 -0.047294 0.713133 1.540991 0.018762 0.033818 -0.201378 -0.008573 1.311108 0.312805 -0.850248 0.277216 -0.064140 0.241942 0.142106 -0.404297 0.199855 -0.648617 0.394707 -0.092011 -0.268454 0.202344 -0.286506 -0.611550 -0.188731 -0.775809 0.102704 0.193649 -0.130207 -0.333378 0.717254 0.454062 -0.159790 -1.267946 0.307266 -0.075866 -0.177885 -0.112903 -0.793904 -0.254879 0.378748 0.373551 0.316507 -0.301307 -0.027606 0.905391 -0.880148 0.317088 0.087232 0.077551 0.333378 0.618723 -0.540448 -0.329483
had 0.025055 0.439885 -0.174770 -0.858410 -0.065424 0.287309 -0.499561 0.221079 0.191573 0.180741 -0.003719 -0.359975 -1.487993 -0.587065 -0.437608 0.246668 0.379187 -0.300776 -0.258428 -0.584809 0.260497 0.431231 0.913427 -0.169529 0.919094 0.177184 -0.025682 0.975138 -0.276108 -0.585526 0.185546 -1.174646 0.490003 -0.421244 -1.261222 -0.905459 -0.068005 -0.679096 -0.154453 0.318192 0.250607 0.126007 -0.676515 -0.398036 0.663967 0.719539 -0.469709 -0.414169 -1.071941 0.748497 -0.332692 0.367063 0.154212 -0.184847 0.914220 1.043880 0.073076 -0.048100 0.088081 0.811173 -0.015434 -0.611808 -0.226100 1.058721 -0.276854 0.516329 -0.698911 -0.503680 -0.260561 0.644359 0.035694 -0.383291 -0.780278 -0.143705 -0.666176 -0.554199 0.373080 1.672629 0.251856 -0.205248 -0.757898 -0.016430 0.421602 -0.257139 0.223410 -1.255730 -1.081538 0.771782 0.030200 0.511326 -0.593663 -0.066105 -0.096363 0.055721 0.378911 0.073025 -0.141811 0.366110 1.198017 0.040567
but 0.434571 -0.157525 0.260753 -0.288103 0.132777 0.200606 -0.263140 0.257828 -0.290795 -0.038782 -0.064468 0.204193 0.458061 0.106057 -0.066251 0.164976 -0.435800 0.047358 0.722924 -0.449473 0.126876 0.445842 0.124043 -0.149005 0.291960 0.238128 -0.193710 0.329704 -0.440401 0.480500 -0.181313 -0.281875 0.423813 0.818503 -0.420240 -0.374938 0.343881 -0.096969 -0.287537 -0.411789 -0.174389 0.089421 -0.186480 -0.161510 0.500665 0.277026 -0.339415 -0.097971 0.397895 -0.606143 -0.139039 -0.372717 -0.192806 0.055361 0.479044 -0.304134 0.200157 0.085121 0.005509 -0.418408 -0.314554 -0.079974 0.108278 0.429163 0.446767 -0.065226 -0.388968 -0.146545 -0.028137 0.010889 -0.218966 -0.063713 -0.462760 0.067087 -0.139721 0.127433 -0.059248 -0.055701 0.195237 -0.309322 -0.386325 -0.384977 0.146493 -0.041300 -0.323732 0.477112 -0.277579 0.044662 -0.448106 0.143262 0.510392 0.240460 0.205765 -0.086859 0.047565 0.397671 -0.170409 0.549732 -0.102975 -0.807203
at 0.137574 -0.161043 -0.909868 -0.627578 -0.347525 -0.035084 -0.463860 0.439140 1.678171 -1.449587 0.746636 0.750453 0.629020 -0.525258 -0.333265 -1.453236 0.825268 -0.078311 0.410783 -0.762920 -0.334294 1.023378 0.533389 0.305697 2.373075 -0.406833 -0.227886 0.342674 -0.455822 -0.077245 -1.192992 0.580371 1.811289 0.150159 -0.237174 0.096264 0.207580 -0.230719 0.189319 -0.072389 -0.675005 -0.541344 -0.355359 -0.443841 -0.257295 -1.589178 -0.895546 0.120297 0.499456 -0.490000 0.557401 -0.023202 0.433885 0.132161 0.708916 -0.044115 -0.354363 0.165461 0.395924 0.603212 0.843424 -0.299724 -0.342546 -0.558239 -0.282487 -0.617322 -0.456011 -0.378948 -0.296126 0.387208 0.092446 0.846399 -0.140554 0.042316 -0.396570 -0.016282 0.279063 -0.142573 -0.350238 -0.092074 -0.271559 0.466845 0.208558 0.806030 -0.069925 -0.141317 0.621180 0.241258 -0.793079 -0.516072 -0.604038 -0.271813 -0.209068 0.835117 0.689588 -0.170646 -0.470126 0.642811 0.071815 -0.597744
be 0.387552 -0.465839 -1.544394 0.222902 -0.145046 0.558114 0.258853 0.195860 0.298340 1.216480 -0.093567 0.181149 -0.096023 -0.019250 0.248597 0.384700 0.716016 0.338013 0.285612 -0.044877 -0.153434 -0.347793 0.289186 -2.325567 -0.788178 0.096407 -0.064750 0.077637 0.026347 0.172271 -0.341690 -2.531756 -0.918864 -1.685521 -0.274249 0.773302 0.286429 0.188292 0.059483 -0.551696 -0.929456 -0.287031 -1.218925 -0.945806 -0.386807 0.041422 -0.454406 0.088113 -0.575097 2.079568 -0.043834 -0.317590 1.048634 -0.543274 -1.302506 -0.343944 0.008685 0.034967 -0.167501 -0.917422 -0.356554 -0.163881 -0.349380 2.678452 -0.686864 -1.291784 0.076888 -0.447386 0.446545 -0.641344 -0.417443 0.200405 0.153745 0.275817 -0.825750 -0.612507 -0.054684 -0.086009 0.048229 -0.149425 0.355719 0.501747 -0.491410 -1.407308 0.525182 0.351207 -0.470327 0.372192 0.420200 0.604155 -0.044690 -0.127480 0.009052 0.158675 -0.417942 0.510879 -0.351475 0.015635 -0.807963 0.079910
on 0.531791 -0.100216 0.307453 -0.550093 0.244012 -0.226426 -0.161097 -0.216304 1.250329 -0.359390 -0.203895 -0.846265 0.320223 -3.071962 -0.343788 0.195676 0.550556 0.064306 0.516193 0.007295 -0.100499 1.091629 -0.588573 0.004816 1.803537 -0.341147 0.236626 0.066210 -0.303332 -0.406824 0.015830 0.411215 1.893911 0.590886 -0.259459 0.399146 -0.251215 0.602092 -0.093980 0.469820 -0.254805 -0.159483 0.107181 -0.113407 -0.144342 0.271261 0.013586 0.119309 0.540140 -0.013548 0.611082 -0.152475 -0.180009 -0.000214 0.133553 0.162272 -0.490957 0.420592 0.589817 0.605111 -1.240702 -0.435136 0.289118 0.456807 -0.052030 -0.703381 -0.732776 -0.018170 -0.047141 1.258844 0.155913 0.216325 1.008316 -0.266712 -0.098283 -0.472883 -0.057059 0.016824 0.062632 -0.074822 0.546104 0.908181 0.144102 0.427898 -0.841334 -0.817962 0.964596 0.411474 0.065156 -0.327292 0.251495 0.103373 0.471059 -0.861852 -0.644283 0.397964 0.043000 0.889438 0.315242 -0.549830
her 0.291010 -0.435039 -0.803768 0.003008 0.061907 0.280457 -0.480736 0.016947 -0.143523 -0.779275 -0.131783 -0.227424 -0.025575 -2.543729 0.094113 0.241385 -0.163021 -0.521365 -0.953482 -0.237762 -0.424449 -1.777367 0.319583 0.504103 -0.774634 0.464013 0.287878 -0.383122 0.123180 0.005753 -0.015973 -0.501959 1.937674 -0.030473 0.596307 -0.852302 0.423369 -0.457869 -0.213896 -0.531786 -0.452855 -0.325654 -0.465540 -0.172923 0.130005 0.428352 0.596892 -0.320414 -1.189532 -0.020851 0.522270 0.269285 -0.059419 -0.018665 -1.021954 -0.250970 -0.349632 -0.091352 -0.580513 -0.345256 0.903392 0.230426 0.378779 0.659984 -0.477038 -0.673227 -0.345150 -0.515258 -0.044167 -0.395307 0.713789 -0.764810 -1.035307 -0.562110 -0.079276 0.190237 -0.280238 -0.599668 0.838699 0.397939 -0.620492 -0.133050 -0.064119 -0.395719 0.902636 0.092610 0.160410 -0.416571 0.996166 0.017869 0.817534 -0.114565 -0.413041 -0.216374 -0.459895 -0.260865 -0.058284 -0.325668 0.550005 0.064946
my 0.379442 0.188939 -0.177582 0.319488 -0.397843 0.064838 -0.205342 0.117115 -0.447203 -0.122273 0.411092 -0.401286 0.384421 -1.404519 -0.359418 0.481124 0.002683 0.372505 -0.519729 -0.322984 0.259257 -2.513831 -0.153891 0.195113 -1.105432 0.212734 0.117862 -1.001590 0.032667 0.065558 -0.153296 -0.237458 3.174357 1.149317 -0.054418 -1.714636 0.300500 -0.584170 0.261438 0.074666 0.118675 -0.065861 -0.009457 -0.787454 -0.053674 0.449630 0.560909 -0.569784 -0.624972 0.035611 0.725897 0.009204 -0.125634 -0.049176 -0.266926 -0.956259 -0.062289 0.364238 -1.217816 -0.231653 0.784174 0.528651 -0.201746 0.349198 -0.019255 -0.462933 -0.866460 -0.136427 -0.189807 -0.680396 0.008799 -0.296166 -1.041421 -0.576075 0.108409 0.149688 0.620636 -0.593936 0.809197 -0.368224 -0.449486 0.285166 0.973801 -0.044952 0.933711 -0.230785 -0.415386 -0.252051 1.015294 -0.153567 0.337132 -0.101098 -0.105301 0.258149 -0.477577 -0.368105 -0.287685 -0.366045 -0.124205 -0.527082
him 0.039969 -0.042703 -1.027651 0.653419 -0.430983 0.605672 -0.272103 -0.026275 0.256900 -0.292015 0.087983 0.431609 -0.626208 -0.405694 0.078272 0.495855 -0.320823 -0.316317 -0.512535 -0.334415 -0.322096 -0.511618 -0.154466 0.358073 0.207580 0.401619 0.165470 -0.233806 0.167566 0.061500 -0.276968 -0.366947 -0.657895 -0.887386 0.634544 -0.433290 -0.272418 -0.762139 -0.370129 -0.476990 -0.334458 -0.139852 -0.153953 0.416632 0.009640 0.508783 0.326703 -0.157747 -1.325975 0.574897 0.260148 0.031529 0.128453 0.442294 -1.461456 -0.380974 0.146750 -0.021762 0.284058 -0.043023 0.294834 0.292278 0.097067 0.181359 -0.955464 0.002421 0.804198 -0.508903 -0.317959 -0.272153 0.621159 0.342573 -0.206303 0.161106 -0.617242 0.536623 -0.606298 -0.392961 0.598480 0.921843 -0.530640 -0.296179 -0.037839 -0.815485 0.420287 -0.072256 0.002268 -0.572089 1.116944 -0.358740 0.465043 -0.640445 -0.158616 -0.565357 -0.586151 -0.425467 -0.161680 -0.503752 1.002576 0.219687
have 0.252708 0.179924 0.095096 -0.416250 -0.340518 -0.720809 0.366785 0.390126 0.113802 0.638161 0.560347 -0.168813 -0.807770 0.081709 0.115726 0.433621 1.073555 0.317495 -0.798042 -0.182043 -0.591182 0.645303 1.085913 -1.486672 0.173005 -0.073826 -0.601178 -0.330477 0.212867 -0.461662 -0.299584 -1.932863 -0.484971 -0.397158 -0.691934 0.141190 0.426793 -0.525476 0.395409 -0.540176 -0.047713 0.403050 -0.571631 -0.629699 0.918352 -0.132436 -0.649541 -0.709571 -1.301270 0.927465 -0.261075 0.198757 0.531844 -0.479326 0.765344 0.195099 0.090537 0.190815 0.475423 -0.081487 0.327254 0.079369 -0.506459 2.699853 -0.692004 -0.314065 -0.708186 -0.568042 -0.079712 0.665692 -0.205022 -0.742064 -0.776441 0.275604 -0.040169 -1.056375 -0.050934 1.116604 -0.674835 -0.444708 -0.362763 0.757933 0.589698 -0.260112 1.003394 -0.686477 -1.136929 1.151132 0.311019 0.130830 -0.202639 0.406828 -0.359230 -0.700725 -0.294159 -0.076855 -0.435746 0.740100 0.376542 -0.373381
by -0.151315 -0.452641 -0.580934 -0.642174 -0.434382 1.071663 -0.517013 -0.300636 0.131372 0.329318 -0.189360 0.410872 0.293346 -1.358012 0.081996 -0.266782 0.731160 0.912781 -0.335033 -0.011030 -0.260588 1.971101 0.084089 0.766727 0.453397 0.249960 -0.562530 0.242565 -0.321830 -0.505697 0.427935 -0.565001 2.273425 0.338835 0.941482 -0.450436 -0.708506 -0.769855 0.826949 -0.041751 -0.183357 0.415250 0.254020 -0.626402 0.210182 -0.080393 -1.140191 -0.632854 -0.618352 0.734199 -0.990770 0.004522 0.341714 -0.223628 -0.218479 -0.084937 -0.085744 -0.705881 0.379621 0.545901 -0.586297 -0.770133 0.065056 -0.043537 -0.086409 0.376877 -0.190079 0.567170 -0.530127 0.330816 0.066302 -0.672023 0.319342 0.113908 -0.077910 -0.238280 -0.282198 1.204372 -0.018819 -1.157282 0.838413 0.713035 0.065487 1.109611 0.197297 0.297438 -0.160886 0.582411 0.275475 0.056295 0.341780 -0.099494 0.249004 -0.035669 -0.299314 0.175246 -0.094944 0.665966 0.217970 -0.793343
this 0.461738 -0.407566 -0.992388 -0.411620 0.289816 -0.130425 -0.644543 0.391143 -0.170746 0.282877 -0.241545 -0.321989 0.009005 1.081967 -0.456712 0.163522 0.100843 -0.124346 -0.213725 -0.306371 0.318274 -0.984140 -0.419424 0.448918 -0.936926 0.356762 -0.700000 -0.280692 -0.688335 -0.237122 -0.022824 -0.997749 2.494080 0.943858 -0.212817 0.645968 0.280678 -0.394129 -0.004021 -0.646021 -0.091773 0.021054 0.791258 0.124159 0.011201 0.343795 -0.012731 -0.828516 -0.185584 0.256312 0.268353 0.552129 0.230422 0.005583 -0.879038 0.947451 0.156066 0.692209 0.743302 -0.038130 -0.059234 0.611387 -0.088974 -0.908015 0.124949 0.385926 0.074673 -0.073280 -0.122800 -0.215428 -0.352544 0.722144 0.096634 -0.150233 -0.989352 0.685980 0.525157 -1.132401 -0.069060 -0.166197 0.039610 0.389838 -0.784294 0.125063 0.516746 -0.298872 -0.407440 -0.267584 -0.024190 -0.446011 0.149645 0.122977 0.545081 -0.097518 -0.297390 0.372531 0.019563 -0.454986 0.067978 0.046624
which 0.515057 -0.212682 0.029055 -0.324331 0.420475 0.274005 -0.309188 -0.077857 -0.277369 0.386086 0.297812 0.515452 0.004147 -0.325002 0.314009 0.081982 -0.212641 0.337538 0.034747 -0.231977 0.665433 0.778605 0.063886 -0.218346 -0.715805 -0.307253 -0.246283 0.679521 -0.410997 0.285921 -0.177433 -0.597273 2.245173 0.434819 -0.213703 0.030891 0.041951 -0.116258 -0.327641 -0.063334 -0.178834 0.659163 -0.030631 0.604992 0.784296 -0.061738 0.377566 -0.500997 -0.259039 -1.003974 -0.695939 0.353813 -0.445335 0.250514 -0.472564 -0.292462 0.330312 0.628840 -0.841642 -0.107910 0.418259 0.542495 -0.688555 0.444825 -0.395578 -0.052220 -0.258128 -0.073526 -0.658903 0.292053 -0.233242 -0.018568 -0.045197 0.242145 0.369243 -0.021640 -0.591984 -0.481599 -0.712283 -0.001366 0.200313 -0.062902 -0.694953 -0.030585 0.339299 -0.752441 0.089683 0.608567 -0.084945 0.064283 0.555452 0.110835 0.086597 0.104776 -0.199749 0.335280 0.632398 -0.438272 -0.108978 -0.421507
me 0.221587 0.095788 -1.111304 1.032295 -0.491934 0.328812 -0.104678 0.730959 0.019234 -0.021226 0.340511 0.275071 -0.384403 -0.264922 -0.064641 0.150505 -0.377363 -0.250086 -1.004552 -0.044226 -0.496125 -0.849248 0.109250 0.433215 -0.472873 0.819547 0.278138 0.051713 0.308449 0.253982 -0.380759 -0.411039 -0.843737 0.202007 -0.289192 -0.600425 -0.872843 -0.612661 -0.271830 -0.531789 -0.101056 0.191462 0.138371 0.093382 0.022365 0.595212 0.237396 -0.135408 -0.445134 0.768522 0.312855 -0.134407 0.475215 -0.176137 -0.874981 -0.481652 0.445570 -0.484223 -0.116656 -0.108128 0.231606 0.469314 -0.408457 -0.274233 -1.099690 -0.319532 0.330867 -0.324073 -0.297342 -0.393217 0.342267 -0.038114 -0.511348 -0.023899 -0.647731 0.750417 -0.769825 -0.477053 0.563210 0.936464 -0.250462 -0.225246 -0.230640 -1.082492 0.118501 -0.349969 0.118981 -0.896138 0.949305 0.061500 0.527044 -0.527409 -0.067171 -0.267396 -0.522499 -0.399047 0.014021 -0.647923 1.263712 -0.276825
all 0.382056 -0.616278 0.441950 0.498849 -0.002943 -0.252007 1.246815 -0.702907 -0.406011 0.659767 -0.069655 0.326303 -0.780530 0.643087 -0.204279 0.137771 -0.385826 0.821444 -0.375336 -0.921984 0.853044 1.068305 0.413795 -0.043446 -0.246134 -0.169685 0.410184 -0.544044 -0.928595 0.091694 0.258378 -0.143481 1.059834 -0.955563 0.602161 -0.488523 -0.401014 0.124007 0.289502 -0.155720 0.369899 -0.869243 -0.695702 -0.539953 -0.211392 -0.486841 0.269147 -0.138448 -0.367874 -0.774896 0.086729 0.280425 0.362508 0.040339 -0.896486 0.009164 -0.781440 -0.012007 -0.501773 -0.255408 0.382642 0.223846 -0.009439 -0.254726 0.527974 -0.262600 -0.130633 -0.048991 -0.069423 -0.051166 -0.464629 0.039561 -0.117579 -0.294919 -0.314023 0.400623 -0.343042 0.207944 -0.424016 0.287102 0.073262 0.308793 0.289325 0.901055 -1.234743 -0.085012 0.412431 -0.602278 0.340189 0.114028 0.539657 0.652424 -0.543048 -0.848218 -0.814684 0.642446 0.384205 -0.025407 0.666745 0.042385
said -0.538637 0.596319 0.201013 -0.345352 0.230296 -0.233649 -0.149840 -0.657165 -0.608133 0.153693 0.094330 0.373579 -0.636684 0.409861 -0.147183 -1.068164 0.960701 -0.794816 0.675680 0.204627 -0.246010 -0.006376 0.002603 0.221118 -0.671816 -0.135248 0.528908 1.606800 -0.110774 0.255761 -1.560240 1.082339 -0.432055 2.883462 -1.139475 -2.300803 0.347623 0.065784 -0.143491 0.543214 -0.418316 -0.045797 -0.395084 -0.032719 -0.346775 0.710249 0.018604 0.589963 0.370813 -0.253779 -0.180461 0.220717 -0.002130 -0.011526 0.116005 0.923920 -0.118659 -0.599215 -0.589153 2.027812 -0.446602 0.065403 0.150778 1.381061 0.572241 -0.365270 -0.326465 -0.237980 -0.133493 -0.425054 0.187051 -0.479784 -0.328511 0.692941 -0.166529 -0.212127 0.165230 -0.042243 0.533643 1.280051 0.718747 -0.140774 0.329437 0.246957 -0.687442 -0.075804 0.741560 0.567503 -1.628986 -0.020633 -0.078866 0.049784 0.414760 0.078139 0.081899 0.283934 0.034888 -0.925993 0.216975 0.136523
she 0.299326 -0.094191 -0.364245 -0.367734 0.109362 -0.157187 -0.045023 0.313542 0.018492 -0.750741 -0.547494 -0.616132 0.606386 -0.697762 -0.080443 -0.075804 0.102427 -0.221556 -0.081246 0.131687 0.207220 -0.636542 0.458318 0.852877 1.762475 0.614455 -0.085675 -1.314963 0.392658 0.431265 0.901034 -1.206257 -1.470881 -0.150461 1.138540 0.610896 0.409787 -0.368444 -0.260553 -0.452036 0.176985 -0.034816 0.416629 -0.450816 -0.646932 -0.800190 -0.031553 -0.572259 -0.260407 -0.016151 0.852943 0.438281 -0.291589 -0.220446 -1.571847 -0.361042 -0.463069 -0.234226 0.517107 -0.821936 -0.045075 0.015962 -0.087823 0.326343 -0.020395 -0.533120 -1.122359 0.202933 0.040377 -0.482072 0.036921 -0.185655 -0.230584 -0.183640 0.183866 0.192835 0.107636 0.077375 -0.624937 -0.897356 0.346307 0.089809 -0.671896 -0.342677 0.490549 0.382903 -0.188229 -0.708106 1.000718 0.158870 0.063961 0.197401 -0.327102 0.002993 -0.129709 -0.053141 -0.449249 0.074616 -0.090488 0.251088
from -0.238710 -0.775767 0.259803 0.151757 -0.054005 -0.803148 0.840022 -0.420398 0.305684 0.356796 0.437072 -0.421278 0.497231 -1.673022 0.910315 -0.654722 0.367538 -0.648854 -0.384535 -0.378717 -0.363558 1.839461 -0.308124 -0.066082 2.333861 -0.245798 0.033169 -0.302688 -0.077645 -0.866770 0.474024 0.242494 2.541051 0.244612 -1.257263 -0.323076 -0.332761 -0.314299 0.386205 0.369983 0.058818 -0.813456 -0.301886 -0.483143 -0.425145 0.188943 -0.472378 0.625172 -0.294514 0.258497 -0.179854 0.041042 0.297756 0.250878 0.166633 -0.014619 0.613195 -0.121410 -0.302020 0.142958 -1.311620 -0.065179 -0.143282 0.324192 0.022320 0.158008 -0.052360 0.121006 -0.978941 0.125573 0.254636 -0.154587 0.363739 0.002029 0.044298 0.240758 -0.579161 0.658979 -0.448990 -0.841345 -0.431809 -0.131524 -0.157677 0.007600 0.345448 0.854222 0.129736 0.107928 -0.770821 -0.666728 -0.163231 -0.426462 -0.095398 -0.094499 -0.242913 0.135767 0.224847 0.647212 0.236538 -0.030783
or -0.136053 -0.305482 0.404083 0.352646 0.232260 0.167157 -0.360706 0.275872 0.453252 0.350422 0.731538 0.510157 -0.558971 -0.194363 0.038494 -0.442989 -0.264733 0.196039 -0.155108 -0.667598 -0.596835 1.191557 0.809335 -0.639557 -0.326393 0.638799 -0.037994 -0.061945 -0.505975 0.448516 0.233382 -0.544218 2.579377 0.489311 -0.130385 0.097623 0.531820 -0.626181 -0.366660 0.350864 0.184826 0.026114 -0.294398 -0.075320 0.286229 0.529631 0.332098 -0.492388 1.018141 -0.390368 -0.748668 -0.703508 -0.278839 0.120646 -0.250948 0.094437 -0.395320 0.004266 -0.077052 -0.018348 -0.500385 0.217792 1.019229 -0.844426 -0.617098 -1.035229 1.103499 -0.153013 -0.218480 -1.125471 0.801134 0.424881 0.975459 -0.132355 -0.094304 0.374327 0.497815 0.973298 0.383349 -1.059609 -0.324129 -0.482791 0.611409 -0.401367 0.845676 0.066665 0.230481 0.351626 0.199859 -0.116418 0.366776 0.433235 0.835272 0.088909 0.548276 0.292027 -0.049928 1.011113 0.171712 -0.346395
they 0.360408 0.012729 0.411647 -0.444935 0.869807 0.563857 0.389241 -0.014045 0.241939 -0.465542 -0.296308 -0.610047 0.269020 -0.669767 0.387933 0.254168 0.049506 -0.142166 0.384514 0.453011 0.051896 0.017597 0.141765 0.535341 0.950939 0.661927 -0.663190 -0.612246 0.044104 0.317529 0.464491 -0.889091 -0.177008 -1.166490 0.991501 0.875390 0.124798 -0.461102 -0.217597 0.247080 -0.823891 -0.245346 0.602484 -0.174302 -1.190716 0.340767 -0.039612 0.386211 -0.690653 0.580798 0.625451 -0.197399 -0.110191 -0.121129 -0.863164 -0.575817 0.374862 -0.385963 -0.904200 -0.646782 0.460563 -0.436288 0.203731 -2.500054 -0.857508 -0.439182 -0.635718 0.044763 -0.392730 0.468791 -0.532660 -0.178418 0.030780 -0.146366 0.434654 0.192438 0.060090 0.100520 -0.169457 -0.335243 -0.360963 -0.143244 -0.281581 0.013807 0.698966 -0.442234 0.288320 -1.040066 0.249625 0.397379 -0.390606 -0.170492 0.217346 0.105708 -0.178591 0.473082 -0.837294 0.398962 0.142863 -0.187945
so -0.603853 -0.132141 -0.529092 -0.057166 0.540013 0.184149 -0.658314 0.135481 -0.602905 -0.765421 0.526492 0.224519 0.007443 0.166752 -0.052221 -0.207645 0.531902 0.152228 0.108905 0.508470 0.656173 0.344552 -0.404417 -0.720670 -0.115905 -0.108325 0.622284 -0.673483 -0.164395 -0.432673 0.439753 -0.349203 0.366995 -0.137035 -0.059464 0.379516 0.387167 -0.022650 -0.099881 -0.298476 0.250819 -0.079824 0.001024 0.073914 0.328660 -0.685825 0.307625 -0.065728 -0.786321 -0.029583 -0.109204 0.064796 1.061573 -0.534806 0.147859 -0.088934 0.536781 -0.240967 -0.164089 0.311818 -0.149159 -0.214132 0.442076 0.170211 0.451906 -0.326760 -0.709737 0.443399 -0.680082 -0.247732 -0.151781 -0.288478 -0.329718 0.023778 -0.408414 0.500994 -0.410645 0.152856 -0.263145 -0.658904 0.320129 -0.884794 -0.222641 0.247946 -0.692679 -0.765685 -0.171086 -0.454194 0.336840 -0.038618 0.177764 -0.517287 0.781608 0.228187 -0.361591 -0.627932 0.074365 0.711337 -0.383939 -0.621109
are 0.804526 0.427410 -0.483535 0.362811 -0.107288 -0.180715 0.060817 -0.317014 0.139684 1.108969 0.946400 0.345975 0.472871 0.255816 0.015298 0.801572 0.589190 -1.082201 -0.748171 -0.090548 -0.370917 1.477115 -0.085302 -2.209819 -0.506226 -0.184848 0.815806 -0.631432 0.460638 0.557710 -0.784087 -1.893605 1.592595 -1.002570 0.440748 -0.124942 -0.653393 -0.613473 -0.502443 -0.635989 0.750865 -0.607411 -0.588591 -0.389379 0.013159 -0.011922 -0.404718 0.021264 -0.055278 1.877896 -0.065255 -0.299900 0.793340 -0.370478 0.220166 0.129799 -0.192754 0.366070 0.808899 -0.240278 -0.480484 0.511237 -0.052136 1.401749 1.468087 0.374112 -1.186953 0.921722 0.569470 -0.731691 1.170438 0.114713 0.254418 -0.030854 0.308072 -1.012394 -0.087883 1.930415 0.464900 0.122749 -0.320720 0.456511 0.532780 0.829771 -0.793418 0.136459 0.187985 0.304835 -0.471867 0.179530 -0.132766 -0.127345 0.571153 0.384131 1.353603 -0.561000 0.254801 -0.371118 0.885771 -0.341378
one 0.719203 0.943648 -0.138120 -0.368421 -0.086042 -0.380173 0.231152 0.443342 0.470654 0.759128 -0.032172 -0.003388 0.451804 0.751783 -0.121009 -0.544836 0.119591 0.381504 0.237012 -0.699986 -0.178286 -0.789239 -0.191036 0.555044 -0.256136 0.200277 0.083280 -1.314595 -0.282252 0.651278 0.133446 0.516281 -0.503122 -1.076544 0.263065 0.437760 -0.226678 0.433548 -0.021727 -0.079697 -0.543213 -0.225279 -0.126734 0.192321 0.352818 0.215418 -0.521154 -0.816174 -0.670955 0.064917 -0.186800 0.969682 -0.383052 -0.152273 -0.734048 0.669976 -0.046796 0.197991 -0.067690 0.846065 0.221427 -0.298770 -0.414773 -0.023530 -0.779892 0.309106 0.487133 0.367966 1.111539 -0.387456 0.059995 0.330165 0.181260 0.325459 0.524207 0.351977 0.244944 -0.279177 0.569500 -0.126940 0.133009 0.235223 -0.970426 -0.486429 0.605402 0.002352 0.603135 -0.584120 0.347419 -0.721014 -0.352792 0.586807 0.541704 0.100850 -0.249024 0.932998 0.656184 -0.015043 0.007124 -0.155691
were 0.689404 0.488875 -0.685208 0.348445 -0.307536 0.102335 0.114510 -0.290451 -0.060813 0.133544 0.756430 0.515595 0.438366 -0.778924 0.066368 0.644846 0.353391 -0.968740 -0.502318 0.150823 -0.540567 0.905531 0.650572 -1.121953 0.311507 -0.131426 1.127131 -0.017518 -0.109254 -0.375079 -0.175144 -1.858990 1.757250 -1.481811 0.471429 -0.022668 -0.156232 -0.769115 -0.274684 -0.077532 0.730998 -0.586744 -0.390942 -1.008621 0.223890 -0.129878 -0.191074 -0.192889 -0.147871 1.562486 -0.261505 -0.138488 0.967345 0.169900 0.003525 0.541923 -0.207353 0.129099 0.255545 0.672826 -0.226660 -0.475502 -0.324816 1.484328 1.267030 0.232430 -0.725944 0.551598 0.343431 -0.615531 0.920076 -0.224375 -0.134360 -0.690078 -0.121911 0.063822 0.111114 1.948176 0.161545 0.971231 -0.982102 0.438275 0.524386 -0.247571 -1.137361 -0.004611 0.152151 0.989054 0.480825 0.558485 -0.011724 0.030937 0.626965 0.175273 0.953678 0.084256 0.205476 0.177639 0.205487 -0.284901
what 0.250614 -0.502196 0.380216 0.145266 0.079962 -0.065422 -0.429504 0.350676 0.060565 -0.118123 -0.092639 -0.295383 0.349798 1.247439 -0.527150 0.367671 -0.696104 0.768288 -0.265063 -0.237729 -0.044915 0.362153 -0.095271 -0.146390 -1.174419 -0.198398 0.048978 -0.071111 -0.163082 0.118211 -0.904434 0.050768 0.570544 1.560502 0.297759 0.625058 -0.092015 -0.128725 0.098879 -0.147070 0.910537 -0.674736 0.475095 0.112381 0.643325 -0.278444 0.826584 0.377229 -0.127474 -0.832802 -1.309950 0.182192 0.193104 0.103470 -1.087005 0.287935 -0.073957 0.196921 0.004146 -0.171453 0.808552 -0.860837 0.577503 -0.197787 -0.380319 0.360120 -0.428682 0.320339 -0.610573 -0.331719 -0.889352 0.424571 -0.191213 0.544717 -0.495257 -0.521680 -0.303782 -1.016838 -0.300724 -0.983945 0.635048 0.904297 -0.172389 -0.390439 -0.697964 -0.885278 0.098926 -0.069758 0.726361 -0.526463 0.660271 -0.072018 -0.548669 -0.508595 -0.597874 -0.723830 0.331856 -1.030625 -0.312271 0.053493
when -0.396647 -0.907267 -0.178828 0.426328 -0.027964 0.216769 0.852978 -0.772271 0.248472 -0.669761 0.050005 -0.046470 0.225453 0.174188 -0.296345 -0.378849 -0.283778 -0.085470 -0.016628 -0.174304 0.482127 0.412179 0.670356 0.179636 0.403107 -0.705580 -0.109341 -0.095195 -0.139693 -0.119152 -0.553106 -0.235370 1.217925 1.233519 -0.477976 -0.268589 -0.548046 0.170589 -0.427595 -0.206813 -0.377417 0.200757 0.094680 -0.069241 0.280978 0.349640 0.631600 0.159569 -0.426918 -0.698290 -0.361005 0.781537 -0.122886 -0.678685 0.279611 0.191779 0.041492 0.321974 0.140595 0.842125 0.483045 -0.163673 0.047665 0.502432 0.730518 -0.098282 0.679837 -0.937561 -0.737588 0.113456 0.145877 0.518111 -0.254991 -0.122123 -0.240419 -0.746623 0.210736 -0.082077 -0.845671 -1.092101 -0.364959 -0.270627 0.101779 0.895508 -0.459705 -0.674765 0.535505 0.607274 0.279511 -0.182089 -0.658241 -0.267087 -0.127625 0.235630 -0.230915 -0.004454 0.325960 -0.423444 -0.157855 -0.003393
no 0.571448 -0.263919 0.686151 0.822052 -0.253477 -1.039750 0.890341 0.365812 -0.700232 0.187385 -0.322213 -0.283838 -0.367777 1.019118 -0.616442 -0.479893 0.080551 1.218804 0.119150 -0.191993 0.845780 -0.883687 0.316344 0.745935 -1.316092 -0.015543 -0.202755 0.164583 0.877477 -0.558883 -0.115736 -0.347843 2.059281 2.576210 0.031606 0.046572 -0.293543 0.504322 -0.149890 -0.570358 0.244201 -0.943969 -0.393678 0.895146 -1.056448 0.594894 0.383283 0.327901 -0.567678 -0.334134 0.048073 -0.718498 -0.406596 1.023111 -0.514922 -0.060663 -0.584868 0.018594 -0.222588 -0.056054 0.201996 0.250171 0.047143 -0.671276 -0.097915 0.022193 -0.372777 -0.262780 0.621208 0.618699 0.024061 -0.140868 0.048660 0.385710 -0.527930 0.175088 -0.199348 -0.319042 0.395078 -1.057414 -0.769859 -0.070405 -0.853329 -0.106352 -0.024979 0.743644 -0.285100 0.432998 1.615763 -0.110719 0.358184 -0.736131 1.096945 0.364377 -0.904125 -0.372984 -1.307155 -0.175647 0.458417 -0.434877
if -0.396859 -0.400320 0.703095 0.353455 0.317070 0.318887 1.103685 -0.541936 0.855977 0.144016 0.755189 -0.055395 0.274352 0.107301 0.120529 0.632774 0.579714 0.364962 -0.062917 -0.125496 0.650096 -0.091263 0.640037 -0.254074 -1.172222 -0.758459 -0.809619 1.112267 -0.198744 0.420291 -0.290152 0.089845 0.094361 1.987337 -0.164018 -0.133135 -0.569293 0.585394 0.218890 -0.565154 0.047421 0.086584 0.182789 -0.313878 0.008944 0.096100 -0.160474 -0.278109 0.573453 -0.230891 -0.210153 0.005578 -0.182377 -0.226250 1.099773 -0.724618 0.522085 -0.093110 0.960959 0.278697 0.647463 -0.261638 0.387748 -0.254160 0.272543 0.382622 -0.586693 -0.645881 -1.004452 -0.391919 0.214398 -0.399977 -0.413594 0.345192 0.353511 0.004022 0.076982 -0.213153 -0.061787 -0.366505 -0.516108 0.427489 -1.124865 0.498251 -0.412502 -0.248189 0.889241 0.055630 0.167481 -0.616688 0.028284 0.177452 0.467767 -0.654677 0.030184 -0.644248 -0.533820 -0.430402 -0.376862 -0.041625
there 0.161601 -0.522547 0.161763 -0.615891 0.889513 -0.415216 -0.166430 0.698052 -0.486952 -0.744585 -0.020066 0.666205 0.198827 -0.125871 -0.307877 -1.231088 -0.261120 0.311642 0.757498 -0.379558 0.096087 -0.242957 0.031877 0.796992 -0.218193 -0.913682 -0.940140 -0.030381 0.652685 0.334306 0.396657 -0.434836 -0.467192 -0.079153 0.542950 0.560086 -0.790874 0.740094 -0.363234 -0.384343 0.387650 0.868362 1.072354 -0.294943 0.057241 -0.530932 -0.441522 -0.664451 0.128168 -0.422210 -0.009710 0.232443 -0.788174 -0.238977 -0.293187 0.378575 -0.768383 -0.381946 -0.317970 0.535208 0.046873 -0.462933 1.225529 -0.819974 -0.441184 -0.780106 -1.095020 -0.182680 -0.441305 0.815508 -0.331538 -0.273032 -0.237905 -0.842538 0.712276 0.415206 -0.093383 0.185412 -0.167916 -0.177210 -0.369440 -0.020219 0.930961 -0.462962 0.843154 -0.507722 -0.117615 0.258631 -1.507341 -0.436546 0.233137 0.044671 0.193732 -0.024807 -0.809392 -0.619144 0.433352 0.073090 -0.376134 -0.572224
who -0.097246 0.049522 0.847328 -0.088096 0.352017 1.428759 0.142877 -0.365499 -0.023766 0.550577 -0.291890 0.255933 0.388037 -0.365681 0.829768 0.314059 0.471118 -0.665209 0.160105 0.318313 0.834630 0.120953 0.389350 0.871989 0.296419 -0.166690 -0.333907 -0.468254 -0.092403 0.850575 -0.428103 -0.165636 -0.012708 1.797583 0.636143 0.213729 -0.156484 0.042321 -0.227004 0.848023 0.242813 0.500529 -0.260316 -0.088925 0.447574 0.278097 -0.480493 0.158814 -1.099237 -0.226626 -0.509408 0.672700 0.034850 0.291112 -1.371025 -0.435220 0.104490 -0.690630 0.097606 -0.301981 0.315071 -0.514127 0.172997 0.847806 -1.030481 -0.924513 -0.115063 -0.368654 -0.212979 -0.832536 -0.319181 0.581316 0.648355 0.240098 0.220307 0.102430 0.237366 0.060989 0.333183 -0.696165 0.109501 -0.083843 0.424398 0.017123 -0.280384 0.757991 -0.786808 0.342455 -0.979395 0.174241 0.391350 -0.426126 0.421036 0.051889 0.022418 0.042676 0.014477 -0.868445 0.211403 -0.504954
we 0.578380 -0.171406 0.519453 -0.942426 0.381836 0.428774 0.370345 -0.139533 -0.208552 -0.355123 -0.348983 -0.177454 0.230517 0.016753 -0.110918 0.027734 -0.111266 -0.376521 0.059625 0.531441 -0.057471 -0.188698 -1.022825 0.623508 0.384841 0.677036 -0.930383 0.314044 -0.729758 -0.090848 -0.243646 -1.316003 -0.404396 -1.103014 1.257713 0.503246 0.757401 -0.381181 0.124077 0.551786 -1.046411 -0.537839 0.691418 -0.701481 -0.887779 0.231212 -0.275039 0.036880 -0.160371 0.705446 1.066619 0.449613 0.100929 -0.144590 -0.837364 -0.605722 -0.398797 0.040758 -1.011657 -0.996598 0.136057 -0.145434 0.027173 -3.270723 -0.796543 -0.692565 -0.362172 -0.451153 0.265706 0.341584 -0.119941 -0.389293 0.130122 0.816710 0.015277 0.438412 0.156392 0.204342 0.067355 -0.597356 -0.397437 -0.010043 0.496347 -0.039880 0.573053 -0.023571 -0.169866 -1.013570 0.712043 -0.017601 -0.186700 -0.104252 0.335261 0.003570 -0.408763 0.060232 0.100855 0.332411 0.405848 -0.215901
will 0.532043 -0.155093 0.226453 0.773395 -0.126430 0.122870 0.220049 -0.419412 0.098922 -0.041195 0.656091 -0.481544 -0.317996 -0.546350 0.052173 -0.230413 -0.052953 -0.332549 -0.368906 0.372048 0.013279 -0.012107 -0.045435 0.033969 -0.805637 -0.564915 0.130185 0.387656 0.212442 -0.596870 -0.010654 0.014574 0.964168 0.775551 -0.684568 -1.027226 -0.245853 -0.866252 -0.148143 -0.402023 0.651287 0.740682 -0.038426 -0.232150 0.399307 -0.156701 -0.163592 -0.301594 0.216692 -0.908824 -0.908990 -0.156680 -0.443032 -0.259534 2.458447 0.280560 -0.040799 0.296204 -0.410952 0.887605 -0.190916 -0.407944 0.412517 -3.723754 1.066930 1.026014 -0.373080 0.129354 -0.326124 -0.216710 0.226866 0.611483 0.351744 -0.262556 0.286546 0.040963 -0.073071 0.011260 1.306602 0.434557 -0.668393 0.611665 0.226914 0.741093 -0.650828 -0.016626 -0.047882 -0.614873 -0.348858 -0.713349 -0.540246 -0.056332 0.452943 0.270980 0.783185 0.287015 0.298316 0.302892 2.123492 -0.259758
an 0.882705 0.722430 -0.721647 -0.480327 -0.852498 0.622684 -0.250399 0.803616 0.825454 0.365844 -0.875165 0.496851 -0.224649 0.725164 -0.704522 0.610159 1.102480 -0.835797 -0.607387 -0.683475 0.769937 -2.062442 0.434089 -0.123270 -0.291303 0.551829 -0.745378 -0.452544 -0.461111 0.255321 0.082817 0.463195 3.459625 0.481918 -0.698888 -0.989526 0.405347 0.024116 -0.374882 0.125691 -0.185607 0.105972 1.290057 1.213247 -0.211489 -1.045492 0.958660 0.626750 -0.721915 0.703626 -1.059355 -0.316132 0.614725 -0.610864 -1.546322 -0.664556 -0.298763 0.457851 0.387545 -0.333379 0.403165 0.759215 0.384178 -2.164657 -0.126591 -0.584676 0.178946 -0.495660 -0.299018 0.449492 -0.337477 -0.230259 -0.306526 -0.611999 0.361038 0.399658 -0.257354 0.365620 0.539744 -0.282536 -0.080814 -0.119051 -1.326362 -0.582844 0.311146 0.539627 -0.589800 0.711319 1.091612 -0.631948 -0.257748 0.469419 1.202948 1.379381 -0.940135 0.425403 0.023364 -0.170551 0.919199 1.120652
then -0.113533 0.045971 -0.038213 0.920170 0.022320 -0.341645 0.014189 -0.612813 -0.317447 -0.744692 0.160722 0.409697 0.110031 -0.486735 -0.454943 -0.593856 -0.078755 -0.151820 -0.613621 0.414363 -0.161985 -0.680832 0.035435 -0.164514 0.620961 -0.099150 -0.003718 0.150217 0.313557 -0.455191 0.265993 -0.482638 -0.399583 0.173195 0.153157 -0.398437 -0.020703 0.024623 -0.158884 0.225843 -0.390755 0.345014 -0.066745 -0.405227 -0.480725 0.069033 -0.153381 -0.043979 0.152267 0.084311 -0.222551 -0.009933 -0.329708 -0.150034 0.274063 -0.052645 0.012423 -0.090007 -0.093001 0.133307 -0.534730 -0.090040 0.680146 0.544274 0.284282 0.188868 0.134265 -0.082444 -0.106185 0.388285 -0.231949 0.423091 -0.019844 0.509961 -0.168659 -0.553597 0.734837 -0.261467 -0.857931 -0.391007 -0.368830 -0.183381 -0.280906 -0.190973 -0.261834 -0.511055 0.489209 -0.247222 -0.441499 -0.193933 0.580058 -0.416770 -0.779406 0.270405 -0.659630 0.267172 0.226068 -0.124840 0.556074 -0.095422
their -0.191222 -0.068569 0.437833 -0.078358 0.168358 0.606581 0.103391 -0.028255 -0.039685 -0.204586 0.034237 -0.111153 -0.443736 -1.496839 -0.417752 0.774445 0.439789 -0.454597 0.128104 -0.005553 -0.817318 -0.559066 0.142693 0.389984 -0.848808 0.014478 0.229541 -0.987189 0.265689 -0.012670 0.162631 -0.923288 4.431398 -0.373148 1.145336 -0.151397 -0.168806 -0.616507 -0.479068 -0.842294 -0.227586 -0.360092 0.179416 -0.806531 -0.072254 0.189955 0.234866 0.065449 -1.261372 -0.195239 0.144691 -0.169747 0.960683 0.166680 -0.182609 -0.583843 -0.915287 0.489304 -1.441719 -0.341133 0.794698 0.656355 -0.396797 -0.334605 -0.161048 -0.275881 -0.897913 0.512518 0.460906 0.071764 0.483944 0.188614 -1.120937 -0.074897 0.024452 0.592670 0.851476 -0.371159 -0.129864 -0.022763 -0.070813 -0.339645 0.482822 0.050076 -0.060665 -0.183944 -0.192739 -0.733406 0.796016 0.650578 0.408360 -0.303303 0.008967 0.009291 -0.175087 -0.065506 -0.646026 -0.600482 -0.018820 0.470926
would 0.440846 0.228632 0.565968 0.363938 0.173237 0.408722 -0.286895 -0.693805 0.359307 -0.272196 0.277697 0.030880 -0.480493 0.079260 -0.329429 -0.115621 -0.418769 -0.674985 -0.246832 0.396011 0.314384 0.213087 0.631449 -0.100468 -0.378696 -0.222258 -0.025183 0.510050 -0.564384 -0.631103 0.746893 0.211414 1.155246 1.292613 -1.070350 -0.900719 0.082372 -0.944728 -0.355648 0.164784 0.153435 0.596100 -0.606066 0.296003 0.567506 0.489831 0.143067 -0.090097 0.212510 -0.896342 -0.291238 -0.556933 0.181241 0.413780 1.924678 0.660130 0.061233 0.264886 -0.250496 0.465355 0.166878 -0.573184 0.683665 -4.136957 0.950706 0.861821 -0.600961 0.451882 -0.592677 -0.291421 0.356545 -0.463678 0.553708 -0.657620 -0.199738 0.397644 0.159962 0.143638 1.245831 0.017219 -0.529437 0.276325 -0.287684 -0.045697 -0.772642 -0.510287 -0.690933 -0.431600 -0.131027 -0.674665 -0.737039 -0.251170 0.064692 0.190787 1.001092 -0.249104 0.021273 0.653625 1.825287 0.237625
them 0.094275 -0.198151 -0.243132 0.564249 -0.532250 0.368958 -0.315889 0.054370 0.428062 0.128602 0.174379 0.057993 -0.831199 -0.337701 0.337004 0.543494 -0.004783 -0.922195 -0.851782 -0.058610 -0.952829 -0.603027 0.128206 0.283275 -0.211710 0.006742 -0.386662 0.413867 0.478982 -0.109203 -0.718708 -0.405505 -0.412490 -0.548564 0.823661 0.598176 -0.255137 -0.342503 -0.198208 -1.003552 0.003082 -0.230609 0.472914 -0.016480 -0.216864 0.314125 0.790995 0.503014 -1.192291 0.272301 0.000271 -0.186712 -0.198340 0.171704 -1.505239 -0.129076 -0.058824 0.282811 -0.568103 0.264446 -0.103690 0.353016 0.518666 -0.072073 -1.237304 0.366778 0.737967 0.293277 0.202165 0.523931 0.089037 0.283680 -0.447597 0.099548 -0.163331 0.448345 -0.537081 -0.560716 1.192178 1.231198 -0.357110 -0.524541 -0.031881 -0.724623 0.595748 -0.279716 0.010980 -0.544834 1.170681 -0.244511 0.908563 -0.391746 0.303088 -0.170881 0.044503 -0.143843 -0.177561 -0.100618 1.298175 -0.319750
been 0.433927 0.319798 -1.070077 0.245333 -0.944968 -0.645070 -0.346202 -0.901920 0.193043 0.378965 -0.586471 1.119815 -0.021800 -0.629877 1.238225 1.365503 0.272518 -0.502453 -0.006439 -0.337895 -0.020259 -0.102859 0.066806 -0.570681 -0.722386 -0.528518 1.280243 0.432590 0.565381 -0.653088 -0.427306 -1.117826 -0.172033 0.317747 0.017671 0.480210 -0.375278 0.255306 -0.957568 0.235644 0.325979 -0.338125 -0.316600 0.266409 -0.120140 -0.101107 1.105643 -0.222086 -0.595681 0.763080 0.918705 -0.759701 0.548632 0.178969 -1.618530 -1.067690 0.094331 -0.153354 -0.689790 -0.964933 -0.231477 -0.415282 -0.946449 0.235673 0.364711 -1.044692 0.826852 0.201941 -0.470265 -0.465694 1.144531 0.121761 1.244336 0.639331 -0.485956 0.840326 0.345686 0.464738 0.171626 0.105276 -0.103339 0.093303 -0.944573 -0.448552 -0.073807 0.475412 -0.326680 -0.908647 1.046089 -0.126259 0.020228 -0.138705 0.668171 0.094536 1.588266 0.445516 0.032908 -0.936229 -0.541524 -0.783451
do 0.016494 0.458002 1.270402 0.696088 0.297884 -0.420501 0.533051 -0.598228 0.604292 0.784247 -0.048247 0.298247 0.583533 0.839873 0.297980 -0.288816 0.593862 -0.810961 0.336986 0.036546 0.070084 -1.524959 -0.417563 -0.944703 -0.792287 -0.201512 0.499254 0.093322 0.948306 0.479300 -0.747277 -0.363810 -1.331543 1.405693 -0.149734 -0.040828 0.742160 -0.179877 0.098198 0.253532 -0.405536 -0.367429 -0.576904 0.042955 1.157269 -0.906082 -0.133636 0.298110 0.462573 0.543535 -0.406535 -0.224646 0.813384 0.230452 2.175917 -0.251425 0.419774 0.851089 0.353134 0.036719 -0.872135 0.491235 -0.431105 -1.220433 -0.512337 -0.367430 -0.997335 -0.467051 0.677643 0.764454 0.352165 -0.064369 0.004185 -0.655880 0.041953 -0.219103 -0.164099 0.000724 0.161740 1.044695 -0.657690 0.672171 0.218261 -0.670929 0.264835 0.286768 0.633051 0.111756 0.319160 0.264122 0.321020 0.407093 -1.147588 -0.472050 -0.057942 0.056281 -0.095559 -0.792060 1.371922 -0.284083
your -0.147161 0.566518 -0.389025 0.321700 -0.203773 0.469991 0.333423 0.732621 -0.097945 0.495937 0.550934 0.474909 0.198030 -1.243315 -0.277191 0.682025 -0.159219 -0.208341 -0.554008 -0.003771 -0.863305 -2.073611 0.167179 0.034085 -1.263506 0.742881 0.473030 -1.068288 -0.263417 -0.073045 0.220291 -0.156785 3.800804 1.874077 0.227165 -1.440132 0.262445 0.050072 0.140192 -0.046286 -0.112230 0.257803 0.267812 -0.273077 0.118929 0.614480 0.446570 -0.533593 -0.467274 0.656139 0.567516 0.032778 0.109211 0.215419 0.009368 -0.958996 -0.822294 0.201449 -1.906320 -0.345263 -0.007496 -0.011342 -0.148577 -0.579763 0.131021 -0.015222 -1.167613 -0.915972 0.090611 -0.471080 -0.001594 -0.149504 -1.270880 -1.078985 0.025534 0.330054 0.553647 -0.939409 1.020099 -0.541495 -0.020549 0.119556 -0.105316 0.157664 0.753020 -0.608095 -0.274588 -0.282941 0.689856 0.088265 0.758270 -0.060258 0.040943 0.105843 -0.230459 -0.143288 -0.639791 -0.077765 0.134097 0.156597
now -0.021496 0.753175 0.195160 0.658781 0.151739 -0.179667 0.228137 0.245940 -0.115912 -0.356712 0.485888 -0.004011 0.595624 0.340189 -0.438556 0.011925 -0.419988 -0.079504 -0.098173 -0.167295 0.130749 -0.512011 0.392677 0.481650 -0.429115 -0.193168 0.231252 -0.392894 0.436225 0.001768 0.581925 0.035199 -0.304703 0.281054 -0.311671 -0.952305 0.199625 -0.070747 0.245586 0.000711 -0.169417 -0.057892 0.419854 0.007279 -0.297837 -0.138100 -0.055643 -0.068783 -0.083143 -0.196341 0.225349 0.019385 0.023654 -0.193498 -0.104477 -0.201711 -0.262984 -0.018212 0.110988 0.491008 -0.157937 -0.125334 -0.288668 -0.475879 0.423583 -0.066144 -0.072528 0.054926 -0.009825 0.083277 -0.163684 -0.003642 0.182911 0.393259 -0.063419 0.238118 0.320025 -0.485468 -0.552152 0.098835 -0.144437 -0.473059 -0.087520 0.200594 -0.052631 -0.248874 0.047313 0.253084 -0.394925 -0.063593 0.267086 -0.136807 0.512309 -0.557569 -0.765437 -0.051205 0.439122 0.056851 -0.094760 -0.274772
out 0.115697 0.218634 0.514722 -0.176155 -0.283781 -0.103359 -0.891149 -0.143450 -0.980027 0.545811 -0.223470 0.141512 -1.243121 -1.988533 -0.405856 -0.107956 0.757059 -0.174299 -0.966137 0.427752 -0.098961 -1.200650 -0.454102 0.430020 3.310783 -0.857871 -0.577045 0.138256 -0.720600 0.281301 -0.448434 0.793970 -0.361902 -0.221137 -0.031820 1.294455 -0.304674 -0.310351 0.379881 -0.397302 0.296487 0.198307 0.734945 0.353646 -0.611339 0.197254 0.434478 0.559198 -0.986680 -0.976933 0.159547 0.575323 -0.883233 -0.232532 0.332485 0.229161 -0.286294 -0.284194 -0.913327 -0.050033 -0.192974 -0.183056 -0.913176 -0.044732 0.300865 0.651714 -0.403868 -0.006585 0.648299 -0.867556 -0.601779 0.587876 0.537880 0.189717 -0.167212 -0.083545 -0.272348 0.743066 1.064577 1.057883 -0.594556 0.532729 -0.796380 0.550693 0.772951 -0.673922 0.779961 0.911759 0.693269 -0.347814 0.407398 -0.371366 0.273374 0.503554 -0.393490 0.845098 0.058411 0.448430 0.054182 0.011542
more -0.225531 0.107166 -1.492113 -1.024221 0.347950 0.024637 -0.004453 0.328075 -0.106702 -0.804163 -0.618231 0.399518 0.032217 -0.028399 0.299049 -0.060089 -0.641273 -0.104044 0.381947 -0.230792 0.572883 0.616317 0.499537 -1.531351 -0.308118 0.354229 -0.580225 -0.998622 0.310053 0.331917 -0.578404 0.145654 0.339307 0.377587 1.415339 0.507672 -0.637050 0.160667 0.095288 -0.325748 0.742371 -0.579502 -0.251995 -0.456429 0.154733 -1.029802 0.386543 0.903208 -0.267387 -0.273310 -0.642276 0.699023 0.929357 -0.599279 0.748286 -0.457031 -0.019298 -0.089069 -0.320705 0.826903 0.169444 0.687114 0.627512 -0.087279 0.636437 0.429575 0.371610 -0.056653 -0.058746 0.417675 0.098865 -0.455931 0.091257 0.693833 1.153542 0.579544 -0.151059 -0.389762 0.397932 -0.602533 0.204093 -0.306372 0.445218 -0.080579 0.573610 -0.867991 -0.009474 0.300635 -0.201649 -0.382773 -0.308508 -0.390065 0.105897 0.288021 -0.373446 -0.656541 -0.220639 0.547398 -0.007446 0.237751
up -1.101821 0.605587 0.130418 0.066937 -0.152207 -0.341455 -0.706102 0.156032 -0.183377 -0.978482 0.211581 0.700253 0.370400 -1.721161 0.059794 -0.058092 -0.345367 -0.885594 0.169030 0.651799 0.771554 -0.099379 -0.310844 -0.723468 3.205222 -0.107880 -0.370835 -0.250021 -0.177623 0.115053 0.149778 0.346634 0.158601 -0.478290 -1.111812 -0.013572 -0.701718 0.141734 0.300976 0.111518 -0.372774 0.669127 0.602604 -0.428841 -0.256387 0.398557 0.317257 0.864551 -1.231191 0.236524 0.235450 0.498111 -0.062923 -0.625677 -0.521205 0.367348 -0.206431 0.153241 -0.981238 0.290421 0.342970 -0.809507 -0.290107 0.727738 -0.811730 0.379568 -0.467436 0.229546 0.054416 -0.444116 0.621143 0.206821 1.797793 0.450479 -0.076921 0.016829 -0.107068 0.510825 -0.241821 2.053009 -0.595530 0.782466 -0.859584 0.247548 -0.026314 0.244646 0.664360 0.733830 0.635766 -0.235185 0.715091 -0.028046 -0.080109 0.883651 -1.443490 0.274509 -0.133543 -0.179775 0.477734 -0.242943
man -0.683859 -0.595131 0.759853 -0.351956 0.027696 0.842612 0.002148 0.705055 0.289331 1.136837 -0.444213 -0.143808 0.378743 0.059789 -0.580552 0.141825 0.515200 0.575909 -0.130311 -0.748394 -0.569607 1.314745 -0.050367 0.282844 -0.406397 0.487963 1.193405 -1.405150 -0.038855 -0.164866 0.245551 0.562224 -2.519637 -1.714649 0.806769 0.143048 0.330137 1.134788 0.023183 0.112835 -0.096154 0.383442 0.350180 0.927890 -0.348198 -0.126571 0.443329 -0.317935 0.523315 0.975642 -0.260806 0.193282 0.159577 -0.459330 0.017657 -0.364157 -0.095994 1.055546 -0.220819 -0.170448 0.160074 0.293951 0.329464 1.519023 0.128902 -0.523958 -0.095490 -0.098919 1.256621 -0.759289 -0.123062 -0.013798 0.608354 0.296247 0.083464 0.357540 -0.492680 -0.424624 -0.425701 0.164867 0.149560 0.333231 -0.115363 -0.230572 -0.221530 -0.430846 -0.784961 -0.070515 -0.338526 -0.928608 -0.260239 -0.465630 0.081576 -0.159924 1.055190 -0.545027 0.065082 0.616359 -0.219020 -0.865998
into -0.582557 0.111730 0.536380 0.363655 0.197416 -0.727574 0.645869 -0.416784 0.220492 -0.280482 0.369850 -0.389428 -0.231018 -2.905864 -0.595142 -0.728241 -0.385717 0.034605 0.062647 0.380519 0.420183 1.639408 -1.038546 -0.137485 3.570195 -0.203674 0.348952 0.674025 -0.305357 -0.383257 -0.749293 -0.078249 2.309827 -0.369278 -0.968614 1.055883 -0.410688 0.310758 0.560688 0.309749 0.106073 0.224338 0.078908 -0.026972 -0.351545 0.082715 0.179630 -0.443422 -0.002426 -0.927647 -0.124581 0.262432 0.796218 -0.294177 0.889859 -0.200580 -0.076266 -0.067494 -0.263798 0.180638 0.097684 -0.160487 0.850760 0.255178 0.334750 -0.318268 -0.566745 -0.293432 -0.384236 0.097872 -0.581600 0.306963 1.688703 -0.107110 -0.313925 0.098590 -0.874209 1.785139 0.973326 -0.400630 0.130323 -0.302232 -1.068151 0.395049 0.858051 -0.287080 -0.427343 0.596694 -0.293391 -0.181116 -0.033975 -0.525255 -0.647492 0.511046 -0.019303 -0.491384 0.852239 0.388517 0.008700 -0.668723
some 0.206685 -0.560315 0.434316 -0.160504 -0.145369 -0.603771 0.766698 0.571759 -0.640191 -0.625153 -0.124961 0.906134 -0.164599 0.892942 -0.265891 0.251784 0.785145 0.300959 -0.568718 -0.310258 0.253010 -0.766030 0.230865 0.330731 -0.340012 0.557168 -0.116753 0.008273 -0.078163 -0.522716 -0.535796 -0.227603 2.820125 0.030707 0.318318 0.850410 -0.795159 -0.517275 0.373827 -0.483060 -0.218148 -0.646347 -0.047736 0.394844 -0.353639 0.780424 -0.066807 0.643242 -0.083700 -0.806818 0.569323 0.256977 0.650917 0.200007 -1.142150 0.069452 0.305516 -0.036582 -1.375992 -0.393225 0.083841 -0.049701 0.023552 -0.910660 0.135471 0.424306 0.707871 0.261278 0.362997 -0.666282 0.341678 -0.060219 -0.566914 0.060286 0.132815 0.159177 0.062811 0.171062 -0.219496 -0.776010 -0.008953 0.489515 -0.441887 -0.254854 0.053438 0.046574 -0.796473 -0.176569 1.225185 -0.118161 0.530394 -0.155902 0.160619 -0.446183 0.233338 0.454702 -0.569771 0.017575 0.955863 -0.077035
could 0.713837 -0.421637 0.455652 -0.547677 0.075543 0.305341 -0.308490 -0.677326 1.183076 -1.127864 -0.248383 -0.097878 -0.242598 -0.216153 0.200162 -0.432574 -0.214047 0.062358 -0.055753 -0.636132 0.004416 -0.613286 -0.401441 0.529522 0.162098 -0.902484 1.274010 1.386465 -0.032074 -0.159644 0.058611 -0.630764 0.342938 1.064984 -0.292522 -1.233280 0.275181 -0.196757 -0.528694 -0.417027 -0.112952 0.534096 -0.366337 -0.101242 1.005995 0.605574 0.242180 -0.102261 -0.051090 -0.352969 -0.381348 0.621992 -0.309789 0.002544 1.480757 1.414933 0.202336 0.026921 -0.113445 0.817610 -0.085867 -0.542321 0.102882 -4.627072 0.355107 2.126278 -0.418574 -0.435525 -0.717727 0.858965 0.094058 -1.197981 -0.312582 -0.137024 -0.250264 0.342124 -0.031467 0.133654 1.404717 1.221114 -1.224150 0.547996 0.656064 0.153515 0.317299 -0.090366 -0.365375 -0.411891 -0.986064 -0.214012 0.594414 -0.177220 0.654133 -0.016167 0.497335 0.190264 -0.813955 0.907947 1.748694 0.414180
has -1.088814 0.263696 -0.360641 -1.221107 0.352479 0.168047 -0.520890 0.319507 1.070085 1.118805 -0.063718 -0.768219 -1.087111 -0.527648 -1.172188 -0.413320 0.218308 0.514176 -0.932120 -0.182479 0.570637 0.800481 0.914030 -0.468217 -0.041352 0.253691 -1.022611 0.753384 -0.524025 -0.600085 0.711263 -0.680896 1.047756 -0.647066 -0.690397 -0.961945 -0.020696 -1.008525 0.192261 0.082020 0.498335 0.115034 -1.236735 0.071798 0.301175 0.485675 -0.501022 0.023258 -0.572375 0.441325 -0.141983 -0.358640 -0.110542 -0.964976 1.215983 0.452344 0.707039 -0.234550 0.493532 0.714317 -0.384241 -1.535595 0.028308 1.170176 -0.755939 0.106894 -1.079229 -0.975915 -0.309063 0.321241 -0.061445 -0.305714 -0.119302 0.295258 -0.121238 -0.690345 0.379333 0.736167 0.242713 -0.870548 -0.117239 0.481992 0.466672 -0.568400 0.307193 -1.153338 -1.345734 0.333613 -0.165099 0.207643 -0.799591 -0.138301 0.081870 0.147238 0.124782 -0.007570 0.058966 0.397297 1.496751 -0.014653
only -0.346329 -0.328486 0.146743 0.127695 0.269759 -0.144921 0.209876 -0.372350 0.274076 -0.130097 0.517799 -0.223103 0.278620 0.436621 0.083694 -0.681868 0.127267 0.616544 0.361879 -0.395751 1.193078 0.609970 1.233063 0.640006 -0.865444 -0.006048 -0.081159 -0.101313 -0.070510 0.171631 0.201913 -0.563804 0.030416 0.442961 -0.148501 0.377170 -0.162280 -0.472826 -0.144861 0.146887 0.162446 -0.318593 -0.123953 -0.098993 -0.043620 -0.106201 0.114419 0.906479 -0.429601 -0.403422 -0.446401 -0.054590 0.207483 1.352645 -0.313823 0.131618 -0.728526 0.002738 0.375927 -0.900545 0.162642 0.171972 0.214877 0.090287 0.210729 -0.466685 -0.316714 0.129437 0.082130 -0.071240 -0.295109 0.524576 0.273840 -0.621436 0.408490 0.749236 0.100771 0.100607 0.821040 -0.424683 0.237031 0.759169 0.050924 -0.524817 0.524235 -0.563384 0.195404 0.504683 0.109035 -0.222541 0.566081 0.046389 -0.181978 0.159539 -0.262505 -0.620072 0.259070 -0.084499 0.516856 0.329482
any 0.336773 -0.642098 1.101758 0.154224 -1.001103 -0.453799 0.285907 0.221537 -0.315211 0.319481 -1.220119 -0.050289 -0.268197 1.213962 0.070050 0.540052 0.281673 1.453956 0.737886 -0.360687 1.093503 -0.942405 -0.807496 -0.986711 -1.053260 0.655780 0.011675 0.264375 0.540143 0.342401 -1.577094 -0.300324 2.489219 0.542203 -0.194689 0.550155 0.068170 -0.821636 1.007985 -0.881173 -0.096124 -0.627673 -0.621226 1.136020 -0.827987 1.091684 0.633199 0.176837 -1.003257 -0.429849 0.432473 -0.090918 0.161547 0.779868 -0.943975 0.250973 -0.955587 0.047867 -0.482453 0.126340 -0.457845 0.465434 -0.331010 -0.983689 -0.330542 0.306745 -0.708902 0.161936 0.542058 -0.691856 0.885588 -0.007576 0.009032 -0.595032 0.536718 0.099736 -0.513151 0.006760 0.105263 -0.978501 -0.838849 0.346869 -0.260416 0.032870 -0.238539 0.116076 -1.025539 -0.364810 1.504785 0.137423 0.601112 -0.154280 1.243762 0.748129 0.323928 0.847699 -1.392806 0.086728 1.623437 0.981143
very -0.197580 -0.697933 -2.585465 -0.500547 0.484156 0.108630 -0.656225 0.288513 -0.925573 -0.016964 0.098880 0.654603 -0.001931 0.437481 -0.397044 -0.575656 0.259492 0.345873 0.330582 0.754515 0.516428 0.331190 -0.373985 -1.565501 -1.050639 -0.408345 0.069802 -1.874235 0.401642 -0.189621 -0.191443 0.872517 0.323155 0.133993 0.851114 0.362001 0.763463 0.113530 0.047148 0.489222 -0.408158 -0.125125 -0.223031 0.100196 0.301805 -0.157169 0.357434 0.824211 -1.057468 0.120122 0.113584 0.333977 0.854573 -0.795164 -0.053943 0.844297 0.355400 -0.294901 -0.284580 -0.511707 -0.353197 0.208106 1.354643 -0.043107 0.642013 -0.697792 -0.451272 0.354875 -0.258544 -0.194856 -0.537867 -0.266844 -0.303761 -0.164132 -0.043980 0.353742 -0.611805 0.041879 0.190240 -0.612994 0.248176 -0.068163 -0.848974 0.358297 -0.496112 -0.756876 0.346119 0.032365 -0.585282 -0.471660 0.755244 -0.217056 0.295115 0.859593 0.407832 -0.375040 0.054581 0.906680 -0.984056 -0.731180
like -0.556151 -0.027893 0.296501 0.995629 0.361460 -0.705831 -0.296484 0.778988 0.844608 -0.039475 0.045565 -0.558087 0.475663 -0.514506 0.150586 -0.348418 -0.304835 0.008018 0.224177 0.237531 -0.447518 -0.012833 -0.153804 -0.256466 -0.146186 -0.980811 0.368306 0.285190 0.448441 0.602574 0.156260 -0.282358 0.600395 0.520029 -0.001530 0.359634 -0.044791 0.327052 0.669692 0.647432 0.011486 0.618325 -0.054018 0.653766 0.853144 0.444265 0.016884 -0.360605 0.243251 -0.127051 -0.737288 0.062070 0.763478 -0.225075 1.330655 0.771429 -0.780621 -0.739011 -0.149238 0.177181 0.622176 -0.204790 -0.391767 1.201297 -0.725740 -1.054170 -0.733998 0.001360 -0.650481 -0.840582 -0.001261 -0.386547 0.497640 -0.142425 0.413795 -0.111094 -0.791050 0.087163 -1.175259 -0.090426 -0.006843 0.495028 1.071127 -0.134099 0.076860 0.006418 -0.344618 0.956662 -1.110112 -0.532064 0.716611 -0.188812 0.255359 -0.273815 -0.094545 0.262836 -0.242619 0.819948 -0.107930 0.192162
did -0.033762 0.230340 1.043539 0.090617 0.136333 0.311184 0.888225 -0.937817 1.327298 0.145305 -0.189352 -0.422574 -0.184337 0.202976 -0.961461 -0.908562 -0.653408 -1.178249 0.286165 -0.376266 0.298621 -1.030276 -0.160826 0.183863 -0.643353 0.109288 0.542975 1.017707 0.395820 0.246563 0.197557 -0.385718 0.074464 1.299220 -0.345147 -1.429260 0.958468 -0.788465 0.329102 0.757244 0.129765 0.410923 -0.806102 -0.306183 1.007971 0.009237 0.488076 -0.065158 0.385020 0.172214 -0.422062 0.541347 0.286773 -0.161215 3.222179 0.393279 0.213185 0.196692 0.995421 0.347875 -0.278013 -0.836282 -0.116052 -3.391809 0.620787 1.229868 -0.265504 0.060099 0.044464 -0.040246 0.453720 -0.469938 -0.344694 -0.755989 -0.583568 -0.082628 -0.330332 0.737512 0.991600 0.776719 -1.067390 0.324776 0.078183 0.435136 0.126321 -0.635283 0.011381 0.089132 -0.135097 -0.162913 0.696912 -0.092392 0.261989 0.620540 0.942791 0.485345 -0.050168 -0.392221 1.554426 -0.096483
time -0.538902 -0.822187 -0.512490 -0.383059 0.382632 0.097488 0.405431 0.460102 0.920551 1.974818 0.135261 -0.308453 -0.789420 0.511799 0.034616 -0.164070 -0.009878 -0.176674 0.506379 0.328154 0.164981 0.616002 -0.388818 1.179805 -0.630149 0.575553 1.337149 0.269135 0.768613 0.489204 -0.272784 0.513548 -2.714585 -1.076834 -1.504936 0.656022 0.220611 0.670533 -0.280300 -0.474716 0.389290 0.030282 0.444077 -0.185254 0.533000 -0.444275 -0.079136 0.009157 -0.089243 -1.072695 0.733554 -0.248528 -0.679879 -0.425203 -0.415458 -0.215166 -0.061794 -0.341691 -0.313272 -1.120867 -0.471463 -0.304333 -0.611456 1.091614 0.095609 0.350717 1.497634 0.462179 0.664418 0.155357 0.578443 -0.585687 -0.344164 0.381945 0.765209 0.271973 0.869592 0.053940 -0.513474 1.313470 -0.848267 -0.642708 0.294920 0.539216 -0.343277 -0.897269 0.487377 0.181708 0.493312 0.275454 0.061745 -0.968266 -0.384455 0.093559 -0.017924 0.239463 0.598916 -0.047452 -0.493431 -0.552291
its -0.231792 -0.222339 -0.721065 -0.127320 0.561891 -0.830638 0.458017 0.601433 -0.416820 0.168798 -0.144195 0.500188 -0.174411 -0.644321 -0.210962 1.097335 -0.121162 0.379564 -0.438049 0.027694 -0.301870 -0.176210 -0.148914 -0.611009 -0.233670 0.000533 0.302389 -0.565705 -0.091218 0.509941 -0.004648 -0.506947 3.632551 0.472195 0.446769 0.084415 0.419026 -0.591678 -1.138757 -0.444548 -0.187652 -1.045275 0.289351 0.340191 0.194189 0.236383 0.375205 -0.118299 0.137822 0.840588 0.739809 -0.730222 0.448017 -0.436848 -0.189657 -0.093056 -0.563472 0.195084 -0.393016 0.466686 0.239303 -0.480938 -0.146801 -0.034693 -0.458868 -0.305476 -0.887297 0.452247 -0.212626 0.419450 0.209324 -0.110613 -0.558587 -0.035971 0.346701 0.425116 0.406994 -0.181588 0.023697 0.191878 0.048441 0.198014 0.021761 -0.936561 1.096913 0.349500 -0.465183 -0.785797 0.552932 0.540678 0.910965 -0.296400 0.002732 0.461307 0.690711 -0.250245 0.017762 0.555595 -0.324457 -0.073375
than 0.290072 -0.008611 -0.305387 0.703484 0.285276 -0.167976 -0.370752 0.671118 -0.844843 0.508951 0.700031 0.008321 0.305793 0.543894 1.127619 -0.697081 0.405346 0.247848 0.316745 -0.400508 -0.097576 0.254734 0.606636 0.712883 -1.300931 -0.400614 -0.039319 -0.099098 -0.312283 -0.069366 0.160586 -0.110351 1.689944 0.821212 -0.878534 0.344370 0.613636 0.819250 -0.040520 0.947604 0.675237 0.062614 -1.565212 -0.205413 -0.351978 0.793857 -0.863564 0.104251 1.365185 -1.350791 -1.118139 -1.092243 -0.541017 -0.232125 0.504007 -0.900855 -0.703545 1.174309 0.222411 1.480600 -0.594722 -0.139433 1.098175 -0.184154 -0.223944 -1.069800 -0.427129 0.795616 0.137703 0.157083 0.809783 0.467627 0.161634 0.439982 -0.937753 0.152919 0.141786 1.477008 0.101168 -0.766596 -0.697473 -0.866285 0.046003 -0.754966 -0.870679 -0.873503 -0.474264 -0.090083 0.485794 -1.001338 0.119544 -0.617864 0.188472 -0.420458 0.086591 0.574642 -0.966557 0.226028 0.275459 -0.459213
other 0.459343 0.362140 -0.147223 0.700183 -0.107499 0.958681 -0.621307 -0.324906 0.516728 0.429527 0.527842 -0.037064 0.354811 0.318037 0.049705 0.121058 0.753772 -0.574011 0.104914 -0.537986 -0.165405 1.810419 -0.807524 -0.342093 -1.172223 0.877510 -0.568548 -0.695585 -0.376773 0.255830 0.138176 -0.157563 0.933997 -0.307408 1.826200 0.163535 -0.208319 0.296986 -0.482536 -0.300949 0.313133 -0.434573 0.560514 0.773908 0.229098 -1.062057 -0.644067 -0.753787 0.931608 -1.247832 0.519343 0.096195 0.516294 -1.040208 -0.182411 1.455521 0.221366 -0.360751 -1.245933 0.723546 0.225880 0.070702 -0.266290 2.226414 0.138862 1.478570 0.383239 -0.926585 1.267443 0.191921 0.724089 -0.239675 -0.907836 0.607289 1.478632 0.654512 0.684499 -0.235969 0.246077 0.560627 -0.527999 0.106478 -0.379545 0.832501 0.990062 0.200847 0.676614 0.115484 0.704943 0.962955 -0.461933 -0.268578 -0.519020 -0.515917 -0.336910 0.216778 0.385538 -1.675804 0.548781 -0.143279
before -0.585048 0.251127 0.230703 -0.322107 -0.953039 -0.363651 0.297707 -1.057052 1.337758 -0.764947 -0.196051 0.003908 0.218801 -0.494230 0.440452 0.397601 0.661944 -0.053385 -0.166220 0.109452 0.951771 -0.050059 0.502185 0.561535 0.556828 0.278004 -0.638802 -0.106058 -0.044269 -0.640304 0.490184 -0.453295 0.738649 -0.034804 -0.794746 0.209238 -0.016494 0.131504 -0.638460 -0.131108 -0.329258 -0.010725 0.733861 -0.239628 0.711907 -0.520123 -0.327914 -0.257717 0.123470 -0.382170 0.118222 0.934580 0.149401 -0.058986 0.636605 -0.103414 -0.110138 0.339806 0.240080 1.052240 -0.258268 -1.266046 -0.182725 -0.180883 0.998163 -0.189047 0.577427 -0.658401 -0.678192 -0.367285 0.207655 0.845876 0.298826 0.006349 0.379400 -0.419195 -0.173876 0.532041 -0.620865 -0.688958 -0.679347 0.214931 0.673317 0.600576 -0.851841 -1.230371 0.768450 0.838136 -0.100071 -0.284532 -0.354737 0.629627 0.205901 -0.186550 -0.192084 -0.038792 -0.000657 0.549021 -0.513649 -0.272130
about -0.646676 0.328738 -0.447607 -0.038552 0.349471 -1.070258 -0.514943 -0.236618 0.838743 -0.739912 0.042055 -0.249578 0.513344 -0.383205 0.222563 0.390353 0.924193 -0.436992 -0.144480 0.839580 0.292715 1.052200 0.439953 -0.654319 0.739103 0.300818 -1.131553 0.010236 -0.121353 1.129414 -0.246572 -0.337969 1.049093 1.457256 -0.608547 1.368977 0.039154 -0.864461 1.315859 0.122392 0.237437 -0.217718 -0.297078 0.450743 0.626074 -0.539995 -1.044199 0.141817 0.905935 0.220229 -0.061698 -0.461939 -0.034216 -0.170200 -0.031859 0.085066 0.024355 -0.213406 -0.106501 0.170925 0.063229 -0.425469 0.984286 0.048902 -0.502580 -0.347870 0.599521 -0.066028 0.479497 0.736814 0.053528 0.124910 -0.157626 -0.703891 -0.345147 0.994067 0.437273 1.383632 -0.358622 -0.088603 -0.691641 -0.084605 0.277165 0.679857 -0.830321 0.357225 0.471794 0.014800 -0.083772 -0.736713 0.180882 -0.101188 -1.306294 0.689265 -0.902823 -0.531930 -0.185472 -0.387807 0.141222 -0.735192
see 0.460940 0.100092 0.148598 1.101345 -0.933619 -1.148404 0.366431 0.316534 0.122676 1.058340 -0.382768 0.378202 0.851530 0.493817 0.218977 -0.377879 1.384267 -0.344636 0.601386 0.698893 0.263972 -0.803557 -0.204600 -1.245978 -0.583010 0.377525 -0.629839 1.158428 -0.324799 0.781520 -0.145411 0.482095 -1.806060 -0.552802 -0.899880 0.394027 0.196109 0.726065 -0.101226 0.329204 -0.054693 0.292143 -0.593086 -0.388397 0.156815 0.474347 0.111306 -0.061347 -0.315719 -0.412516 -0.358922 -0.057370 1.441452 -0.005078 0.922126 0.475632 -0.102344 0.979630 0.527587 -0.494677 -0.162520 0.060918 -0.087304 1.627680 0.769586 0.406543 -0.412794 -0.238956 0.389009 0.008213 0.631226 -0.785106 -0.276936 -0.155098 -1.148586 -0.250699 0.239662 0.128298 -0.862825 0.156432 -0.249710 -0.104856 0.474207 -0.002123 0.280189 0.483468 1.200885 0.901506 -1.254834 0.313781 -0.780093 0.382295 -0.915957 0.653155 -0.604925 -0.385654 0.456600 0.805879 -0.640823 0.070768
such 0.240623 -0.360600 -0.345862 0.005684 0.109318 -0.009195 0.767812 -0.289960 -0.254674 -0.616896 -0.277907 0.060022 0.123903 0.655708 -0.341472 0.224950 0.292700 1.209339 -0.297255 0.033501 -0.377571 1.094592 -0.282820 -1.022982 -0.541187 0.498031 -0.539397 0.518457 -0.991166 0.698490 -0.309967 0.118359 2.252278 -0.457219 0.470081 0.355286 -0.163937 0.598675 -0.713092 -0.475366 1.186499 0.495080 1.007831 0.874927 0.031012 -0.463949 0.335768 -0.303378 0.198207 0.783595 -0.270904 0.250154 -0.956122 -0.140624 0.312560 0.699886 0.435907 -0.114663 -1.212599 -1.325292 0.038394 0.753168 0.382788 -0.628724 -1.228926 -0.457686 -1.798732 0.418681 -0.014183 -0.733253 0.549774 -0.310258 -0.600949 0.773619 0.143158 0.921771 -0.082710 -0.317813 -0.425756 -0.598639 -0.096169 -0.557548 0.262078 -1.180109 0.353280 -0.766368 -0.525483 0.085892 0.099273 -0.098167 1.050096 0.279803 0.264253 -0.542961 -0.122105 -0.229337 -0.053991 -0.970059 -0.139700 -0.047287
must -0.037694 -0.506041 -0.165481 0.944299 0.651249 0.414298 0.748450 -0.753983 -0.017237 -0.110014 0.718158 -0.334284 -0.330534 0.218489 -0.846526 0.600558 -0.560476 -1.077882 -1.136288 -0.016069 0.236838 0.675028 0.333870 -0.060606 -0.314664 -0.006073 0.288344 0.517879 0.288159 -0.015674 -0.477915 -0.609813 1.400889 1.111804 -0.461440 -1.847496 -0.169270 -1.112854 -0.388437 0.596521 0.877422 1.480734 -0.378789 0.253181 1.155774 0.031178 -0.143617 -0.252640 -0.623277 -0.814416 0.107040 0.064449 0.303254 0.421312 2.549557 0.580682 -0.239385 0.293141 -0.067544 0.361860 0.364803 0.314246 0.950166 -3.527474 0.475147 0.846103 -0.664101 -0.414595 -0.416265 0.502341 0.950602 0.007568 1.224846 0.004897 0.985766 1.157822 0.419697 0.407575 1.333338 0.022710 0.130304 0.702151 0.052988 1.204780 -0.480670 -0.427804 -0.034452 -0.821842 -0.199588 -1.105999 -0.507329 0.273487 0.239406 0.636483 0.220956 -0.309829 -0.257912 0.736598 1.149304 -0.666705
know -0.062504 0.129031 1.020171 0.646759 -0.907510 -1.200201 -0.755170 1.134926 -0.172499 1.178589 -0.326378 -0.370238 0.606053 1.458486 0.455070 -0.004552 0.838588 -0.782847 0.560637 0.037500 0.007661 -1.069536 -0.397884 -1.156479 -1.486628 -0.953189 0.341189 0.623623 -0.564487 0.056641 -0.404109 0.592672 -2.129097 0.559354 -0.523732 0.023054 0.031596 0.330912 -0.018426 -0.688079 0.247316 0.165300 -0.856121 -0.054974 -0.269077 0.354233 0.883749 -0.664879 0.722838 -0.605755 -0.699561 -0.156045 1.280155 -0.427744 1.725121 0.443643 0.205837 -0.200010 0.104137 -0.235655 0.127274 -0.209052 -0.262005 1.771270 1.221544 0.803694 -0.497114 -0.104696 0.147636 0.278644 0.002090 -0.407736 -0.456476 -0.352820 -1.669961 0.046420 0.010859 0.373069 -0.495551 0.388348 -0.050414 -0.247246 1.208286 0.768956 0.932193 0.952490 0.844527 0.785249 -1.208749 0.475016 0.214758 0.127481 -0.858841 -0.195078 0.143120 0.552311 -0.132211 0.932388 0.090859 0.313303
should 0.210352 -0.132290 0.804860 0.365900 0.396436 0.799029 -0.418466 -1.399470 -0.184153 0.331731 0.526145 0.144744 -0.170109 0.418149 -0.096389 -0.022979 0.403694 -0.361147 -0.624809 0.006711 0.352425 0.460132 0.454936 -0.572612 -0.152379 0.491088 1.168975 1.129568 -0.361610 -0.709902 1.086998 -0.183342 0.869139 1.366902 -0.066254 -0.658690 -0.330614 -0.843240 -0.650181 0.724692 0.321045 1.360485 0.242083 0.739462 0.483125 0.447362 -0.446332 -0.084377 -0.697813 -0.350431 -0.640614 0.414032 0.570521 0.495156 1.861020 0.602305 0.558796 0.345484 0.248353 0.825646 0.944358 0.102833 0.353775 -3.199741 0.622409 1.198238 -0.604675 0.046007 -0.176671 -0.212723 0.884083 -0.648914 0.393591 -0.167706 -0.387417 0.336468 0.304056 -0.518028 1.447380 -0.145150 -1.316850 -0.351542 -0.114045 0.335404 -0.223447 -0.446337 0.071188 -0.188617 0.495580 -0.977295 -0.127382 0.036146 -0.573077 0.217733 0.733084 0.169991 -0.268882 1.015158 0.848194 -0.083475
may 0.570908 0.342989 0.478492 -0.615550 0.240654 -0.279878 0.419169 -0.936605 0.132665 -0.064175 0.931683 -0.343233 0.589854 -0.378629 -0.699796 0.228576 -0.031578 0.228447 -0.096514 0.734833 0.056542 0.156569 0.294927 0.032444 -0.510994 -1.036467 0.580524 0.610414 0.399725 -0.189111 0.240640 -0.326990 1.044213 1.530686 -0.530576 -1.066527 -0.268832 -1.442510 -0.134031 -0.524704 0.592073 1.250540 0.268280 0.115731 0.433593 0.711439 -0.996969 0.565763 -0.378052 -1.046777 -0.376806 -0.605083 -0.679646 0.490465 1.819649 0.672592 -0.149875 -0.522353 0.766128 0.362959 0.308647 0.416455 0.345920 -3.536421 0.743902 1.039159 -0.339290 -0.330098 -1.078410 -0.646927 0.680953 -0.430669 0.329726 0.718235 0.403896 0.503685 -0.222199 0.372980 1.789211 -0.169495 -0.233742 0.220467 0.217830 0.450789 -0.505151 -0.990011 -0.169259 -0.875507 1.008921 -0.348712 -0.329056 -0.431364 -0.110526 0.227253 1.048014 -0.244078 0.461378 1.346224 1.879400 0.527993
how -0.576649 -0.764898 -0.297839 0.040325 -0.840300 -0.172415 -0.146402 0.144307 -0.335704 -0.589213 0.710308 -0.135273 0.565297 0.756226 -0.427079 -0.265840 0.300283 -0.427792 -0.575761 0.530787 0.247370 0.558838 -0.488285 0.021620 -0.634894 -0.363244 0.370132 -0.018724 0.618007 0.074512 0.040153 -0.309438 0.014809 2.024554 0.916315 0.687094 0.736670 -0.296181 -0.064768 0.686943 0.823217 -0.477226 -0.878252 -0.246945 1.450935 -0.452210 0.716380 0.897068 -0.704874 -0.171663 -0.420755 0.295242 1.562902 -0.940725 -0.738659 -0.006055 -0.102057 0.419102 -0.895556 0.136347 -0.740821 -0.908563 0.564133 0.998647 0.342309 -0.145314 0.445798 0.142165 -0.889660 -0.713717 -0.606849 -0.057202 -0.067456 0.410283 -0.010070 -0.702166 -0.787892 -0.876951 -0.232826 -0.895638 -0.491274 -0.419166 -0.576400 0.761106 -0.851010 -0.551232 0.021179 0.054891 -0.170091 -0.547283 -0.134691 0.153853 0.003621 -0.470014 -0.674091 -0.906788 -0.019636 0.252589 -0.884613 -0.287459
well -0.366130 0.069179 0.253352 0.315710 -0.052237 -0.190607 0.595227 0.655060 -0.022428 -0.103594 1.419007 -0.121057 0.692641 0.112105 -0.707789 0.933738 0.452463 -0.130918 0.174225 0.459733 0.312342 -1.015152 0.260473 -0.438044 -0.492417 -0.935074 -0.302637 -0.076970 -0.417197 -0.214613 0.394180 0.020455 -1.686646 1.261596 0.456631 -0.985321 0.772495 0.241742 -0.732647 -0.370166 -0.480632 -0.338892 0.841022 -0.022722 -0.293853 0.395080 -1.128579 -0.689519 0.780621 -0.006073 0.901273 -0.145890 0.375946 0.323261 -0.178746 -0.664571 -0.157901 -0.767035 0.214678 0.551657 0.052851 0.040967 0.375642 -0.125916 -0.209271 0.668767 -0.400229 1.138964 0.359973 -0.064832 -0.143584 0.570704 -0.271508 0.284545 -0.151426 0.031704 -0.003728 -0.614108 0.707461 0.405626 0.365757 0.713396 -0.039203 0.614612 -0.369252 -0.416919 -0.488316 0.201396 0.347318 -0.537757 -0.414568 0.820515 -0.359363 -0.291326 -0.357822 -0.085970 0.421227 -0.791802 0.511816 -0.215343
our 0.015248 -0.126656 0.585157 0.080435 -0.413797 0.803200 0.334728 -0.044745 -0.696405 -0.239165 0.173607 -0.088508 0.439200 -0.341041 -0.611937 0.743221 0.419850 0.334559 -0.684442 -0.198798 -1.010624 -0.993948 -0.319866 0.227141 -1.560658 0.377746 0.157919 -0.861312 0.067435 0.146950 0.122766 -0.788743 4.027386 -0.278579 0.769000 -0.680685 0.015615 -0.362816 0.106491 -0.311378 -0.349560 0.224055 0.618719 -0.809763 -0.395886 0.380226 -0.448710 -0.685453 -0.704868 -0.408535 -0.358801 0.268496 0.220746 -0.054450 -0.215330 -0.761410 -0.586751 0.469705 -1.190075 -0.324550 0.666406 0.586880 -0.671984 -0.788369 -0.156733 -0.392495 -1.239860 -0.642555 0.549508 0.037454 -0.150373 -0.074507 -0.609923 0.287478 -0.600678 0.551651 0.831568 -0.458708 0.000969 -0.358305 -0.237740 -0.619641 0.739093 0.226423 0.009677 -0.218785 -0.004130 -0.742605 0.430860 0.277794 0.075926 0.021434 0.101589 0.608782 0.740534 0.303825 -0.699122 -0.427314 -0.168360 -0.327221
can 0.530138 0.561104 0.347741 -0.103783 -0.459771 -0.584478 -0.308063 -0.400509 0.859609 -0.645036 -0.270130 -0.432234 -0.048711 0.545264 -0.237425 0.612868 0.180631 0.632998 -0.084004 -0.199831 -0.551376 0.203820 -0.387343 -0.611200 -0.933383 -0.717162 0.618971 0.417072 0.107971 0.553795 -0.089748 0.010149 1.090002 0.998435 -0.218168 -1.642132 -0.689966 -0.664317 -0.538230 -1.083798 0.707172 1.208669 0.377559 -0.482753 0.534065 0.624251 -0.398876 0.711216 0.090066 -0.939911 -0.019226 0.620495 -0.624623 -0.446034 1.841318 0.749721 0.173174 -0.302985 -0.201742 1.479541 -0.320272 0.547559 0.846894 -4.045405 0.792827 1.980209 -1.242059 -0.370656 -0.753871 0.060510 -0.182181 -0.450809 0.270470 -0.499180 0.585333 -0.509562 0.053274 0.082976 1.180017 0.749995 -1.023710 -0.365374 0.067612 0.025058 -0.169144 0.407240 -0.057478 -0.954900 -0.728286 -0.928259 0.159158 -0.497854 0.055855 -0.353951 0.143921 0.574795 -0.501384 0.711537 2.105605 -0.078958
little 0.564286 -0.493407 -0.153871 0.632545 0.040584 0.231283 0.941822 0.649649 0.198887 -0.403993 -0.734853 -0.949373 0.028252 0.229376 -0.625500 0.365059 0.692279 -0.158822 0.300640 0.362827 0.010513 0.490339 0.154525 0.501659 0.514853 -0.211028 0.342730 -0.071749 -0.218741 -0.045560 -0.032920 -0.624460 -0.039196 -0.299014 -0.012835 -0.555015 -0.284986 0.863371 0.212308 1.019347 1.652803 -0.155310 -0.167725 -0.138400 0.018981 0.784994 0.079086 0.065833 -0.009834 -0.090112 0.183391 -0.102124 -0.512377 0.388031 -0.333713 1.156526 -0.450034 -0.628955 0.630006 0.038605 0.273060 0.550470 0.661621 -0.026936 -0.789498 -1.261470 -0.032195 0.558648 1.016264 -0.818598 -0.155720 -0.051799 0.686218 -0.053560 0.608273 0.519341 0.177384 0.131110 0.206390 0.305641 -0.276131 0.129594 -0.226767 0.073760 0.928324 0.264496 -0.287637 0.551305 0.334336 -0.537588 0.751269 -0.387692 -0.897645 0.771955 0.221653 0.579315 -0.069586 -0.874855 -1.128057 -0.317474
am 0.596492 -1.258703 -2.560632 0.564411 0.159477 -0.655727 0.051124 -0.174729 -0.564565 0.846834 0.550630 -0.501326 0.005037 0.317598 0.136660 -0.039233 2.184089 -0.044322 1.266687 -1.173575 0.494868 -0.313033 0.612101 -3.229521 -0.395914 0.053375 1.353678 0.365690 0.828652 -0.501965 -0.527197 -2.687757 -0.234471 -0.226125 -0.288687 -1.191857 0.649147 -0.085010 0.291153 0.685586 -0.131691 0.635257 0.790602 -0.110175 0.520321 1.060394 0.715993 -0.276219 0.572552 2.632471 -0.395387 0.558784 -0.375635 -0.333092 0.288610 -0.171768 0.363784 0.075991 0.272893 0.935604 -0.009081 0.403609 -0.638475 1.620115 1.287418 0.016124 0.485410 1.454239 0.082011 -0.255815 0.126250 -0.165322 0.688471 -0.081779 -1.130271 -0.292419 0.242439 -0.252553 0.990063 1.182412 -0.001138 -0.377563 1.018546 1.375063 0.438999 0.939979 0.328362 0.393840 -0.085031 -0.738601 0.257311 0.158538 0.193996 0.318094 1.060411 -0.983125 0.186853 -0.072886 0.653433 -0.367036
these 0.358896 -0.628217 -0.096675 0.819962 0.094088 0.601088 0.284210 -0.371927 0.278463 0.218372 0.820341 0.559643 -0.152819 0.980863 -0.674545 -0.219529 0.005178 -0.725248 -1.261295 -0.546784 -0.429442 -0.003533 0.025694 0.408375 -0.313156 0.749322 -0.739307 0.736808 -0.466552 0.474571 0.010843 -0.659164 2.885695 0.177442 1.681833 0.644043 0.329835 -0.096461 -0.429031 -0.448342 0.624100 -0.229526 0.836123 -0.355175 -0.557545 -0.255850 -0.383018 1.014058 0.291356 -0.122495 0.054377 -0.624491 0.276562 -0.552615 -1.337640 0.548370 1.137604 0.452227 -1.978792 -0.466684 0.689572 0.505540 -0.574779 -0.089331 0.208091 0.638813 -0.679007 0.377584 0.691990 0.388248 0.412305 -0.318670 -0.724751 -0.273823 -0.076791 0.636807 -0.424848 0.771429 -0.500381 0.291964 -0.035734 -0.302558 0.454226 -0.177876 0.601894 -0.938100 -0.028183 0.516611 -0.186475 0.443480 0.890078 0.184335 0.391967 -0.585995 0.472772 0.135617 0.361032 -0.477270 -0.132990 -0.084741
upon -0.104651 0.085879 0.591710 -0.719033 0.333829 -0.417722 0.381264 -0.293100 1.812175 -0.646608 0.294967 -1.285275 0.617774 -2.823757 -0.635819 0.424473 -0.264059 0.626867 -0.062869 -0.364819 0.406101 0.189012 0.005322 0.010605 1.782860 -0.163445 0.234197 0.381108 -0.658256 -0.316296 -0.171838 0.832012 1.355737 0.885528 -0.846887 0.997310 -0.150965 0.560970 -0.243597 0.065233 -0.213837 -0.027552 -0.283089 -0.008509 -0.637932 -0.575787 -0.943354 -0.166278 0.367048 0.611415 0.155956 -0.557339 0.048079 0.027784 0.415713 0.309624 0.153251 0.709462 0.359594 0.518881 -0.757579 -0.213042 -0.083415 0.161258 0.311992 -0.597263 -0.159754 0.456861 -0.399490 -0.053078 0.208157 -0.065748 1.317854 0.214300 -0.031329 -0.025452 -0.348751 -0.300190 -0.109426 0.319893 0.324417 1.296025 0.359804 0.898687 0.124961 -1.039255 0.774152 0.737225 -0.152974 -0.190072 0.026975 -0.188080 -0.090340 -0.294284 -0.608502 0.345827 0.399188 1.258271 0.168441 -0.307622
down -0.254788 0.669203 0.614866 -0.068289 -0.153691 -0.278100 -0.348337 -0.684653 -0.704697 -0.459239 0.500769 0.509257 -0.079901 -2.407788 -0.366961 -0.278697 1.276258 0.102129 -0.214953 0.223175 0.703806 -0.369062 -1.050045 0.109991 2.433096 -0.388914 -0.462218 0.804540 1.245203 0.243688 -0.366005 -0.876724 -0.286555 -0.882083 -0.157300 0.070305 0.233132 -1.028681 -1.006235 0.069299 0.048678 0.955351 -0.221951 0.413228 -0.805085 0.146141 0.376653 -0.967832 -0.915816 -0.907861 1.213951 -0.619980 0.493576 0.061876 0.226639 0.439621 -0.833587 -0.283758 -0.557411 0.614742 -0.458101 -0.390992 -0.497800 0.460319 -0.328859 -0.239351 0.447286 0.294432 1.083269 -0.960965 -0.075967 -0.562486 2.106814 0.623816 -0.263855 0.156608 0.255221 -0.254729 -0.617430 1.196056 -0.494391 0.098397 -0.290014 0.721014 -0.157060 -0.885459 0.487330 0.695735 -1.469139 -0.775352 0.571885 -0.598914 -0.497749 -0.061303 -2.110966 -0.455294 -0.227148 0.313771 0.177933 0.357475
two 0.879924 0.292622 0.601475 0.519450 -0.777013 0.791423 0.824452 -0.858163 0.142769 0.095579 -0.420722 0.592356 0.639114 0.323971 -0.290953 0.513071 0.137951 -0.494820 -0.653384 -0.150332 0.405383 0.822688 0.281189 -0.007301 0.620177 -0.232994 0.487108 -0.508654 -0.271744 -0.508817 -0.549990 0.654399 1.936583 -1.089580 0.677911 0.400631 -0.744688 0.545294 -0.282757 -0.276151 -0.016738 0.075809 -0.342490 -0.353314 -1.247860 0.803865 -0.953118 0.582066 0.460462 -0.551062 0.467128 0.398860 0.325789 -0.934387 -1.179218 -0.113178 1.133184 0.086713 -1.640316 0.805540 0.921082 -0.419731 -0.790880 0.360931 0.664857 -0.722351 1.062488 -0.292855 1.663444 0.586241 0.015450 -0.135413 -0.657927 0.055900 0.214059 -0.444268 -0.957228 1.158827 -0.092590 -0.758552 0.397852 0.467907 -0.066429 0.060982 -0.423625 -0.344569 0.148146 -0.052844 0.472599 -0.177707 1.269460 0.046019 0.050225 0.150655 0.103990 0.358418 -0.392905 -0.388069 0.753199 -0.121745
over 0.123962 0.134789 0.539765 -0.035665 -0.291456 -1.193536 -0.650602 -0.203174 0.337801 0.316296 -0.019525 -0.097678 0.532705 -2.752192 -0.548721 -0.214567 -0.051724 -0.010768 -0.492942 0.927194 0.375139 0.089517 -0.216326 0.260997 2.440966 -0.282355 0.042935 0.577093 0.331320 0.667992 0.486891 0.110322 1.241780 0.708201 -0.380105 1.416001 0.285112 -0.566418 0.910682 0.564875 -0.158916 -0.075965 0.295482 -0.025574 0.101764 -0.362575 -0.473302 0.404735 0.348072 -0.910021 0.242531 -0.841805 0.273286 0.287683 1.175286 0.695034 0.257180 -0.242118 -0.382737 1.395820 -0.780332 -0.019661 0.397032 0.964477 -0.017066 -0.448943 0.330754 0.599988 -0.169465 -0.176208 -0.502748 -0.578040 0.922254 -0.078601 -0.388998 0.374224 0.603384 0.279439 -1.058034 1.197942 -0.342890 0.745261 -0.487358 0.912677 -0.206872 -0.384664 -0.468474 0.127715 0.418477 -0.121405 -0.750401 -0.078796 -0.097425 -0.087458 -0.818889 -0.365148 0.214008 -0.136223 -0.417577 -0.561992
us 0.100651 0.069311 -0.209646 0.679352 -0.751708 0.712503 -0.510228 1.053355 -0.112723 0.845282 0.560824 0.642808 -0.544810 0.065135 0.131054 -0.153710 -0.037776 -1.212036 -1.412655 -0.342748 -1.495138 -0.201899 -0.193242 1.067781 -0.811902 0.523068 0.526757 -0.019139 0.060577 1.036301 0.235180 -1.318495 -0.172927 -0.742044 0.347060 -0.056624 -0.817276 -0.703872 -0.653362 -0.973315 -0.144993 -0.279669 0.592189 0.733966 -0.181895 0.762943 -0.007193 0.525530 -0.955103 0.481099 0.509438 -0.003738 0.230746 0.531456 -1.002069 -0.745351 -0.024509 -0.409794 -0.019251 0.181428 -0.116811 0.540969 0.369303 -0.764061 -1.279227 -0.547263 0.977332 -0.828201 -0.345151 0.237009 -0.827398 0.004604 0.549493 0.422692 -0.127738 1.229515 -0.368594 -0.637926 1.144229 0.998274 0.172727 -0.772387 0.536509 -0.662694 0.408642 -1.075263 -0.037789 -0.460712 0.445858 -0.351660 0.953525 -0.571045 -0.088459 0.186032 -0.005632 -0.167749 0.767958 0.116227 1.214752 -0.613649
after 0.257793 -0.801178 -1.108690 -0.095401 -1.001664 -0.944647 -0.698824 0.141321 1.215458 -0.601583 0.151381 0.307023 0.193813 0.043514 0.130128 -0.147510 -0.039259 -1.271335 0.770743 0.712320 -0.254574 0.439539 0.407711 0.537168 0.437325 -0.036990 -0.574277 -0.300098 0.747481 -0.952244 0.395750 -0.257869 0.785371 0.737951 -1.062810 0.315691 -0.694162 -0.907419 0.287550 0.174385 -1.006222 1.052184 0.385576 -0.210930 -0.073934 -0.589484 -0.083203 -0.309776 0.505753 0.281814 -0.048559 0.210394 0.045448 0.644350 1.315101 0.410339 -0.350747 -0.106930 0.097417 -0.036040 0.492491 -1.174421 0.734640 -0.287513 0.600451 -0.706090 1.168694 -0.108565 0.704399 -0.645341 -0.198399 0.237865 0.557590 0.663303 -0.294379 -0.624348 0.671579 1.307652 -1.132716 -0.127969 -0.550595 -0.835135 0.037048 1.121550 -0.128367 -1.136897 0.482889 -0.279990 0.308288 -0.828065 0.224393 -0.805372 0.274075 0.252165 0.793022 0.432405 0.288867 -0.276712 -1.095483 -0.145824
himself -0.068039 -0.337845 0.015362 0.715999 -0.154599 0.316504 -0.655334 -0.300879 1.007376 0.489197 -0.621277 1.255600 -0.740634 -0.961010 -0.561584 0.626394 0.419051 -0.691859 0.506861 0.300514 0.471986 -0.681641 -0.674668 -0.353029 0.064177 0.661060 -0.054702 0.375316 -0.680549 -0.627434 -0.342903 -0.953120 -0.680060 0.389903 0.344449 -0.288950 -0.638386 -0.006293 -0.397855 -0.163266 0.723891 -0.222712 0.057892 0.627366 -0.415840 0.577464 -0.961180 0.206372 -1.245604 0.373117 -0.067336 -0.273851 -0.214637 -0.014428 -0.751778 -0.441009 -0.131059 -0.472920 -0.197850 -0.537547 -0.107317 -0.390525 -0.542219 1.163293 -0.631572 -1.081846 0.826496 -0.401457 -0.412851 -0.577718 -0.389281 -0.215681 -0.325601 0.273804 0.002574 0.186173 -0.814989 -1.480289 0.377189 2.132355 0.132183 -0.829715 -0.309352 -1.142016 0.762884 -0.079451 0.037798 -0.078165 0.237860 -0.336444 -0.630142 -0.365585 1.297569 0.441964 0.812793 -0.365867 -0.236255 -0.583234 0.874896 1.067571
old -0.447710 0.732491 0.495992 0.406711 -0.241671 -0.101806 -0.895397 -0.556911 0.340250 -1.410876 0.694038 -0.290250 -0.361903 0.304835 0.903503 -1.368584 0.437822 0.816559 -0.576147 0.657471 0.415534 0.229443 -0.587233 -0.257593 0.002116 0.453456 -0.408811 -1.093368 -0.713766 0.644428 0.555634 -0.126349 0.482389 1.122012 0.365610 0.255742 0.194063 0.439047 -1.510896 0.457787 0.848702 1.591209 -1.091973 -0.680404 -0.223534 1.410228 -0.391706 0.441791 0.559808 -0.065924 0.475276 0.473656 -0.842212 -0.432977 -0.594772 0.620729 0.107047 -0.240446 0.818410 -0.020016 0.019502 -0.521083 -0.595152 1.424794 0.352632 -0.554760 0.052391 -0.499965 0.624229 -0.310675 -1.311833 0.996959 0.001834 0.635021 -0.044544 0.154440 0.163966 -0.034744 -0.213720 1.127558 -0.523430 0.038262 1.264335 0.569917 -0.131201 1.077788 -0.147156 -0.446655 0.200521 -0.274985 -0.016602 0.375932 -0.205021 -0.517077 0.775962 0.517000 0.038266 -1.023111 -0.155531 0.228267
again -0.276986 0.309611 -0.588326 0.737927 0.384269 -0.270664 0.269432 -0.820311 0.057036 -0.874920 -0.121991 0.185326 0.186655 -1.033244 -0.081218 -0.469013 -0.675977 -0.109876 -0.297341 -0.016230 -0.409170 -0.973947 -0.335852 0.127088 0.942029 -0.728961 -0.280544 0.722710 -0.135531 0.051572 0.189426 -0.024516 -0.547405 -0.535796 0.482487 -0.761523 0.225751 -0.502519 0.524359 -0.115023 -0.209205 0.736385 -0.143767 -0.080998 -0.744390 -0.360820 0.351179 -0.456054 -0.623011 0.172647 0.158504 0.398302 0.351797 0.202462 0.001627 -0.172155 -0.691184 -0.238534 0.329531 0.705694 -0.299033 -0.469021 0.563997 0.195074 0.407707 0.194786 0.045032 -0.123553 -0.325937 -0.096254 -0.336546 0.259150 -0.296815 -0.079892 0.248890 -0.366117 -0.143262 -0.610888 -0.805059 0.442173 -0.564703 0.039336 -0.292317 -0.019212 -0.195904 0.442491 0.095227 0.075933 0.274980 0.122657 -0.330581 -0.073431 -0.343141 0.099579 -0.847990 -0.685154 0.255596 -0.796727 0.067872 -0.093552
shall 0.543496 -0.252952 -0.014813 0.281063 -0.614156 -0.581432 -0.034865 -0.693841 -0.455461 0.113275 0.528891 -0.295163 0.075894 -0.843755 -0.199332 -0.202037 0.355703 -0.598955 -0.108074 0.100183 0.020626 -0.569987 0.419400 0.174396 -0.397577 -0.435391 1.121979 0.502973 -0.065251 -0.381576 -0.108624 -0.731380 1.091820 0.477014 -0.305709 -1.749153 0.078404 -1.750509 -0.935287 -0.540394 0.515364 1.448118 0.995190 -0.107482 1.051148 0.286292 -0.403122 0.449752 -0.327710 -0.365830 -0.624155 0.217831 0.625543 -0.226682 2.936546 -0.199596 -0.393352 -0.022631 0.146678 1.032176 0.032854 0.563118 -0.094349 -3.964955 0.906107 1.192879 0.069643 -0.273261 -0.033630 -0.130258 1.153100 0.721323 0.961459 0.358894 0.005852 0.112021 0.516378 -0.432604 1.224451 -0.203827 -0.430891 0.461321 0.415556 1.177616 -0.269520 0.302476 0.458424 -1.313285 -0.262683 -1.063942 0.147546 0.434583 0.179037 -0.054890 0.407332 -0.045033 0.596395 0.788531 1.089934 -0.534424
