3000 100
<pad> 1.989408 -0.222714 -0.265440 -0.648841 0.129186 0.763638 -1.556493 -1.721817 -0.900641 0.771745 -1.092185 0.113242 0.055123 0.680823 -0.681406 0.404689 0.846238 0.428088 -0.673605 -2.230633 1.141670 0.369561 0.651852 0.639696 -0.533811 0.410125 -1.040633 0.008290 -1.100425 1.355587 -1.620419 -0.710937 -0.112629 -0.503771 0.711808 -0.209228 -1.026888 0.798430 1.061403 0.319090 -0.651793 0.410899 -0.887648 0.295223 -0.039088 0.325076 0.417916 1.074235 -0.234356 0.328061 0.377013 0.074219 0.816803 1.214234 -1.286966 0.942963 -1.699483 0.460319 -0.457341 -2.486528 0.577776 -0.654694 0.626368 -0.578509 -0.119298 1.005247 -0.285718 0.896143 -0.810580 0.261790 1.677980 0.182081 -0.673111 0.198717 0.874910 -2.082785 0.219752 -0.821847 1.248178 -0.780125 0.818896 -0.742508 -0.686040 0.516865 -0.392249 1.206344 0.194288 0.700825 -0.744908 1.252742 1.027027 -0.546302 2.420395 0.169338 -0.136636 1.257980 1.644877 -0.608357 -0.017691 1.638769
<start> 0.186814 0.706418 0.119529 -0.237786 0.213516 0.156634 0.194698 0.066380 0.523665 0.211895 0.003130 0.485163 -0.146143 0.127460 0.453779 0.217315 -0.471063 0.146593 -0.657918 -0.248387 0.488734 -0.055631 -0.645827 -0.040544 -0.413964 0.498835 0.077897 0.139593 -0.312269 -0.355053 -0.223167 -0.290722 0.631543 0.307072 0.004167 0.341097 -0.242244 0.162473 -0.430387 1.126084 0.264695 -0.237373 0.260837 0.024395 -0.136215 -0.253686 -0.065347 -0.243177 0.280712 -0.226319 0.225609 -0.267834 -0.264273 -0.526777 0.128361 -0.068158 0.391670 -0.553338 0.218423 0.299467 -0.769285 -0.194816 0.039985 0.313185 0.506573 -0.260020 0.081405 -0.522193 0.359371 0.411503 -0.425826 0.176225 -0.374789 0.365779 -0.156103 0.194930 -0.537222 0.258435 1.721362 0.152082 0.368259 -0.741363 -0.156147 0.224571 0.119502 -0.153415 -0.326023 -0.480258 0.001153 0.435245 -0.310361 0.134597 0.429718 0.586174 -0.214602 -0.449066 -0.234963 -0.236558 -0.050885 0.246835
<end> -1.049407 -0.619554 -0.889095 1.688889 -0.264706 0.256882 -0.477041 -0.731410 -0.469729 -1.224897 -0.550278 -1.650660 1.180713 -0.295555 0.724319 0.422524 -0.767294 1.151175 1.171820 0.989790 0.558396 -0.144731 -0.286312 0.990694 -0.106213 0.548291 0.382740 -0.610651 0.351857 -1.328175 2.136539 -1.847262 0.132159 0.749770 0.540607 0.051885 -1.135945 -1.019666 -1.215508 -1.051794 1.231375 -1.166538 0.895469 0.292832 -0.559868 -0.786102 1.679663 0.627599 -1.382518 0.474346 -1.107167 -0.702934 -1.928513 0.981397 -1.198067 1.170774 0.580114 -1.074302 0.595327 -1.379190 0.255375 0.810765 0.333513 0.135888 0.753200 -2.228674 -0.406954 2.711783 0.278150 -0.949338 -0.059785 -1.209299 -1.926162 -0.061113 2.096738 2.836411 -0.566401 -0.672560 2.089821 0.212793 0.456922 -0.622322 0.987422 0.537770 -0.275672 -1.852045 0.489114 0.549039 -0.191557 0.631109 0.548351 -0.239982 0.780284 -0.215255 1.096206 1.118385 0.184410 -0.190752 -0.100510 0.446021
<unk> -0.025269 -0.037192 -0.212858 -0.218771 -0.051793 -0.103248 0.146352 -0.018374 -0.084129 0.131105 0.114512 -0.421793 -0.027548 0.175844 0.078530 0.110660 0.121565 -0.323872 0.222700 0.112382 0.069393 0.141681 0.136979 0.025940 -0.607468 0.040411 0.261765 0.124747 -0.091722 0.156108 -0.196220 0.073663 -0.177935 -0.067935 0.093205 -0.022176 0.018158 -0.102903 0.072622 -0.001249 0.012545 -0.231897 0.042551 0.317766 0.057380 0.162619 0.331590 0.174848 -0.145191 0.160858 0.102952 0.176924 -0.048314 -0.115922 0.010315 -0.072264 0.045870 0.135775 -0.002703 -0.039483 0.138207 -0.101644 -0.010344 -0.116713 0.042944 0.033924 0.273703 0.197935 -0.097560 0.286536 -0.128830 -0.149953 0.070202 -0.273942 0.015794 -0.132471 0.291487 0.089705 0.274624 -0.115490 0.099231 -0.527645 0.043915 0.207440 -0.066546 -0.250711 0.198244 0.187690 0.175554 -0.068233 0.267058 -0.090452 0.039336 -0.008865 -0.081704 -0.115770 -0.021050 0.182748 0.116404 -0.187738
the -0.059238 -0.094688 0.156500 -0.165713 0.079578 -0.492102 0.053753 0.137879 -0.038180 -0.172659 -0.145958 -0.634764 -0.015353 0.314816 -0.532992 -0.186434 0.414938 1.504368 0.846814 -0.393678 0.836903 -0.216969 -0.154218 -0.163049 0.913650 -0.386390 -1.069242 0.115949 -0.020905 0.013808 -0.054827 0.152022 0.092847 0.337297 0.435302 -0.054718 -0.472296 -0.249114 -0.443336 -0.769264 -0.157363 0.190183 0.455929 -0.423333 -0.565088 0.319742 -0.540647 -0.319485 0.073380 -0.505599 -0.283419 -0.079502 0.212923 -1.238233 -0.044687 0.100945 -0.291175 -0.194128 -0.088276 0.112985 0.057371 -0.006865 0.420272 0.780144 -0.077963 0.269140 -0.140196 0.196946 0.329833 -0.442148 0.090652 -0.326766 -0.363867 -0.234003 0.102863 0.577700 -0.083813 0.301737 -0.258537 0.147246 -0.275730 0.669956 -0.406256 -0.716618 0.092945 0.062638 0.352377 -1.268989 0.389236 0.080768 -0.344658 0.089595 -0.233467 0.002695 0.006169 0.288653 -0.104532 -0.090638 0.084606 0.486209
and 0.277462 0.231871 0.324549 0.105161 -0.300518 -0.138412 0.481272 0.062326 -1.001015 -0.111156 -0.051699 -0.529682 0.439673 -0.362143 0.109733 -0.214509 -0.632267 -0.292145 -0.325274 0.059419 0.279220 -0.602876 -0.586330 -0.042382 0.267478 0.189753 -0.166638 0.024227 -0.296618 -0.099092 -0.248065 0.106098 0.471708 0.088757 0.094627 -0.201933 -0.180734 0.140411 -0.412584 0.431969 -0.344881 0.309885 0.054275 -0.456141 -0.020263 -0.162773 -0.308246 -0.397055 0.280210 0.277859 -0.027423 -0.338349 -0.029113 -0.916003 0.420395 0.096220 0.022431 0.270437 0.048128 0.109508 0.678586 0.035999 -0.176223 0.062863 -0.133458 -0.203387 0.031082 -0.097645 0.427141 -0.142908 -0.116176 0.019017 -0.140516 0.393519 -0.170832 0.290306 -0.178764 0.026813 0.202891 0.216011 0.115224 0.083116 -0.305902 0.010298 -0.333148 0.515409 -0.281491 -0.490305 0.455625 0.284363 -0.472503 -0.034488 -0.076018 -0.009048 0.310024 0.060550 -0.125824 -0.193922 -0.044372 0.247733
of -0.110894 0.021217 0.255140 0.696534 -0.164656 0.837383 -0.530613 -0.288880 -2.862453 0.415849 0.362027 -0.002798 0.026948 -0.384486 0.328908 -0.017681 0.060978 1.932315 -1.316927 -0.177946 -0.112626 -0.417297 -0.026821 -0.275360 0.434788 -0.692031 -0.096278 0.083814 0.167759 -0.206918 0.080349 -0.080379 0.096982 0.066767 0.147765 0.096495 -0.182016 0.499030 -0.751945 0.009247 0.198298 -0.186921 0.293393 -0.389865 0.510005 0.306738 -0.710554 -0.051139 -0.090932 0.025570 0.511619 -0.562215 0.031106 -0.113918 0.426497 0.205493 0.277520 0.023303 -0.093396 0.016776 -0.109506 -0.277978 0.264985 -0.259232 0.555059 0.044182 -0.278805 -0.032946 -0.107738 0.246817 -0.203135 -0.883445 -0.229983 0.381220 0.313151 -0.351699 0.154087 -0.008334 0.111563 0.225207 0.152494 0.286894 -0.276028 0.237291 0.170703 0.207164 -0.620828 1.373750 0.439411 0.534732 -0.489810 -0.391513 -0.030670 0.232418 0.044385 -0.255065 0.168445 -0.074255 -0.036437 -0.120975
to -0.375505 -0.090389 0.196858 0.206334 0.069902 0.326221 -0.216072 0.132486 -1.385471 -0.415661 0.099265 1.905086 -0.047519 0.321328 0.045986 -0.060598 -0.496383 -0.618316 -0.229756 -0.176833 -2.536420 -0.448713 -0.142515 -0.113203 0.612186 0.373304 -0.035719 0.214202 0.650059 -0.148799 0.057498 0.220900 0.103849 0.383570 -0.054982 0.385280 -0.056328 0.370892 -0.372178 -0.181285 0.244093 -0.052399 -0.968617 -0.084848 -0.059738 0.403110 -0.167719 -0.848925 -0.025559 -0.205614 -0.132963 0.394704 -0.088767 -0.507888 0.333430 0.156676 -0.337638 0.283847 -0.108111 0.070235 -0.060487 -0.229806 0.111632 0.452490 0.279713 -0.493953 -0.347593 -0.173926 0.355132 0.191630 -0.043136 0.023402 -0.571121 0.502411 0.118813 0.377524 -0.351492 -0.066661 -0.040905 0.330260 0.039003 -0.052204 -0.299851 -0.178209 0.072732 0.077406 -0.582389 -1.294776 0.753506 -0.139079 -0.530480 0.350220 -0.088940 -0.178384 0.592395 0.074623 0.342872 -0.241416 0.500570 -0.083758
a -0.691448 -0.356377 0.423936 -0.065315 -0.002008 0.119975 -0.658695 -0.130104 -0.287072 0.006602 -0.048872 0.240246 -0.312098 -0.296550 -0.698104 0.441497 -0.003864 1.663074 0.441220 -0.308806 0.922660 -0.299368 -0.326598 -0.380239 0.501636 -0.037324 -0.505092 0.190631 -0.240436 -0.391180 0.226035 -0.058183 0.377093 0.048097 0.569182 -0.722169 -0.312677 -0.355403 -0.682121 -0.925498 0.041453 -0.082426 0.126365 -0.275219 0.592004 -0.574361 0.188890 0.068595 -0.348540 -0.063939 -0.097475 -0.172651 -0.729255 -1.283199 0.186073 0.307269 0.189909 0.213823 0.213365 0.073974 0.754845 -0.578464 -0.266599 0.745185 -0.420966 0.272422 -0.323736 0.254624 0.633566 -0.140768 0.281274 1.130213 -0.641866 -0.109389 0.057831 0.270015 0.544787 -0.127235 -0.618042 0.643591 -0.550310 0.683538 -0.493212 -1.045753 0.131656 -0.041287 0.290969 -1.785035 0.267916 0.194578 -0.208806 -0.278441 0.407563 0.146935 -0.537610 0.616643 -0.396417 0.148266 0.010998 -0.290152
in -0.027760 -0.036801 0.229407 0.581159 -0.056968 0.816051 0.431804 -0.033050 -1.970342 -0.322905 -0.375431 -0.707421 -0.104361 0.646586 -0.290206 -0.426240 -0.349139 0.454458 -0.504530 0.135452 0.188847 0.564455 -0.887246 -0.035051 -0.378328 -0.633538 0.123759 -0.048231 0.272275 -0.295607 0.259731 -0.025516 0.172018 0.002163 0.249487 0.345930 -0.179275 -0.065350 1.400479 0.398092 0.493068 0.117392 -0.683878 -0.240518 0.011672 -0.476599 -0.349788 -0.641418 0.148415 0.192268 0.047390 0.361796 -0.117397 -0.693321 0.520445 0.078498 -0.406012 -0.163744 -0.176871 -0.040969 -0.468878 -0.331618 -0.548156 -0.304154 -0.124820 0.108212 0.172945 -0.090089 0.051125 -0.169599 0.082878 0.049884 0.272210 0.549940 0.300317 -0.264010 0.010754 -0.067322 -0.220019 0.424315 0.122228 0.590764 -0.432920 0.004692 0.143847 0.240537 -0.385393 0.291147 0.354786 0.289370 -0.107857 0.221664 -0.129873 0.269502 0.380797 0.082843 0.098434 -0.378341 0.348483 -0.158804
i 0.268964 -0.411830 -0.141964 0.106707 -0.275169 0.053370 0.126177 -0.040142 0.244361 0.345904 -0.168454 2.092103 -0.915777 0.114814 -0.725186 -0.214505 0.250649 -0.652827 -0.028427 -0.019121 -0.174096 0.524188 0.139983 -0.461830 0.138107 0.887884 0.310627 -0.317022 -0.692255 -0.079752 0.221042 0.387067 0.725298 1.121150 -0.049314 -0.229977 -0.376032 0.354308 0.456510 -0.063935 0.011195 0.613572 -0.007692 -0.226010 -0.295583 0.061202 0.130083 -0.190466 -0.001215 0.455289 0.188894 -0.235562 0.437157 0.047141 -0.420681 -0.050556 -0.322420 -0.082360 -0.323076 -0.140833 -0.345364 -0.117065 0.439752 -0.084250 -0.413898 0.355560 -0.131251 0.392767 0.259140 0.072953 0.084541 0.921545 -0.809477 -1.116558 0.053894 0.116125 -0.671906 0.333893 -0.283742 -0.133750 0.019314 0.331045 0.418076 0.675840 0.174203 0.414250 -0.615604 -0.101456 -0.340590 0.146042 -0.649878 0.268087 -0.370100 -0.214059 0.251340 0.189452 -0.268700 0.031841 0.529411 0.151010
he -0.467994 -0.124602 0.387609 -0.687455 -0.301523 0.134459 0.888888 0.338693 0.423296 0.224205 0.098182 1.188275 -0.267461 0.246227 -0.686782 -0.186178 0.047924 -1.633103 -0.545576 -0.126242 0.095911 0.484809 -0.606824 -0.424040 0.497095 0.065815 0.120493 -0.314427 -0.175591 -0.318229 0.056137 0.153523 0.529338 0.477395 -0.657575 -0.130663 -0.239588 -0.099096 0.617884 -0.379313 0.265235 0.622269 0.770901 -0.296298 -0.977979 0.278419 0.037503 0.044439 0.109536 0.003351 0.019619 -0.347168 0.082397 -0.361009 -1.094514 -0.015072 -0.053262 -0.350679 -0.066676 0.381416 0.550406 -0.029137 0.328244 -0.525366 -0.298873 0.341934 0.009602 0.047531 0.127334 -0.039716 0.166752 0.118862 -0.669488 -0.281165 0.242233 -0.063154 0.351113 -0.120298 -0.009052 0.259599 -0.144876 0.258404 0.454536 0.478010 -0.283710 0.554256 -0.951125 -0.048595 0.084883 -0.258850 -0.610294 0.157065 -0.350214 0.257899 -0.345879 0.453170 -0.109077 0.319431 0.395864 -0.303681
that -0.308532 -0.039674 0.667545 0.656124 -0.066709 0.270353 0.269027 -0.012547 -0.042351 -0.072568 0.128604 0.278576 -0.266696 0.092090 -0.304879 0.215444 -0.561846 0.655062 -0.459671 -0.247902 0.124234 -0.452879 -0.132861 -0.560061 -0.448488 0.239197 -0.005727 0.488179 -0.313206 -0.209211 -0.220098 -0.631221 0.130664 -0.379938 0.214910 -0.217745 0.486126 -0.716654 -1.254634 0.365779 0.436425 0.057588 0.162303 -0.511354 -0.411014 -0.154321 -0.325717 -0.190400 0.327255 0.041200 -0.435076 0.043220 0.163042 -0.331149 -0.008664 -0.355564 0.203774 -0.050863 -0.208371 -0.077754 -0.148316 -0.032921 0.601002 0.064463 0.057079 0.012783 0.140002 -0.110376 -0.596705 -0.037587 0.010583 0.445655 -0.226959 0.430855 0.154076 -0.075665 -0.737100 -0.032647 0.535378 -0.025901 0.060665 0.542590 0.236174 -0.165025 0.352045 0.271581 0.162119 0.040537 0.195409 -0.418122 0.126434 0.129946 -0.184492 -0.246225 -0.149491 -0.179668 -0.033483 -0.097431 0.460695 -0.295359
his 0.132408 0.541066 -0.041398 -0.107098 -0.052858 -0.303632 0.126709 0.227188 -0.385900 -0.009116 0.203774 0.248649 0.149838 -0.069091 -0.499473 -0.004693 -0.859694 1.231749 0.922785 -0.455297 0.366088 -0.354307 -0.189462 -0.416726 1.355220 0.116772 -0.423712 -0.790439 -0.005194 -0.146044 0.024198 -0.389065 0.359085 0.182504 0.191421 -0.455845 0.036559 0.492390 -0.538874 -1.257247 -0.100011 0.026349 0.839303 -0.824555 -0.452148 -0.189105 -0.656769 -0.564805 -0.518983 -0.012525 -0.361570 0.078410 0.349763 -1.149915 -0.930517 0.084147 0.142292 0.410651 0.030350 -0.016452 0.848522 0.104527 -0.061844 1.585916 -0.743409 0.091689 0.343873 0.002618 0.650410 -0.797219 -0.040703 -0.329087 0.153515 0.228696 0.274946 0.062343 0.108532 0.263543 -1.027977 -0.291814 0.289965 0.129692 -0.534595 0.206883 0.546057 0.079327 0.512740 -0.170027 0.339866 -0.449914 -0.558484 -0.432285 -0.081517 -0.018282 -0.374390 0.227453 -0.601322 0.387748 -0.160321 -0.181272
was -0.340924 -0.426403 -0.337727 0.043605 -0.099989 -0.511108 0.309262 0.227915 -1.474004 -0.099925 -0.181335 -1.200392 -0.068330 -0.600198 0.153500 0.067721 -0.728285 -0.714720 -0.066531 -0.183276 0.773403 0.003903 -0.131082 0.102862 0.617958 0.409084 0.437164 1.005324 0.101063 -0.075181 0.158881 0.059849 0.057811 -0.080977 0.457955 -0.085594 0.292482 0.102767 -0.353009 0.039998 0.308932 0.154408 0.466201 -0.050348 0.456375 0.076383 -0.581600 -0.219281 0.361397 0.174056 0.740662 -0.331342 -0.195682 2.251233 0.056419 0.234421 0.644907 0.354650 -0.116269 0.165819 -0.295985 -0.376831 -0.201034 0.695201 -0.056383 -0.140326 -0.176491 -0.386659 -0.116011 -0.604076 -0.024213 -0.340816 1.054062 0.188183 -0.614133 -0.360343 0.882728 0.208367 -1.006852 -0.189214 -0.213196 0.557637 0.285316 -0.280593 0.225915 -0.340960 -0.401406 -1.045561 0.073485 0.390208 -0.044752 -0.094562 0.187887 0.079938 0.153707 0.119135 0.001039 -0.517490 -0.548454 0.093833
it -0.291394 -0.493673 0.550408 -0.495980 -0.323625 -0.245906 0.627532 0.563788 0.603152 0.233044 -0.165339 1.076790 -0.213611 -0.146338 -0.197945 -0.265935 0.552519 -0.753117 -0.178684 -0.390819 -0.387432 0.284482 0.187078 -0.241168 0.154675 -0.298000 0.517907 -0.593941 -0.116046 0.187460 0.147331 0.386366 0.180227 0.188389 -0.147920 0.051378 0.290869 0.047514 0.458057 -0.304723 0.459802 0.181409 0.419428 0.030704 -0.532438 0.293072 0.161462 -0.067547 -0.398551 0.021919 -0.493195 0.332953 0.312590 0.046884 -0.714331 -0.276657 -0.211797 -0.289943 -0.005711 0.398906 -0.298512 -0.297021 0.153808 -0.412458 -0.026389 -0.231815 0.153212 -0.181226 0.252081 -0.194257 0.224461 1.041987 -0.479173 -0.145285 -0.367039 0.524018 -0.227832 0.268432 0.163064 0.336430 0.064852 -0.336911 -0.432543 -0.126703 -0.320796 0.437267 0.063170 -0.489235 0.192373 -0.102996 0.397373 0.138744 -0.190499 -0.130375 -1.125703 -0.550758 -0.029616 1.064161 0.176728 -0.151440
you 0.202440 -0.170540 -0.161687 0.233946 -0.669987 0.089043 0.651479 -0.211681 0.131600 -0.136410 0.157101 1.485430 0.192938 -0.102322 -0.271740 -0.397544 0.206010 -0.230542 0.495349 -0.048794 -0.222135 -0.153219 0.800771 0.064769 -0.223566 1.088654 -0.298285 -0.023480 -0.628530 -0.355390 0.151730 0.303454 0.258144 0.717700 -0.218045 -0.288808 -0.635275 0.298010 0.133615 -0.437409 0.037049 1.080712 0.120210 -0.669257 0.285077 0.453081 0.078239 0.136679 -0.182100 0.052208 0.864625 0.628360 -0.464494 0.711076 -0.260562 -0.107585 -0.089289 -0.327037 -0.541193 -0.013994 -0.548152 0.093371 -0.212958 -0.808591 -0.001912 0.477468 0.519303 0.326530 -0.008428 -0.426594 -0.297492 0.679408 -0.707892 -0.261510 0.285522 0.217547 -1.071764 0.340408 -0.702945 0.099900 0.218540 -0.182948 -0.025309 -0.003583 -0.314432 -0.352872 -0.415500 -0.679050 -0.014748 -0.096582 -0.386094 0.560982 0.334344 -0.138981 -0.635706 -0.375706 0.164826 -0.136482 0.005087 0.524313
with 0.167618 -0.268358 0.049203 0.195060 -0.125650 0.341084 -0.383827 -0.157394 -1.839255 -0.211076 -0.724350 -1.364598 -0.787416 0.181954 -0.342712 0.064582 -1.605751 0.019532 -0.170463 -0.114602 -0.527026 -0.302096 -0.411770 0.621132 0.329799 0.005218 -0.454653 -0.062485 0.773963 -0.649464 -0.568454 -0.126263 0.319078 -0.385135 -0.373708 -0.402416 0.155010 0.713302 -0.182090 0.508575 0.316844 -0.211627 0.726001 -0.238519 0.467154 0.487397 -0.131009 -0.244016 0.068264 0.269829 -0.184678 -0.736538 0.385037 -0.534688 0.198656 -0.237788 -0.016411 -0.352869 0.214422 -0.528929 0.329450 -0.405655 -0.307651 -0.485599 -0.028766 0.077928 0.196126 0.167916 0.463146 -0.493344 0.723585 -0.285896 0.420140 0.254507 0.762573 0.654854 0.022155 -0.148191 0.692238 -0.367725 0.465943 0.072020 -0.003309 0.500459 0.365606 0.276162 -0.685895 -0.371489 0.261232 0.526406 -0.007095 0.642650 -0.453169 0.014139 0.361198 0.136043 -0.160487 -0.148016 -0.292833 -0.107592
is -0.427127 -0.740503 -0.894161 -0.178643 0.441207 -0.144834 0.198212 0.178160 -1.850088 -0.116557 -0.124770 -0.309373 0.374076 -0.345431 -0.414313 0.086586 -0.050252 -0.786823 -0.015391 -0.220584 0.931218 0.330494 -0.520360 0.322177 0.262528 -0.071135 0.736505 0.780971 -0.410426 0.376018 0.098658 0.158108 -0.186275 -0.631362 0.165314 -0.026551 0.327125 0.608559 -0.460716 0.089819 0.174286 -0.208832 0.039549 0.084350 1.150198 -0.138823 -0.764904 0.270634 0.359526 -0.152535 0.618025 -0.151462 0.096112 2.079216 0.384409 0.107085 0.547794 0.555610 0.021803 -0.011607 -0.536318 0.042961 -0.349283 0.520258 0.441662 0.129693 0.164387 -0.259994 -0.422999 -0.591920 0.310312 -0.619805 -0.091583 0.192743 -0.362891 -0.395859 -0.053633 0.114277 -0.573715 0.159544 -0.363366 0.464413 0.242466 -0.347284 0.172094 -0.129020 0.144938 -0.610636 -0.244023 0.508314 -0.422303 0.079494 -0.320519 0.093767 0.463098 -0.042089 -0.399001 -0.386885 -0.336533 0.066154
as -0.054455 -0.092455 0.118753 0.092011 0.451689 0.654557 0.320084 -0.254681 -0.278945 0.184845 0.222599 -0.580075 0.053150 -0.143929 -0.034066 -0.159129 -0.420667 -0.301879 -0.072300 -0.089650 -0.010856 -0.425886 -0.372488 -0.362232 -0.646549 -0.394033 -0.473172 0.172861 -0.490769 0.006910 0.128658 -0.235053 0.112432 0.001236 -0.633345 -0.241093 0.395820 -0.028260 -0.190348 -0.084633 0.425917 -0.264353 0.148764 0.126774 -0.543125 -0.098341 -0.023984 -0.318874 0.207970 -0.100679 0.292150 -0.401101 -0.073122 0.311827 0.440268 0.033766 -0.456680 0.114152 0.417501 -0.746471 -0.058721 -0.502531 0.489210 0.038430 -0.573031 -0.078801 -0.136515 -0.763131 0.216795 -0.571543 0.338798 0.151497 0.255426 0.198196 0.166423 0.027917 -0.462027 0.234779 1.096640 0.317036 0.295112 0.105006 -0.313125 -0.177904 -0.430535 0.323364 0.765266 0.064707 -0.092112 0.150243 -0.007930 -0.013156 0.775959 -0.324197 0.495265 0.479677 0.384701 -0.191198 -0.566964 -0.479277
not 0.448535 -0.082027 0.258816 1.104361 0.165328 0.354619 0.306526 -0.492440 -0.448604 -0.091712 0.322159 0.890461 0.194654 0.197230 0.474837 0.033949 -0.289886 -0.512838 0.412943 0.166369 -0.618921 0.012005 0.137651 0.436096 -0.398180 -0.318289 -0.296953 -0.213839 -0.123359 -0.813394 -0.402677 -0.730518 -0.327206 0.438533 0.283040 -0.593242 -0.189296 0.087169 -0.005278 -0.027160 -0.229470 0.383470 0.202366 0.580188 -1.067747 0.512583 -0.247848 -0.165167 -0.677969 -0.126141 -0.010071 -0.465930 0.649556 0.247229 -0.502833 0.361467 -0.071565 0.178524 -0.451870 -0.053209 -0.800670 -0.375077 -0.572296 -0.367032 0.299847 0.038593 -0.068146 -0.214122 -0.319694 0.133649 0.430987 0.768211 -0.893190 0.906846 -0.205711 0.212360 -0.964669 -0.134776 0.107404 0.321239 -1.168471 -0.619498 0.392727 -0.082598 -0.171379 -0.057672 0.024114 -0.448464 -0.527946 -0.129119 0.383786 0.828756 0.362955 0.000988 0.159066 0.417564 -0.301748 0.548567 0.160614 -0.245111
for -0.676130 0.017267 0.140103 -0.230007 0.024422 -0.279519 -0.550141 -0.273572 -1.375120 -0.151762 -0.822018 0.216227 0.230990 -0.126103 0.517898 0.164490 -0.863011 -0.064210 -0.597035 0.247165 0.199635 -0.620140 0.262506 -0.354187 -0.543527 -0.311884 -0.546358 0.469593 0.360943 -0.286009 -0.012701 -0.437704 0.269971 0.298918 -0.149793 -0.054105 -0.223653 0.338860 0.536497 0.017563 0.053803 -0.229371 -0.559792 -0.409415 0.219941 -0.514499 -0.531656 -0.434604 0.599000 -0.047553 0.462323 -0.689201 0.778502 0.244943 0.614557 -0.722456 -0.333674 -0.010300 0.172642 -0.074980 -0.052544 0.098321 -0.481091 0.045004 0.418194 -0.488089 -0.266804 0.043405 0.366608 0.417375 -0.275008 -0.253314 -0.366518 0.680210 0.997382 0.350535 -0.851601 -0.022351 -0.425137 -0.777524 -0.051613 -0.185913 0.065312 -0.218738 -0.444390 0.207620 -0.516308 -0.179509 -0.178628 0.259400 -0.112413 -0.262698 -0.177938 0.137779 0.021725 0.260462 0.764454 -0.233978 0.254430 -0.996821
had -0.327432 -0.084637 0.301036 0.825280 1.186729 -0.507844 0.318616 -0.165315 -1.052564 -0.384781 -0.473200 -0.395448 -0.252921 -0.567868 -0.070461 0.072271 -1.061468 -0.691210 -0.071730 0.212912 -0.232776 0.429497 -0.352919 -0.328898 0.775676 0.491506 -0.571006 0.983696 -0.209150 1.003392 -0.263859 0.234593 -0.005642 -0.412032 0.026629 0.868808 0.359054 -1.058956 0.136133 -0.576019 0.242073 0.214080 0.343583 0.226304 0.450237 -0.972487 -0.839397 -0.102386 -0.507853 -0.392678 0.649034 -0.665834 -0.091300 1.406986 -0.060468 0.140206 -0.356169 0.090280 -0.404345 0.291111 0.383734 0.191272 0.382581 0.087028 -0.089446 0.222576 -0.336561 0.022652 0.195021 -0.729584 -0.386154 0.246714 1.862787 -0.015350 -0.055941 0.139273 -0.182383 0.280808 0.152023 -0.300480 -0.149969 -0.072864 -0.256005 0.556783 0.022055 0.038702 -0.117169 -0.043456 -0.062851 0.353832 -0.225043 0.319088 -0.047735 0.829230 0.110808 -0.183359 -0.175486 -0.307540 -0.072690 0.235817
but 0.050727 0.469040 0.260850 -0.268734 0.411844 0.052349 0.716795 -0.167861 -0.538227 -0.176664 0.001355 -0.014071 0.070899 -0.240006 0.089309 0.172037 -0.428338 -0.299162 -0.509737 -0.057438 0.269754 -0.021011 -0.240174 -0.087937 -0.343864 0.144973 -0.146939 0.318639 -0.467994 -0.176874 0.085612 -0.370797 0.072703 0.404377 0.102885 0.013901 -0.408271 -0.407284 -0.661380 0.556081 -0.026006 -0.379244 0.412105 -0.127834 0.374363 -0.469920 -0.056047 -0.112638 0.441146 -0.064848 -0.006740 -0.592109 0.037265 -0.361477 0.407027 0.019068 0.329377 0.193302 0.013140 0.386512 0.039706 0.129491 0.236768 0.249855 0.195356 -0.358478 0.209637 0.114075 0.083613 -0.153001 -0.062390 0.120582 -0.201749 0.225809 -0.260996 -0.026784 -0.618050 -0.337449 -0.093739 0.494270 0.476471 -0.105377 -0.570994 -0.213170 -0.150553 0.601024 -0.415998 -0.052572 -0.111741 0.051971 -0.251632 0.026031 -0.218441 -0.112169 0.027885 0.083593 0.148417 -0.152949 -0.408494 0.126571
at -0.187662 -0.536523 0.389110 0.254342 -0.461493 0.305188 -0.312907 -0.267426 0.050273 -0.404492 0.621525 -0.445963 -0.208396 -0.623153 -0.231441 -0.122783 -0.783008 0.668308 -0.779204 0.053981 -0.159234 -0.341830 0.159355 0.204059 0.400846 -0.792649 1.267384 0.084342 -0.090842 0.007473 0.272834 0.444967 0.291858 -0.416288 -0.882907 0.778100 -0.555104 0.183273 1.606897 0.195377 0.149785 -0.749889 -0.163446 -0.195408 -0.296737 0.362940 0.774684 -0.408084 0.501842 0.654473 0.549424 -1.136646 -0.278929 -0.618477 0.154507 -0.169617 -0.294559 0.443501 -0.553953 -0.333809 -0.384933 -0.333963 0.321548 0.409582 0.199417 -0.556075 0.102228 0.202903 -0.384504 -0.218812 -0.904157 -0.372659 1.156455 1.068310 0.460531 0.416705 -0.104787 -0.201746 0.040469 0.033806 0.383908 0.515027 -0.243715 -0.475218 0.317929 0.231471 -1.249527 -0.504458 -0.308703 0.585794 -0.344492 0.636590 -0.103346 0.021376 -0.023286 0.619857 0.266675 0.507727 0.248723 0.113721
be -0.185333 -0.433076 0.120789 -0.652774 0.171080 -0.081731 0.502356 0.698362 -0.488256 0.610631 -0.408956 0.183423 -0.680253 -1.187066 -0.438345 0.234927 0.247386 -1.257028 0.244588 -1.083099 2.017070 -0.085004 -0.135236 1.453938 -0.179505 -0.073326 0.249747 -0.379970 -1.166049 0.290393 0.156630 -0.124944 0.218177 -0.393338 0.340185 -1.267823 -0.819577 -0.663260 -0.345952 -0.207328 -0.244506 -0.680560 0.994306 -0.374853 -1.653628 -0.626977 0.234196 0.062649 0.206244 -0.396381 -0.080086 -0.035328 0.275418 2.616647 -0.140871 -0.092143 -0.365880 0.128877 0.260340 -0.135191 0.275627 0.257909 -0.217855 -0.209732 -0.031441 0.378880 0.543735 0.388778 0.316054 -0.691113 0.197516 0.089783 0.494066 0.308171 0.001923 -0.182040 0.278675 0.524708 -0.114257 -0.407193 -0.715781 -0.161785 0.800384 -0.223659 0.103861 -0.207677 -0.550674 0.679026 0.023668 -0.236658 0.021699 -0.082152 -0.243767 -0.733703 -0.519955 -0.009490 -0.398521 -0.870073 0.507164 -0.112684
on 0.012698 -0.548904 0.152003 0.980528 0.144320 1.435658 0.602793 -0.184686 -0.028079 0.289955 -0.187219 -0.284050 -0.266948 0.409170 -0.258600 -0.253448 -0.756801 0.456035 0.083127 0.009532 -0.502456 -0.345440 -0.137516 0.368288 0.259540 -0.721286 0.403565 0.230575 0.184449 0.758669 0.741294 -0.011140 -0.798128 0.193464 0.116393 0.223384 0.136899 0.842667 1.283972 1.279838 -0.002607 0.308871 -0.019141 -0.326921 0.553342 -0.424496 0.119576 -0.446314 0.893821 0.006012 0.264841 -0.225550 0.057903 -0.633615 0.231221 0.055702 0.300132 0.023720 0.242231 0.622967 1.402448 -0.786579 -0.646969 0.466642 0.254216 -0.268124 -0.253213 -0.559074 -0.120725 -0.258178 -0.581964 -0.752899 -0.019445 -0.140210 0.326977 0.255806 -0.259376 0.147050 -0.031034 -0.136844 -0.289704 0.134580 0.348479 0.800701 0.305468 0.292106 -1.289697 -0.481016 0.530750 0.255542 0.559447 -0.197159 0.157599 -0.076520 0.268869 -0.152310 0.516031 -0.161761 -0.379306 -0.417281
her 0.541005 0.239780 0.233362 -0.130291 -0.009060 -0.365121 0.191163 0.122153 -0.382457 0.040266 -0.255466 0.383262 0.053211 -0.232058 -0.199834 -0.075425 -0.722021 0.779104 0.911182 -0.660238 0.291438 -0.289377 -0.043542 -0.217805 1.015332 0.917096 -0.300998 -1.133754 -0.324044 -0.250661 -0.025101 0.152389 0.007791 0.485707 -0.008580 -0.650363 -0.061506 0.120721 0.167652 -0.946514 -0.480765 0.433541 0.835934 -0.977232 -0.457975 0.182867 -0.241817 -0.141520 -0.446981 0.070403 -0.222332 0.103048 0.202712 -0.054632 -0.802271 -0.160793 -0.024252 0.257243 -0.292145 0.025159 0.349637 -0.108427 -0.068294 1.180860 -1.048909 -0.134578 0.758244 -0.420276 0.180016 -0.186041 -0.141299 0.587744 0.422665 -0.341322 0.171782 0.321206 0.270556 -0.178985 -0.391578 -0.306578 0.011558 0.331547 -0.870288 -0.583852 0.532055 0.193975 0.274304 0.211942 0.349923 -0.542073 -0.538113 -0.665003 0.176760 -0.124907 0.087843 -0.431645 -0.412204 0.357342 -0.400002 -0.507562
my 0.455731 0.653046 0.221955 -0.080343 -0.422905 -0.491833 0.055728 0.377690 -0.400780 0.015934 0.098609 0.977692 0.386953 0.170981 -0.245845 0.175970 -0.675816 1.750837 0.514982 0.058259 0.875156 -0.271572 0.243143 -0.161148 1.584158 0.306672 -0.600797 -0.825144 0.093287 0.396410 -0.025754 0.182835 0.238806 0.231103 0.173531 -0.170124 0.102470 0.452171 -0.610401 -0.894228 -0.406581 0.195984 0.986370 -0.899815 -0.771933 0.204023 -0.867477 -0.511856 -0.180018 0.024777 -0.357629 0.174437 -0.339239 -0.544977 -0.609608 -0.545429 0.195996 0.260653 0.146822 -0.321512 0.314083 0.053790 0.246383 1.432337 0.053703 -0.018509 0.685315 0.270030 0.567659 -0.800777 0.094269 0.209309 -0.235322 0.153966 0.538771 0.765454 -0.366308 -0.412307 -1.036598 0.005733 0.313698 0.019051 -0.804410 -0.327825 0.240333 0.007031 0.646353 0.100863 -0.078919 -0.563639 -0.528652 -0.375439 0.108069 0.359526 -0.234940 0.430631 -0.145997 0.201892 -0.469960 -0.532873
him 0.576972 -0.050777 -0.016472 -0.622990 -0.286486 -0.583578 0.305476 0.127033 0.339971 -0.006863 0.142771 0.357674 0.180076 -0.566080 -0.275683 0.019366 0.127344 -0.687924 0.568324 -0.604900 -0.643962 -0.092787 0.068410 -0.048662 0.665943 0.508992 -0.104349 -0.474222 -0.622360 -0.480109 -0.344093 -0.589537 -0.052386 0.179429 -0.028959 -0.505674 -0.178362 -0.048797 0.515172 -0.623902 0.273043 0.701623 -0.214330 -0.728462 -0.855930 -0.143297 -0.460925 0.742915 -0.131499 -0.278291 -0.257804 0.465862 0.014861 0.868446 -0.966598 -0.023366 -0.277983 -0.220273 -0.476727 0.539881 -0.186414 -0.456648 -0.345703 -0.461895 -0.362521 0.066320 0.239689 0.442761 -0.476725 -0.515277 -0.075328 0.443947 0.297167 -0.571286 -0.645646 -0.375342 0.571947 0.157547 0.205192 -0.069225 0.201164 -0.538634 -0.256943 -0.402370 0.107384 0.004250 0.029172 -0.689364 -0.154033 -0.145480 -0.165521 -0.963822 0.286508 -0.136531 -0.200842 -0.510035 0.030983 0.421522 0.342000 -0.177368
have -0.298640 -0.224402 0.532126 -0.202472 0.438846 -0.266954 0.710230 0.053212 -0.729279 0.054065 -0.643322 0.117632 0.052758 -0.817354 -0.287589 0.523108 -1.519768 -1.103577 -0.390078 -0.272982 0.473216 0.652412 -0.238294 0.638312 0.507112 -0.791690 -0.543320 -0.238731 -0.540209 1.311975 -0.487549 0.111996 0.094470 -0.335137 0.079876 -0.020289 0.416466 -1.466324 0.506631 -0.162524 -0.546412 -0.208381 0.509872 -0.379960 -0.370544 -0.917969 -0.597640 -0.063692 -0.299776 -0.022979 -0.045949 -0.389705 -0.401369 2.022143 0.063982 0.160892 -1.002761 -0.291045 -0.045241 0.268739 0.520477 0.213383 0.594867 -0.149335 0.741548 0.790310 0.033786 0.263796 -0.041231 -0.298109 -0.114012 0.597197 1.345064 -0.136257 0.147711 0.670408 -0.336814 0.077591 0.598383 -0.044699 -0.713028 -0.380115 0.791242 0.701605 0.476370 -0.061614 -0.221939 1.513228 -0.152214 0.118610 -0.132311 0.420112 0.149759 0.114804 -0.920207 0.190314 -0.204527 -0.727540 0.284026 0.308143
by -0.244125 -0.634543 0.310142 1.011679 0.250886 0.842168 -0.019928 -0.000607 -1.864469 0.562201 -0.489520 -0.493361 0.390494 0.000146 0.103941 0.135951 -0.566387 -1.124370 -0.197375 -0.327073 -0.150348 0.370132 0.152083 -0.652564 0.251770 -0.293808 0.189085 -0.093924 0.803890 0.140634 0.498787 0.185351 0.749493 0.114612 -0.478499 -0.291567 0.300382 -0.114704 0.276901 -0.230632 -0.231256 0.502567 0.519104 -0.440590 -0.771622 -0.755917 -0.420650 -0.164492 -0.527115 -0.621353 -0.212188 0.427385 -0.148346 -0.216993 0.686739 -0.375206 0.389338 -0.316608 0.448767 -0.536730 0.633914 -0.640633 0.339259 0.269810 0.653094 -0.188346 0.225274 0.352474 -0.273255 -0.349596 -0.311575 0.059946 0.433179 0.777474 0.311509 0.315076 0.102803 -0.410449 0.781570 -0.378097 0.317705 0.536441 -0.276347 0.269634 0.692076 0.121940 -0.886763 -0.624104 -0.130413 0.393405 0.424441 0.054453 -0.630318 0.454809 0.345984 -0.165827 0.144831 -0.305027 0.054156 -0.002926
this -0.436492 -0.616640 0.448276 -0.083334 0.207170 -0.449082 -0.608728 0.983009 -0.238856 0.238755 -0.133526 0.200975 0.057175 -0.085168 -0.472902 -0.449479 0.209358 1.225483 0.179646 0.155702 0.332943 0.077740 -0.096910 -0.075089 0.393219 -0.529788 -0.366030 0.109476 0.151417 0.264943 -0.166798 0.110770 0.192011 1.075225 -0.350507 0.595205 0.138817 -0.598433 -1.074103 -0.547598 0.497283 -0.248842 0.094874 -0.889499 -0.571250 -0.104697 -0.327909 0.620199 0.077636 0.126503 -0.150784 0.527756 0.236964 -0.979807 0.208136 -0.298049 0.144445 -0.457146 -0.356822 0.247116 -0.046694 0.113386 -0.113774 -0.556425 0.207390 0.161121 0.345342 -0.178385 -0.102912 -0.730801 0.100530 0.879444 -0.979614 -0.012626 -0.450198 0.308095 -0.518507 0.242883 -0.460903 -0.353991 -0.646273 0.407982 0.085192 -0.479351 0.302434 0.038854 0.398399 -0.971747 -0.016077 -0.019247 0.021129 0.096168 0.150915 -0.239664 -0.227526 0.041827 -0.665833 -0.151397 -0.394865 -0.357114
which 0.458740 0.250325 1.001042 0.361478 -0.275421 0.045868 -0.267100 0.240985 -0.672818 -0.357136 -0.435251 0.078428 0.110162 -0.636289 -0.091247 -0.018518 -0.146813 0.187602 0.217690 0.658619 0.431047 -0.564488 -0.342278 -0.422554 0.079298 -0.661219 0.255943 0.388331 -0.383868 -0.388353 0.303136 -0.050428 -0.400015 0.075924 0.068123 -0.148942 0.251985 -0.579274 -1.052368 0.239244 0.451849 -0.429774 -0.202427 -0.218161 -0.650141 -0.455350 0.342571 -0.281065 0.163478 -0.319395 -0.201007 -0.279519 0.055781 -0.499523 0.002585 0.055334 0.266016 -0.201930 -0.130955 0.144026 0.506571 0.356741 0.444069 -0.075333 0.612621 0.059867 0.469731 -0.303220 0.045922 0.491814 0.390203 -0.090519 0.012350 0.258649 -0.280759 0.663184 -1.000901 0.407171 0.458022 -0.401916 0.265859 -0.352136 -0.438020 -0.295830 0.579134 0.033541 0.657573 0.313435 0.463926 -0.399205 -0.006297 -0.699265 0.405507 0.113025 -0.293713 -0.084533 -0.018290 0.189637 0.193757 0.696161
me 0.558476 -0.296236 -0.293730 -0.706147 -0.053989 -0.669782 0.392998 0.192347 0.269290 0.054154 -0.115563 0.840146 0.212600 -1.109894 0.118232 0.166874 -0.246623 -0.177049 0.175703 -0.489990 -0.288830 0.066516 0.329515 -0.114905 0.577617 0.466092 0.070411 -0.728876 -0.637492 -0.515054 -0.188083 -0.241352 -0.264161 0.050040 0.362677 -0.097001 -0.278631 0.012550 0.404656 -0.386176 0.264674 0.895617 -0.148674 -0.681313 -0.089851 -0.101849 -0.688739 0.910732 0.392720 -0.578133 -0.183695 0.505384 0.369475 0.816400 -0.892322 -0.236672 -0.115997 0.043709 -0.460544 0.225517 -0.154220 -0.529027 -0.267179 -0.605406 -0.403730 -0.165946 0.333534 0.723361 -0.170581 -0.567487 0.120056 0.524167 0.011022 -0.845142 -0.583826 0.052233 -0.245644 -0.134479 0.222355 0.376188 0.047684 -0.843206 -0.582350 -0.413755 0.517590 -0.031447 0.208963 -0.435764 -0.275716 -0.519098 -0.329298 -0.717060 0.520548 -0.180680 -0.189037 -0.616745 0.140008 0.522701 0.272757 -0.053830
all 0.107278 0.435943 0.295862 -0.001230 -0.430049 0.366518 0.547303 0.438818 -0.243647 0.187057 -0.163844 -0.066629 0.188697 0.558366 0.500909 -0.253280 -0.220061 0.432889 0.672428 0.000871 -0.347857 -0.341887 0.198449 -0.172414 0.414724 0.456640 -0.338618 0.335280 -0.074102 0.325771 0.128700 -0.023501 -0.494349 0.221851 -0.114988 -0.443770 -0.293651 -0.103949 0.340988 -0.079764 -0.220231 0.441827 -0.470919 0.336627 -0.666013 -0.705091 0.233334 0.059159 0.267681 0.080150 -0.751957 -0.241636 0.444154 0.376394 0.441795 -0.074452 0.623121 0.676878 0.395709 0.298140 -0.646365 0.156247 0.207703 -1.099614 0.484761 -0.316293 -0.031648 0.192428 0.249300 0.066126 0.455100 -1.027755 -0.128306 -0.631907 0.242428 0.179568 0.898377 -0.573411 0.540140 -0.140368 -0.158250 -0.524034 0.420276 -0.279539 -0.226525 0.572411 0.315566 0.214449 -0.213782 -0.486815 -0.296095 0.025668 -0.073349 0.595998 -0.561787 0.091455 -0.114807 -0.169517 0.660196 0.477053
said -0.100998 -0.530190 0.028975 0.810238 0.556429 0.018617 0.125684 -0.600044 0.674186 -0.354951 0.167609 -0.230065 0.374806 -0.587636 1.951127 -0.188995 -1.025735 0.603001 0.165409 0.411254 0.427450 -0.433045 0.907204 -0.072718 -0.442750 0.305622 -0.815126 -0.009811 0.296655 -0.081688 -0.017716 -0.004997 -0.444309 -0.285100 0.161426 0.567747 0.266439 0.464478 -0.256922 1.550774 1.005145 -0.748583 0.260733 0.083726 1.267784 -0.477706 -0.371654 -0.480407 -0.033676 -0.238533 0.525899 0.353368 -0.125146 0.253057 0.183269 0.353289 0.609119 0.452361 0.404958 -0.790107 -0.181957 0.499605 0.254480 -0.051594 0.142580 -0.978682 0.191954 -0.432767 -0.062714 -0.249880 -0.603499 -0.433767 0.069538 0.606499 -0.207862 -0.588269 -0.023239 0.382877 -0.256943 -0.189573 0.265143 -0.434561 -0.499682 -0.490469 0.667802 -0.654399 0.116881 -0.787024 -1.369855 0.490028 -0.483561 -0.059326 0.326871 -0.540121 -0.591806 -0.169913 -0.597546 0.568524 -0.450599 0.426549
she -0.183110 -0.440148 0.472403 -0.330478 -0.002995 -0.206500 0.649660 0.260940 0.278040 0.531133 -0.342811 1.340887 -0.323491 0.170271 -0.545524 -0.197953 0.101229 -1.651389 -0.243533 0.100693 0.368669 0.446265 -0.252762 -0.451112 0.022562 0.731242 0.153927 -0.869769 -0.515784 -0.344807 0.079449 0.869565 0.479833 0.823416 -0.385346 0.048526 0.006827 -0.459196 0.768833 -0.095079 -0.031324 0.577963 1.014437 -0.125959 -0.748337 0.687396 0.411197 -0.281660 -0.066843 0.088818 -0.120909 -0.522899 0.036466 -0.076762 -1.023135 -0.404642 -0.178450 -0.436562 -0.174067 0.398602 0.590190 -0.061695 0.266994 -0.287610 -0.458164 -0.036749 0.034907 -0.491343 0.255784 0.094644 0.074816 0.655388 -0.461299 -0.608955 0.402649 0.363367 0.507120 -0.497070 0.008301 0.237407 -0.351850 0.913266 0.222189 0.198497 -0.283956 0.420787 -0.721617 0.075059 0.052453 -0.432226 -0.879830 0.062026 -0.554386 0.165429 -0.117823 0.161672 0.065389 0.099082 0.260815 -0.479148
from -0.338328 -0.139965 0.216155 0.477963 0.266002 1.245951 1.614658 0.379663 -1.129398 0.795750 0.124421 -1.004465 0.115587 -0.861648 -0.623479 -0.438149 -0.183983 0.434633 0.358709 0.638804 -0.336825 -0.447186 -0.232456 0.516500 -0.197067 -0.271875 -0.027610 0.262942 0.809194 0.225877 -0.155729 0.031612 0.720721 0.098990 -0.157152 0.844156 0.156977 0.925994 0.496457 0.292128 0.478015 -0.277868 -0.106912 -0.452708 0.316716 -0.105682 -0.405641 -0.780629 -0.085570 0.169609 -0.170844 -1.114110 -0.126189 -0.499837 0.024871 0.460895 -0.005118 0.262034 0.111588 -0.598654 0.838970 0.680873 0.344325 0.250190 0.635455 -0.324284 -1.084355 0.447110 -0.466278 -0.161152 -0.256396 0.242516 0.105821 0.266090 0.340163 0.113126 0.647746 -0.857173 -0.389703 -0.102537 0.109528 -0.000966 -0.288576 0.144850 0.236370 -0.076172 -0.312969 -0.201854 0.135784 0.313859 -0.330588 0.135003 0.234108 0.062624 0.857826 -0.357445 0.238501 -0.455872 0.656889 -0.221883
or 0.701536 0.844678 0.331031 -0.367441 -0.002169 -0.072107 0.198716 -0.372997 -1.993390 -0.068556 0.234811 0.364439 0.516669 -0.524058 0.482590 -0.398566 -0.459059 -0.406527 -0.134543 -0.326977 0.550576 -0.443031 -0.437624 -0.019902 -0.061759 -0.510796 -0.045425 0.210453 -0.052863 0.299116 -0.277145 -0.284724 0.542380 0.118974 0.023483 0.692489 -0.754058 -0.019956 -0.465978 -0.335035 -0.089809 0.430232 0.012047 0.235649 0.483339 0.157027 0.809001 -0.304143 0.106284 -0.167032 -0.162528 -0.037768 0.647129 -0.310655 0.731679 -0.154843 -0.142023 -0.093826 0.374700 0.350573 0.803266 -0.049391 -0.576930 0.515041 -0.103798 0.174834 -0.154449 0.943023 -0.189151 -0.807423 -0.374287 -0.070228 -0.965323 0.641039 0.107430 0.242104 -0.415612 -0.037338 -0.180114 0.065525 -0.092302 1.070746 -0.358679 -0.104839 0.652556 0.515948 0.612924 -0.614705 0.162001 0.380891 -0.381533 0.155449 0.195956 -0.260123 -0.276650 -0.266005 0.183980 -0.467953 -0.328534 0.477738
they -0.090155 -0.549032 -0.318380 0.184805 -0.010211 0.627826 0.280989 -0.507571 0.247962 -0.259922 0.051757 1.251805 -0.303708 0.665045 -0.123167 -0.610883 1.164698 -1.457157 0.474618 -0.279993 -0.635746 0.197665 -0.192940 -0.375364 0.163043 0.406806 0.033856 -0.395233 -0.719761 -0.010286 0.302330 0.542243 0.517025 0.729362 -0.415795 -0.655559 -0.594555 0.108766 0.268257 -0.793302 -0.188319 0.432657 0.300328 -0.640144 -0.453709 0.741520 0.204034 0.443885 -0.043635 0.705416 -0.222081 -0.450349 0.047924 0.335784 -0.640346 0.121269 -0.063121 -0.151157 -0.439488 0.508352 0.454160 0.316653 0.114659 -0.231089 -0.382715 0.515608 -0.263875 0.136964 0.570672 -0.394758 0.146833 0.475164 -0.186495 0.049448 0.547010 0.440768 -0.110233 0.038132 -0.284769 -0.260470 0.658949 0.491262 -0.112843 0.539818 -0.332867 0.041771 -1.034024 -0.353819 0.377241 -0.375364 -0.034585 0.321982 -0.171622 0.251199 -0.429193 -0.060106 -0.033613 -0.380000 0.399318 0.394595
so -0.293403 -0.587568 -0.481833 0.129906 0.258911 0.191623 0.272888 0.230688 -0.598738 0.360760 -0.024245 -0.484370 -0.065356 0.118449 -0.096217 -0.254318 -0.651720 -0.433635 -0.045252 0.336623 0.459145 -0.112318 -0.011697 0.101710 0.627877 -0.101524 -0.026158 -0.210079 -0.395031 -0.268553 0.173317 0.497698 -0.623664 0.576458 -0.413226 -0.259035 -0.733963 0.051191 -0.250430 -0.037589 0.186243 -0.405751 -0.484066 -0.173249 -0.339057 -0.313605 0.051114 0.006637 -0.121883 0.008706 -0.222299 -0.574292 -0.587063 0.599474 0.900544 0.446959 -0.093311 -0.531240 -0.186081 -0.197496 -0.326384 -0.709620 0.451559 -0.520583 -0.603192 -0.189148 0.021572 0.081778 0.609708 -0.048250 0.234195 0.436608 0.073556 0.332721 0.000317 0.161246 0.290043 -0.448080 0.565445 0.370509 0.144982 -0.040707 -0.209852 0.289673 -1.110440 0.172320 0.221372 -0.455767 0.020383 -0.380549 0.345906 -0.359060 0.015920 -0.175544 -0.178506 0.548795 -0.568309 0.365146 -0.749922 -0.358760
are -0.370156 -0.009331 -0.987591 -0.593514 1.075075 0.198838 0.604925 -0.336457 -2.049749 -0.356249 0.985815 -0.401235 0.172426 -0.486632 0.273877 -0.032819 0.362462 -0.206880 -0.324197 0.947031 1.206526 0.514325 -0.533725 0.552698 1.573131 -0.162893 -0.470554 -0.165931 0.816567 0.893162 -1.038463 -0.186323 0.225792 -0.973279 0.027465 -0.961284 0.007221 -0.399041 0.625627 -0.455692 -0.311108 -0.847049 0.364066 -0.322422 0.821872 -0.535024 -0.288384 -0.101561 0.320290 0.319271 -0.234846 0.276938 0.003199 2.331052 -0.046539 -0.166915 0.433124 0.205218 -0.026856 -0.268204 0.405507 -0.556159 0.741970 0.449590 0.055108 -0.078149 0.298026 -0.279672 0.034895 -0.007953 0.272121 -0.648747 0.038985 -0.189932 -0.087587 0.334119 0.393169 0.149519 0.752181 0.220536 -0.555906 0.171557 1.708358 -0.883154 0.293738 0.441640 -0.185977 -0.692022 0.483133 0.329586 0.243425 -0.553116 -0.692702 -0.035281 0.381595 0.153967 -0.202000 -0.195890 0.588437 0.280580
one -0.626408 0.834861 -0.008297 0.029332 -0.067406 -0.466061 0.008997 -0.825636 0.634711 -0.449402 -0.686095 -0.203924 0.166937 -0.293829 -0.746560 -0.175624 0.838588 -0.254561 -0.175878 -0.094312 -0.168698 -0.415428 0.083704 0.099467 -0.174198 0.181618 0.740746 -0.674328 -0.139109 0.087509 0.467961 -0.095598 -0.086379 0.606685 0.057686 0.313416 0.222030 -0.193409 0.114648 -0.492549 0.269016 0.312433 0.063603 0.106708 -0.163270 0.164237 0.636817 -0.009032 0.016408 0.171747 0.312439 0.979284 0.214549 -0.058429 -0.364165 0.342014 0.710666 0.445795 0.208064 0.442010 0.492470 -0.465607 0.037593 -0.348038 0.458966 -0.245428 0.735306 0.453271 0.285387 0.139349 -0.036557 1.034847 -0.100281 -0.630569 0.475355 -0.234867 0.041949 0.083002 0.188037 -0.587369 -0.199758 0.023441 0.493699 -0.686511 0.245899 0.288560 0.468162 -0.245242 -0.396765 -0.007366 -0.164652 0.665181 -0.022997 0.416493 -0.606220 0.148925 -0.576869 -0.022768 0.043432 -0.292813
were -0.296636 0.398275 -0.540110 0.025374 0.692741 -0.140502 0.587122 -0.173069 -1.410747 0.065718 0.545407 -0.722724 0.054186 -0.668065 0.550839 -0.101924 0.459307 -0.486770 0.200775 0.592667 0.969321 -0.061798 -0.662463 -0.034117 1.232147 0.412878 -0.521936 0.597409 0.602705 0.517801 -0.799094 -0.434026 0.344065 -0.617403 0.189701 -0.854326 0.366037 -0.145965 0.621212 -0.433183 -0.456983 -0.528084 0.371772 -0.140904 0.320161 -0.370817 0.102643 -0.512405 0.343388 0.118356 0.401553 -0.046036 -0.001133 1.831160 -0.161108 -0.525772 0.363867 0.308323 0.161641 0.116609 -0.057453 -0.672459 0.742986 0.014956 -0.191257 -0.619486 -0.129005 0.036155 0.416098 -0.917526 -0.284925 -0.841794 1.180502 -0.241328 -0.290893 -0.228830 0.697977 -0.033911 0.396487 0.039237 -0.448444 0.712442 1.124614 -0.662576 0.124041 0.357115 -0.391605 -0.443547 0.412601 0.085046 0.461360 -0.275475 -0.379064 0.181105 0.526357 -0.081809 -0.173636 -0.410444 -0.111900 -0.120980
what -0.758940 0.055566 0.669121 -0.065308 -0.113923 0.520946 -0.351187 0.244136 -0.061322 -0.462076 0.408132 0.159929 -0.403022 -0.171128 0.040531 0.062885 -0.428180 0.253932 0.097980 -0.133032 0.121132 -0.311031 0.535904 -0.247083 -0.250306 -0.619042 0.224154 -0.000010 -0.191943 0.056676 -0.217414 -0.352820 0.190746 0.369416 -0.395499 -0.370012 0.089433 0.077450 -0.887231 0.094293 0.368155 0.906197 -0.144616 -0.189756 -0.705721 0.056854 0.258614 0.232563 -0.410949 -0.428775 -1.216078 0.004116 0.135099 -0.968834 0.140664 0.517265 -0.166211 0.174274 -0.426387 0.168380 -1.104437 -0.084663 -0.080196 -0.263171 0.007288 -0.097298 0.405359 -0.640563 -0.503526 0.074794 0.528151 0.066430 -0.206073 -0.576412 0.324625 0.117145 -1.469577 -0.257532 0.810323 -0.330865 -0.586480 -0.548875 0.175746 -0.228828 0.202020 0.791642 0.935896 -0.001471 -0.584770 -0.654303 -0.388718 -1.090822 -0.187128 -0.292819 -0.967837 -0.119436 -0.449050 -0.374601 -0.149359 -0.371922
when 0.072294 -0.044452 0.274199 1.183267 -0.057413 -0.302795 -0.023613 0.293314 -0.445155 -0.882170 0.528250 -0.217603 -0.441656 -0.478886 0.127028 -0.373663 -0.522292 -0.092630 -0.476772 -0.135209 -0.212750 -0.460962 0.307907 0.012078 0.248526 -0.338644 -0.121728 0.179806 0.406869 -0.276627 -0.108456 0.244371 0.094928 0.332749 0.051326 0.339386 -0.321649 -0.160215 0.677211 0.694270 -0.035910 -0.277245 0.144306 0.074243 -0.508942 -0.582831 -0.615961 0.004178 -0.091038 -0.068164 -0.304763 -0.152798 0.330209 -0.796713 0.785277 0.192049 0.843539 -0.085638 -0.046598 -0.554095 -0.237802 0.157596 0.296117 0.604934 0.034512 0.065357 -0.641815 -0.346066 -0.385953 0.593933 0.258900 0.041290 0.565113 0.245556 -0.029635 -0.403279 -0.589657 0.152990 0.970588 -0.196392 -0.368287 -0.034713 -0.185644 -0.348950 -0.120168 0.192707 0.512954 -0.153402 0.031879 -0.213344 -0.596654 -0.014875 0.894156 0.407541 -0.145715 0.261654 0.144025 -0.526215 0.235485 -0.555111
no 0.228438 -0.446013 0.172626 -0.902872 -0.355169 0.493132 -0.481010 0.702383 -0.352276 -0.454778 -0.100452 0.164018 -0.085415 -0.004360 0.014365 0.975434 0.138653 0.950437 0.296402 -0.322047 -0.142891 -0.662750 0.297557 -0.248806 0.019616 -0.830250 -1.530265 -0.528851 0.000426 -0.491334 0.101454 -0.039865 0.084727 -0.206228 -0.103505 -0.102690 -0.356364 -0.157681 -1.091793 0.448810 -0.889122 0.958961 0.257521 0.159101 0.362295 0.269136 -0.626199 0.063706 0.203985 0.484126 -1.230132 -0.227902 -0.043460 -0.848628 0.082994 0.364780 0.075036 -0.258133 0.278622 0.420660 -1.050757 -0.564866 -0.123625 0.245091 0.052757 0.182743 -0.491231 -0.563743 -0.371731 -0.691260 -0.606868 0.520660 -1.310187 0.007097 0.374799 -0.410659 -0.498050 1.140218 -1.039106 -0.457672 -0.486562 -0.079477 -0.213115 -1.051684 0.509942 0.388454 -0.249493 -0.481853 -0.700782 -1.151617 -0.362833 -0.072768 0.767550 1.448171 -0.351239 0.496919 -0.036476 0.265963 0.989340 -0.137036
if -0.266430 -0.665632 -0.144317 0.037903 -0.185200 -0.229042 0.491840 -0.485498 -0.422773 -0.115951 0.119804 0.884092 0.895396 -0.451513 0.134356 0.114701 -0.360939 -0.116342 -0.322453 0.261084 -0.529339 0.086444 0.068850 0.245849 -0.109457 -0.459810 -0.301456 0.170447 0.290835 -0.113924 0.009262 -0.313193 -0.710607 0.452880 -0.408024 -0.673729 -0.462182 -0.211287 0.215707 0.848976 0.469200 -0.653042 0.675935 0.037390 0.070219 -0.261172 -0.414898 0.447419 0.689994 0.422784 -0.837777 0.262482 0.555258 -0.499710 0.637512 0.443125 0.641417 -0.141753 0.471991 -0.214728 -1.208282 -0.399598 -0.562616 1.013944 0.430768 0.704736 -0.917322 -0.572779 -0.230802 0.463393 -0.083488 0.203337 0.397785 0.346946 -0.038577 0.493228 -0.611098 -0.343786 0.164329 -0.055991 0.742725 0.217845 -0.060129 -0.184810 0.197271 0.070203 0.294953 0.285452 -0.404489 -0.574094 -0.856476 0.089132 0.779114 -0.480113 -0.254343 0.337187 0.374627 -0.243051 0.289671 -0.077383
there 0.065616 0.199011 0.499743 -0.150200 0.622575 0.316228 0.299130 -0.029719 0.916172 -0.843713 -0.170014 0.803351 -0.123346 0.304970 -0.249841 -0.554444 0.140379 -0.931569 -0.140912 -0.031311 0.078396 -0.031430 0.469914 0.234536 -0.370232 -0.723192 0.080545 -0.302853 0.660098 -0.435727 0.365325 0.295830 0.337475 1.107730 -0.502330 0.416888 -0.156842 0.085008 0.826033 0.111999 -0.471018 -0.316098 0.175625 0.055439 -0.311968 0.064703 -0.247972 -0.654420 0.353231 -0.265809 -0.424849 -0.117855 -0.770711 -0.461283 0.581863 -0.492075 0.218243 -0.250945 -0.174312 0.574391 -0.042432 -0.546342 0.503234 -0.977867 -0.156100 0.381199 -0.341724 -0.221021 -0.176078 0.116044 0.225770 0.221937 -0.274631 -0.023254 0.556193 0.357635 -0.479926 0.188124 -0.010388 0.406499 0.751129 0.108703 -0.802497 0.537767 0.559621 -0.333845 0.494390 0.975252 -0.395823 0.188446 0.666710 0.714960 -0.539027 0.103415 -0.841299 -0.668935 -0.295370 0.928520 0.110215 -0.143882
who -0.445350 -0.244304 0.826236 0.275241 0.220443 0.958717 0.197096 -0.451321 0.481549 -0.513258 -0.472015 0.803368 0.392279 -0.341976 0.196818 -0.558407 -0.194685 -1.227549 -0.640849 -0.186502 0.034765 0.189502 -0.073474 0.453829 -0.468152 0.583049 -0.476732 -0.311365 -0.570786 -0.097774 -0.281182 0.011394 0.767324 0.244158 -0.056020 -0.075394 -0.989795 -0.377072 -0.479040 0.341066 -0.090483 0.363918 -0.270522 0.226815 -0.759503 0.214593 0.129307 -0.487161 -0.338604 -0.762668 0.508984 0.306715 -0.245300 -1.048034 -0.569886 0.542478 0.779388 -1.034229 0.421630 0.198153 -0.022745 1.164207 0.697278 0.647436 0.345406 -0.100827 0.193514 0.094241 0.486211 -0.358136 0.757437 -0.582808 -0.020653 0.204772 -0.103394 0.018452 0.200306 -0.134113 0.972614 -0.872361 0.420964 -0.134880 0.301844 -0.168390 0.676285 0.301166 -0.250610 -0.157459 -0.394374 0.310355 -0.251643 -0.463438 0.472817 -0.697266 0.106904 -0.336577 0.143331 0.655354 0.245296 -0.262013
we 0.450746 -0.729063 -0.705260 0.243788 -0.029083 0.572478 0.282822 -0.402011 0.307439 0.005198 0.420059 1.781128 -0.510152 0.742880 -0.721990 -0.798878 0.891614 -0.790392 0.060688 0.101104 -0.287470 0.169858 0.112952 -0.330936 -0.157183 0.418347 0.051302 -0.379639 -0.860756 -0.416853 0.953562 0.631932 1.024016 0.513960 -0.242705 -0.234053 -0.520724 0.473304 0.144856 -0.870814 0.019342 0.988477 0.258666 -0.540326 -0.609537 0.616824 0.325425 0.282858 0.245274 0.908660 -0.218552 -0.147547 -0.099212 0.603217 0.063705 -0.150438 -0.130750 -0.229555 -0.799885 -0.201863 -0.254350 1.002450 -0.169508 -0.550530 0.175432 0.407401 -0.527359 0.651308 0.731582 -0.202074 0.020230 -0.021374 -0.285575 -0.671241 0.494037 0.512712 -0.456371 0.527966 -0.132195 -0.055910 0.439614 0.272839 0.072552 0.345315 0.313170 -0.000215 -0.534259 -0.724369 0.321029 -0.293316 -0.609037 0.871750 -0.463140 0.079657 -0.148530 -0.123391 -0.348769 -0.432590 -0.094769 -0.088844
will -0.172234 0.627905 -0.163832 -0.111673 -0.424904 0.155213 0.041275 0.235055 -0.784640 -0.616653 -0.211038 0.887391 1.092349 -0.095193 0.297718 -0.452446 0.197536 0.469755 -0.909111 0.928885 -2.310888 0.686315 -0.448809 0.450239 0.132106 0.051109 -0.811823 1.158551 0.563544 -0.043259 -0.277140 0.193335 -0.735904 -0.263014 0.386291 0.253079 0.176131 0.589564 -0.047336 -0.022479 -0.442223 0.186305 -0.913153 -0.298138 1.447698 -0.045751 -0.957668 0.083691 0.070847 0.205218 -0.027015 0.210545 -0.433364 0.215059 0.553373 -0.131339 0.485364 0.522876 0.038157 -0.466114 -0.573490 -0.665449 0.421650 1.185550 -0.508051 -0.690976 -0.047877 0.001187 -0.474809 -0.135092 -0.098196 -0.115528 0.180812 0.212633 0.645447 -0.176720 -0.986649 0.288173 0.149033 0.438381 -0.004597 -0.008156 -0.367373 -0.618163 0.307054 0.026949 0.945286 -1.427003 -0.410375 0.230160 0.073236 0.143266 -0.715962 0.352004 0.282127 0.152121 -0.238738 -0.061334 -0.713510 0.224815
an 0.227674 -0.144440 1.068724 -0.332088 0.615866 0.132145 -1.588298 0.451560 -0.135028 0.521177 -0.575471 -0.319687 0.249284 -1.166791 0.155985 -0.228024 -0.410785 1.790980 0.236628 0.237524 0.081836 -0.942097 -0.418779 -0.676637 0.245853 -1.309196 0.005431 -0.276049 0.126548 0.144619 -0.211351 0.350792 0.210749 0.011503 -0.750525 -1.198402 -0.283940 -0.671585 -0.667822 -0.598461 0.214652 1.203128 0.064283 0.286005 -0.124555 -0.169551 -0.992904 0.655681 0.767379 -0.780239 0.371247 1.237928 -0.172618 -0.723076 -1.409998 0.513370 -0.651900 -0.166184 0.125153 -0.013917 -0.155391 0.283166 0.021008 0.992599 0.015298 -0.640933 -0.686215 0.472540 0.845720 -0.322792 -0.102249 0.384617 -0.089196 -0.182888 -0.464106 -0.233172 -0.602486 0.241163 -0.994968 0.240768 0.436105 1.227697 0.433726 -0.605224 -0.500634 -0.460006 0.209403 -1.480422 0.712493 -0.488494 -0.473076 1.133598 -0.413115 0.044030 0.260923 0.771605 -1.350191 0.467955 0.410297 -0.569346
then 0.232419 -1.042099 0.239468 0.130270 0.416562 -0.490539 0.404654 0.197806 0.235515 -0.249924 0.846836 0.387155 -0.336509 0.067454 0.296475 0.007417 -0.150546 -0.322045 -0.068295 -0.474334 0.067752 0.292071 -0.287078 -0.222209 -0.198883 0.318405 0.062634 -0.179403 0.509218 -0.154246 0.373019 -0.425156 -0.247616 0.289777 0.427479 0.125171 -0.126134 0.505691 0.378126 0.550325 -0.070212 -0.669477 0.376469 -0.389562 -0.586171 -0.091447 -0.169875 0.108468 -0.035857 -0.399651 -0.299028 -0.044194 -0.511502 0.084051 -0.114984 -0.243610 -0.453709 0.134302 0.273130 -0.460177 0.175824 0.074537 0.560374 -0.046002 -0.335804 -0.381064 -0.413487 -0.138096 -0.622628 0.521272 0.478391 0.312191 0.573286 0.145302 0.337334 -0.261638 0.085016 0.208361 0.501784 -0.331236 0.027365 -0.067295 -0.242108 0.200342 -0.268894 0.308929 -0.054391 -0.426920 -0.056587 -0.213765 -0.326530 0.038884 -0.050063 0.453503 -0.228050 -0.310625 -0.605959 -0.225802 -0.241815 0.091928
their 0.301668 0.382401 -0.245696 0.072162 -0.010103 -0.172803 0.125292 0.275066 -1.022107 -0.183263 0.075504 0.284546 -0.175504 0.336748 0.152544 -0.454192 0.206258 1.630640 0.594555 -0.147344 0.139574 -0.070911 0.235594 -0.025227 1.187256 0.630653 -1.464732 -0.818536 -0.567910 -0.124943 0.165546 0.256393 0.461431 -0.114756 -0.324136 -0.232989 -0.199404 0.478365 -0.314489 -1.363714 -0.833989 -0.377375 0.542889 -1.018039 -0.951226 -0.203814 0.157851 -0.387386 -0.347988 0.108542 -0.795957 0.261549 0.525988 -0.804570 -0.429615 -0.134297 -0.067881 0.418816 -0.303700 0.984702 0.655788 0.344947 0.549758 1.029015 -0.391041 0.029257 0.070065 -0.101489 1.082520 -0.195918 0.163120 -1.046924 0.138228 0.311116 0.179979 -0.290207 -0.726382 -0.124982 -0.663263 0.073402 0.437991 0.391174 -0.101486 -0.489045 0.149546 0.521062 0.189448 -0.454506 0.600437 -0.129414 0.214392 -0.520813 0.080139 0.283660 -0.146213 0.009462 -0.894356 0.379261 0.093748 -0.539455
would 0.042895 0.196417 0.360285 -0.037439 0.038768 0.330823 -0.152582 -0.297025 -1.003284 -0.411840 -0.126411 0.902214 0.276494 -0.095260 0.376105 -0.312104 0.362556 0.022194 -0.460410 0.696747 -1.961429 0.417905 0.060589 -0.123660 0.254931 0.417194 -0.261012 1.214043 0.304610 0.141158 -0.267584 -0.146214 -0.875819 -0.003857 -0.333006 0.807058 0.309204 0.763294 -0.419809 -0.003172 -0.066166 0.591353 -1.017458 0.258708 1.720017 -0.348181 -0.844313 0.377630 -0.263069 0.150511 0.032330 -0.444710 -0.004407 0.204191 0.401106 0.093663 0.192686 0.443984 -0.126334 -0.293595 -0.534823 -0.658042 0.290946 1.252979 -0.868126 0.064964 -0.706065 0.122769 0.468650 -0.370818 0.073454 0.280477 0.373143 0.417975 0.144905 -0.143778 -1.245972 0.298977 -0.187524 0.136494 0.324197 0.572290 -0.994506 -0.281866 0.312809 0.131722 0.571410 -1.436358 0.270586 0.252548 -0.280581 0.369012 -0.281577 0.366498 0.590457 0.357008 -0.507772 0.164111 -0.490807 0.526925
them 0.235108 -0.042728 0.129497 -0.257420 0.416132 -0.277427 0.108754 -0.182790 0.493472 0.024136 -0.599684 -0.001743 0.451030 -0.132056 0.112998 -0.312729 0.982802 -0.617504 0.524838 -0.750282 -0.453502 0.024301 -0.090874 -0.190922 0.363224 0.598161 0.053360 -0.643008 -0.772493 -0.267182 -0.375281 -0.387925 -0.297240 0.064286 0.533006 -0.480026 -0.001643 0.079805 0.756506 -0.802359 -0.864025 0.280932 -0.417672 -0.794515 -0.752917 0.201586 0.015980 0.219588 0.385892 0.484159 -0.585127 0.832773 -0.021797 0.690610 -1.000338 -0.052276 -0.316852 -0.450089 -0.502353 0.677603 -0.158225 0.094360 -0.006141 0.042553 -0.425058 0.009506 0.186584 0.496764 -0.909577 -0.786678 -0.194800 0.426753 0.203639 -0.523670 -0.687272 -0.120294 -0.292490 0.013376 0.315197 -0.481793 0.095064 -0.508806 -0.258551 -0.275687 -0.035107 -0.148245 0.258294 -0.806058 0.307498 -0.326897 -0.055307 -0.646086 0.286752 -0.502444 -0.575528 -0.492576 -0.137518 0.621671 0.432945 0.204034
been 0.274214 0.092647 -0.003388 -0.602680 -0.593129 0.810903 -0.774854 -0.104336 -0.565277 0.161877 0.213069 0.540391 0.150783 -0.379399 0.633824 0.471178 0.142042 -1.063227 -0.232263 0.480107 1.032411 -0.664847 -0.385869 0.345690 0.300783 0.678834 0.124508 0.888244 -0.812748 -1.087269 -0.824086 -0.099072 -0.195910 -0.629692 0.345658 0.169088 -0.400485 0.375115 0.901731 -0.051707 0.722357 0.515119 0.932855 -0.798730 -1.207991 0.575785 0.699743 -0.367500 0.875227 -0.423463 -0.729427 -0.022397 0.209969 1.865382 -0.699766 0.312882 0.511589 -0.074468 -0.329941 -0.146089 -0.227806 -0.174522 0.107387 0.502308 0.384159 0.229686 0.256092 0.461649 0.606369 -0.337349 0.723375 0.178260 -0.196702 -0.011091 -0.903982 -0.627463 0.981921 0.341071 -0.771356 -0.954750 -0.404479 0.158599 1.140832 -0.816837 -0.147188 -0.328267 -0.184297 -1.042645 0.743741 -0.499458 0.967648 -1.518184 0.959667 -0.224751 0.289262 0.401643 -0.585712 0.025789 0.039652 -0.103349
do 0.111581 -0.692990 0.225330 -0.851761 -0.431732 -0.076207 0.241616 -0.186204 1.089065 0.259071 0.700736 0.759821 -0.629450 -0.513455 0.767791 -0.216751 -0.475466 0.628182 0.001498 0.337628 -1.023358 0.834885 -0.026836 0.031549 -0.187815 -0.586767 -0.398627 -0.554734 -0.824990 -0.175920 -0.145681 0.206144 -0.362187 -0.009612 0.613849 -0.159598 0.540467 -0.540703 -0.354705 0.747150 -0.969832 -0.679293 0.332575 -0.392195 1.245574 -0.982224 0.211693 0.052098 0.337162 -0.151892 0.476550 0.721548 -0.408999 1.563970 0.320148 0.529075 -0.378524 0.671270 0.864326 0.273670 -1.050134 0.438026 -0.000355 0.284679 0.327767 0.312966 0.135276 0.961223 -0.475949 -0.085345 -0.069522 -0.927363 0.235464 -0.015119 0.954949 0.100074 -0.788181 0.146457 -0.616484 0.246048 -0.169177 0.798545 0.842082 -0.721111 -0.231792 0.402920 0.911574 0.369316 0.236757 0.536017 -0.007587 -0.052199 0.091793 -0.624374 -0.216458 -0.163031 0.119872 0.117154 0.331855 0.687465
your 0.370531 0.588065 0.287612 -0.242887 -0.498372 0.027648 0.312895 0.053875 -1.016238 -0.017512 -0.235613 1.354426 0.520922 -0.073760 -0.081441 0.133120 -0.777793 1.920752 0.853755 0.237150 0.669433 -0.538230 0.318193 -0.394951 1.275095 0.460665 -0.501545 -0.933570 0.246594 -0.254589 -0.480353 0.545692 0.040330 -0.105615 0.364450 -0.103078 -0.043036 0.495740 -0.889682 -1.145855 -0.513655 0.005788 0.865315 -0.611177 -0.419639 0.082434 -1.149148 -0.212136 -0.226275 0.110664 -0.685425 0.751161 -0.305084 -0.575157 -0.436041 -0.107388 0.096939 -0.185165 0.316945 -0.304595 0.157208 0.456772 -0.452989 1.493928 -0.950722 -0.114568 0.733857 -0.250391 0.429256 -0.594859 -0.121943 -0.417507 -0.652288 -0.021104 0.701358 0.730749 -1.085961 -0.192047 -1.195186 0.082329 0.205971 0.297300 0.015105 -0.549158 0.430897 0.091905 0.631941 -0.202859 0.516213 -0.350107 -0.712997 -0.259405 -0.315599 0.374274 -0.437144 0.489671 -0.452010 0.646016 -0.448256 0.074424
now 0.085072 -0.317527 -0.143013 0.325145 0.227541 0.082181 -0.041460 0.190710 0.182636 -0.234090 0.624213 0.769066 -0.161718 0.028550 0.415100 0.044669 -0.139695 0.004808 -0.070732 0.032994 0.078228 -0.021024 0.053592 0.504965 0.027029 -0.038706 0.073583 -0.280048 -0.187705 -0.303261 -0.219189 0.153304 0.356803 0.753687 -0.167108 0.261479 0.234207 -0.042974 0.268723 0.371263 -0.043418 -0.016168 0.139281 -0.122199 -0.222881 0.238680 -0.281663 -0.289697 0.253819 -0.032617 -0.205967 -0.226876 -0.032085 -0.410690 0.318113 0.067783 0.278865 0.126666 0.368421 0.025689 -0.306580 -0.170232 -0.153769 -0.400141 -0.110693 -0.485707 -0.068561 0.290116 -0.454133 -0.011450 0.453502 0.235912 0.132333 -0.280191 -0.102021 -0.115925 -0.155441 0.021179 -0.071112 0.668351 -0.051587 -0.431747 0.001878 0.065265 -0.448927 0.102523 0.385158 -0.276012 -0.051824 -0.279793 0.043117 0.476932 0.138506 0.695248 -0.509963 0.057835 0.107532 0.046597 -0.242101 -0.079052
out 0.558816 -0.117420 0.362652 0.382173 -0.344457 -0.224944 0.672566 0.266105 0.631623 -0.329876 -0.379067 0.138988 1.059766 0.687504 -1.058524 0.032505 0.561342 -0.351935 0.268001 0.603502 -0.401136 -0.381738 -0.401072 -0.967974 -0.262110 -0.872877 -0.175068 -0.083667 0.343741 -0.450626 0.144070 0.031914 0.444734 -0.341228 0.751039 0.136591 -0.209382 0.646429 1.330757 0.644132 -0.170211 -0.305699 -1.279401 0.675442 0.301808 0.311672 0.625874 -0.365135 0.120244 -0.103127 0.438684 0.519156 -0.901611 0.467937 -0.978433 0.098417 -0.357283 -0.641779 0.143998 0.291641 1.034307 0.577469 -0.235018 0.757325 -0.465368 -0.535284 0.816780 -0.493358 0.157403 -0.314349 -0.592975 0.463745 1.084811 -0.471974 -0.055712 0.778869 0.357860 -0.631682 0.618238 -0.239947 -0.145093 -0.662137 -1.229383 0.633094 0.205282 0.197767 -0.813737 -1.142890 -0.897856 -0.786622 0.463978 0.522097 0.246988 -0.229462 -0.462750 0.166824 -0.742675 -0.871540 0.762214 -0.835081
more -0.609124 0.242495 0.444573 0.550145 0.097327 -0.039436 -0.585245 -0.251949 -0.780035 -0.058139 0.028440 -0.087303 0.088014 -0.041453 -0.676273 0.150319 -0.876137 -0.674363 0.192684 0.085918 -0.122962 0.439410 0.650953 0.658682 -0.230779 0.466017 1.368404 -1.184534 0.406344 0.105870 0.226055 0.508029 0.313373 0.390813 0.356169 -0.430837 -0.031510 -0.161066 -0.080188 -0.368216 0.172725 -0.338341 -0.392205 -0.182901 -0.063618 0.247175 -0.152040 0.175184 0.435857 -0.010672 -0.274315 -0.381814 -0.309924 0.834463 0.636597 0.268062 -0.007149 0.239194 -0.512658 -0.305745 0.244517 -0.442027 1.110583 -0.432786 -0.014912 -0.212868 -0.259136 0.072302 0.110142 -0.612778 0.269223 -0.115384 -0.588606 -0.051786 0.157997 -1.121624 -1.407112 -0.486344 0.290656 0.128760 0.873303 0.691068 0.027633 -0.186684 -0.889649 0.316011 -0.020406 -0.297207 0.437418 -0.183671 0.935465 -0.046895 0.329030 0.236823 -0.590413 0.030714 -0.137838 0.781471 0.869835 -0.328736
up 0.633606 -0.272118 0.504513 0.453976 -0.771146 0.524236 0.996719 0.867811 0.305040 0.233808 0.019201 -0.040253 -0.233142 -0.015862 -0.300165 0.782625 1.028240 -0.105518 -0.348221 -0.364394 -0.227609 -0.293605 -0.195817 -0.661621 -0.154320 -0.799025 0.223339 -0.462066 0.391006 -0.686986 -0.074475 -0.112915 -1.055616 -0.260711 0.455957 -0.853263 -0.378711 -0.499784 1.622538 0.804113 -0.322682 -0.469703 -0.939491 -0.230429 -0.076054 0.968067 0.230444 -0.603102 -0.170679 -0.714709 0.694195 0.011729 -0.682897 0.514852 -0.946541 0.582847 -0.047670 -0.508496 0.593361 -0.496446 1.047106 0.722607 -0.569976 0.115902 -0.205487 -0.414860 -1.001477 0.289644 0.795563 -0.461036 -0.219314 -0.032493 1.522574 -1.276724 -0.127106 0.418536 -0.229473 -0.373276 0.245231 -0.070573 -0.039583 -0.034601 -0.264395 0.479012 0.409578 -0.004096 -0.760143 -0.934764 -0.289902 0.648880 0.616865 -0.363928 0.447196 0.417403 0.048551 -0.649337 -0.343652 0.196913 -0.721692 -0.579639
man -0.350429 0.441702 -0.024457 -0.703356 0.122479 0.030104 -0.116132 0.315287 0.444611 0.256475 0.028400 -0.509054 -0.346590 -0.107302 0.274585 0.553899 0.248432 -1.695839 -0.455190 0.300523 0.676530 0.612794 -0.080155 1.380532 0.277083 1.147030 0.739215 0.107353 -0.439681 0.232282 0.120137 -0.638911 0.127929 0.015016 -0.918623 0.224992 0.475835 0.470251 0.765767 -0.499520 0.227066 0.587624 0.454547 -0.239900 -0.302346 0.382236 0.761370 -0.234094 0.151818 0.014238 0.404506 1.071123 -0.093961 1.314076 -0.034334 0.888121 0.396938 -0.525149 0.268104 0.584735 -0.049090 -0.118786 -0.980943 -1.171479 0.145697 -0.403347 0.635960 0.003621 -0.996442 1.339178 -0.475332 -0.056695 -0.525208 0.022803 -0.074372 -0.401789 0.302232 -0.050401 0.765907 -0.480479 0.189446 -0.661503 0.138041 2.224057 -0.680261 0.490848 0.746881 -0.064914 -0.198325 -0.143063 -0.309912 0.390441 -0.090581 -0.341655 0.289618 0.522501 -0.506791 0.812505 0.330190 -0.379922
into -0.228942 -0.110433 0.375083 0.900581 -0.714428 0.251594 0.988915 -0.185069 -1.064254 0.929173 -0.417492 0.153071 -0.201360 0.101091 -0.461423 -0.871099 -0.453303 0.043591 -0.574677 0.080289 0.755645 -0.984944 -0.942166 0.835531 0.001805 -0.778502 -0.455407 -0.486588 0.902878 -0.334777 0.388747 -0.456926 -0.934734 -0.447296 0.722390 0.903561 -0.020322 0.341603 1.197208 0.714104 0.815062 -0.021284 -1.756599 -0.211299 0.598594 -0.082377 -0.051037 -0.397604 -0.527587 0.219808 0.024473 -0.249490 -0.716365 -0.271344 0.638503 1.014704 -0.799818 0.349016 0.313844 0.263108 0.677833 0.398395 -0.019745 0.268067 0.402916 -0.415903 -1.199608 -0.534838 0.325137 -0.223175 -0.503539 0.250351 0.879725 -0.294172 0.056899 0.318142 0.069521 -0.365230 0.794676 0.003062 0.921987 0.771859 -0.635205 0.917896 0.353106 0.009003 -1.147530 -0.114794 0.223042 -0.887660 -0.089158 -0.277223 -0.670417 0.545881 1.159092 -0.243039 -0.007151 -0.136828 0.427134 0.079894
some -0.188644 0.320273 1.132956 -0.153059 0.010473 0.145853 -0.309483 0.286931 -0.721927 0.463860 0.084278 -0.592864 0.051720 -0.813985 -0.331189 0.434965 0.591592 0.949289 0.923952 0.079794 0.032230 0.014530 0.306384 -0.705758 0.227519 0.202074 -0.842853 -0.280807 -0.032515 -0.095784 0.380775 -0.328558 0.336076 -0.504454 0.012610 0.037105 -0.739812 -0.698627 -0.518881 -0.968896 -0.153848 0.654136 -0.154016 0.032512 0.020681 0.332850 0.014225 -0.213501 -0.082295 -0.054383 -0.997544 0.219032 -0.017871 -0.587875 0.487194 -0.427921 0.120154 0.460596 -0.409495 0.064507 0.161247 0.093805 0.037899 -0.267065 0.534139 0.517586 -0.371047 0.316590 0.139233 0.064085 0.329819 -0.042379 -0.420814 -0.202215 -0.148967 0.187417 -0.255130 -0.034982 -0.494820 0.229998 -0.403615 0.908859 0.241326 0.037787 0.176682 0.414491 -0.524323 -1.553045 -0.646577 -0.822774 -0.377407 -0.215114 0.504907 0.412521 -0.129601 0.187354 -0.722282 -0.243019 0.245341 0.146269
could -0.112656 0.437482 -0.276821 0.573574 0.200259 0.376493 -0.041451 0.335793 -0.397164 -0.258279 -0.460124 -0.365580 0.284342 -0.318627 -0.139545 -0.144102 0.406253 0.329059 -0.717059 0.750414 -3.270267 0.959591 0.406171 -0.663307 0.650501 0.698329 -0.366047 0.994399 0.226263 0.805739 -0.168545 -0.791327 0.391308 0.708068 0.089063 0.861525 0.518557 -0.195359 0.173340 -0.099033 -0.480800 0.791402 -0.126606 -0.204659 1.500294 -0.652625 -0.577924 -0.451463 -0.150763 0.072622 0.307791 -0.352439 -0.255240 0.117165 0.785629 0.220542 -0.056103 0.317675 -0.188845 0.479845 -1.236870 -0.382321 0.576878 0.694150 -0.661082 0.081933 -0.468236 -0.298766 -0.552067 0.047990 0.034121 -0.341170 0.514069 0.120802 0.052048 -0.059040 -0.363065 0.548132 -0.958679 -0.365603 0.693966 0.371094 -1.047095 -1.218897 0.085348 -0.477341 0.948323 -1.217821 0.108010 -0.284840 -0.097004 0.372244 0.160255 -0.354859 0.379912 -0.609656 -0.769221 0.113299 -0.583181 0.446608
has -0.385499 -0.707183 -0.139273 1.047340 0.710851 -0.038164 -0.018887 0.116883 -1.696717 -0.772443 -0.575666 0.229860 0.608595 -0.464902 -0.903542 0.571695 -1.196349 -1.003410 0.582896 -0.067169 0.038782 0.422434 -0.431827 -0.132677 0.812713 0.217724 0.167154 0.501390 -0.384027 1.258322 0.189584 0.918490 -0.343496 -1.083920 -0.060068 0.897493 0.308641 -0.681902 -0.584920 -0.353659 0.159980 0.229020 0.243979 -0.198312 0.613975 -0.721579 -0.647202 0.518126 -0.339787 -0.854414 0.925802 -0.428787 0.158948 0.900185 0.476658 0.349041 -0.585263 0.073260 -0.097235 0.138565 -0.064801 -0.016470 -0.203184 0.674124 0.241737 0.510685 -0.288753 0.318976 -0.273213 -0.367489 0.111758 -0.145820 1.147793 0.044157 0.111870 0.001545 -0.851602 -0.167204 0.059736 -0.316522 -0.187382 -0.075778 -0.365110 0.981999 0.611862 -0.215773 0.439931 0.267124 -0.794058 1.095987 -0.624941 0.624873 -0.907967 1.185125 0.210834 -0.196114 -0.467693 -0.030856 -0.011420 -0.039304
only -0.027084 0.227561 0.330621 -0.279080 -0.190571 0.185162 0.152722 -0.159557 -0.419913 0.293369 -0.138117 0.653234 -0.497072 0.394487 -0.231609 0.506801 0.296690 -0.329326 -0.091302 0.185731 -0.103959 -0.332998 -0.095217 -0.193361 0.202305 -0.119630 0.383864 -0.125438 -0.024245 -0.088442 0.317839 0.484538 -0.116371 0.423854 -0.986905 -0.228987 -0.452638 -0.175750 -0.172743 0.088245 -0.196864 0.565485 -0.329456 0.297350 0.125296 -0.154295 0.211441 -0.410516 -0.146941 0.192663 0.584558 -0.343215 0.140153 0.340004 0.311652 -0.359028 0.312399 -0.608778 0.033000 0.561730 -0.468130 0.237246 -0.549034 0.500167 0.085241 0.112065 -0.490179 -0.062979 -0.987848 -0.564943 0.285972 -0.183370 0.052894 0.516711 0.542737 -0.548988 -0.296843 -0.099670 0.195253 0.147402 -0.131072 -0.580015 0.365584 -0.646977 0.017746 0.619145 0.508717 0.280238 -0.505162 -0.180990 0.163794 -0.279145 0.086465 0.079372 -0.330658 -0.387234 -0.175418 0.623203 0.323471 0.083455
any -0.305010 0.072172 -0.045926 -0.798504 -1.148002 0.202833 -0.752363 0.272425 -1.080397 0.213465 -0.391728 0.401482 -0.933072 -0.211788 -0.446169 0.370342 0.395471 1.705933 1.011971 -0.163455 -0.700631 -0.332092 -0.302874 -0.402765 -0.242613 -0.376070 -1.035877 -0.360952 0.806525 0.667625 -0.449295 -0.179085 0.157850 -0.900270 -0.420645 -0.656440 -1.225346 -1.043000 -0.682492 -1.000757 -0.742163 0.765124 0.727154 0.216473 0.946132 -0.446941 0.418759 0.074481 0.935694 0.459309 -0.202111 0.170371 0.005990 -0.193710 0.019066 0.596744 0.311007 -0.437916 0.357259 0.228912 0.198167 0.594657 0.677852 -0.355994 0.523229 -0.107780 0.346291 -0.449883 -0.077251 -0.879474 0.121830 0.743481 -1.043938 -0.426860 -0.580425 -0.396955 -0.647813 0.483022 -1.320673 -0.525951 -0.649744 0.550716 -0.382773 -0.605292 0.399241 0.922040 -0.010011 -1.773643 -0.521357 -0.993756 -0.036690 -0.363166 0.329069 0.298580 -0.255389 0.287104 -0.607748 -0.162447 -0.159649 -0.031282
very 0.458202 -0.088791 0.006611 -0.422983 0.238817 0.305995 0.046738 0.424836 -0.628189 0.082028 -0.357047 -0.748310 -0.522001 0.332931 0.223474 -0.409229 -0.026941 0.165831 -0.269705 -0.498766 1.197792 -0.087163 1.171529 0.371096 -0.503385 -0.462288 0.949428 -0.231857 -0.203939 -0.288993 0.134237 0.206693 -0.244514 0.074114 -0.621959 -0.778307 0.215032 -0.281113 -0.889311 -0.433100 0.865472 -0.777465 -0.980637 -0.183026 0.402535 0.103648 -0.077650 -0.444071 -0.360715 0.233896 0.177040 -0.322212 -0.794019 0.738395 0.784522 -0.047224 0.349233 -0.743927 -0.386625 -0.611448 0.025346 -1.045194 0.640520 -0.401362 -0.817431 -0.890099 0.240961 -0.452397 0.866299 -0.075275 0.658645 0.112393 -0.605907 0.919015 0.043836 -0.155510 -0.298649 -0.846183 0.591953 -0.252738 -0.369011 0.317513 0.114735 0.457788 -0.406098 0.382814 -0.076676 -0.458500 0.255058 -1.233748 -0.153561 0.312797 0.238427 -0.192831 0.289231 0.440792 -0.130145 0.683065 0.266055 -0.347852
like 0.194088 -0.036874 0.090660 -0.389893 -0.173259 0.440234 0.537301 -0.262969 -0.485958 -0.713207 -0.142562 -0.921584 0.547666 -0.491389 0.583727 0.355739 -0.122883 0.127965 -0.324934 -0.423268 0.095511 -0.753364 0.148585 0.692855 -0.622101 -0.665709 -0.292690 -0.235728 0.700219 0.318565 0.804779 -0.289544 0.545230 -0.078677 -0.562023 0.117227 -0.251386 -0.253021 1.139175 0.956822 0.161922 -0.529155 0.176629 -0.736688 0.471638 0.104875 0.162813 -0.229653 -0.980005 -0.636806 0.115265 -1.089616 -0.164968 0.025394 0.061336 -0.290853 -0.407071 -0.302239 0.421343 0.301358 -0.371244 0.133700 0.042304 0.028189 0.137613 0.162571 -0.201788 0.263531 -0.152445 0.377344 0.122845 -0.168103 0.046553 -0.085901 0.020198 0.937916 0.078459 0.310544 0.618475 -0.304845 0.081567 -0.005396 -0.213381 0.608937 -0.020690 0.398450 1.148973 0.796969 0.226892 -0.026373 0.214613 0.014812 -0.472028 -0.790235 0.339719 0.147177 -0.409526 -0.342616 -0.601380 -0.019015
did 0.195164 0.093164 -0.118363 0.127841 -0.078073 0.021817 -0.013288 0.077694 0.326760 -0.200039 0.527384 0.317931 -0.220391 -0.016143 0.160622 -1.070305 -0.021300 0.763519 -0.586369 -0.013043 -2.691020 0.381787 -0.038677 -0.874368 0.081903 0.741215 -0.059857 1.087951 0.600705 -0.046609 -0.382652 0.480839 0.275468 0.095341 -0.047123 0.426482 0.864563 -0.949007 -0.215898 0.451221 -0.332676 -0.256234 -0.181997 -0.332528 1.977904 -1.522524 -0.510238 0.422627 0.151903 0.156025 0.942302 0.371450 0.140672 0.979657 0.606193 0.542270 -0.074873 0.210583 0.196351 -0.152491 -1.457181 -0.435282 0.114077 1.575349 -0.016472 0.097593 -0.434924 -0.079399 -0.321832 -0.318341 -0.456873 -0.860846 1.004449 0.092344 0.804729 -0.011008 -0.235470 -0.045615 -0.715837 0.059210 0.091848 0.437533 0.188953 0.088180 0.119534 0.245668 1.122812 -0.666518 0.051011 0.017752 -0.297352 0.293124 0.024491 -0.336458 0.367626 -0.140777 -0.008049 0.327708 -0.235757 0.992820
time -0.071253 0.802369 -0.552984 0.383035 0.705157 -0.137094 0.076395 0.117019 0.697981 0.238347 0.230329 -0.487878 -1.169935 0.828494 -0.032849 0.867961 0.250726 -0.990126 -0.309633 -0.124631 0.184204 0.300379 0.612231 0.348935 -0.674910 0.257428 -0.150956 -0.229493 -0.941932 -0.703318 -1.056023 0.625817 -1.059302 -0.560941 0.420426 0.813008 0.488772 0.643280 0.858736 -0.698812 -0.249080 -0.236373 -0.982950 0.204972 -0.218936 -0.452920 0.369602 0.402441 0.580778 0.179888 0.193869 0.249930 0.746201 1.267458 -0.319778 -0.345076 0.755312 -0.442109 -0.204704 0.877321 0.080643 0.554867 -0.757471 0.002434 0.552707 -0.272813 0.251172 -0.192746 -0.190830 0.969244 0.744141 0.248682 0.230445 -0.242494 -0.706941 -0.926165 0.122752 0.051674 1.036565 -0.269768 0.198629 -0.061824 -0.206039 0.200066 -0.684691 -0.184558 -0.291876 0.395107 -0.915198 -0.490338 0.131752 0.889388 0.891660 -0.650666 -0.481375 -0.677916 1.114418 0.460733 -0.975938 0.640604
its -0.045072 -0.238951 -0.347192 -0.194931 0.197250 0.406954 -0.097431 0.673294 -1.316881 -0.158518 -0.055069 0.043109 0.250498 -0.008155 -0.427060 -0.264141 0.209320 1.726344 0.311642 -0.240317 0.784696 -0.289654 0.514720 -0.453500 0.479440 0.111554 0.239639 -0.593254 -0.627659 -0.552185 -0.144249 -0.159733 0.481630 -0.077699 0.276435 0.404266 -0.043071 -0.067609 0.086608 -1.166014 -0.120116 0.002227 0.747910 -0.960531 -0.170373 0.558386 0.014246 -0.675697 -0.029396 -0.003751 -0.524106 -0.069418 0.560425 -0.040338 -0.495250 0.422661 -0.293358 0.440724 0.202921 1.062578 0.599830 -0.144017 0.598331 1.138812 -0.084300 -0.094033 -0.109045 0.145186 0.870921 -1.002584 0.154956 -0.039713 -0.294760 -0.343492 -0.234096 0.163584 -0.447107 0.041058 -1.115927 0.389254 0.144216 0.312466 -0.403347 -0.065410 0.198373 -0.102465 0.339881 -0.188084 0.413371 -0.697115 0.409596 -0.168073 -0.423731 -0.549737 -0.393728 0.098391 -0.200062 0.292391 -0.374924 0.039577
than 0.280319 0.350580 0.063298 -0.053004 -0.004510 0.145261 0.628020 -0.082476 -1.186217 -0.755476 0.259995 0.293811 1.117410 0.082456 0.458948 -0.472524 -0.104167 0.302073 -0.606293 -0.881972 0.614931 -0.433019 -0.460139 0.947355 0.452653 -0.724854 -1.205362 -0.490145 -0.429609 0.322538 0.151944 -0.347101 0.115070 -0.362910 -0.581609 0.573669 -0.139338 -0.239810 -0.900396 0.616663 0.818135 0.598749 -0.153232 1.553925 0.539904 0.010189 0.483658 -0.421692 0.521869 -0.162108 -0.730200 -1.011782 0.294205 0.631635 0.835360 -0.152542 0.141551 -0.208676 0.781037 -0.247122 0.070537 -0.318114 -0.511428 0.364312 -0.414324 -1.063204 -0.135504 0.878714 -0.534546 1.208246 -0.609801 0.144845 -0.423133 -0.148741 0.846875 0.159373 -0.582022 0.333152 -0.469744 -0.705432 -0.254287 0.893447 -0.883435 0.011213 0.288476 0.418097 -0.111354 0.597033 -0.207670 0.500410 0.754284 -0.227870 0.698777 -0.706873 0.037431 0.907090 -0.427405 0.202273 -0.541820 0.315431
other -0.372597 0.745243 0.229434 0.560644 0.336359 0.272212 -0.529589 -0.824699 -0.657204 0.089267 -0.380516 -0.068008 0.494860 0.181045 -0.197544 -0.377933 0.872762 0.449622 1.470500 -0.121562 0.012254 0.345183 -0.129963 -0.421517 0.230233 0.170416 0.802683 -0.922276 -0.811804 -0.632657 -0.432040 -1.239519 -0.534178 0.570448 0.037304 1.159722 1.028656 -0.148042 0.332925 0.691962 -0.798174 -0.803955 0.105730 0.035310 -0.764004 -0.644592 0.499701 0.961771 -0.215152 0.566079 0.366474 1.264440 -0.356343 0.648360 -0.268571 0.017621 1.182973 -0.335217 -0.672524 0.229675 0.584341 -0.479129 0.893643 -0.680011 0.909932 0.250977 0.112840 -0.104847 0.127716 -0.126158 -0.436492 -1.203291 -0.818340 -0.153375 0.247883 -0.111030 0.214264 -0.573327 0.098210 -0.603781 0.680546 -0.631527 0.609824 -0.650606 0.364214 0.222067 0.168828 0.920203 0.272061 -0.301782 -0.613308 0.385952 -0.232112 -0.076082 -0.301877 0.159759 0.481391 -0.092775 -0.181998 -0.354036
before 0.009429 -0.389790 -0.448280 1.135919 -0.620953 -0.252978 0.096631 0.195825 0.104259 -0.530473 0.184074 0.537372 0.893357 0.058318 -0.172055 0.267861 -0.693875 0.043620 -0.127370 0.780290 -0.464581 -0.391362 -0.174422 -0.214003 -0.367390 -0.619847 -0.027334 1.202264 0.553773 0.194453 0.543114 0.303337 0.197616 0.594976 -0.114074 0.514070 -0.431088 -0.214835 1.181069 0.459491 0.724339 -0.665561 0.249952 0.035489 -0.275972 -0.493204 0.464606 -0.882505 0.212871 0.253532 -0.222925 -0.122466 0.047808 -0.376140 0.044519 0.268378 0.346713 -0.531271 -0.109929 -0.083702 0.544683 -0.174827 -0.156759 0.518654 0.383204 -0.248585 -0.595353 -0.226063 0.049777 -0.416329 0.375015 0.084878 0.492222 0.263175 0.874815 -0.751133 -0.131795 0.218403 0.773656 -0.025953 -0.365892 0.773784 0.439363 0.164461 -0.607416 0.634996 -0.648359 0.104925 0.370653 0.584494 0.080702 -0.146701 0.408462 0.612090 -0.117300 0.013541 0.359590 -0.097737 0.028446 -0.222312
about 0.640177 -0.209175 0.370252 0.178100 -0.695191 0.501463 -0.497013 -0.552113 -0.520851 0.172231 0.768642 -0.356640 1.178421 0.836943 -0.249165 0.295421 -1.367160 -0.035810 -0.466538 -0.259280 0.025073 -0.305475 -0.098332 -0.598634 0.038446 -0.669651 -0.140153 -0.957612 0.399466 0.659093 -0.077163 -0.403454 0.251666 0.576798 0.213965 0.623860 -0.563728 0.114277 0.218804 1.096143 0.555628 -1.064914 -1.104854 -0.268055 0.173028 -0.391317 0.460228 0.226389 0.267007 0.119028 0.416247 -1.142388 -0.909324 0.681973 -0.191663 -0.244866 0.757381 0.682236 -0.095948 0.309464 -0.110398 -0.264066 -0.087731 -0.264096 -0.639935 -0.357787 -1.119399 0.454026 0.124053 -0.107882 0.393199 0.049120 -0.168238 0.019368 0.610480 0.616359 -0.439960 -0.661295 -0.350163 0.216717 -0.323066 0.898582 0.396022 0.255942 0.622534 0.127667 -0.283729 0.211344 -0.338587 0.417301 -0.278553 -0.028822 -0.328525 -0.548259 0.340765 -0.740039 0.346248 0.031229 0.767982 -0.236508
see -0.600656 0.024647 -0.617143 -0.452161 0.480010 -0.872326 0.574384 0.013865 0.450460 0.430936 -0.332752 -0.405074 -1.025776 -0.437835 0.632799 0.023522 0.481250 -0.337776 0.778479 0.552684 0.025892 -0.071430 0.469879 1.102901 -1.089259 -1.026125 0.376700 -0.488533 0.225605 0.196054 -0.285588 -0.271198 -0.458038 0.024411 0.045402 0.102347 -0.095064 0.099560 -0.301888 1.290451 -0.674522 -1.253223 0.773285 0.622434 0.116450 -0.904815 -0.048504 0.441549 -0.069586 -0.095723 0.554351 -0.835274 -0.847182 0.937688 0.342780 -0.107166 -0.491145 -0.300670 0.258547 -0.083143 -0.433023 0.471327 -0.039420 -0.616493 0.785034 -0.945784 0.753329 0.252149 0.037330 -0.414050 0.144322 -0.003812 0.701117 0.612827 0.028144 0.461581 0.062145 0.547890 -0.007656 0.616852 0.134071 0.690711 0.678669 0.568085 0.739592 0.279443 -0.169902 0.933648 -0.358538 0.450551 -0.613779 -0.646823 0.900335 -0.083714 0.243555 0.565333 0.392312 -0.036310 -0.297793 -0.131237
such -0.394929 0.610869 -0.083436 -0.972019 -0.292566 0.354937 -0.144025 -0.027001 -1.554507 -0.443704 0.001859 -0.014216 0.055477 0.028573 0.273565 0.258758 0.235223 0.968550 0.465040 0.604715 -0.105511 0.513371 -0.144501 0.044629 -0.070052 -0.436278 -0.292562 -0.033730 0.047156 0.118192 0.559024 0.176594 0.345630 0.926237 -0.486816 -0.441489 -0.229858 -0.189040 -0.533094 -0.536390 0.039562 0.383924 0.383234 -0.683118 -0.844359 0.461605 0.685143 0.260219 0.165113 -0.973879 -0.546706 0.413332 0.285171 0.408535 0.328482 -0.501896 -0.743456 -0.020307 -0.304318 0.593526 0.647519 0.120779 0.304878 -0.723054 -0.380250 0.832794 -0.588005 -1.017445 0.795211 0.452922 -0.346323 0.281379 -0.565366 0.085346 -0.211699 -0.015646 -0.663803 -0.309582 0.082692 -0.623062 0.441636 -0.051467 0.174222 -0.339065 -0.005042 -0.200799 0.743514 0.708733 -0.456618 -0.127835 -0.834746 -0.410300 0.347393 -0.384777 -0.270954 -0.530757 -0.643988 0.672401 -0.187676 -0.069818
must 0.178946 0.128240 0.255571 0.132415 0.419350 -0.189684 -0.188827 -0.146052 -1.412081 -0.728162 0.330541 1.541240 0.375069 0.409717 0.158091 -0.488234 -0.274086 0.229633 -1.269670 1.101052 -1.647235 1.088673 0.331707 -0.032668 0.005615 0.564604 -0.938377 1.079703 0.502015 -0.339873 -0.482313 -0.138235 -1.248115 0.053377 0.078149 0.343121 0.469204 0.422849 0.527471 0.065312 -1.060302 0.125468 -1.428695 -0.031494 1.173840 -0.164532 -1.230903 -0.044170 0.109165 0.628396 -0.178051 -0.354157 0.050120 0.136463 -0.159543 0.112819 1.036514 -0.239214 0.351791 -0.214828 0.222664 -0.642419 -0.202084 0.800852 0.542871 0.084903 -0.966006 0.201974 -0.295182 -0.611084 0.049806 -0.361584 0.553784 0.302047 -0.100089 0.432894 -1.504490 -0.023046 -0.266234 -0.099026 0.061460 0.177522 -0.721096 -1.308393 0.301503 0.251783 1.124019 -0.975348 0.383738 -0.249728 -0.486302 0.546411 -0.246021 0.409570 0.860273 0.235401 -0.460061 0.736572 -0.745319 0.471583
know -0.147797 0.457242 -1.202183 -0.849626 1.391480 -0.530543 0.560234 -0.263589 0.549418 0.822493 -0.542685 -0.461082 -0.243542 -0.097425 0.450771 0.287875 -0.274636 0.479171 0.057518 0.434103 0.127233 0.371220 0.264160 0.455541 -0.618054 -0.982789 0.270047 -0.125639 0.739353 0.445224 -0.280444 -0.107423 -0.298452 -0.150859 0.083637 1.024091 0.631752 -0.301219 -0.156710 1.307801 -0.929673 -1.413195 0.962745 0.634321 0.739464 -0.672017 0.181563 0.517500 -0.237107 -0.191034 0.376213 -0.294982 -0.500234 0.985499 0.512272 -0.168402 0.105365 -0.452537 -0.484074 0.374581 -1.670246 0.647095 -0.083355 -0.618863 0.228960 -0.664247 1.203995 0.610532 0.417602 0.436676 0.187130 -0.315206 -0.317787 0.523135 -0.203920 0.624713 0.139731 -0.127891 -0.333345 0.569554 0.261559 -0.374020 0.047172 0.168253 -0.124163 0.043547 0.545996 0.465775 -0.453591 0.462835 -0.649287 -1.319093 0.457179 0.123636 -0.725720 0.784100 -0.225883 -0.776239 0.120693 0.217178
should -0.584337 0.094171 0.395556 -0.388110 -0.163190 -0.133466 -0.089261 -0.860835 -0.815686 -0.354396 0.560644 0.358020 0.458469 0.039484 0.432397 -1.084292 0.124834 0.035197 -0.415875 0.854690 -2.023250 0.555779 0.375728 0.100268 0.757861 0.256522 -0.529481 1.497168 0.409263 -0.070644 -0.093284 -0.521441 -0.645607 0.400064 -0.046663 0.181146 0.035726 0.154983 -0.219257 0.268211 -0.530052 0.777335 -0.351937 0.793145 0.598747 -0.568519 -0.723466 0.596409 -0.427305 0.381935 0.311809 0.171006 -1.101334 0.384978 0.109672 0.137100 0.649075 -0.472844 -0.340943 0.040733 -0.000241 -0.730516 0.228903 1.090163 0.023815 -0.017725 -0.293555 0.046086 0.070642 -0.201477 -0.258262 -0.187226 0.255614 1.030329 0.084205 0.239394 -1.177162 -0.116791 -0.496803 -0.141785 0.153997 0.229278 -1.108949 -0.960180 0.043872 0.233791 1.032586 -1.707811 0.485179 -0.000250 -0.604853 -0.012748 0.195268 0.984803 1.082420 -0.075825 -0.684017 0.053002 -0.433147 0.750340
may -0.191257 0.388100 -0.303935 0.134559 0.247494 0.460743 -0.495406 -0.183855 -1.273950 -0.276116 0.964981 0.273577 0.711259 -0.629887 -0.045190 -0.338587 0.237616 0.674470 -0.030921 0.786148 -2.131611 1.404670 -0.509597 -0.128836 -0.436638 -0.088812 -1.014586 0.750825 0.450081 0.000816 0.117168 0.252377 -1.501014 0.051792 -0.122824 0.206232 0.260703 0.823688 0.320003 -0.089335 -0.474942 1.247037 -0.488772 0.235468 1.102868 -0.456376 -0.927822 0.255038 -0.101038 0.303813 -0.142170 -0.317142 -0.576822 0.464105 0.646425 -0.635141 0.729521 -0.016128 0.546329 0.104610 -0.243609 -0.984042 0.595894 1.000521 0.025264 0.261957 -0.707277 -0.205018 -0.321330 -0.313459 -0.002932 -0.709083 -0.496237 0.622752 -0.123375 0.642257 -1.198035 0.077675 0.429240 0.324349 -0.100075 0.154851 -0.692387 -0.730852 -0.200211 -0.339647 0.781883 -1.353212 0.318677 -0.057076 -0.577265 0.271426 -0.454293 0.229214 0.681384 0.046838 -0.384783 0.052771 0.215199 0.634178
how -0.644295 -0.271579 -0.457654 0.700632 -0.403033 0.949089 0.021364 0.559173 0.008847 0.364117 -0.176821 -0.329152 0.125497 -0.651717 -0.048292 -0.104608 -0.900350 0.301096 -0.296150 -0.100512 0.842589 -0.261290 0.718304 0.039961 -0.542159 0.151708 -0.361670 0.103638 -0.095939 -0.616408 -0.427194 -0.115978 -0.322159 0.322941 0.136340 -0.568726 -0.246702 0.260896 -1.137697 0.810225 0.705955 0.096792 -0.385703 -0.718257 -0.321524 -0.918206 0.255992 0.188991 -0.633433 0.046467 -0.749825 -0.456984 -0.323395 0.149495 0.574440 0.933874 -0.131162 0.012594 -0.920542 -0.495455 -1.166187 -0.419198 0.473177 0.531141 -0.282881 -0.826854 0.084484 -0.275387 -1.369530 -0.169743 0.923761 -0.256613 0.244923 -0.656070 0.882080 -0.114475 -1.120423 -0.131324 1.575042 0.140635 -0.442138 0.352389 0.414924 0.206150 -0.425218 0.310626 0.214572 0.138260 -0.244534 -0.328191 -0.197733 0.053000 0.310878 -0.600761 -0.498942 0.503111 -0.340899 0.627911 -0.004947 -0.939005
well -0.358810 -0.649558 0.618054 0.459484 0.246167 -0.579200 0.471752 -0.218273 0.754095 0.470690 0.738357 1.084765 0.658262 -0.405223 -0.152155 0.076960 0.128786 0.637741 -0.833970 -0.216610 -0.468893 0.351558 0.288622 0.250644 -0.389026 0.340668 -0.310108 0.019652 -0.418126 0.107353 -0.499044 -0.043537 0.070351 0.453382 -0.506365 -0.200352 -0.219606 0.162116 0.240426 0.764620 -0.130782 -0.229757 0.448607 0.061377 -0.002122 0.768756 0.047021 -0.565309 -0.291682 0.955957 -0.459986 0.928954 0.175787 0.504044 0.162161 -0.163323 0.297784 0.255883 -0.171977 0.348503 -0.318199 0.292963 -0.888676 -0.179331 -0.936854 0.391082 -0.374052 -0.318292 0.076564 -0.115909 0.458849 -0.069261 0.057604 -0.089138 -0.768172 0.696043 -0.710335 -0.327182 0.138350 0.070755 0.215217 -1.168135 1.277291 -0.204026 -0.032876 -0.145344 0.220783 -0.151026 -0.432849 0.005487 -0.726424 0.139788 -1.297279 0.518271 -0.966834 0.721640 0.493114 0.296249 -0.396473 0.429832
our 0.152985 0.230831 -0.461356 -0.393346 -0.167688 -0.600817 -0.283567 -0.027552 -0.573968 -0.484449 0.376223 0.711264 0.020480 0.103988 -0.089140 -0.619549 0.204090 1.982163 0.569437 0.272595 0.558689 0.201029 -0.304034 -0.077927 1.488329 0.186881 -1.429132 -0.661867 -0.563697 -0.113470 -0.146408 0.546051 0.332309 -0.235616 -0.397370 -0.466245 0.313578 0.371265 -0.379032 -1.002372 -0.728822 0.047392 0.599368 -0.710285 -1.565204 -0.033224 -0.288593 -0.536441 -0.360630 0.003137 -0.229205 0.148254 -0.097895 -0.543441 0.395135 -0.252236 0.304926 0.046111 -0.047556 0.736052 0.773954 0.768063 0.186952 0.187181 0.075977 0.388088 0.366232 0.315876 0.450359 0.083944 -0.167636 -0.852269 -0.176393 0.588332 0.581426 0.436095 -0.878309 0.183014 -0.726515 0.383942 0.341688 0.361062 -0.415887 -0.889188 0.573006 0.307664 0.556612 -0.680310 0.499018 -0.586593 0.154475 -0.046760 -0.361459 0.009108 0.319281 -0.032403 -0.880162 0.052488 -0.101780 -0.651934
can 0.026314 0.406673 -0.615727 0.330009 -0.072478 0.066630 -0.436802 0.582556 -0.682801 -0.953684 0.350851 0.255027 0.914529 0.189552 -0.333065 -0.284347 -0.070332 0.453773 -0.714425 1.290811 -2.950569 1.385389 -0.219779 0.021239 -0.098175 -0.316239 -0.607234 0.019453 0.644652 0.750629 -0.094710 -1.537143 -0.247105 0.087060 0.773538 -0.005814 0.202439 0.289252 0.223875 -0.619027 -0.396656 0.047330 0.665697 -0.029910 1.584247 -0.256867 -1.280024 -0.176981 0.216375 0.300505 -0.016081 -0.160670 -0.298523 0.286423 0.638897 0.527946 -0.011304 0.370687 -0.149662 0.383019 -0.469301 -0.923802 1.038328 0.282938 -0.228676 0.068519 -0.110293 -0.111801 -0.907322 0.213967 -0.383200 -0.288454 -0.876626 0.395299 -0.687369 0.442262 -1.254442 0.108232 -0.467407 0.253261 0.398921 0.171228 -0.489449 -1.505042 -0.394608 -0.800957 0.916189 -1.241860 -0.308724 0.259752 -0.333432 0.508545 -0.332108 0.702172 0.296645 -0.658412 -0.540601 -0.088755 -0.642447 -0.002017
little 0.062761 0.492094 0.522667 -0.226660 -0.073570 -0.449753 -0.444026 -0.103236 -0.710243 -0.721053 -0.111179 0.510937 -0.789175 0.455404 -0.457283 -0.115670 0.391177 -0.096413 -0.242597 -0.110856 0.824673 -0.290590 0.479788 0.208745 -0.775796 -0.789201 -0.778340 -0.707677 -0.074181 0.122621 0.114250 -0.170389 0.519029 0.018306 -0.357217 -0.191729 1.081482 -0.208391 0.316350 1.143100 -0.392443 0.892244 0.282367 0.503345 0.264065 1.290570 0.626208 0.278002 0.255942 -0.022994 0.085965 0.388402 -0.212907 0.311058 -0.288585 0.499412 0.240268 0.986769 -0.694194 0.556806 -0.580983 0.009801 -0.343678 0.064754 0.263097 -0.142322 -0.856415 0.682175 0.001865 -0.266852 -0.043308 0.119888 -0.151106 0.115926 -0.973392 0.141578 1.534252 -0.479753 0.547705 -1.235171 0.236824 -0.073151 0.288154 -0.350193 -0.332878 0.408324 -0.167253 0.423242 -0.961717 -0.514622 -0.864537 0.460717 -0.052708 0.111496 0.507478 -0.539056 0.168878 0.440627 -0.389620 -0.035755
am -0.511658 0.235563 -0.915634 -1.314168 0.765032 -0.944564 0.148223 0.313226 -1.096800 -0.024204 0.919537 -1.807841 -0.218672 -0.534631 0.946026 -0.637213 -1.389300 0.124618 -0.946790 0.353222 0.670712 -0.790758 0.181312 1.659919 0.443006 0.548452 -0.192905 0.976889 1.106797 0.160964 0.049199 0.647700 -0.188612 0.426418 0.672552 -0.285543 0.633839 -0.502408 -0.120059 0.653214 0.119687 0.778907 0.955345 -0.233964 -0.087135 0.577569 -0.921250 0.213674 -0.274895 0.097411 0.967013 1.018597 -0.924540 3.880577 -0.089253 0.622099 1.105067 -0.242982 0.442770 -0.559321 0.168605 -0.608548 0.323130 -0.167475 -0.086935 -0.517494 0.933641 -0.680005 -0.541274 -0.560503 0.244268 -0.212071 0.597888 0.408987 -0.228875 0.711717 1.002156 -0.345124 -1.562383 -0.090824 0.402076 -0.048628 0.836655 -1.562659 -0.174750 -0.457550 0.151958 -0.726458 -0.219948 -0.085892 1.243583 -0.462228 0.194394 -0.737045 -0.610579 0.574899 0.601182 -0.837231 -0.446276 0.327733
these 0.940672 0.143879 0.067812 -0.611421 0.366277 0.419875 -0.010771 0.319829 -0.497735 0.400415 0.335268 -0.416511 0.915018 0.464857 0.191807 -0.103884 1.158663 0.551604 1.066577 0.160331 0.743269 0.418499 -0.241626 -0.980855 0.836592 0.932059 -0.416746 -0.496835 0.274552 0.329413 -0.356903 -0.360327 0.381345 0.705111 0.594003 -0.184707 0.116306 -0.440671 -0.133934 -0.318129 0.013182 -0.300747 -0.255774 -0.999200 -0.092140 0.050432 0.590553 -0.003291 -0.141615 -0.133292 -1.142899 0.389631 0.280511 -0.338409 0.332308 -0.557257 -0.633407 -0.598815 -1.039723 0.098722 0.349577 0.009478 0.400446 -0.267690 0.355781 -0.066560 0.088795 0.485571 -0.376076 -0.890832 -0.250498 -0.616907 0.282398 0.791815 -0.164028 0.844927 -1.158661 0.274210 -0.140375 -0.748382 0.576846 -0.006014 0.593245 -0.243501 -0.108889 0.037545 0.130361 -0.138581 -0.093769 -0.820447 -0.362036 0.038933 -0.079268 0.012093 -0.071772 0.256728 0.048826 0.564005 0.149142 0.445635
upon -0.258822 -0.568683 0.010349 1.140790 -0.308900 0.787708 0.235590 -0.199885 -0.228551 0.745813 0.041478 -0.091302 -0.052001 -0.322578 -0.521695 -0.025248 -0.092985 0.236480 -0.255827 -0.275560 -0.132142 -0.285409 -0.138247 0.631366 0.350596 -1.221225 -0.005207 0.403412 -0.184695 0.778010 1.221396 0.145858 -0.801995 -0.239082 0.062615 0.744074 -0.343042 0.833160 1.316102 1.521465 0.037783 0.320821 -0.346082 -0.532117 0.655727 -0.620207 0.326934 -0.641146 0.346226 -0.061837 0.469393 -1.161663 0.021185 -0.843244 -0.525178 -0.388274 -0.313857 0.722347 0.255679 0.279819 1.045135 -0.634882 -0.686076 0.693542 0.665384 -0.214648 -0.294909 -0.747401 0.177656 -0.549884 -0.430132 -0.181691 0.516654 -0.507314 0.557861 0.484107 -0.536994 -0.216060 0.170977 -0.465148 0.252250 -0.116695 0.289786 0.810909 -0.283278 -0.061185 -0.415522 -0.115407 0.948880 0.213912 -0.033752 0.241750 0.300321 -0.335032 0.313685 -0.017441 0.333089 -0.040673 0.077128 -0.135040
down 0.247503 -0.606203 -0.099693 -0.060252 -0.709904 -0.085540 0.463122 0.612421 0.660159 0.674606 -0.372625 1.373863 0.027830 0.352878 0.474755 0.679394 0.447884 0.393676 0.473651 0.431386 0.173008 -0.323208 -0.216047 0.297998 0.045495 -0.712579 -0.246817 0.187465 0.217830 -0.489218 0.391255 -1.181935 0.060395 0.121913 0.318247 1.080837 -0.218055 0.299140 1.683193 0.672579 -0.305541 -0.150555 -0.780469 0.115636 0.048965 0.681146 0.759823 0.358688 0.316447 -0.259025 0.073401 0.192136 -1.307585 0.146499 -0.742899 0.085066 0.297662 0.095117 0.783845 -0.170296 1.627051 -0.453299 -0.057810 -0.893960 -0.454003 -0.595346 -0.415895 -0.590065 -0.711430 -0.620901 1.069467 -0.385964 1.821788 0.128442 -0.056272 0.787869 0.722963 -0.005680 0.096321 0.237728 -0.346002 0.459965 -1.057851 1.536527 0.812667 0.518450 -0.693299 -0.417490 -0.154558 -0.111396 0.533730 -0.382552 0.492981 -0.021043 0.500718 -0.940550 -0.410814 0.106002 0.106655 -0.024202
two 0.367602 0.398580 -0.155440 -0.355973 -0.451986 0.613026 0.431832 -0.306783 0.119387 0.420284 0.372948 -0.428236 0.734730 0.322624 -0.156667 0.246051 0.921033 0.295055 0.639731 0.005501 0.233984 -0.429533 -0.308237 0.195104 1.025985 1.067724 -0.812539 -0.507700 0.115306 0.505780 0.920328 0.036906 -0.245262 0.028821 0.257007 0.492532 -0.095334 -0.733781 1.086453 -0.625455 -0.870240 0.334466 0.273285 0.131779 0.486539 -0.340795 0.322844 0.281625 0.067892 -0.266926 0.357586 0.462729 0.381438 -0.691655 0.466468 0.639937 1.392705 0.282422 -0.644988 -1.285431 0.551548 -0.237859 -0.017022 -0.802246 0.472616 -0.685819 0.011979 0.120240 0.656915 0.627460 0.362229 -0.613092 0.925477 0.371608 -0.497836 -0.310438 -0.744266 0.967668 0.932878 -0.451389 -0.140568 0.115434 1.178017 -0.490746 0.489744 0.202468 -1.231396 0.019812 -0.037311 -0.656036 -0.271274 0.203755 0.374423 0.234557 -0.020258 -0.107194 0.208367 0.509174 1.209328 -0.000616
over -0.235889 -0.727218 0.171452 0.523703 -0.862130 0.296991 -0.122473 0.187615 -0.142146 0.935463 0.361934 -0.520974 0.658582 -0.120033 -0.087070 0.723626 -0.210400 0.068358 -0.220960 0.528653 0.052537 -0.918416 -0.208842 -0.311018 0.210465 -0.829370 -0.354705 -1.162488 0.212020 -0.815270 0.609255 -0.468924 -0.650160 0.123493 -0.235550 0.764507 0.651814 0.306435 1.453398 1.569421 0.024611 0.258615 -0.679251 0.040523 0.222953 0.137715 0.296647 -0.005338 -0.423904 0.278103 0.523806 -0.241749 -0.783714 -0.300820 -0.241933 -0.337688 -0.582295 0.414654 0.284997 0.505660 0.491756 0.409253 0.674273 0.876223 -0.025662 -0.050913 -0.455297 -0.512138 0.353722 -1.078480 0.455340 -0.540417 0.554553 -0.196166 0.461136 -0.195538 -0.020662 -0.063313 0.410390 0.575158 -0.377597 0.363044 -0.271765 1.225872 0.637077 0.218225 -0.363712 0.031180 0.596069 0.888906 0.863738 0.652518 0.441598 -0.596168 -0.034635 -0.367737 -0.095701 -0.621563 0.213552 0.264302
us 0.543003 -0.221157 -0.838195 -0.502014 0.913605 0.086228 0.641670 -0.531152 0.872807 0.112423 -0.299326 0.970904 0.252567 -0.835131 0.575624 -0.229992 0.851118 -0.205831 0.312674 -0.059553 -0.235889 0.285939 0.221232 0.014948 0.644915 0.359754 0.038346 -0.116763 -0.607898 -0.989921 0.183035 -0.296502 -0.246531 -0.251409 0.359006 -0.040241 0.018937 0.276730 0.700542 -1.122342 -0.143638 0.833872 -0.692539 -0.445152 -0.808994 0.384754 -0.410616 0.806794 0.696423 -0.024861 -0.575626 0.591230 0.248859 0.663657 -0.162859 -0.078801 -0.502671 0.117469 -0.727390 0.714369 0.064745 0.161198 -0.322925 -0.375020 -0.545104 0.177216 0.976902 0.761031 -0.932120 -1.038754 -0.301032 0.065110 -0.401681 -0.351639 -0.934482 -0.175385 -0.547496 -0.547572 0.886451 0.359644 0.298089 -0.537604 -0.154256 -0.386118 0.584202 0.089137 0.865916 -1.087853 0.543626 -0.288929 -0.580965 -0.239989 -0.016161 -0.206106 -0.186543 -0.862505 -0.239900 0.697911 0.006304 -0.351978
after 0.155320 -0.285881 -0.000772 0.448451 -0.482356 0.434301 -0.314768 -0.489623 0.050701 0.043696 0.431904 -0.060108 -0.029187 -0.448664 0.618979 -0.150819 -0.955867 -0.536179 -1.014445 0.349081 0.938547 -0.285982 -0.176096 -0.534659 0.012109 -0.747620 0.268273 0.491582 0.908245 -0.608117 0.615406 0.170919 -0.048924 0.186459 0.083530 0.839634 0.177645 0.351636 1.024062 -0.234091 0.013291 -1.096795 -0.266377 -0.170878 0.001655 0.955304 -0.553534 0.144455 -0.090421 0.662804 0.235959 -0.422249 0.337655 -0.126501 0.559298 -0.800801 -0.313633 -0.672034 -0.218460 0.484879 0.247377 -0.331022 0.042156 0.446872 -0.560359 -0.419541 -0.534906 0.352132 -0.279773 0.339298 0.489298 0.242602 0.655185 1.009299 0.623631 -0.599201 -0.036199 0.261001 -0.257477 -0.630230 -0.551925 0.562515 0.545029 0.904639 -0.292533 0.216904 -0.475804 -1.081692 0.204304 0.773932 -0.549646 -0.143008 0.622571 0.601236 0.151187 -0.349431 0.664873 -0.334529 -0.514840 -0.565681
himself 0.161264 -0.677542 0.089207 -0.392913 -0.023097 0.097953 -0.148114 -0.295422 0.230075 0.438173 -0.209285 0.616568 0.113554 -0.824090 0.100201 -0.640542 -0.077847 -0.583911 0.477285 -0.454369 -0.247583 0.507820 -0.413285 0.580409 -0.301932 0.563578 -0.101065 0.550251 -0.382030 -0.437922 0.126664 -0.846317 0.149381 -0.545303 0.502358 -0.365174 -0.446334 -0.116233 -0.116467 -0.412541 0.593074 0.382704 -0.175945 -0.817495 -1.283846 0.100523 0.001092 0.302376 0.237648 -0.650477 -0.525321 0.566515 0.158812 0.532174 -1.512210 0.399112 0.681556 -0.073388 0.131266 0.462932 -0.115220 -0.078463 0.300501 0.489329 -1.061854 -0.241997 0.280045 -0.161966 -0.398558 -0.331316 -0.203594 0.182421 0.560642 -0.169357 -0.795176 -1.332141 0.879834 0.919552 -0.203394 -0.356744 -0.018800 -0.315008 -0.309936 0.359336 0.049051 -1.145328 -0.157510 -0.666455 -0.768082 0.220502 -0.189564 -0.134028 0.007460 -0.360365 -0.843483 -0.101044 0.062528 0.779923 0.086643 0.087360
old 0.409292 -0.622552 -0.859390 0.453592 -0.622984 -0.481034 -0.199032 -0.778839 0.318917 0.172057 -0.058680 0.194535 0.561221 -0.054547 -0.176113 0.013348 0.731582 0.018790 -0.624421 0.136410 0.544020 0.265561 -0.828425 0.248986 0.228429 1.054058 -0.062080 0.850107 0.211766 0.535661 -0.189342 -0.550062 0.573563 -0.194765 -0.137285 0.274694 -0.194779 -0.695418 0.406906 1.001981 0.721476 -0.548991 -0.870758 0.957542 -0.036628 0.549719 0.186863 0.947488 -0.814955 -0.841663 0.511026 0.442425 -0.250664 -0.964275 0.612568 -0.043065 0.744484 0.114159 0.077312 -0.126000 0.839722 0.165884 0.489195 0.948819 -0.945571 0.698911 0.689077 0.125760 -0.265822 -0.051277 -0.273302 -0.718915 -0.922782 0.045432 0.227983 0.742201 1.077629 -0.276496 0.248370 0.002428 0.005200 -0.785362 0.696662 -0.154056 0.415491 0.740501 -0.602622 0.995169 -1.188589 -0.245142 -0.459312 -0.506235 0.998903 0.536439 -0.614533 -0.557650 0.208597 -0.069437 -0.178667 -0.362005
again 0.103481 0.174443 0.285369 1.001307 -0.578758 -0.606771 0.031034 0.529850 0.657938 -0.182024 0.172362 0.665010 -0.283769 0.211456 0.270611 -0.467010 -0.231977 -0.684100 0.178683 -0.006200 -0.483181 -0.038448 0.126159 -0.222265 -0.254220 0.564896 0.263368 -0.433187 0.208593 -0.101596 0.014383 -0.275123 -0.097091 0.085612 -0.361337 0.035370 -0.572953 0.252823 0.565744 0.518240 0.129817 -0.149206 0.210156 -0.100411 -0.265127 0.072067 -0.463896 0.192148 -0.253372 0.163240 -0.523608 -0.418814 -0.558625 0.302425 -0.447401 -0.235654 -0.019506 0.026816 0.661767 -0.179949 0.458361 -0.241975 -0.086999 0.105200 -0.127198 -0.319224 -0.355700 -0.262745 -0.896938 -0.559128 0.292345 0.071242 0.600923 -0.694357 -0.128093 -0.020005 0.432964 0.360807 0.087258 0.290272 0.218054 -0.429755 -0.031116 -0.219230 -0.466333 0.200945 -0.024378 -0.266255 0.265487 0.397779 -0.143622 -0.085406 -0.471862 -0.119249 -0.268241 -0.360290 -0.076896 -0.336056 0.105637 -0.414555
shall -0.401211 0.693951 -0.688500 -0.280442 -0.361196 -0.255186 -0.268280 0.293413 -0.655440 -0.001137 1.104108 0.757396 1.075508 -0.293393 -0.074023 -0.545272 -0.336275 0.341681 -0.526721 1.254669 -2.647725 0.679605 0.458862 0.457416 -0.027326 -0.078418 -1.064684 1.413225 0.727619 -0.378824 0.218355 0.403497 -0.966337 0.588382 0.946190 0.460229 0.354600 0.816191 0.495073 0.085088 -0.638275 0.337976 -0.658399 -0.289236 1.103811 -0.257896 -0.883920 0.104155 0.376551 0.893179 -0.478460 0.260332 -0.791047 0.298035 -0.066410 0.038339 -0.112385 -0.149999 -0.157786 -0.517947 0.568805 -0.799425 0.370778 1.084479 0.156062 -0.396465 0.238182 -0.192514 -0.577882 -0.208834 -0.062060 -0.637223 0.227726 0.990260 0.460479 0.361749 -0.901493 0.117980 -0.203948 -0.060881 -0.045242 0.104757 -0.614452 -1.492234 -0.194694 0.181075 1.035322 -0.863957 0.477908 0.504730 -0.054344 0.416576 -0.201477 0.916725 0.463073 -0.164082 -0.328764 -0.106323 -0.741351 0.728543
